id,intention_0,intention_1,intention_2,intention_3,intention_4,intention_5,intention_6,intention_7,intention_8,intention_9,intention_10,intention_11,intention_12,intention_13,intention_14,intention_15,intention_16,intention_17,intention_18,intention_19,intention_20,intention_21,intention_22,intention_23,intention_24,intention_25,intention_26,intention_27,intention_28,intention_29,intention_30,intention_31,intention_32,intention_33,intention_34,intention_35,intention_36,intention_37,intention_38,intention_39,intention_40,intention_41,intention_42,intention_43,intention_44,intention_45,intention_46,intention_47,intention_48,intention_49,intention_50,intention_51,intention_52,intention_53,intention_54,intention_55,intention_56,intention_57,intention_58,intention_59,intention_60,intention_61,intention_62,intention_63,intention_64,intention_65,intention_66,intention_67,intention_68,intention_69,intention_70,intention_71,intention_72,intention_73,intention_74,intention_75,intention_76,intention_77,intention_78,intention_79,intention_80,intention_81,intention_82,intention_83,intention_84,intention_85,intention_86,intention_87,intention_88,intention_89,intention_90,intention_91,intention_92,intention_93,intention_94,intention_95,intention_96,intention_97,intention_98,intention_99
200,0.015193040553399756,0.01373983032574942,0.016810651151143167,0.011687596218829803,0.015999442285407207,0.009760119053773516,0.010313267965275819,0.002063615439504466,0.00484587725293901,0.006813610924341889,0.0034925229506989042,0.008481165700516267,0.012263069164904015,0.012102613365599596,0.010116846715258436,0.012706767600424876,0.008082710317046713,0.010938350214917751,0.010015568968025716,0.01251557285158041,0.010394743808955682,0.012460292517671848,0.012688441660529261,0.02248805988153752,0.0200088414523315,0.02615574962578517,0.027261481276149836,0.031360674533062946,0.0285100126334281,0.025982416756170523,0.028887800525400572,0.026612670370404982,0.022958345953477857,0.02540063785380827,0.029911082745713725,0.031010157482374262,0.02781618923364352,0.031931862926038515,0.032455359433172355,0.03205473237554899,0.035641454573786924,0.03416595925885173,0.030832311819443074,0.027048923268179568,0.030068581706301292,0.02971262778657612,0.02625273593599263,0.025741798643307917,0.029110298437331875,0.03196912833745449,0.03071649451017309,0.031148371926333733,0.033075689626345744,0.034571608817028046,0.03544946239971102,0.03532831402547151,0.03861751579367584,0.03792773372587922,0.037952006336953954,0.03884164822110401,0.041900518078594275,0.04810554049642793,0.04737334301352892,0.04901525612693149,0.04913118488186351,0.052802427572639025,0.053033149621013145,0.057681954763614825,0.05742445238338453,0.057356814523036856,0.054429042678683114,0.05540442591378678,0.05698888540886264,0.05258890860198123,0.05073654557325481,0.054350628067579974,0.05391901990406426,0.054686743909838124,0.054655883669824004,0.054157752262431774,0.053784569147944994,0.05183670124939436,0.05071726446993031,0.05239272887850735,0.04973559293264108,0.05057935714945081,0.04965013016636695,0.047622954793582244,0.04827526304501493,0.050005322718332475,0.0504969311436613,0.050392210073693565,0.04950176050544737,0.05030521260888419,0.05081247928345169,0.04603160708220637,0.044922978015553255,0.04196615690941737,0.04193661629885705,0.042647806891179856
201,-0.007306093165004586,-0.00743072946407618,-0.005103813792200948,-0.004874113898005143,-0.0034472157060310748,8.079746514765868E-4,0.003923697378849639,0.006968970426181773,0.00403449343713367,0.0022951808237856273,0.006307885365074465,0.005035810301237414,0.008299492164814461,0.012576405296674227,0.015323765722922805,0.014711929322333353,0.014611153921067124,0.013901141925305747,0.01518451001186913,0.016607977500896633,0.022324180443177775,0.019062205305954864,0.01968352361279727,0.017473142539099727,0.021752251270245,0.022388024310269206,0.022076965539757257,0.023342353790419837,0.025649175693078324,0.02809058212697867,0.028011533103179873,0.031765535861430945,0.029074949281918883,0.021402693183360064,0.024086542020096403,0.02542902927162256,0.02759154631530052,0.02902397680466577,0.027657716261836,0.02736403949695142,0.025851120833034483,0.023133155040934817,0.023341771046054963,0.024930792981887554,0.02667247475159991,0.026649003523994467,0.026987436617045127,0.027795359015670266,0.02542395122923348,0.025550113125989763,0.021660564486200372,0.020919810982153432,0.023496139490861143,0.028304280528559468,0.024847845473425903,0.026376208297820433,0.027280152747539147,0.028994497873865467,0.03093885357365221,0.03432622001710657,0.03444938448258673,0.03425657717565575,0.03429924743319623,0.034537905413928774,0.03477831238202647,0.034938295297606226,0.0358638688446564,0.036056760251878914,0.033132393949628955,0.030811403360773974,0.030829436768144564,0.03345165767365857,0.031519549102625596,0.02861570391283747,0.031187207517383443,0.033380761967333486,0.03232696099364712,0.029277424260272716,0.030445678822364427,0.03140478452883094,0.03270439954818416,0.029713982292407265,0.030607753446412957,0.0341080330466165,0.03230646228489,0.03367593757979921,0.03593856454469129,0.03878570998042511,0.03824918961240647,0.04005475373695158,0.03859971593261558,0.03720502282345914,0.036303758849065504,0.0370318659583609,0.03660500813070794,0.03407424276237522,0.03338542814368135,0.033179872840747804,0.030649611850468012,0.027931451572323508
202,0.032314642659904955,0.028202839190117082,0.0245046885196997,0.026369564168212564,0.03074359594670935,0.03634135986215714,0.0386738031842804,0.04239326574489793,0.04544509847942337,0.04377522397958228,0.03905655834839651,0.037311022872851804,0.03580285396388522,0.03581671736930303,0.0375430851706679,0.034680796571718714,0.031494200496243054,0.030784454776968322,0.026757194383042377,0.0295110554579905,0.03148385043956922,0.03859065886900793,0.04020354669615313,0.03772885649706983,0.03915735839234381,0.035761600185127106,0.03842524030363724,0.0425907657503315,0.04274947939573973,0.04963687200325788,0.05333190277550576,0.05400576298593292,0.05505160054260352,0.056624302358245865,0.05465854191009982,0.059417870716389494,0.057424271975802174,0.05752774398614058,0.05768297304556883,0.05564154724918715,0.056402023745319656,0.05803250093694455,0.05800656664857955,0.057890722462734336,0.06084103972710934,0.06303803374002091,0.06384710806226437,0.06099515615308875,0.06064491646981768,0.05681365092009712,0.058899961132823746,0.05870773039386093,0.059402110294155035,0.060471867242447484,0.056504941388928226,0.05846988624097367,0.05838816174139982,0.05807102869206469,0.05644437640616597,0.05615003151409463,0.05938818065235508,0.058752668939152965,0.0558480528898234,0.05340310411947062,0.05233351080547512,0.05017801621086408,0.05017289570605836,0.05337949382712603,0.0541049239950847,0.05285553628603815,0.05173092812332375,0.056794447503608875,0.057442405934934306,0.055344698784893426,0.06090964321150598,0.06335702827699172,0.05957863038696991,0.0579876183019826,0.05810705518322952,0.05675855506120677,0.056031511533759744,0.0587005658437105,0.06137419101732996,0.0638962479328596,0.06243990460491328,0.06368845469916258,0.06280201797187374,0.06457936444556465,0.06469475836451999,0.06703846967771064,0.06685097665492822,0.06045719983348978,0.05952060891056777,0.05936769965794581,0.05823045547168218,0.05731388687210392,0.061255668852371284,0.06280733751584083,0.06436936547072443,0.06563525008390254
203,-0.03278249195754116,-0.0317657454240952,-0.025656465058367654,-0.022910274645634634,-0.024827281404844755,-0.02621869126744829,-0.026331186958492996,-0.029773646751181392,-0.025836042508964277,-0.027143933745098735,-0.02680806345963136,-0.029264437219056822,-0.02977798481133628,-0.029571266530573785,-0.0304882373602796,-0.03176254024585281,-0.03165656692546872,-0.03327110395962359,-0.03279295445929512,-0.028789782699579335,-0.028931349978309245,-0.027373517604870994,-0.029093693698183785,-0.03014500328753521,-0.025748606394783068,-0.021127734629132693,-0.021715137084435586,-0.019045709920838434,-0.02039088647555819,-0.021192339844873703,-0.019720500810819025,-0.021053318569951948,-0.02297236750002483,-0.024336587608781313,-0.02396721501944759,-0.024482570171103345,-0.024666363275834362,-0.02827533665355995,-0.027062386038674537,-0.029244653725083225,-0.033882789418248106,-0.04233234504478062,-0.04563278864625325,-0.04267358965606518,-0.03957366883896038,-0.037196714567705944,-0.04256109034297983,-0.04098217831955457,-0.03963902419151201,-0.03989163863571655,-0.04177444868165374,-0.04385812473340775,-0.043567557878800844,-0.04141118855145561,-0.04189967927545744,-0.04104369139966585,-0.040629543924197604,-0.03914147456318269,-0.03864130954371103,-0.03995180487916146,-0.03611810589752622,-0.03402111255484295,-0.03268958449494236,-0.03378581982985986,-0.032234068913281434,-0.03547360285035575,-0.03158015353750595,-0.028670722200085052,-0.029664817381535993,-0.03229067801886516,-0.030410630723307425,-0.02961231252767157,-0.03076311496763192,-0.02827521718666552,-0.02939037079531797,-0.029436871628972447,-0.029500763998444767,-0.030142782800537296,-0.030161170879595814,-0.03011527295678209,-0.03217429633534403,-0.03451814720690592,-0.03504754837150601,-0.03669426416287384,-0.034378593938383856,-0.03483847255576624,-0.034030628275264874,-0.032673499224094626,-0.03179617563268033,-0.029522104296957757,-0.029767076678449626,-0.02932175400703623,-0.028682124386626873,-0.02996478532759009,-0.029051887021603752,-0.02948868579334447,-0.03042658080598718,-0.02930107078362454,-0.029999513909886824,-0.030360065828096056
204,0.017812830639178455,0.0135849747415325,0.008940325187521168,0.01280472583617491,0.010406651787913732,0.017877042287856363,0.02002055706508266,0.015330784554038945,0.010467687561235929,0.010629018917902324,0.014487343990439685,0.012749069340196737,0.016480802271241844,0.013359467134945648,0.010124289576959601,0.010475874331117069,0.009995345337486337,0.010249573238554893,0.006718159985803221,0.006706057433527647,0.001857983480914177,0.003542868563101834,0.009616224730376323,0.009325549398943693,0.005012529017336923,-9.699763793500388E-4,-0.0012085225255691978,0.003811080250907295,0.008135686165737533,0.003887084775186511,0.005354230158713875,0.007219251878305227,0.004023499346761205,0.0077631047159504715,0.013159516392532676,0.013181230721894768,0.016576530213890706,0.012197169357979563,0.013312436838723385,0.01849225749505195,0.01949045718506691,0.017494356033343237,0.021936085425880564,0.022276427521086023,0.02376566781431011,0.021129058372665474,0.022130182997210878,0.021170178283325677,0.017197943507803223,0.01943856460180662,0.019293357532571144,0.01722896104557911,0.01806093133758911,0.014533113936670183,0.010474733257850253,0.0029780014360741066,0.001761440928177096,0.00225704068062032,0.001186993034140451,-0.0020690888291247257,-0.0020595530571854838,-0.001700181619929466,-0.007759875838920426,-0.00993605452534657,-0.009166875901246284,-0.008868690613624027,-0.010124370002748524,-0.010060548323189988,-0.011163906283387046,-0.010159756792203116,-0.010715470432446583,-0.006685691075307122,-0.009829577874151405,-0.008754736212023771,-0.009861525800474343,-0.0023468215202601737,-0.0015289352257720245,0.0024207751939224163,0.006542557692963137,0.009388170855095914,0.010149089805734321,0.010052774999498327,0.014834106890505825,0.014220374997799006,0.015627601482489973,0.012212635368423132,0.01482645991753452,0.014723935961216532,0.012159099405346839,0.010966941413862627,0.011002414041716552,0.010051771252747534,0.011782696255651107,0.013550420160354858,0.014326341973325305,0.01151355551440981,0.011737358993014518,0.009604682041374579,0.007347727095367225,0.0034354022047196897
205,0.008653289610640045,0.010294142521469976,0.005903271107818944,0.008273823180588525,0.013475027137505586,0.008698726194722556,0.006042718590261252,0.009512392320997383,0.017332002425007657,0.01916973526649075,0.013607853837646202,0.015602853448459124,0.016565943291456532,0.016522281319808374,0.011860807109734535,0.01040913441764177,0.008105086900388825,0.007958187161654924,0.008116422122652258,0.006923904860869428,0.008246879774575815,0.0037786521131700974,0.0072083510433257406,0.005388671975577131,-0.001417701688802669,-0.003234617747520953,-0.002422169422857779,-0.0031626117326494837,-0.009807236201744073,-0.019248230964353852,-0.015181646467770793,-0.015075533071252518,-0.017015623729761585,-0.024091823308987452,-0.025922246735142155,-0.024423186132452514,-0.02296677169141208,-0.020394370727637036,-0.022867818272831072,-0.024597928325072457,-0.02051530113457453,-0.019762538576311803,-0.01881787630844629,-0.01933261489446191,-0.020476573933571232,-0.016754924168403004,-0.011807990260862034,-0.016079485420148296,-0.016996333423031404,-0.016216421150372577,-0.023177998745841134,-0.025979944359931898,-0.025909394810615886,-0.024219890265168006,-0.02405684181635689,-0.028236674467362107,-0.026227307268852633,-0.027782309545991098,-0.0277038193204264,-0.027919451749932614,-0.03256917017554543,-0.03322005796640257,-0.031111267110149082,-0.03210617637098715,-0.03249196654391996,-0.03836851156496678,-0.04057872099487567,-0.04034372039864815,-0.0419321603888261,-0.04347805942737412,-0.04214286130737549,-0.0424539140240868,-0.041283685599464104,-0.03982307115703791,-0.038229860752898144,-0.034450180450235075,-0.03410488054176742,-0.03402858272111808,-0.0338536868620556,-0.03495707673084744,-0.030578255642564903,-0.02935784566978889,-0.029311273075085995,-0.027865769590010657,-0.022565130419345734,-0.02234141762718303,-0.029434755329881723,-0.02991355535921428,-0.03013533610989588,-0.03087279439249499,-0.031483289179290705,-0.031133204788698014,-0.029927283884008525,-0.03331353034883424,-0.03680810595251773,-0.038616810530785056,-0.033947547441809924,-0.03509255031378593,-0.03676668635236316,-0.0408926123664905
206,0.017429919254108216,0.012959898393209515,0.014133218156107314,0.00700682452295653,0.009599503987842723,0.005035103441809016,7.368219788852092E-4,0.004303169226057635,0.006342935912693295,0.015256646605901926,0.012640638630788095,0.0068603620713755305,0.006812930409695534,0.00918644109609521,0.013294556559303767,0.01046481974713778,0.007686231696047081,0.004844084813841759,0.005878675129517634,0.005959017613643238,0.006483256786759082,0.004559898532014256,0.005912684144667941,0.003345189379075374,-0.002446361956574014,0.0020835395657626977,4.290735899500908E-4,9.162587272014477E-4,-0.0018813257190718768,-0.01111136458918154,-0.010219099847970257,-0.005548221018100696,-0.006586069945615573,-0.012961819184898894,-0.018789079559965775,-0.02188274823091011,-0.020062500256708596,-0.021530773507715272,-0.019928039494786377,-0.020344604959326235,-0.023341353718696455,-0.02387444449526217,-0.0260733074045989,-0.024853083365957707,-0.024958502888090376,-0.031553374689848125,-0.033318174651782086,-0.037330159407157754,-0.03926736338343751,-0.03653448682044372,-0.03782136738570931,-0.03889693646351462,-0.03724019765360938,-0.036803484616298225,-0.035318746077790036,-0.03302024341428225,-0.03403947057641577,-0.03752489025945395,-0.04287311291349326,-0.036322133291799535,-0.035651111601842096,-0.03667932931220618,-0.03628069878083959,-0.03924991679659696,-0.039013653693069535,-0.038807596202299566,-0.038513769009910846,-0.03781031658127693,-0.038451074963644895,-0.03340392660062853,-0.03680758110879609,-0.04226063655713574,-0.044008890907452275,-0.04458332272477834,-0.043763667011765414,-0.04109111945485064,-0.03774925590580165,-0.04071737818344831,-0.04033198902430562,-0.04135342045495239,-0.0386540682148087,-0.03899910362449068,-0.038349346106928424,-0.03896393202336712,-0.03834712423892549,-0.038955595336105306,-0.03968175226283305,-0.03915303303450629,-0.04018073833126318,-0.04129258696500592,-0.04248815381109189,-0.04027991140345136,-0.04439117556807144,-0.04251912257140937,-0.04334184695216767,-0.04929838837254593,-0.04789321715398179,-0.048369235800522714,-0.044025878062326725,-0.04512504828834363
207,-0.016729518330885505,-0.013788485110869296,-0.02317234816091761,-0.023024494302989983,-0.020319597826789573,-0.028984434256160253,-0.027938112571712397,-0.023864659601922623,-0.02642305191451094,-0.02706090887818653,-0.024913553213268064,-0.024196395216902165,-0.019458225177913714,-0.013431556325049408,-0.012958496511728859,-0.011593295156308287,-0.011931128020380384,-0.01249767001507978,-0.011107504127884164,-0.009727769842616257,-0.010922614851395007,-0.012422266955815728,-0.00865675787197349,-0.008142259839895307,-0.012593666815673225,-0.009809076719663929,-0.00895860262471555,-0.011643495725222391,-0.007165730124430902,-0.0061073207232236115,-0.006677436318864435,5.392383519258926E-4,-4.425317946750296E-4,-0.0028072655688246594,-0.001991421223029524,-0.003409426422887054,-0.005649904005275741,-0.006019727544220377,-0.008262505391248507,-0.007989215062749027,-0.009799593025743422,-0.011488418603274929,-0.009268369599294885,-0.008372766962781115,-0.0058656038871168995,-0.008130751139450798,-0.008540369351143958,-0.007594029794833855,-0.0047383551034027695,-0.007091694606492055,-0.0046981460220176,-0.009360620484982773,-0.008957098984076513,-0.007131279912424694,-0.008018491290919439,-0.008309489507955717,-0.008231876385800486,-0.008647771626693035,-0.00745501544170783,-0.010002139414463334,-0.011312196738366538,-0.007437532057911363,-0.010846565353561672,-0.010305103625601646,-0.008509998685790093,-0.005229165561179223,-0.006472511470207983,-0.007653463056247859,-0.00670427676708332,-0.004848850887979781,-0.0061776554477488465,-0.007966617622187753,-0.008685772139600995,-0.007924720870585506,-0.007433707813133877,-0.008032866450677089,-0.010399084130162767,-0.010162407667655913,-0.01149509026505248,-0.009930568034978627,-0.012256138748271592,-0.013580789079960378,-0.010169455972530418,-0.010047745664514439,-0.010265944102556981,-0.012333736589341648,-0.01206293057184999,-0.010324755887506453,-0.010202594410344247,-0.011001991247312319,-0.010572192593542966,-0.012545948813008643,-0.013194528156223972,-0.01404482831236372,-0.01486669699821419,-0.01122518532857348,-0.011413378187310306,-0.010967587182766726,-0.0077818160118703385,-0.00812756967450602
208,-0.018229943693568344,-0.014876722368234816,-0.020742375376616284,-0.014950652399583243,-0.015278289000760534,-0.025223601296357784,-0.0302294952762831,-0.027658346886861907,-0.023934038288563986,-0.02741323084286428,-0.03106861485729203,-0.027095409130907296,-0.02423085723912135,-0.022585297986442994,-0.022215391949467148,-0.023416801778150545,-0.0224645700786406,-0.020703529576640303,-0.021160866179921314,-0.01908909975843114,-0.02078994107481462,-0.022714439429966714,-0.015499609820725867,-0.017519280082651634,-0.020257560001269433,-0.01701310873782864,-0.017686434855728374,-0.02110286372877777,-0.021786128761910026,-0.02334578737630781,-0.0229674459188998,-0.0246251186200434,-0.027766047978151017,-0.029889661548940225,-0.028693153905032798,-0.028124485753490597,-0.02772894751627354,-0.029478222898419285,-0.03077982207803484,-0.02956359616796598,-0.029631012861117325,-0.03049427053440877,-0.03215560303175755,-0.033139841575332,-0.033249550626935104,-0.033442754339356354,-0.03345196248708992,-0.033561761436962906,-0.033169305408593364,-0.03367103191581112,-0.03202219714573729,-0.030713034894765512,-0.029641106417194276,-0.03000935888564344,-0.030549246565987655,-0.030538707528563924,-0.03153757025223926,-0.031635358303215365,-0.03150056217481327,-0.032786941571869364,-0.03204693030878393,-0.03189313508278868,-0.03189836008941201,-0.0321642289930931,-0.03050884964906485,-0.030797296475653546,-0.03119355714103621,-0.030054485930888674,-0.030712719445128878,-0.030516326962999118,-0.030512071584510147,-0.032338970559822405,-0.03206112084493613,-0.03138728033201481,-0.03107161575750247,-0.029927603616678313,-0.028653833435541315,-0.0284007577509084,-0.02769620352133571,-0.02576534099623376,-0.024545607170001035,-0.025087889943796116,-0.024256906283250813,-0.022926396433380028,-0.02313987708861803,-0.022943716668850502,-0.022275346385960404,-0.021559965094267674,-0.01971945432079929,-0.02144210029818069,-0.022459079186144554,-0.01577258516698894,-0.017128178326356734,-0.017453470486881565,-0.01873277458114755,-0.019398611349041202,-0.019546800919423964,-0.019929241884602985,-0.019929241884602985,-0.019929241884602985
209,-0.016502844415864266,-0.016447445455170816,-0.014454628448171716,-0.01509014293055116,-0.012448352962155827,-0.015513994750780226,-0.010955107247879741,-0.01089977420733585,-0.016678370278587186,-0.018430336967571848,-0.01287784759741637,-0.014484671760107197,-0.011478600075336272,-0.012515597657605758,-0.010764496104338796,-0.014324320990922351,-0.016218521562351082,-0.018933328812156563,-0.019186319650901916,-0.01774085702919147,-0.015366801127585048,-0.015589235937025468,-0.02018811563868512,-0.02078515636931047,-0.02239146983951433,-0.020492338645291937,-0.0253512788193062,-0.02262856480216866,-0.021803374785106185,-0.0187173643662256,-0.018515057202139654,-0.01679022669903177,-0.022323145605587316,-0.018395626682494795,-0.01794246281506256,-0.018505664875767797,-0.015943439160246622,-0.01805919868128146,-0.016216038416614276,-0.019390129353372604,-0.021150557787522867,-0.01676936266100847,-0.012955257802849306,-0.00869875701721382,-0.004695887889562644,-0.0021855150541497627,1.5828326509567113E-5,-0.003614965856800031,-4.1229472594999874E-4,-0.0021399793137361002,-0.00320138108550697,-0.0022058469166630003,-0.0027963439795402867,-0.008245222446399697,-0.007267142688534943,-0.004123233038939612,-0.0019243443781355662,0.0014662290891580116,-0.0013391881090908308,9.944516565408512E-5,-0.0012207085266783813,-9.250010775313489E-4,-0.0034325234409445958,-0.00526716744570015,-0.007680875464432849,-0.007542378485996727,-0.007239317814145413,-0.009150313538477336,-0.006611583041043484,-0.0070283596091197135,-0.006496374939740403,-0.00825909173993556,-0.00973791082383562,-0.008622510396182783,-0.005737015469357274,-0.008131423187800083,-0.008103462619995883,-0.00827859822508895,-0.004597480454042695,-0.0026934152008924006,-0.005241651971351489,-0.007644087428701141,-0.006930764133268531,-0.006477672525615506,-0.007246260531356307,-0.005799626179575937,-0.0056870508870155686,-0.005272429090224323,-0.004058950670947906,-0.0039310146573469954,-0.004773288053506314,-0.005233207069796673,-0.0023448803277946375,-3.1074473493531595E-4,-4.83322657858562E-4,0.0016734879489636858,0.0019199529521791228,0.004998228895491848,4.1942351474594795E-4,-0.0013925840044096904
210,0.021748516614423098,0.01951795338969286,0.016783156318056814,0.016107073041777425,0.014428929502738693,0.020193841653056314,0.01855692376346695,0.02110661998181113,0.024710420469849434,0.022007727989586237,0.02449151521758662,0.022429458289706442,0.02253052676252723,0.017564243918057495,0.01606579061065829,0.014629547053983472,0.013742950154619292,0.014563816946868787,0.014785207786662844,0.018970530737413838,0.020191525341038973,0.02087692469009842,0.021843787034655192,0.020403798378877226,0.024094844790172196,0.02324113181770631,0.02367076840174101,0.02784855267087434,0.02508346258316666,0.026483632741887114,0.027708382445276545,0.030955871172377955,0.03390365791607049,0.036211802412239875,0.036093841415376915,0.039135906712936375,0.03866821580876157,0.038201306811961294,0.03906470227748313,0.03789065335130212,0.036953764941298456,0.0378892381667507,0.03776593097481598,0.03638113195085263,0.03544348351727594,0.03175123260401714,0.02874380906249834,0.025356659204824456,0.02646161220732336,0.029346763122981213,0.026990716485570294,0.027530390001991742,0.025308149297864214,0.027097835648986494,0.031005578954874265,0.029176849504647002,0.03335884379762514,0.03364586660052543,0.03551529900255071,0.03471435913765901,0.03523419668138828,0.036782180243455455,0.035621338194390485,0.03484071080693555,0.033422871733718704,0.03548232839080326,0.03326671464415082,0.03443392376067246,0.032728702790105695,0.03315006498916082,0.03387613894668637,0.03458977866550337,0.03627711265084173,0.036460517156378776,0.033838863534702224,0.03514591958680947,0.03320562094725522,0.033592443936135155,0.033634157624969706,0.03101849086528925,0.031205148350664524,0.032726673462661955,0.03608055802764103,0.039358417054945416,0.03922623953175347,0.04046993227203994,0.040114076968226886,0.038580735046074545,0.03928020124648973,0.03957759462531954,0.037968821284173775,0.03812199852148465,0.039155843991729035,0.039049422130277754,0.03883741666562967,0.040592262616607096,0.04102101470621826,0.04216042049233778,0.042474372626700604,0.0445734815604505
211,-0.009814288307725495,-0.006910469002445702,-0.008076820488492543,-0.008662679921386444,-0.011039173580056122,-0.013516655203601149,-0.015437993621926174,-0.017391677929483523,-0.01711709492678237,-0.018348034921886545,-0.017920713095671337,-0.016890132483992678,-0.013547894893851069,-0.018255132830739887,-0.01922003431453683,-0.019172109197116136,-0.025413660471894813,-0.023565054891453635,-0.02368393320943337,-0.02355817128597732,-0.023422762108155592,-0.025833925851637053,-0.027095918235769543,-0.03150468422192825,-0.028974285780456892,-0.025593354868527665,-0.029813979373135527,-0.0274896442316666,-0.026862311681493476,-0.023020887338424487,-0.026838183783057294,-0.028237550593767848,-0.03223851892558233,-0.026478685240672036,-0.02341257460159859,-0.01897559840190338,-0.017520833549838275,-0.01452677577705083,-0.00868523529725743,-0.005729661908982994,-0.010643652781812512,-0.008277380292859566,-0.009824841233982117,-0.01705174941074922,-0.017041957624529976,-0.014567771150424215,-0.006796898444235073,-0.0060618636791956206,-0.011906103865070863,-0.013748461359049235,-0.009333215253111838,-0.012021861297931546,-0.010345822629794603,-0.007613100562138111,-0.013090279606984228,-0.009352523742392505,-0.006491371537826298,-0.009686646138049301,-0.010134581548341926,-0.01745716937827755,-0.016104411722517822,-0.013218612106511379,-0.012695200392078837,-0.01012739839852006,-0.010679832271043575,-0.014381913179380505,-0.01615795963774128,-0.013945048142550383,-0.012595610963353304,-0.010716413305293222,-0.013733429242075837,-0.014401529375611274,-0.014599285977153828,-0.014548959617806194,-0.012989138844710093,-0.017592867891836103,-0.017621702328916102,-0.019174406534775784,-0.01899626605003236,-0.014825817389039821,-0.013613026056561173,-0.013633389780535075,-0.016672280306799937,-0.017009211409944238,-0.019622751049985857,-0.016448397835747475,-0.015341433539037181,-0.01690994688425139,-0.018832116688984282,-0.01882900163059971,-0.018641863571549653,-0.01679689338266149,-0.01778336365331019,-0.017909030247714116,-0.017618865628609637,-0.017618293290488553,-0.0180113856718864,-0.017578655234706746,-0.017668946479070042,-0.020906477561266047
212,-5.606892287359743E-4,-0.00499657007070047,-0.0065085996807099835,-0.009466797711804467,-0.010532438994644056,-0.010266286142825307,-0.01020216573432583,-0.008227030775363393,-0.010820439140003336,-0.013842285357088282,-0.01568038779135023,-0.014516162486349687,-0.014925956896978686,-0.017431138057536804,-0.014620515046429996,-0.013799111906326277,-0.012031108271596867,-0.01833835956322368,-0.019865582988163922,-0.019500736780404947,-0.018255469115871774,-0.015708449311279918,-0.02124384154390634,-0.019458765955165967,-0.019000140232176898,-0.020470367966212127,-0.020282830491210126,-0.02068055120386266,-0.013249790356042386,-0.012017052045607733,-0.013316775020256607,-0.012491317841281492,-0.00934914911143853,-0.003334892364292158,-0.004017888502959654,-0.008614848780433372,-0.011770472159597603,-0.011364536954195441,-0.010370590056189552,-0.009654937900605114,-0.013124594993804082,-0.01385892495385852,-0.009947899701560098,-0.013048593409677154,-0.011838458126845221,-0.011999773949992213,-0.01464238001922026,-0.011762847138913988,-0.01563532787305594,-0.014839704975149992,-0.014303330667844004,-0.017747080211760413,-0.019361703660763348,-0.0248401883669334,-0.027101313755516467,-0.025722367820169293,-0.024833850890752313,-0.021370610446087245,-0.02143994434581726,-0.018629368058744055,-0.016184001283898967,-0.016970860558122164,-0.016867678723459796,-0.014310459416735824,-0.015528680380705118,-0.01694099418422271,-0.016973723243779423,-0.01921402666928638,-0.018771674546479135,-0.017310037857884573,-0.01870865763483373,-0.011685216791480628,-0.010923070325854645,-0.011951545577125064,-0.011103167812935567,-0.012568509851581205,-0.011725001586102431,-0.011364822875886565,-0.01045860773948602,-0.012788413704635149,-0.013786067080135607,-0.008712087797501128,-0.009835394463748504,-0.010206539321024657,-0.008297280044446895,-0.006822112174557537,-0.004564613290701195,-0.007129698700059267,-0.011177577710871165,-0.011674508131048781,-0.009833546462185374,-0.01239313542207069,-0.009472572077615335,-0.008756179379324129,-0.009717532651704915,-0.008123200554814353,-0.009450419473690595,-0.010126242977303912,-0.015780614675309515,-0.01384428729122273
213,0.01039864287492447,0.005800289320181609,0.00709911881919882,0.004965994015088124,0.007639262277172701,0.008314182750889732,0.005686332540120627,0.002468988618224311,-0.0014137748560168445,-0.002323720194425261,-0.002919597429993596,-8.452507436641371E-4,0.0035335378970025254,0.005432888305233843,0.0034157485616138927,0.0025040747189953505,0.004193608067604937,0.002163808246510179,0.006384282733410796,0.006591541645008845,0.0026651302009501098,0.005072585083562056,0.006643923298527565,0.006216506067577324,0.006580733802862776,0.005261786810047984,0.010270328357847181,0.016555695164414505,0.0137690472034149,0.014261825161321346,0.012379785777705826,0.013850197684098804,0.011730788887978783,0.012031089896740009,0.013579243721425325,0.014124589413662863,0.011275139504821601,0.013008132778144353,0.012036076384086134,0.011797716311642153,0.014720341958885679,0.012310797578093374,0.012234043549894222,0.011045462713919032,0.010760502750527454,0.013760558823010057,0.009384509444915258,0.014527175101738074,0.013789085505493964,0.013094901376835262,0.014389832135195145,0.014494896621439999,0.01460441619041037,0.014175043713939121,0.015116685524643394,0.012900649300432896,0.015378847667356985,0.012625518212749008,0.013572007288097074,0.010119679549341183,0.008897125121147483,0.011285400473700226,0.011369861091180669,0.012416107122506417,0.011784534624211829,0.013174607748315834,0.012804817216906277,0.010713506520265304,0.010316547943106174,0.007865208385671228,0.009672803936802107,0.010958792738468483,0.011408376509197767,0.013428115971972673,0.010735575306405929,0.010440434469299422,0.011228572137516752,0.011826731877685596,0.012274745679345882,0.014433354418572093,0.017509585054433213,0.01644537448683844,0.017434311946972175,0.020463287872246404,0.020568741386398078,0.020666404095140055,0.022054056739575875,0.022720237800133183,0.023973741509859578,0.024602356647053025,0.02575700994425103,0.02475518701768915,0.024979864874426685,0.025283847542845513,0.02393974907560886,0.023897498694942166,0.023860079820927547,0.02724073516151117,0.02472820003840421,0.0235718424902599
214,-0.010581629343957698,-0.012944888992143489,-0.008171118773862437,-0.012275145949748488,-0.00822261749075542,-0.00755272182671752,-0.008806722911674805,-0.010364105319645593,-0.015255999436479874,-0.013170041855895168,-0.016928215688759126,-0.01766324586057227,-0.012168928893534737,-0.010003256418679007,-0.010278753445289916,-0.009545855271496184,-0.006890097077167039,-0.005858305572470427,-0.006329435343530697,-0.004487101610175689,-0.00413209840915575,5.634670740560444E-4,-0.004267916963101592,-0.0015394141530474237,0.0010944521587498313,-1.44995353482984E-4,2.2883763475119222E-4,2.385913909981485E-4,-0.0027543539500159576,-3.275893385340955E-5,3.796829055660433E-4,0.001981685233812449,8.63130560355807E-6,-0.002083412789883079,-0.002291458567081168,0.002501893179160648,0.0019702707033382528,0.004983938405356124,0.005027430027590377,0.00396810764681681,0.008075024915858499,0.008626979916325059,0.008947813362225924,0.008638299164690715,0.005947607899098762,0.007999404640676572,0.00791445502755294,0.008138414142243198,0.010855336208605827,0.008956850844726735,0.008863553089462725,0.009625434220333096,0.015922248681777374,0.016100067877352506,0.020847864427031862,0.017641367399884596,0.017296169099244568,0.016140963691054323,0.01492538893819269,0.013258721413360295,0.011163005453953167,0.007804500137182627,0.0024374314630047334,2.6471221072814187E-4,0.0027935764602449774,0.0014234200013571007,0.0058031224351296476,0.008602022250746064,0.009517145117857869,0.00996694535475993,0.012224873138592036,0.011375841709340792,0.01122186456186271,0.010289927049607232,0.009626477895787237,0.00820512575862721,0.006200408476129936,0.00878025896836252,0.010639182658149653,0.010702695795091165,0.012502203948215183,0.014608489992873182,0.020592047494231266,0.019916880112573993,0.017270348725368718,0.016703428215021878,0.017266711092492573,0.017080491688218,0.014201075909111047,0.015767738895637828,0.013945950841816268,0.016814806016096914,0.015567982725090026,0.014512203862168924,0.01726319717387513,0.018938439351583892,0.018864960891245282,0.0156806064131103,0.014251714970183738,0.01357289506417369
215,-0.013542177127663582,-0.01388747636745113,-0.006275024191653846,-0.004175883190677422,-0.00483390016794253,-0.004112320949335732,-0.013613914227283908,-0.016496652048915192,-0.018788188873290156,-0.014353327179209285,-0.01505848913391136,-0.011229752864226693,-0.008483411422448312,-0.010246109981337731,-0.011188011519233598,-0.011845003324896724,-0.012188297811956248,-0.012729435027281648,-0.012495693523901863,-0.012113462912948203,-0.013303863514147979,-0.017143116789344267,-0.0255535816866415,-0.02982873022300853,-0.02946567200207185,-0.030032950487107107,-0.031992980453836875,-0.02947192196604558,-0.030262532908297127,-0.03188018702497426,-0.03258426937995346,-0.036077254445447716,-0.03643481117758447,-0.039612418224457734,-0.03669472956421351,-0.04026988111143447,-0.043678048503573264,-0.04501858075465567,-0.0424499410048659,-0.04456300546134388,-0.043285046003981247,-0.04286493330929007,-0.044918733030604806,-0.04293608908577412,-0.03885532072248911,-0.037538404603583334,-0.04424804376156333,-0.04368617490552293,-0.04158368484687326,-0.04186304296887945,-0.03946920614658739,-0.0372795502834053,-0.03525442117417714,-0.03389724874616165,-0.03330798944623012,-0.033138682593659326,-0.03277883287704879,-0.031171878882622656,-0.036730704918368766,-0.03714773566173337,-0.036981553951258045,-0.03460662893290775,-0.03414417935344274,-0.03460189350324462,-0.03778445978346627,-0.04065739794506019,-0.03924560834711785,-0.04117829481709703,-0.0421051493532831,-0.04111782799407173,-0.04357482378731148,-0.049465674437509,-0.050020090405226154,-0.05018011026287195,-0.04682724039745526,-0.04673051655932645,-0.04546453763444852,-0.04455301995515301,-0.0448095407482983,-0.04294645063618743,-0.042463966826694614,-0.04077731023772031,-0.04080727892372241,-0.040201950137657025,-0.04089315443224837,-0.036474596880566604,-0.03901488908861446,-0.04134163368394083,-0.043336814062720316,-0.04338246896326739,-0.04247088731105478,-0.04389671148256377,-0.04290558356157498,-0.045179046796397365,-0.04563533334452805,-0.04626733255305854,-0.047831376520797254,-0.04808857248120042,-0.04883145984965172,-0.04973456710919301
216,0.021703631300023302,0.02417918721366365,0.024217910333423985,0.018388433463949718,0.017614743086643694,0.006794967092354727,0.00851055104465001,0.003875076951743368,0.004602694120022579,0.009292120765207539,0.011108404660218554,0.015983039493580858,0.015612401140913874,0.01561633324508105,0.01310755362782783,0.014951432922756431,0.015334316387290568,0.01759614294295484,0.015322996163404152,0.018903091974761945,0.02248842565120046,0.02253782423145976,0.02304282610553965,0.023631213617927797,0.02393996752293488,0.02655704241489206,0.027179130538172704,0.027376028136171748,0.03110914547057741,0.030374069165223817,0.02948409286272144,0.02583205831182218,0.024812216978898457,0.021906765454347665,0.02191477865066319,0.022003627241276115,0.021009610339096457,0.024093226859836135,0.019334659136066513,0.019147519075727547,0.014473967698705785,0.016775242460552002,0.01861128114621942,0.020547726292916246,0.01861428835871469,0.019296170943016187,0.019589584986633112,0.020077059518143526,0.019801957673468838,0.01713398698219616,0.01692128655753772,0.017903981301823423,0.017927475726004317,0.021492791006244415,0.02326454066237779,0.02226640940208385,0.02484126920461484,0.01844755838532365,0.019012182274737357,0.020312881350582606,0.02215113012973898,0.018744568156449502,0.018510344791543495,0.019727595111776346,0.023232557823498156,0.02420720202304148,0.02454675756888923,0.026268282824857946,0.026838095828432697,0.034816715607983946,0.033284043482982015,0.029576688007589044,0.031932163924966034,0.029019568339479492,0.029216178129385914,0.027592047405068643,0.027886102037059962,0.029854942027213057,0.03108023945227151,0.03203658374736973,0.027266835879561073,0.026272330194505623,0.0273607268536742,0.02934557158220529,0.026185327797377377,0.02616011797880641,0.024759106492710695,0.02635025639807547,0.02544224227797219,0.022700088061834114,0.02144182550033177,0.024736780091404533,0.025388605397546248,0.02580197691527048,0.026505366159491485,0.032408215219578755,0.03272599184114831,0.031080255532889494,0.031440200893551144,0.03068800123318164
217,-0.0023613500913871404,-0.0011523796620598837,0.0024458477105183817,0.006390881239263034,0.009934883233255594,0.014758745160842688,0.0139282992766643,0.00847184238497706,0.005828502314009483,0.006603389813865455,0.010567195592671831,0.0012547358559132481,8.550750949264674E-4,0.0041502632266916814,0.0035084499472440023,0.0036562620100415244,5.640990778731514E-4,0.0019153388167103991,0.0018216905202656575,0.0015044474798916595,3.982034362964082E-4,-4.4103181567616944E-4,-0.002511798805938703,-0.002559355642134906,-0.0016744932306431615,-0.006122170869121417,-0.006963269826055933,-0.003118742355712594,-6.095746245443046E-4,5.843501388211537E-4,-0.0025532994295345912,0.0025626441209030703,0.00500310331401939,0.009056637590719358,0.009860524622730866,0.01696047840253053,0.016032691123363193,0.018590908041640066,0.02384789358085744,0.0240353327027598,0.0281527928319104,0.029113667881426265,0.02716496627817839,0.026833184349258712,0.02393015668811942,0.02824267841177337,0.023907491198630722,0.027083775706739727,0.025946175866186052,0.025490474747923035,0.03413426168640852,0.02734535337851747,0.028274022193346834,0.031038014162442572,0.028140369669651152,0.023775495845546474,0.02310503406093666,0.020569231622670294,0.019827387055100402,0.022572450978103512,0.02428262529302068,0.026376650355486215,0.027332607239918108,0.028206646380145296,0.02641444402954995,0.025087929605571845,0.03099763953591974,0.030206336590724126,0.031576752395961964,0.03065773223671567,0.0280544731406873,0.0304286458900351,0.03130918473080641,0.02944056291724594,0.034167738138465874,0.03809170626140355,0.041608740651217564,0.04134519732778374,0.03956508887138571,0.03341496462582543,0.034132336617021114,0.03216874878583887,0.036641042436188674,0.03650998282126376,0.03564227547446449,0.036655629613073136,0.03586085639439359,0.03593306750315288,0.04029430233355088,0.04586601524001182,0.047562394396376086,0.0449956521071703,0.042741624670830675,0.040717644992033605,0.03712689166371272,0.036104111431371703,0.035718774948695464,0.033745814494420844,0.03349575703890516,0.034455355061531655
218,0.01347418821752206,0.01983650432189853,0.0128492799547211,0.011270497695846798,0.006245410434593543,0.004423452952543772,0.006407489024122419,0.003764182828147504,0.0014725437197142454,-0.004048911034718919,-0.005482540891719514,-0.0033338430364455145,-0.004001678142494091,7.868044570676458E-4,0.004199948331419556,0.009627494574806906,0.009993970578688394,0.011156598336098942,0.013849943893312797,0.012858170569104807,0.021571523415503942,0.013867981513471819,0.01835506942684728,0.009626342898160807,0.00878041195843881,0.005346183934529554,0.002563842279727232,0.011506661586804705,0.012725282889803749,0.01047296051279518,0.0051027079840331325,0.004618511854516083,0.004333768226670995,0.0019501745850984819,-0.0025675653833750855,-1.838689321879239E-4,0.005434922095328372,2.2287492498322627E-4,0.0018960109546056082,6.153301849243708E-4,-0.0036316296845554518,-0.0026848408392606115,-0.00215555939813863,0.0017517316607157908,-0.0016641430316299444,-0.004365086309707112,-0.0014622373974839953,-0.004426092525044107,-0.005380917897193359,-0.007681845833402316,-0.005621574300072286,-0.005234748095822763,-0.009902155580725519,-0.00835779402512468,-0.007759766271686083,-0.01266978792515564,-0.01264373243631981,-0.01627816197220273,-0.016866907522526134,-0.019567293140526555,-0.018902641677826227,-0.01781666339858841,-0.01618759795188796,-0.018290714816802944,-0.0198193072240758,-0.02341208200226983,-0.024234496258923398,-0.025478344295782024,-0.022597123266566474,-0.02271002210573868,-0.02490591797615672,-0.023033975123194127,-0.020360874836962875,-0.020126344483563523,-0.01789790762569053,-0.016902840714788103,-0.017445683422570926,-0.013719062918107889,-0.016367825202827466,-0.014340079101925769,-0.01416409117262236,-0.01511005641486013,-0.009848548721929805,-0.008884746739350963,-0.00929190714019816,-0.007851985725409525,-0.008382119274785408,-0.008552518371069432,-0.011855325492186895,-0.008586361873611779,-0.009554896459098496,-0.012556675077049375,-0.014132388950339464,-0.015039614082545633,-0.016039837094707205,-0.01871300344371711,-0.016126490679581603,-0.016628225408959373,-0.016019953118482234,-0.01614730944547417
219,-0.006275344564106538,-0.002029191009415013,0.0037097031064941438,0.008711317458793753,0.012541873168306133,0.012756588738200897,0.016074224572435715,0.019036998471818552,0.015160592188057044,0.01803413353797005,0.019635810009829408,0.020178860399302327,0.014536703337941477,0.0179532719154854,0.01943126183827523,0.016730087346608736,0.013831185654740476,0.014790298988383523,0.016429816838794763,0.013466502060817556,0.014653737047705966,0.01131724204177484,0.006641526197791399,0.00425557387510685,0.0021268644115392797,-2.0528126675949609E-4,-0.005744664304692063,-0.007965140775076367,-0.0077302616160964295,-0.006137794683206132,-0.0068484754713393015,-0.007994870005262182,-0.006073813739147883,-0.008957059754729841,-0.00880403811683919,-0.004687113455607132,-4.0447266881335817E-4,6.947171753197146E-5,-0.002243558516914004,-0.001561470206598925,-0.003758774279227196,-0.0030586933922690297,-0.0016433687395832374,-0.003182160377471944,-0.005224641239193594,-0.0057797770124170846,-0.0024275906175351223,-0.0012143049324064958,-0.003286292997650596,-0.0031758604511064902,-0.005938311728371628,-0.003231186263138064,-0.003819573497361901,3.0388498839771906E-4,-0.0019958949334445888,-0.0071355802707172775,-0.009499805015404794,-0.011414405413458444,-0.01031057596209057,-0.01233000729761986,-0.00985114464169095,-0.011597221642475772,-0.012394873139936044,-0.009976290461141946,-0.010033172303783143,-0.012441203453114186,-0.010564265232308872,-0.010536893705501055,-0.010829350853653393,-0.010332542304920072,-0.008906591953199768,-0.008831228725522595,-0.007255643805844428,-0.008706692180440562,-0.010910234357238813,-0.012414812296245472,-0.011552821324852585,-0.013468145458642526,-0.013285773598393544,-0.010085698989654324,-0.014635836569207625,-0.014967889998836453,-0.013210287214594794,-0.015317808641617492,-0.014654748508630236,-0.012025897335732455,-0.012579165178039071,-0.012166216384160702,-0.00983010396166105,-0.01052842972105707,-0.008588322998640702,-0.007028379689074966,-0.007114021588437429,-0.0063787627593287375,-0.004600547349377943,-0.004613301065217798,-0.006178718556447842,-0.0036927030612666756,-0.0058556406642990425,-0.007336169275162971
220,0.0030288362796533604,0.001592049729370028,0.002175142354703891,0.0029492369374240486,0.005782353860929151,0.004326483116088584,0.003452920225150757,-0.0015442651218910658,-0.0024840154685364683,-0.004092564075553191,-0.006111879208459356,-0.007997415882125821,-0.00777950409522126,-0.006907466519657496,-0.0029142407942973026,-0.0034587676281471235,-0.005637251959574446,-0.003912778404753887,-0.0030647910511446487,-0.010158160559919947,-0.009250531829454546,-0.010125390365526345,-0.010302213783154403,-0.009268268710829908,-0.013381904769207207,-0.01752538740768071,-0.015431206715201897,-0.012688294536166054,-0.010388030943434377,-0.00827294648585867,-0.00819836666021699,-0.00962289002761401,-0.009580033188257927,-0.008612236037557357,-0.011271704339391673,-0.009852743551581035,-0.00817986089556114,-0.005522326571185851,-0.008978069632430122,-0.006512691213259757,-0.0061729200169183115,-0.007369798971756719,-0.006485058908023057,-0.004888025376152675,-0.008266723778243938,-0.007685111846580063,-0.009016282269257962,-0.005736944959310346,-0.007221740005559933,-0.009916553298913172,-0.011966489270625548,-0.01098570339371935,-0.012217389517246286,-0.015337091996182429,-0.014816115801953238,-0.014296994622354843,-0.015241731733712998,-0.01827973007423487,-0.0179778409561438,-0.017475161521959964,-0.018144563122357637,-0.018074344814617952,-0.0214515532598892,-0.02069855298675515,-0.019827741582652037,-0.017329136650165194,-0.017450305598032595,-0.01929233588725097,-0.018731618248211648,-0.02125331336815122,-0.019239700084001846,-0.019651116446340586,-0.019599795359205183,-0.01859641643487996,-0.021927805171416636,-0.022005374358906975,-0.02082500899808805,-0.016770213752703104,-0.016830177769958352,-0.015875084951340837,-0.01575767957947299,-0.017327938797816248,-0.017924822330742763,-0.016902344344439154,-0.01974023765694515,-0.020140478533728978,-0.02078392708435748,-0.02093147437537549,-0.02162887191922465,-0.01952254813463248,-0.020179494198472828,-0.017960557529192935,-0.016644926711061436,-0.016958569126957902,-0.016821816663115975,-0.01675700658592069,-0.014368516571330368,-0.01688978394770687,-0.0165840610289608,-0.01704793802243363
221,0.03199269158383198,0.028345147582326105,0.029603682740054503,0.03300346913582073,0.03173947239681205,0.03132831550402392,0.03697121920999812,0.03873272866447986,0.03741498950288087,0.03845435594156222,0.037105419599274846,0.03757593983097297,0.03369754000743495,0.039334452939343394,0.036452994261273214,0.0446372218982243,0.045100623316577985,0.045383310912927445,0.04710504590389594,0.04505206200857352,0.04576111745827672,0.045631759079967464,0.047520037247562916,0.04550200342409764,0.04505512405066356,0.04046059519182938,0.03615793663801298,0.038839031212457686,0.0443839415051154,0.048695330048819783,0.04705401065305405,0.04596063153110776,0.05005903963184884,0.051328320905212596,0.05431831942133416,0.04770754327166456,0.04545757875820028,0.04332582160050588,0.04687235866826542,0.0482507411493437,0.04629945213486967,0.044658022264811484,0.04345535910566103,0.04638913139674427,0.04757921524883486,0.04769706512671936,0.04929209804207087,0.04940101928364912,0.04476155303854488,0.04598417214795519,0.04557894137119149,0.04309011544175787,0.04418532439682685,0.043726733926064146,0.04317776197342704,0.04501394020437584,0.048979370197244625,0.05143360014307822,0.052527746542769434,0.050976167277158695,0.05276504341801437,0.05364107094701307,0.05609739035667741,0.053622242777103535,0.058521040954640426,0.05784126847445939,0.05563105019398022,0.05626881184745632,0.05361642928098965,0.05871743801741296,0.06016189435646724,0.061922195304265036,0.0647332647705587,0.06198972758726977,0.06008080524417994,0.05744227646236597,0.05605780515905222,0.056097163229293354,0.0594060497978231,0.05998244595805869,0.058787070733299245,0.06094708294912797,0.06015000501168674,0.061018761244724315,0.06438750312611691,0.0661263798188751,0.06567865942096825,0.06343818222472158,0.06494769651553647,0.06117550590899195,0.059750105778657324,0.06218464314130005,0.06285696518223585,0.06418967397516194,0.06324166094743759,0.06491150789704013,0.06610436166054813,0.06584845180154626,0.06634270743536601,0.06749358028160456
222,-0.012946282848079806,-0.014930518518702302,-0.010618527183869592,-0.01606482065263425,-0.017472125189764914,-0.01579917797895428,-0.011673219667184804,-0.012177261446757306,-0.017458751866352085,-0.010703162283839782,-0.012653212673238474,-0.013202125001493578,-0.010376251102363232,-0.011234860881348438,-0.015077861113288073,-0.022182545785214756,-0.023348567604900308,-0.020202939481962313,-0.01932434021492958,-0.017306948031384047,-0.022774031921047943,-0.019468032041259607,-0.018487374684451323,-0.015804631823929417,-0.018884182551083043,-0.019851831554728357,-0.01878602450270162,-0.02001577479120284,-0.014859068799839994,-0.01807695459296665,-0.014854474403743656,-0.013971034502172998,-0.013351397391617361,-0.013976787105038397,-0.012021162532250652,-0.0036396306782082244,-0.0027369749614136662,-0.006162344419340322,-0.004209991767136421,-0.0032088856251280664,-3.386265755062823E-4,8.367593987678846E-4,-0.004577578629000517,-0.004121170700785587,4.930598346927317E-4,0.0012499187454899007,3.6404104450341257E-4,0.00519087339060456,0.006444415159008724,0.009691845912111186,0.01218387433742102,0.013903937951749712,0.012308658179729174,0.011315851130731809,0.011787790029635353,0.011408362612782308,0.011163725323938162,0.012735155560124153,0.00888970367046993,0.009119123912162649,0.009537451232032776,0.01152696674704107,0.012520354045165773,0.015771166292989844,0.018149624951116203,0.018822436845178692,0.01899851078806615,0.015724376052615733,0.01035921962424149,0.009505542648107912,0.009720114978760073,0.009813824515986839,0.01163093014942222,0.009966701991668155,0.011313404790713721,0.008637786378061115,0.006112711179132116,0.006183512280309535,0.007559291360333608,0.008227090112001713,0.011818427911703884,0.010309160518977465,0.012577399865049821,0.0112306166511735,0.012352822469150638,0.01300647684743375,0.010778491406195334,0.012531286631173174,0.016937698012151878,0.017679654063862658,0.014840318831651156,0.015762514062186914,0.016045053779102543,0.01735910908242628,0.01761112556969675,0.01922929683647625,0.02067889880284897,0.021792605174341263,0.0211380632490305,0.021615832928863044
223,0.01272758023095796,0.012924805033009962,0.01055416294188784,0.0052982068022761905,0.0069253485496437025,0.006148750052727643,0.0022803024063649683,-8.654086880231474E-4,-0.004562658203067611,-0.0065109173393520835,-0.005320894884199979,-0.0036255432328285665,-0.0012042254162556777,0.001220422098217242,0.006027926999374007,0.004484549619718712,0.005962925262531141,0.0036380690343447574,0.0052723703029489075,0.004351647421241816,0.008993621388375643,0.0066383442961832585,0.006665058961135137,0.0025748135250054922,0.001098932206349747,0.002162570737079819,0.0013875786218144003,0.003706351929950255,0.0027048271965070558,-5.675504532207357E-4,1.139944856333297E-4,6.601124916558532E-4,-2.806597260648341E-4,0.003770653121827311,-0.005370713853387332,-0.010348321474418718,-0.00888809781284128,-0.00765339168451909,-0.009551530374647068,-0.0065289582267711276,-0.011325073398489307,-0.012070163306546542,-0.01677353527413309,-0.01922813120794527,-0.022194808679751717,-0.023486633745080726,-0.025519128709074076,-0.028094580875244825,-0.03057377991776737,-0.028477727997484853,-0.030966099837731246,-0.030173392899501432,-0.02599968826686117,-0.027587052956260853,-0.022571577636500015,-0.019479443392743864,-0.01594611063209482,-0.012695552652168455,-0.014462086381719775,-0.017161401634489745,-0.02052853302282612,-0.02452219740354222,-0.02113305225567459,-0.022433483755319124,-0.024098639222652037,-0.021790437548238457,-0.0198616500003817,-0.017259250953668273,-0.014684399759840379,-0.016945957204085163,-0.017288250478000436,-0.017564101231199704,-0.019615144493299777,-0.01958720541000676,-0.019640057435659313,-0.020230465999796318,-0.021639671723972013,-0.02485016902577074,-0.02306070107921996,-0.022619799033591077,-0.0220106338033067,-0.01889127612390081,-0.019950812787668807,-0.01825116982673928,-0.019736559230803457,-0.020312899577769616,-0.017794688093259178,-0.017401998246391284,-0.017246575111379833,-0.017761200858226564,-0.017894324661643486,-0.019128573014181846,-0.02102037137683287,-0.020644158320304796,-0.019636114428033508,-0.018172486613025816,-0.017093605541243537,-0.016377526936977645,-0.018025808667219697,-0.017341559687078997
224,0.00590344721181902,0.00786213356181667,0.005805461541341718,0.0032013452324944425,0.0022189297596143668,0.004390169955351083,0.002167568631060847,-7.227638404994169E-4,0.003642587690976081,0.0015102906270498344,0.002884502547377967,0.007960577964546004,0.007769588483379387,0.009616888864272356,0.013461289300005412,0.015268263665143974,0.009391961181005987,0.004429988286360173,0.010040781421888889,0.014751298043809235,0.022111821929564554,0.025060215147606656,0.026194196378053078,0.030632783770189864,0.030023179900156672,0.03095569012110479,0.029038575088835224,0.028637852119122974,0.02547424666128565,0.029623344149970646,0.025391713325801594,0.029180594015838786,0.028965187677367776,0.026399171254304177,0.026934546029770853,0.025692774998588474,0.03450208437650301,0.036062956021448114,0.036292923886305825,0.03144954896439657,0.02998966388500749,0.024395832017385127,0.02351978766014563,0.02252726927644342,0.0239091867728716,0.024662595158288766,0.017126511408914455,0.01603108935725813,0.017015587405589994,0.017473948452995672,0.02103260957107179,0.020975147682022043,0.02332783935673037,0.022600373990483237,0.018506317292922025,0.01960162870448009,0.017470692201439143,0.017900132515892144,0.014593731766639174,0.014024019712231795,0.015323920662636485,0.015081757941861786,0.013533444453852406,0.013948713528768879,0.013331103679180379,0.009480888026957875,0.009974868254040358,0.009957779839103875,0.008569075637719786,0.00861394420385516,0.010810400440811926,0.009432723202053449,0.009836252997468825,0.006730848695373306,0.008176412075765997,0.008187020970941417,0.008443601598444124,0.00616196992715109,0.007247549753556724,0.010120296583667768,0.011093370240261224,0.00855940448878792,0.010535754968969689,0.010634500022904572,0.008901195135816789,0.014033904124893573,0.01169213189251022,0.010658435110370417,0.011773791387295,0.011414889166829955,0.012658576347501373,0.011572731270310247,0.011675533214832447,0.014577561173643838,0.015342324270410624,0.01493917277988661,0.014056603162072703,0.01845440685984892,0.018857103188770773,0.019257168761777185
225,0.0033796763524108465,0.005275804780268707,0.007169040576770043,0.0031234954762579623,0.004683413071853293,9.993735176871369E-4,-0.005127555750937041,-0.01771629145162002,-0.01541405417780544,-0.016988837658655123,-0.013911409251049818,-0.015682523091149043,-0.01648044375313497,-0.01850094339948891,-0.01839464125877982,-0.01799524362101869,-0.016768253275364176,-0.01769714653700268,-0.02197256292035654,-0.01928701493165204,-0.019134717749212642,-0.021668830325549157,-0.023584653685445555,-0.02449816335015937,-0.02627449865237062,-0.02540212734483128,-0.029031855758844614,-0.02644216163734402,-0.022630128346996486,-0.02326303982805646,-0.027997238547043484,-0.032129687167816535,-0.03139367940449343,-0.032267504230335635,-0.02931054533190751,-0.03089028901148823,-0.031337781099779034,-0.03343864651519079,-0.029569778688442856,-0.0324030060999688,-0.030510973529587905,-0.03233776318263406,-0.03307476156781128,-0.03469174826059272,-0.035627001684801984,-0.03750605206629267,-0.034192753881599584,-0.03613006303971626,-0.03598402389791424,-0.0382080180143336,-0.039937015407450545,-0.03926125737000158,-0.0370446499212322,-0.03676692155032905,-0.037699174762452346,-0.034850861337908316,-0.03277045502960983,-0.03277045502960983,-0.03224273399181254,-0.03156925436084983,-0.031246528773883543,-0.030701378410568275,-0.03134652354928822,-0.033458423597852366,-0.03293031503240776,-0.03297473740511763,-0.034610706093256643,-0.032285620664914944,-0.03556531549259287,-0.033338764360087446,-0.03263226007964039,-0.03395624691958116,-0.03535325316115748,-0.03469558716666988,-0.03567332547250218,-0.03448703941620088,-0.03347348435937695,-0.03180044440689068,-0.03295636431230406,-0.032088741604894416,-0.03480975021700257,-0.03599301399657434,-0.03554619539043483,-0.03465637446746792,-0.037105322684983906,-0.03558516772506598,-0.03500846599893438,-0.03645379484500978,-0.03569278300455944,-0.035917477765830916,-0.036569136352046006,-0.03555583910359851,-0.035063861043527184,-0.03556142969325507,-0.035799525217344176,-0.03882154322429071,-0.03936531756502929,-0.04070597255142849,-0.041839815976389146,-0.0410881057609957
226,0.008446928560582422,0.005632605451789841,0.005196024045016654,0.003404731785096912,-0.0043317886382352,-0.010081728086872944,-0.012452222986614548,-0.012914942268161407,-0.009662856246117905,-0.00928717732812474,-0.009512974632637533,-0.006246834330789931,-0.005497036277933786,-0.006648027316271368,-0.005015190383201373,-0.009303766860299866,-0.007331066975222634,-0.004716899326140117,0.0036944512896583213,0.0056334421502879165,0.008086536631190553,0.00948288247490329,0.006622457743480914,0.00944633088073701,0.01194464804031985,0.011913806969788644,0.015654053399239105,0.016473993186515906,0.006923598009380435,6.687177654888327E-4,0.0025430223367838654,0.002344976795677043,0.002209924656491314,0.0033109653385728142,0.001312757402623847,0.001466264516949946,0.002288423359725446,0.0018875559889039212,-0.00612304384254153,-0.006865483816089296,-0.009883882424461789,-0.010412989922509918,-0.005298375269672121,-0.005650987745757984,-0.007061573133685276,-0.00850070540687735,-0.005902734837359515,-0.006523035130129881,-0.001902252126133802,-0.002138887487174902,-0.001589824422774489,-0.008096938508975719,-0.010594916607731993,-0.013253405876360596,-0.014585165510993744,-0.016614115303614004,-0.019123965084894664,-0.014490525276652812,-0.012340666739053971,-0.012969718130428784,-0.010909524642255008,-0.008978257063184064,-0.014416303819005525,-0.014670406113126111,-0.012328526089478329,-0.01391288895085022,-0.017399948283211536,-0.01848247873386644,-0.0220932149375895,-0.022750350284340873,-0.02210903108959966,-0.021299180817896855,-0.02123627224718652,-0.02368652833876572,-0.024597026201483973,-0.0232886185538973,-0.022222205231531667,-0.022573665609074242,-0.023479656187448118,-0.023107837156096926,-0.021312968691989682,-0.02087816220094155,-0.019376445809284583,-0.01774446320938057,-0.01814598146023847,-0.01849695689578591,-0.015479191088793991,-0.015846954842176623,-0.013364296468665694,-0.013409484199491936,-0.0168757665403767,-0.01553740076945788,-0.014625883000424018,-0.011327278615561593,-0.009773445288633243,-0.0073723304393981835,-0.009912111927210926,-0.017428837859692393,-0.017755022687233456,-0.018407701712079495
227,-0.010553722532288154,-0.011969579128010742,-0.012073611263245217,-0.011809224044205894,-0.015048448985540565,-0.016252674605670484,-0.017920391734364435,-0.014101504927813265,-0.017687957576759693,-0.01793379513361988,-0.018503684717827353,-0.02048145555759715,-0.018536889546037886,-0.0181843098635721,-0.015922526755161596,-0.01835935411869731,-0.019050160813437238,-0.014712718021526247,-0.0201562984492258,-0.018433076533882792,-0.022328699001773665,-0.020635760627799805,-0.02323233392257824,-0.025094614128541172,-0.022750939394074698,-0.021119197800065947,-0.022200173044968498,-0.022585007350696563,-0.021348743367612007,-0.0270129794486142,-0.02527665841890492,-0.027977922542025153,-0.02977219311673439,-0.029280507610468024,-0.030982571435853062,-0.030173836634505378,-0.028481114718068704,-0.03094263159727316,-0.03065812975608305,-0.03683694437091188,-0.037649502596314686,-0.038116113428545415,-0.03373096369785007,-0.031201893767715042,-0.033913321502935016,-0.03495592378871498,-0.03762449891240413,-0.03449304808106629,-0.03743307967677584,-0.03926578167095109,-0.041744654914057495,-0.04181455345788204,-0.0405569060439868,-0.04097505885914079,-0.04086208618918075,-0.04171808225975368,-0.04192309976979283,-0.03900472200854126,-0.039329161590505916,-0.03790915118767062,-0.0348316761091638,-0.03460611302273421,-0.03380815438738787,-0.03248607167314219,-0.033602392651248675,-0.03130674171674172,-0.0332847298544442,-0.03334800143065672,-0.033208226948240036,-0.034696475472523726,-0.035149260246411074,-0.03339458838220945,-0.039354243065523924,-0.038718928983096416,-0.03899307276429722,-0.03887248367090651,-0.04233919895250653,-0.04309925027143278,-0.04366623963812863,-0.04025932509401087,-0.04360545911448232,-0.04441960453823719,-0.044058753606193435,-0.04684140436299227,-0.04698260989624292,-0.049737977209526246,-0.049670419790842024,-0.0475957172296605,-0.0490695614721019,-0.049452088263343214,-0.04542103469678004,-0.049124035136218505,-0.05077023596140782,-0.050855121382456285,-0.05062066020409112,-0.052593675703837,-0.05265459094988643,-0.052534022130333514,-0.05121579205278662,-0.0535421268455078
228,0.0012254299942199547,0.0011078713563427562,0.00235916578001588,0.0034407874690099366,0.0014422536010763004,0.002737942942094949,0.0027557685418498016,0.005903020611694783,0.004665423239246889,0.0110714861280436,0.010778602101623262,0.011450636013767574,0.01242059745941918,0.011192822091855204,0.011896919178511512,0.012864732775560201,0.011025264060003663,0.016192798420673456,0.016407502476691406,0.015216589901881244,0.015963229525173962,0.015299946647765881,0.01667760429143797,0.015586907759897399,0.015376244671499456,0.011616165553037993,0.011817087260956911,0.009998643449540816,0.009559083220815208,0.006518035498281283,0.004588751955205432,0.0059911022363266,0.005922696677198607,0.007340664118751437,0.005828382817825783,0.010693909868652767,0.011171689649335691,0.012795960858097383,0.013786324867569706,0.015178729233839226,0.007525523677097501,0.008929188487421882,0.008463081855993291,0.009762759064358344,0.00828097676579976,0.011735188509940661,0.013798645668652607,0.014730631878239054,0.013497335034887887,0.014500063811151563,0.01544537416043069,0.012365421369754642,0.011485231894594999,0.01060500156861399,0.011408164140348408,0.01134697773951842,0.012843075914339794,0.012018659655018367,0.008452358338524462,0.012086349488779688,0.013818616433951074,0.015540039967318868,0.02090736495200905,0.023727521252298187,0.02209168279344491,0.01959361941281921,0.021141784071806446,0.021289268720493845,0.026413216843294958,0.02460598665366864,0.022442658203726616,0.02241494635780499,0.024870038741937474,0.02397619856026715,0.022613128051703287,0.020477147194647403,0.02167035409065783,0.019775169542103187,0.019881797669196347,0.017380402340512312,0.01880042626840751,0.019300345728404274,0.01705919705629786,0.01459013203807735,0.016826096263378224,0.02127846598138653,0.021470517049543912,0.0215693029633755,0.021157093259249055,0.0210154396657727,0.01950376400331166,0.020617888099624056,0.02199768825723025,0.02275940489645529,0.023116582402026298,0.023510212539207948,0.023201331873157205,0.023277083287753443,0.02339547306487856,0.023243203692304447
229,-0.017682014631509133,-0.015197303196300123,-0.016017199554037784,-0.019706288755232605,-0.031104590161654205,-0.03396957109935919,-0.036208337355567326,-0.037479656184189025,-0.04232220105719036,-0.043816092688505254,-0.047345784219988134,-0.04871321813765918,-0.04824958351952944,-0.05420620529861998,-0.055946107317587986,-0.05278205937011648,-0.053052260524303174,-0.050572569805533686,-0.05076842482384485,-0.0529713784477063,-0.05209051703031671,-0.04881373563674704,-0.04764646443567715,-0.04627251937554907,-0.046400156415235164,-0.0438453537080671,-0.04494187269159564,-0.047546455269347046,-0.040402323177841926,-0.03910065234919607,-0.03877507269826837,-0.03681529845244525,-0.03581499755304065,-0.028038574897902794,-0.028633458627647195,-0.033162813472206135,-0.03123060994177556,-0.02922225303308626,-0.02906166590984832,-0.03161383286102731,-0.02931326043442798,-0.027349472288944278,-0.027457775750850687,-0.027089482624893618,-0.021818575037528234,-0.022156916858053776,-0.024479378587803708,-0.02142829490074373,-0.025273460123456274,-0.025316480054684693,-0.02098952368878464,-0.021115901539572417,-0.021057690772663604,-0.021706175167267628,-0.02532492749304339,-0.02770836553380072,-0.02810554843699042,-0.034274253514287284,-0.03442231533220449,-0.03743202718963516,-0.03966958854250461,-0.03932712905764606,-0.03921314055942074,-0.03744580547906496,-0.03559476368084525,-0.034731604500060326,-0.03260695520140881,-0.0307902289914578,-0.03041524446358472,-0.02652674891007345,-0.02644088866190615,-0.0249675121172752,-0.024952577196788985,-0.03134239042982686,-0.03513866420333614,-0.037317361191362836,-0.04196746767962822,-0.03896601737869135,-0.038365751857976124,-0.03672709555269686,-0.035342293227451985,-0.03602102143276132,-0.03889751067924772,-0.03949278181045657,-0.03957601416197455,-0.03719345377975321,-0.03398612919698014,-0.036066667640791625,-0.03376973590929864,-0.035108465403019845,-0.03580233522258208,-0.0353567891119776,-0.03675221685390257,-0.0354700892015691,-0.033424631349169676,-0.03356385568157643,-0.03299727843979628,-0.03643715755011275,-0.03492507492353093,-0.03482591140513435
230,0.01822233918736392,0.01490443001230154,0.01602586929524175,0.015549615805391022,0.011185440630730454,0.01191031143681133,0.009902780802517115,0.015489343876060878,0.014847996711875746,0.017003259049898505,0.01610585573858906,0.017628474927487647,0.02235301286322003,0.022189770435226807,0.022507209991524363,0.023401671143763098,0.027095294150957926,0.027499020017936027,0.03008113611830916,0.036651289760017226,0.0395671550624852,0.041650958349547136,0.04102281054335535,0.04430909513243146,0.04384358252055595,0.04311089943736978,0.04398910495862926,0.04072602017853619,0.043925612790286006,0.042134658388403155,0.04554718477509919,0.04864277545196674,0.0469484052532523,0.04598052940352185,0.04400788157924257,0.04117654674348923,0.04063957029992653,0.04336556580949335,0.04155463330351703,0.039928247214494124,0.040403402143391186,0.04169590971647112,0.04254526839919573,0.041364526311622504,0.0434279130028766,0.047727840393836436,0.04759067059114637,0.04693193832684763,0.045138898521287905,0.046922516727811454,0.04795555510199781,0.047806454654133045,0.047995765091694106,0.04959636275165917,0.05294059443489027,0.056785706562843694,0.056723619414755844,0.059244212019844505,0.05459455021575337,0.058252308243922614,0.05869613514897111,0.062164721203830965,0.061355671791408745,0.06788179385336059,0.06656971261842248,0.06343090901099724,0.06372845941143435,0.06387561009579609,0.06509384299614616,0.0630890885411764,0.06351963165679586,0.06372732056729209,0.06460807183745443,0.0670398247259573,0.0698507147289547,0.07036937275667189,0.06991981874811286,0.06964263734359101,0.0702143059753094,0.06896307925055815,0.07568562843763775,0.07599423623926828,0.07737601164500574,0.07566457558489968,0.08196467285188891,0.08112565274730214,0.08117255739170429,0.07644227904176595,0.07985822918123228,0.08182861084187128,0.08453017433100748,0.08419688709171,0.08561873711378787,0.08272160451306404,0.08013036258031901,0.07912122277607211,0.0808993692529611,0.07925944387318962,0.07945427383772526,0.08077766378679124
231,0.00919838470422564,0.016592022229860275,0.020377583588143323,0.020423807910042918,0.019438438672178558,0.02162780401080609,0.016322916891620395,0.01588574432906876,0.013285548626792399,0.014918240455564915,0.012439740833500364,0.008390792142238972,0.010756662769596765,0.004846385753456285,0.003521435798664925,0.004432315473544009,0.005056289167654509,0.006731309966742665,0.00747103595828148,0.003762617144293838,0.003704248605059175,-0.004707999618893694,-0.010700525456205224,-0.013298938175487692,-0.020657111001603806,-0.023824138272410166,-0.02187023001818111,-0.016820074009533226,-0.011717769619327826,-0.013545151711039387,-0.0139470778140798,-0.00989184843181116,-0.013681226266182568,-0.01097677437084018,-0.007266220180467614,-0.01128656630804442,-0.011626005589939323,-0.016990097518436154,-0.016927579902162933,-0.013337215461085891,-0.015744826001032032,-0.01879436993341841,-0.019948701007671467,-0.021888227189169305,-0.01798437782511718,-0.013694671320640568,-0.014065385547133928,-0.010751360215672925,-0.012898401510564735,-0.012855206365525946,-0.01224294413639771,-0.009522596593263953,-0.0061930005992959156,-0.007204763289557049,-0.0064219771651629785,-0.010045300878609323,-0.013272226699511513,-0.010483120135194052,-0.012983096453532558,-0.01373826277481228,-0.013644297884500344,-0.014668079309092112,-0.015195210469628994,-0.012933924773663006,-0.011706127765112555,-0.012965170979429553,-0.013031031732292666,-0.012501352011400142,-0.014203957475217667,-0.01532230186032228,-0.010864009668637795,-0.01691733068533879,-0.018789325357524228,-0.019851846073322257,-0.019509120228416936,-0.016847979828459963,-0.018431423697826455,-0.017403155901854858,-0.018506413156782517,-0.022198905774497145,-0.02182063709723741,-0.021752392601579768,-0.020739001862940195,-0.01966111678118858,-0.020860675337811413,-0.019263821259080813,-0.020939222488256602,-0.017292132247584354,-0.019740643173249382,-0.019207724909428948,-0.01929940214223735,-0.016399455846739776,-0.0172474851434117,-0.01848525820400931,-0.017948086913216275,-0.02459873906407144,-0.022904956525346867,-0.02373531682376511,-0.02395102077794282,-0.02059928530716804
232,-0.00902457794813832,-0.006031929146308931,0.003070197497378119,-0.003413548513042724,-0.0068649813107535375,-0.004654286591713725,-0.01606966089820375,-0.027718001703667366,-0.027809368750384075,-0.03159479486580304,-0.032499820468271906,-0.029221458334960256,-0.03149111406741116,-0.030813094735884883,-0.02894896482864989,-0.02945970827494796,-0.03172685168386459,-0.03608094447414805,-0.037707999852709784,-0.0386764506096181,-0.03599385191368759,-0.03784265123597715,-0.044422150651622756,-0.04463314659679627,-0.04447451242891923,-0.044469417510934084,-0.03865052713000247,-0.03526531245016465,-0.03701923922278712,-0.0341754530215919,-0.030606429425500292,-0.0319186887223559,-0.030982580068275936,-0.03257397421989493,-0.034827835059486945,-0.03303060802810053,-0.03240510489261858,-0.02775246005918457,-0.025314800060283166,-0.024075042659877824,-0.028982431178374842,-0.030676244328894015,-0.0319531852875038,-0.029881889298950182,-0.03409071595896592,-0.03681149132116189,-0.04073739103303404,-0.04309447636284403,-0.04295091284007258,-0.04182072071404203,-0.04054285436789438,-0.0400362676431616,-0.0411054464310071,-0.04459054911402613,-0.04404184671037937,-0.044072080773497904,-0.04478151829603884,-0.04731216040143488,-0.04667775078715734,-0.045797359346592785,-0.04660314485495039,-0.04586899508321738,-0.044920017352430605,-0.04605466210381677,-0.04541573301968811,-0.04444211731026274,-0.04558597470368487,-0.04358819413926569,-0.041494122636882465,-0.04045681808734836,-0.04227222683767291,-0.04281589459427008,-0.04083158153198148,-0.044939754333714846,-0.04518823052976255,-0.045103302060688515,-0.04547512427322741,-0.04697826933260303,-0.04434233553597095,-0.04583544740314133,-0.04245055098715689,-0.04445278735819055,-0.04444572081320314,-0.04557892834250354,-0.0454207813668535,-0.044812924903093035,-0.04616231280780744,-0.04272741958166207,-0.0436796631919364,-0.043639162001595545,-0.04136945713948032,-0.043486155360942164,-0.043632693171987445,-0.044139644414829704,-0.04264450867302582,-0.04589211552871844,-0.04544437675388249,-0.04375967332692471,-0.04635197002096205,-0.04678385502894824
233,0.009934204294717251,0.014413863130806632,0.018678499573121038,0.013127273027997982,0.016297071662335013,0.010747979949746972,0.010356817030723465,0.008339381108770954,0.006836760755797881,0.00466961570820548,0.003979609880356197,0.00393664008846791,0.005987659735120755,0.011986459515093126,0.010689450190866317,0.008310542478954798,0.007059187058865796,0.009283554191390167,0.014790726597936588,0.014357675826036758,0.01751202663224313,0.011585022883529805,0.013635082649449539,0.012130595763028537,0.008145401260886764,0.007102420674488395,0.0035899004558591716,0.007030304519301001,0.009152862949425997,0.012188204073351137,0.012482181260869179,0.014936403466294879,0.013536207669340121,0.00974723415785604,0.013225980718039043,0.011414196484443315,0.01040478342629597,0.009305283727398646,0.008383212268161182,0.007503457783776404,0.007934911363718145,0.012314800661558944,0.015572808152566075,0.016215919448711813,0.019095067808056553,0.02198938439820978,0.02530034769328564,0.0229026445218741,0.018908347763916814,0.01652190122691783,0.0165960493100286,0.01616573119512781,0.016723559506242824,0.013465731507574156,0.011061529383524457,0.00973118241581864,0.006959566336647496,0.008985512971800131,0.01034746449055073,0.010053971737884818,0.011933355588634634,0.008691081952793034,0.008227404468908725,0.007487901965277721,0.005819363301084453,0.004051334342876201,0.003106629918240089,0.003681231227938502,0.005649541599096661,0.006990801063075438,0.004948533163111815,0.007450847980332174,0.007175948114931347,0.008392771813103737,0.007994603331220177,0.009593226876107223,0.009006277003966638,0.008702034364157956,0.009661906950821593,0.011477727674766035,0.010371646713577575,0.008417690122256556,0.010647466936087327,0.009465841006712885,0.010260431848308828,0.011301544744829356,0.007742407083263445,0.008765527931699428,0.006674618604029845,0.005666254434047211,0.008019971893683744,0.006705533062766027,0.004242634448855476,0.006750547451388627,0.006434027357119891,0.005056772499366755,0.006772910254503557,0.005739109168061842,0.006031463152598508,0.005842551690663318
234,-0.057475327995496414,-0.06045998387431644,-0.06177266235040216,-0.06084463981162372,-0.059190090295727235,-0.05846950188926529,-0.05881089903195384,-0.05311182725300517,-0.05651125339100194,-0.05730730808187326,-0.05782594966921588,-0.056000380101764356,-0.0550121328621692,-0.05539427757972246,-0.056901378122417794,-0.051384147557596016,-0.05304387005485122,-0.048667747242899954,-0.05107566222691798,-0.05545273814104577,-0.055339766191969744,-0.0563105021378741,-0.054885638321506766,-0.051159334077349766,-0.04836034448268827,-0.04907842324639689,-0.04924618555213778,-0.04883178522957921,-0.04881340270787432,-0.04849722255777935,-0.04819607720686443,-0.04934306113832399,-0.05034812526841805,-0.05288962620440524,-0.047596308101623096,-0.04584899823926031,-0.04367980208791302,-0.04687274817694692,-0.045116285325040736,-0.042882080250007844,-0.041072290542661864,-0.03888442315280615,-0.03972478129788935,-0.0419344911880287,-0.04226052575216106,-0.038895793636153725,-0.03743533227886015,-0.04141314231063403,-0.04093129401994214,-0.04127627824746198,-0.04194975825303342,-0.038898099573858785,-0.039573880924289345,-0.037093709454804814,-0.03354036534718835,-0.033606940653745324,-0.03199481649303881,-0.03326313810092535,-0.03456774401159675,-0.035732667472897724,-0.03733690433361345,-0.03667588997837356,-0.038052028158013985,-0.03767300998378197,-0.040270551383771454,-0.041641889713402644,-0.04335124037329405,-0.04294900693766232,-0.04430728037017117,-0.042655150443160775,-0.044026218279832774,-0.046298475575831555,-0.04340652448308463,-0.04259116302042142,-0.042539577403380005,-0.042202861081453255,-0.0421766511619069,-0.043226538464859916,-0.04291091797663524,-0.04205651613707584,-0.042064924292529955,-0.03960561579540078,-0.04115103336637845,-0.04330366243085679,-0.041168663193554854,-0.04054967976967573,-0.04076028694156052,-0.04005654374199247,-0.039164512709973114,-0.03942523451257598,-0.041787172450314866,-0.042375965546782635,-0.043689766356359766,-0.04469126600649938,-0.04345166650623969,-0.04369923426430718,-0.04339561938460513,-0.04230712721841912,-0.04253967608896098,-0.04109635164675786
235,-0.010134396912090204,-0.007124209551517593,-0.008838894564340548,-0.007256140725053307,-0.009683045064608969,-0.013665445881043854,-0.014127429046913314,-0.015326690821449395,-0.01659872704425902,-0.018367979977746095,-0.017968575921948605,-0.020590081896442153,-0.01856490938606825,-0.0178609608950954,-0.018514531591859774,-0.01734625956327446,-0.014916722944668089,-0.015414721622287821,-0.01399427411693706,-0.013533106566953843,-0.01054929624962647,-0.010894054149915485,-0.009949038803664469,-0.011026912453862827,-0.01292672729705344,-0.011065362095626186,-0.006078309790389734,-0.006234431743309839,-0.0026323247956080886,-0.0013015444538480559,-3.741990008260554E-4,0.006816126853672152,0.009288581589985554,0.008754742011751873,0.009522881147612454,0.011655939854239844,0.0102625476235416,0.009817449389962742,0.013763313041485677,0.015817822311017554,0.018355446350805545,0.018651797200514846,0.015231764828997582,0.015684041528097187,0.01870090278440934,0.019340806965746044,0.018767764820852625,0.022887118288547403,0.023894387294032548,0.02465215326396275,0.025647937848453824,0.02645001371969407,0.027926207550223358,0.029191012322955477,0.03350352454180583,0.03466483370931627,0.03770313572228079,0.03765421621984896,0.03791143221235807,0.03656574301564089,0.034247237586247134,0.03271275456211738,0.03594454652828638,0.03452577691640407,0.03677563057954354,0.034082190788721524,0.033559258609678934,0.030349648472710634,0.030357304237977365,0.03191301888183502,0.027743153080762334,0.027138831834874724,0.025951213248436265,0.025040901200545543,0.02197518135148123,0.020309412513874837,0.020445411510644673,0.02135849109489127,0.02245007894426112,0.0233344935584682,0.022606965533107735,0.023675731305406,0.023687731328853462,0.023370620304888977,0.025288716457163494,0.025974987585759404,0.029373314376035946,0.030594748684978246,0.030143625442203847,0.030547464601529926,0.02900301413188421,0.029425743071240244,0.03060766150166524,0.032205381799723945,0.033400595849313666,0.03333749888341285,0.03403580389685039,0.03431893466689043,0.034086279837034106,0.03395546202083246
236,-0.013204597247103805,-0.015373844502330598,-0.007131245740407607,-0.010230636038655847,-0.0024161640725535384,-0.002825133263269709,0.0011010760632711668,0.008616407062211317,0.008605322344884203,0.01194410164243531,0.011319506141024312,0.005459293510985757,0.00366155578891179,0.0038689788279519586,0.00676628040087047,0.007409333817861743,0.008588194054724942,0.007224485921155468,0.005496970211704344,0.006087688029915197,0.009969555435626125,0.013725973682661019,0.0128391261728716,0.014697040460617245,0.00951636721341819,0.013325771799516616,0.008464956312094233,0.005412562092550854,0.006008754977454725,0.0032903207030263106,0.005854705450381572,0.008687689014242342,0.009582707019367259,0.011736257780278305,0.01264771955905302,0.0061733585449366205,0.00585685001439262,0.006302752027106589,0.00434348619270591,0.004017778908574104,0.0040399687945982385,0.0031173283210642632,0.006251204083976591,0.005513466123135875,0.0046669618301055805,0.0031846183529403204,0.004999191824546751,0.005198792339356028,0.0068484910143637775,0.006991561998559228,0.005070675874614568,0.005504399278737968,0.0076556771103348,0.004550201647632841,0.0036871766889782455,0.006170777006192343,0.0076470532768900725,0.007975978494588119,0.008447352744349695,0.006475391306812903,0.0034279213808226807,0.0010983261633227149,-9.126056923526127E-4,-0.0013333409170461863,-0.0013996687127512675,-0.0031712905000667547,-0.0026735223039792643,-0.002199923237051191,-0.0033035548949934424,-0.002574689985240014,0.0012316632790846682,0.0018932951883948723,0.001746026525417338,0.00489100018700666,0.004999665635854131,0.003299416476251552,0.006803205622098201,0.007561378159595673,0.008988459993457841,0.007812293545303368,0.007293564536641628,0.007376028616611983,0.008297583736768184,0.009489265020776804,0.012190528693728865,0.011939757169434633,0.011537387048637689,0.012306965804128,0.011466551367525063,0.011973951297661118,0.0106462211318097,0.011155093279921839,0.010356069605001066,0.010588255132174073,0.012114485573486902,0.01151412338204397,0.012641765239230995,0.01117426744515297,0.00831267604001416,0.008434291032350476
237,0.004001521252626458,0.0024883560230350237,0.004980859797350932,0.007108988613397371,0.008241330854844272,0.0052361672042015904,0.00420434980907646,0.005014275712661238,0.00159603738229953,-9.570177530292273E-4,8.67646679061651E-5,0.002625874753022348,2.3247919722513806E-4,0.0033742062999181153,0.0101412593639568,0.011262375031077222,0.010874498215844818,0.010761376318630864,0.012297856467054573,0.010824168929446171,0.012186402200384094,0.014557346537300205,0.012824447488918499,0.011810691737177893,0.010081092393121858,0.009884993934948117,0.007611842048697658,0.008594796057890715,0.010461167147989468,0.013745710503774218,0.019365022299938382,0.019871860874584285,0.023702367170962718,0.014593017108418467,0.012957679985566326,0.01392410087450981,0.01219805633453492,0.012827514205748076,0.015745502286193022,0.014058559682089595,0.012178832678880137,0.010155158873346086,0.009204179587323877,0.009774551013902276,0.013212839290047408,0.009779755779697278,0.012212066954037377,0.01310533942995387,0.012415204639679111,0.012133764407466545,0.010660742180805798,0.008353605427006288,0.004477654313832355,0.004776699779485667,0.0046238325061015,0.0043794386714703405,-5.213255165762412E-4,4.967078947089504E-4,-0.0023885814380134747,6.860768937820605E-4,-0.0010664549522035674,2.088490950579791E-4,0.0013160073662872485,4.7863652358532126E-4,-0.001293542696855673,-3.788731853263377E-4,-6.629785881881478E-4,-0.0021458123016086044,-0.004406366659115583,-0.005766979813662965,-0.003703908217136693,-0.00292656124087868,-9.548004497336332E-4,-2.0205989434586848E-5,0.001860960447789045,-3.973075658540476E-4,7.273310712488473E-4,-0.002161058117851141,-0.0020275342590212616,-0.0031657765211770554,-0.0020213108003421364,-0.001057024483977369,4.435735403536412E-4,-0.0016389958519903666,-5.286857867508571E-5,2.404538228770134E-4,0.001224718030847034,9.210937896524396E-4,6.5929152375443E-4,-2.0404043728643406E-4,-0.0025454871491017803,-5.250296662552414E-4,6.615928287897493E-4,-0.0012288136930332003,-4.436479652207326E-4,-9.571174213421403E-4,-0.0016907689325814568,-0.0021125426415855414,-0.002583243558548573,-0.004008387103331332
238,0.021386127448631376,0.02055708578527027,0.023839556421443912,0.02516934384883813,0.02848085289753931,0.025064156231939725,0.021285850055934797,0.025127535356225517,0.017640682576763166,0.02177052722495639,0.020814049227287877,0.023297527199657723,0.022101787362265063,0.025820443712621276,0.027411480870109316,0.0270054650013196,0.02777010423515179,0.028232313395469423,0.026365858882293206,0.026179653434803694,0.025883359681550644,0.027684429858320155,0.02705215221098805,0.02868520436253827,0.025312259721816197,0.02599265042771835,0.027659834382175532,0.027877847022076477,0.02664283477390085,0.025474205856442902,0.026416959261212708,0.021919497668610646,0.022988801943977125,0.021623738473647666,0.023554714004021537,0.02356324961822149,0.021758081155203727,0.020244634510910603,0.019212213466518593,0.017655860256169092,0.020406851839087102,0.020401847737582326,0.01934094000219036,0.020086388743217432,0.020922112511701414,0.0176052455467413,0.017229100187762195,0.01545248498529731,0.01874460439642521,0.0196126531648177,0.01923418512745684,0.019525254217086722,0.021717433276574473,0.01933298637411237,0.01802927626540384,0.021363143752105716,0.021028228281604163,0.023592301630934093,0.022413808874167423,0.024988643214932427,0.02498199717419246,0.025047900713631464,0.02899161488107506,0.028718458731552435,0.028602756943564032,0.027804830991539086,0.028450069680868335,0.027241351558327978,0.026036587102177176,0.02406745521487738,0.025036773608163365,0.029495775830525837,0.029231262442467952,0.030245913946865172,0.0299125939344989,0.02883703271757648,0.025798501502734952,0.021843685102531138,0.01943628353563456,0.022274127746178526,0.022579795117391388,0.02182120531155772,0.021729376772498733,0.020829840228680414,0.020266955448156033,0.020065543288054696,0.019957111826996023,0.019809249567934707,0.020408177212639194,0.021453116484534265,0.020109827501470567,0.018834580339316755,0.020244568624069002,0.01899326002693303,0.017898549388329032,0.019521486758183736,0.0189187434884939,0.020014124135581943,0.020730544341380542,0.019100030669054167
239,0.025810406638738827,0.024395092786131566,0.023924762131196996,0.028527628865662694,0.030216609494813654,0.03553172256927414,0.03472597884777718,0.037254456674606126,0.03618873780485241,0.037919799668489705,0.028292003248075792,0.026741183596905208,0.02271886869911322,0.023084800280861916,0.026747614638104142,0.023588322402764046,0.022906155242187535,0.021751957233550227,0.018740290882176703,0.021227731294421827,0.016549012838986285,0.020728538249857396,0.021885469967141323,0.017690108683464677,0.022228668384968318,0.02402362884328708,0.0220372211420562,0.025423736882975553,0.022793624727576976,0.02232192329254576,0.02730552375643991,0.029412557239296363,0.02791248144155879,0.028680223277673136,0.026957552608201478,0.02836847744199862,0.03005900686663648,0.028845628505743105,0.03430215522358731,0.0309395182350658,0.032436342496966496,0.029987428097371024,0.02863977607481491,0.026286044721187344,0.024214773666847222,0.02335587089399966,0.025079610144829793,0.02060986443134987,0.01961439124022396,0.018147886709414578,0.01669516577055634,0.01783424299855814,0.016994570532019714,0.017280481419739348,0.015348070384076668,0.013836474926553344,0.01583198805131947,0.017045678718404032,0.015458742935936323,0.015727709974474646,0.015029612300627443,0.014580124043864521,0.012625958491253895,0.012379177371436987,0.01009405767852609,0.012157795573310468,0.012150880479503502,0.012043714924050628,0.01344570596096834,0.012492185746061509,0.01153485621031226,0.01156723868176598,0.01114468529770803,0.010280488891020172,0.012240197067212624,0.014696949391082617,0.011272576902817103,0.016639751263006798,0.017864630789775987,0.016520080956139823,0.018396545835940237,0.016883289808615448,0.02150507654628589,0.022667124526953783,0.02271589447845578,0.021190548657582485,0.020892067220110846,0.02459760657915334,0.019840965098314976,0.01955686349369154,0.02030793219277851,0.019962760405527902,0.020750928662114258,0.022280013265946117,0.01778909145372989,0.018649207900900064,0.018070543353880163,0.015949920736765922,0.018923644389935202,0.020628891239766613
240,0.009490563489231779,0.011400033060330585,0.012352157750261787,0.009666097799590545,0.005018189611963817,0.005565085308897253,0.008259598999528179,0.007947848165677573,0.013920449970343772,0.008499211940128606,0.0030327895386890497,0.0035426080906131026,0.003020384544553938,0.008212200926593373,0.006797278716253078,0.005394685358912323,0.001955471622829951,0.003182642029097967,0.0011185462687000852,0.006925900921906914,7.167787563352429E-4,0.003292402567699349,0.002375411831597903,8.389467830495468E-4,0.002248738775685103,-0.0014708277400667337,-0.004930001660753864,-0.008862147386157159,-0.010824949639651669,-0.003593761477329829,-0.0071475472213848555,-0.008531011023797741,-0.0073526048504426005,-0.011253234125016933,-0.009704112896488424,-0.009857331903113336,-0.010912869913595344,-0.011841146798052468,-0.014900039469350194,-0.017281079251095767,-0.01595559983178712,-0.015200803678676782,-0.014055513414589129,-0.013025166725920382,-0.014832903352789686,-0.020927730929357017,-0.01879662692890909,-0.01670733760854237,-0.01582159779361854,-0.019485668636094494,-0.019269622733679413,-0.021588136907722624,-0.019221830384818908,-0.011413053884914523,-0.014240291291737029,-0.011467938558016541,-0.005970756894578807,-0.008081315741635082,-0.008081208688295765,-0.010562661303534782,-0.011092037051430541,-0.014663065913740978,-0.01996025759592451,-0.01723368930355829,-0.01705633797926622,-0.01804327109808206,-0.017948919354008306,-0.01789214841619738,-0.01769659135250722,-0.015447914989914158,-0.01581399617634914,-0.014633617034652562,-0.016856132149318553,-0.020097852415604377,-0.020277860090345885,-0.018513147712207655,-0.01832344096134653,-0.01762265328286138,-0.019856967956603824,-0.021134595541504705,-0.023075758373791673,-0.01857216396813732,-0.019512917611649257,-0.020808804690806423,-0.018421706266330048,-0.017675162105926435,-0.01925946659333274,-0.020814737237858913,-0.021446522377962643,-0.020006114130722306,-0.018951681452106545,-0.01775963095962758,-0.017287802747875728,-0.02063468985470562,-0.018839884473896597,-0.020593338747767448,-0.023340394124273637,-0.024222419704589607,-0.023653776479331666,-0.022132227355538693
241,0.0054433455401092035,0.01176993974330505,0.010397667480395549,0.018633827433418505,0.018105802819720632,0.016034744771996415,0.014176907033110298,0.014526928246316082,0.015218634571708339,0.015032209231821,0.011042096675664035,0.011467423862246027,0.007445629238532441,0.008554924953291876,0.013017263128774399,0.014642793675326879,0.014744918533810873,0.016611728070639056,0.02069161657540179,0.020555052417194082,0.017736715020877557,0.021026705863337377,0.022186925290772472,0.017757674435665446,0.016098077609881124,0.017762007290321333,0.012599094765278979,0.011692315511152076,0.01210428032144867,0.015348196019201421,0.016198666330857564,0.02027806251877191,0.020080978436857036,0.022702600844984898,0.021085991608653876,0.020969672852573132,0.021046215690587414,0.01982768001313859,0.01844811699134718,0.017741662533792047,0.017461660000142716,0.011281835506041425,0.010231711553364296,0.008189946032278881,0.008330275220498656,0.008700823836389808,0.009866779179095078,0.01095051587083095,0.010732250849659264,0.010422552232929901,0.010229298948724621,0.010085405474419922,0.009787567333944466,0.007698616923297168,0.007563412122765991,0.0063464350360521605,0.00563366325212082,0.0072921905976862985,0.007943935542987177,0.00769492371473109,0.00737800391316086,0.007073866129529505,0.0063210744672787915,0.006350164446280209,0.006757785507522638,0.005486038773528716,0.005424804455516179,0.005429021791509486,0.004737011382857605,0.004630730525639114,0.005104854162921433,0.005576290793264899,0.005731942366450377,0.006292152824455401,0.007892540748726164,0.007296250575321841,0.006669926969597002,0.008033652627444845,0.008551363920748263,0.00909637421786052,0.011255015044151752,0.010792891969019579,0.012417059927195401,0.01145580673026384,0.011115953080488744,0.01165247002920084,0.01165247002920084,0.011443757130908967,0.011612358210626566,0.010193526639766875,0.011013386631414044,0.010043066845977887,0.009348078809215826,0.01018117402346761,0.007224537821251004,0.0070598224611404655,0.007328830783091603,0.006568958982613695,0.0065603489695794815,0.007588944678140103
242,-0.024114656201770987,-0.02191236504865733,-0.020541952259146123,-0.025353830770830806,-0.02125199735338852,-0.025169914664460544,-0.02245274425749554,-0.01852843305587417,-0.018131872384675264,-0.022948274954055964,-0.02357873256005183,-0.022437938546032106,-0.02621282699763266,-0.03210629820280016,-0.031649402053155855,-0.023999441807449583,-0.022469089820209308,-0.01944271162727374,-0.021904723723379035,-0.02439821657152214,-0.023633107150991838,-0.02165250410711562,-0.021749431438169937,-0.020040714118315536,-0.02343319035558708,-0.02063213837728413,-0.020050497948722237,-0.02134322283147826,-0.022823365433507724,-0.016484364423072807,-0.017789625009489215,-0.020210551873699717,-0.01637988325928542,-0.010915300891052722,-0.011225919913862965,-0.01113487184681446,-0.014563823809364919,-0.012665908510757233,-0.010399638906339643,-0.008715987974015325,-0.009021286690238862,-0.01250696519398791,-0.010528974991635107,-0.00957103712697349,-0.007293882388882988,-0.004405648912283286,-0.0032990651517061115,-0.006455768375861865,-0.0038510546479247464,-0.007953761967686495,-0.009142252172033228,-0.005846920344113562,-0.005296386614064314,-0.003501043250923394,-6.443612541955846E-4,0.0010879096708224212,-1.750693804960235E-4,-3.242589963760767E-4,-0.0014875523087868909,-0.0018234973488781897,2.7486066618797656E-4,0.0041159219604788464,0.010961194315927243,0.007973566808615032,0.008547988082783807,0.008417506919082128,0.009284812341104544,0.009350947154842769,0.009802633572768006,0.007016555434084856,0.00922691210709915,0.008776498898685274,0.006896173849619486,0.008480045879761979,0.006309229404888236,0.004674076192753508,0.005118689315688544,0.0027611421549857173,0.0018505609004574376,9.366297499901733E-4,4.5746475706190783E-4,0.0021574986290892463,0.0027695255861356584,-9.565846816223983E-4,-0.00187174209626415,-1.2821050954347102E-4,0.0027591457557781416,0.0034882815738569227,0.0030987445548015745,0.004764029372866788,0.004006001433969587,0.004541234202894572,0.009494595712348522,0.011065425508802467,0.010334933444543995,0.011661514471069848,0.01084452910110245,0.012017512167526062,0.014646514409901787,0.01429431874082413
243,-0.00599833765285749,-6.108152593441342E-4,2.5762881414481784E-4,-0.0020197342070876166,-0.0064989016613654525,-0.014240566841910414,-0.016259213266230997,-0.022420423325236093,-0.02617025483576925,-0.02964429984226152,-0.031935395341527034,-0.03159828776280932,-0.03211029750502128,-0.028313326522614455,-0.02831169049160864,-0.024640811640264867,-0.029232282880480423,-0.03187562807726578,-0.029458071423580316,-0.024863427214064125,-0.02521065732865077,-0.02934729849186617,-0.029304249666121843,-0.02933113903984532,-0.02718488004611224,-0.03218298091123031,-0.036457158407168136,-0.032824113610679426,-0.03751500508507108,-0.037793398471669064,-0.04008892579825372,-0.041540207110105073,-0.04204265926849516,-0.04249075720522491,-0.04464412552864279,-0.05122413079794131,-0.048752931094976096,-0.049188539814469114,-0.05112499196376222,-0.05361312985496107,-0.051401769480848174,-0.05303301995375047,-0.05185348484403172,-0.05134853701584583,-0.05298514940829848,-0.05469825689095292,-0.05354189150281011,-0.052343029196199306,-0.048315017948980056,-0.04817048291736995,-0.046732036581562865,-0.0455480903490703,-0.05131715119252954,-0.049503177361434884,-0.04790015910662999,-0.045634646453787904,-0.04673295173096368,-0.045080650401954483,-0.04529004097434657,-0.04379134016330346,-0.04658384800994346,-0.04933535699713788,-0.04943223640760813,-0.047049061028260016,-0.04936847316396237,-0.04665476580781289,-0.04666403109840498,-0.046579791933823673,-0.04905226868005507,-0.04870529809979089,-0.04902135259834412,-0.05006594926507934,-0.04796180343630375,-0.05023078096132339,-0.05048955603756636,-0.0510037567967054,-0.0477697962570493,-0.047099929778332585,-0.045566781812572635,-0.04547406835923463,-0.045104058860829334,-0.04380305286864892,-0.042067969941129185,-0.04555819789361697,-0.047243806968217866,-0.045957123367896466,-0.047285734451618086,-0.048403885369477206,-0.051883711747884566,-0.050614856484911014,-0.050072581971552656,-0.04996177307347782,-0.05083260474732122,-0.04876355255322645,-0.0452592687469465,-0.04594369796290115,-0.051628570010850694,-0.053368676642122664,-0.05435931571737216,-0.056166750253060345
244,0.04241611959114188,0.03950126569066385,0.03931408557436493,0.04633348561662673,0.04786443764712074,0.04423287936827041,0.0368049638834285,0.03817763710289421,0.03653763147893804,0.04101525199852997,0.04305895281892431,0.04016821782292259,0.04752359252448127,0.04524312047126013,0.04302691976371846,0.04417444538067083,0.04407717257765278,0.04117036975668967,0.04489229902523518,0.04629351203240172,0.05019482923862333,0.05162559641535606,0.052965662427627944,0.05173378995620663,0.0533545509302477,0.055667492677620306,0.06121024214414823,0.07166495956863624,0.07927351975753986,0.08597428885026093,0.08434264086579514,0.08951532777085722,0.08356887786445485,0.08260610728000722,0.0832968803784036,0.08600589951929835,0.08273185040151278,0.08522199227296953,0.08532865492508057,0.08210807868249097,0.08533260672593869,0.08906298278576129,0.0866968011540325,0.08271955028246689,0.08471321683447068,0.07955822371779829,0.07900949147512129,0.07569327107124275,0.0760333387645138,0.07353346718354986,0.07517750840768968,0.07671783563500377,0.0787023605159552,0.07440760564207047,0.0774365819409468,0.07561883192016394,0.08136973499149917,0.08232991887338546,0.08169699803637442,0.08262759555577467,0.07960726945156323,0.08033822699969503,0.08121374327785265,0.08292605683011779,0.08006928396569232,0.08029419297254392,0.08352281827212066,0.08666701861103811,0.0867573090820914,0.08440446693873467,0.08247842996412563,0.07948286232968958,0.08199146037242407,0.08544844970554136,0.08558056050522644,0.0865114242279202,0.08266982025955259,0.07811038235237869,0.07954829741454414,0.0816934199591566,0.08231675824484139,0.08114901641495723,0.0806872251979166,0.08398224432318019,0.08114543700222834,0.08130665006116532,0.0820531667475552,0.08156566290972225,0.07972555223360397,0.0825774348968848,0.08383970678991082,0.08400341162106598,0.08011384127882516,0.08124051049550099,0.08204080900611821,0.08229158799453107,0.08159270809567158,0.08289009367051384,0.08250082633454422,0.08139031043310499
245,0.015619333969391523,0.026686465394511846,0.022185432928625005,0.019678062510367807,0.01998015228923795,0.02476389153181116,0.026497181272851236,0.02786096744528291,0.03476676020646216,0.03727004429312045,0.04454077220092563,0.045451413328786903,0.04860504198759801,0.04764476335836268,0.044684814426431824,0.04455134132502716,0.04026387939755556,0.03964972281623768,0.03816304970673153,0.040169203133506776,0.041062484143784016,0.03493004511726409,0.03447518850600127,0.03520335063397202,0.03252232541880307,0.02759963744610485,0.030816975193729692,0.023135011832043716,0.0186369818270824,0.017676946881494116,0.013207844816288308,0.012281772323032096,0.011522438931494388,0.011793281099709159,0.012216928960777742,0.012233607513628985,0.01341695160395736,0.014674711699093615,0.014992752451366132,0.013752365813528743,0.01252205950231645,0.014827629851931791,0.019256979353727482,0.015338125843089499,0.014989275360787157,0.015531398377200061,0.013516220366608938,0.01412259068105961,0.016343665891934426,0.018209878504235454,0.01989058388793623,0.0190078130919703,0.01777564625209029,0.016187519776365344,0.01726222893050365,0.015205659312719612,0.014265014654083221,0.012987870832933943,0.012643557720638307,0.012685499686371933,0.01381021522814756,0.010960138499906832,0.01111018351673851,0.011438389215981802,0.0150556944837207,0.014701545929604598,0.01479072041126908,0.01405427535672164,0.01397335774759679,0.015416186899638569,0.017215810282282296,0.01637780679875156,0.015986257946669222,0.017070459611660805,0.01900220078188107,0.01855189598528876,0.020665994546582737,0.020571524756250327,0.0205889119994916,0.020875930758756617,0.018518727318930672,0.020128200770827887,0.01925462689744035,0.020654650601450136,0.020600446717611697,0.019379472230255684,0.019219181365059717,0.020201743289660713,0.01778252340416826,0.017190734614494003,0.016979781687849922,0.017849178662779498,0.01939280501263262,0.019663667734392175,0.018231993035604344,0.016913688860540718,0.015838558781440016,0.016326581203231615,0.016747298497068595,0.01633369073742601
