id,intention_0,intention_1,intention_2,intention_3,intention_4,intention_5,intention_6,intention_7,intention_8,intention_9,intention_10,intention_11,intention_12,intention_13,intention_14,intention_15,intention_16,intention_17,intention_18,intention_19,intention_20,intention_21,intention_22,intention_23,intention_24,intention_25,intention_26,intention_27,intention_28,intention_29,intention_30,intention_31,intention_32,intention_33,intention_34,intention_35,intention_36,intention_37,intention_38,intention_39,intention_40,intention_41,intention_42,intention_43,intention_44,intention_45,intention_46,intention_47,intention_48,intention_49,intention_50,intention_51,intention_52,intention_53,intention_54,intention_55,intention_56,intention_57,intention_58,intention_59,intention_60,intention_61,intention_62,intention_63,intention_64,intention_65,intention_66,intention_67,intention_68,intention_69,intention_70,intention_71,intention_72,intention_73,intention_74,intention_75,intention_76,intention_77,intention_78,intention_79,intention_80,intention_81,intention_82,intention_83,intention_84,intention_85,intention_86,intention_87,intention_88,intention_89,intention_90,intention_91,intention_92,intention_93,intention_94,intention_95,intention_96,intention_97,intention_98,intention_99
300,0.022487954780712638,0.03693848266746416,0.025086789254799746,0.03107582393907542,0.030238963683382077,0.03885937316092246,0.07081306553188656,0.06771254916118642,0.047529091610544964,0.059056565065008365,0.08499382416237608,0.07547115934449226,0.08953157633019809,0.0864969396313657,0.09237994446890797,0.0900344031848081,0.08760443932866284,0.08774320716879934,0.0965599139903019,0.08880158241420963,0.08968604017171575,0.08613648003943959,0.10691976288662636,0.12605460812385447,0.12095119766909054,0.1263703655868718,0.11198234058771998,0.10801294988135733,0.13639953888852285,0.13742848903219657,0.1394026735370538,0.12044840444630901,0.11564569196106593,0.11813312989347746,0.11435278611521904,0.1212078986087886,0.13271326527060595,0.15260485017853628,0.17134039665477302,0.1705948840387671,0.15861332976072004,0.15222495748749476,0.12748650560617233,0.11929342339813535,0.11635126561413875,0.1069314320381602,0.11094181771625398,0.11238634750313516,0.11961938655665345,0.1278480490761877,0.1357843248546643,0.14065297305823765,0.14149137903833145,0.13315217351198935,0.12790439388063665,0.1297273618210508,0.12336555226822496,0.1220009601471604,0.12959200888880443,0.12271617240939796,0.11925137122495133,0.13204640601758233,0.1215501834406468,0.10252560802133213,0.11155780556533923,0.12210513041400972,0.1246113938252802,0.12020607536040855,0.10526800384390306,0.11635219286055287,0.1286066165681864,0.12315386900774357,0.12947133634772323,0.13304553538509498,0.1262384557423747,0.1350460478622332,0.12311030631966605,0.11820712932336035,0.12173593519176777,0.12608738077395826,0.13891191420953997,0.1294065529092036,0.134121220620854,0.1352785877342378,0.1415294240734399,0.1509535985336188,0.1598302238752379,0.1534709149885676,0.1581248424541623,0.15244086922695974,0.15485670834764936,0.14961611812384037,0.15389289710981777,0.16080287284360775,0.16685209353678337,0.17434259507232264,0.17253882539301324,0.1797628799675621,0.16746461247395847,0.16697697533782063
301,0.0028684292740525385,-0.014161559347646659,0.021737914482804974,0.04856164045191257,0.08380067559267752,0.09578502496805318,0.12979203427647298,0.13769738081320426,0.16697731243768427,0.1747767651188004,0.20452775461748238,0.19617097946464093,0.20666999867887523,0.20632420606745788,0.20933192998669203,0.21583168262661245,0.21274542656560277,0.200566061806174,0.2082658703643622,0.22127536937866782,0.24022087313200552,0.236929627041706,0.2537705531616081,0.2598893290691597,0.2849335090177733,0.29666086352579324,0.3120183442320951,0.3108024417201161,0.305286388506914,0.32228904263178704,0.3388022411068068,0.34512494969948226,0.3382278895656164,0.3477720936229498,0.3491059025239658,0.34678329237101607,0.3532177457244617,0.35927742509493593,0.3594189767414363,0.3397339568351972,0.3459004805857437,0.3477409226921548,0.3443516666738356,0.33792899415091915,0.3333493393774575,0.32930706061780946,0.3375949910811372,0.33623890494480874,0.3423887884260053,0.3493274368770447,0.3546816380026098,0.35147459623300614,0.3474596077713118,0.35705067262400925,0.3455182451873966,0.33576297408489625,0.3531290657197443,0.3601393680858888,0.3614419696350262,0.35161899977996264,0.3458769978308816,0.34838637408470774,0.3568845412545252,0.34761718969490224,0.3375705799646628,0.33196557739817983,0.3301053212086322,0.3247625144370357,0.33044463497087234,0.3256718812037605,0.33941806663462565,0.3467241066728952,0.350637875910649,0.3585759809014411,0.3561716529614213,0.36136398568677963,0.36489705610792506,0.36632213107891476,0.3589731283702379,0.35624599004478397,0.34314561540691,0.35237080232682527,0.35589408273811307,0.3519237665520615,0.3497032817678425,0.3528017652802269,0.3470777392373337,0.34623038757701297,0.3362114580372477,0.3436596343529387,0.34165985919586267,0.3457126099112832,0.3500354147679794,0.3558117466049911,0.3629601958161092,0.3701763692577992,0.3747727627661865,0.36648442462023434,0.3676128894468912,0.37168936401596414
302,0.01105056035891028,-2.6039355483551075E-4,-0.04536915629706428,-0.05472055140392532,-0.045219235365863836,-0.01339100598872785,-0.015575761384541966,-0.018200341601018157,-0.04298792683608444,-0.04821591848184244,-0.06585816400632283,-0.05669967990361111,-0.0580254779426875,-0.048023391578494064,-0.04226540185316687,-0.015855622407678193,-0.0313598601596195,-0.010996274405828595,-6.322009376919063E-4,-0.0075584939492366575,-0.0174170725818958,-0.025949631330510377,-0.003179973651561749,0.007552067845331578,0.00806431540111201,0.0045636112395205305,0.019524538468613236,0.029006839404579456,0.02966528657198976,0.03017469717972066,0.037920999844190686,0.05026068438812915,0.0671324155133142,0.07546953288947106,0.06962580057540317,0.0782975089386483,0.06367106832048126,0.08419626772149887,0.0950289102034083,0.09373935867148088,0.09904247367063052,0.09929390080315544,0.08308265626518523,0.0823458143272535,0.08885563802009917,0.10304833903723111,0.11249356301985407,0.11328889849122616,0.13212433260440126,0.14696526191513304,0.15280499263748795,0.1501940522483249,0.1568584200556162,0.16693110879030867,0.16824337607251377,0.16966192074898634,0.16986076600955033,0.1723966275982947,0.16901491681301065,0.17261601641615346,0.17436409533465763,0.18354614804001254,0.16954644419163525,0.1794935120960851,0.1777862994753869,0.17002155030139107,0.18282009106404434,0.18292250023367004,0.1901446885088981,0.18203114561235328,0.2006525673031591,0.2004410820757743,0.20799260337364905,0.2095413607475612,0.20187829767321372,0.20363018627905694,0.21189059473940358,0.21517880440843562,0.22592930074578518,0.2220596783409719,0.22145302801277328,0.22349848312149576,0.22019800612562992,0.21098216479603668,0.2110818878152139,0.19972808702366993,0.19722817585767316,0.1998683007251404,0.19512702088494455,0.19001900218307813,0.18899298881442253,0.18135303853094434,0.17740919441859376,0.18555205242835818,0.19434359481911959,0.21158439768384377,0.19612161653843438,0.18925990153856237,0.18048958958889824,0.17521066761303358
303,-0.02421742650177101,-0.058765819301958996,-0.03948737450373532,-0.031245195192132365,-0.021689623728899283,-0.017693622117631733,-0.032207551218091324,-0.026159599456448985,-0.016709925211707645,-0.013835330480784924,0.004135385636228232,-0.001765012727165902,0.02839482498285931,0.047413927828413194,0.055627914353248216,0.0483493773205884,0.05962087048672283,0.04664995566796435,0.041999109927354485,0.030408132546064684,0.012169815030849594,0.031587078846480245,0.04837899656407594,0.04747204191058554,0.05348390436788954,0.05661414922462387,0.062371947978757364,0.08845971640370401,0.08390241965543473,0.0877152591136198,0.10047405847151229,0.0904889625498392,0.09845047497445346,0.08756271287671226,0.0819571577868394,0.07648075813251326,0.0863696812885256,0.09149080614553952,0.09600935003348629,0.10124089042394654,0.09893825159508761,0.11193028320477513,0.09240352459049411,0.09637378600959552,0.10780297226361854,0.11733395803877064,0.11271538017459554,0.10593764744704368,0.09181886555564056,0.10097750183526437,0.08894369596698393,0.08296756130742314,0.08172100540595287,0.09204456605323987,0.09192648089110814,0.08777311672614395,0.08029209910397883,0.07506092862667271,0.06532196730450153,0.06753696203472942,0.06793114182562532,0.07376865009084084,0.07581067525401008,0.07247466773289032,0.0773313502902016,0.07071862670150611,0.07287763330495942,0.06084774149173164,0.050560614254976974,0.04958786412504101,0.052894826310077823,0.05195033106276304,0.04957602739381189,0.04802698735527524,0.050197616054528965,0.04017878775640244,0.021203802867951246,0.036610676207634606,0.03703526044518096,0.04181954298366721,0.055312058372062836,0.05891089303569827,0.05593472576858659,0.04836942547969257,0.04818600977909902,0.057714430292168765,0.05344281344849104,0.05985462926558582,0.0722563274613936,0.06747535299957867,0.07588399962800159,0.07960183771036879,0.08676473852846867,0.09548234684497277,0.09093546880232507,0.09100532992678094,0.08813233037133203,0.08811014005091805,0.0879217296303752,0.0818421444159815
304,0.01232629906418366,0.00865298739178999,0.045115924822894816,0.04795716876627418,0.05745661118959596,0.06599621571271107,0.06596089669071976,0.096022992567201,0.10196363324723938,0.12107749619307283,0.11549904166550794,0.1130148188283424,0.10199145754274447,0.09427160535374501,0.08138911393323073,0.08938001511156063,0.1013247535755494,0.09658046004716017,0.09033572706070092,0.11484030220097845,0.1189685031576896,0.11532234608489882,0.1172533227815971,0.12700376251953793,0.11476181553649635,0.10413460986944374,0.09718622647670959,0.10615881001173534,0.09325979660841931,0.08877197714413879,0.10465603429461509,0.10135664212480686,0.07688405069567192,0.08178585052957872,0.0835323614749095,0.07256979629732743,0.08479306005795959,0.09170341364226062,0.09289900007549062,0.0878288681616844,0.08061277408822028,0.09697990693376594,0.11190922292767436,0.11290566762324371,0.12913313801695214,0.1257951162512836,0.12477731560257464,0.13078779953739783,0.11685630535541783,0.11245127780225152,0.11705116706612385,0.11204394871492418,0.1310281259626336,0.1384481322816174,0.13770062820158818,0.12654440666646646,0.11009766314967594,0.1150163740868718,0.10294741771410167,0.10676926613256012,0.10275341911682682,0.10701213116372513,0.10541843607970279,0.110769063637114,0.10030224212930491,0.11928349745160073,0.12466346724226311,0.1179929315859056,0.11037198725646254,0.10853474874598718,0.1016766488511143,0.09515241319095255,0.09189796792751657,0.08362882043036354,0.07769431308206784,0.08105155307900701,0.08409715530029029,0.08924804500343264,0.08732610627289572,0.08139493881538133,0.08645614314854953,0.09595545660085865,0.09959081409351742,0.10346679794036387,0.09346564682689071,0.09722338779107653,0.10094870699266244,0.10390163589089538,0.11494562322742956,0.11137568853022783,0.1020785157473132,0.09585745586525472,0.09413153650678925,0.10672692446480322,0.10658207168816877,0.0973989326298685,0.10468355521985555,0.10625084525038384,0.10518078009411898,0.10799581278285411
305,0.014934191972003892,0.04188558294716302,0.04313539614943758,0.09436737260990231,0.09607534328140249,0.10044613883278758,0.1004911913467169,0.11210474539484291,0.10985956072059323,0.1111542459004512,0.10582706511365192,0.0857039215392549,0.09311849719969292,0.08334095610314485,0.07153275473531769,0.06398757380215758,0.07398100771406711,0.0735783426563753,0.06390189037046558,0.05537097202367083,0.04946472070552217,0.040156254491181445,0.0462194508906659,0.032136386049323215,0.04726129021093113,0.043614497114771236,0.025350503615939254,0.04119851963276613,0.050913422623193136,0.047740912101467,0.04669366520908141,0.035417504229716464,0.05052861657889701,0.06151146810530881,0.05299772973263532,0.053518860666509356,0.07377690311292628,0.09003256263699695,0.08592128388285192,0.08176122402569945,0.09008750640389085,0.08898008827844585,0.08531981616330957,0.07372270399234816,0.07226883174096844,0.08265439192432916,0.06494999032105767,0.0466721617539243,0.06133727958739375,0.0637867887134052,0.07230823019935245,0.07676846497635165,0.09157621530940965,0.0732473473133361,0.06794837598721348,0.07622765095163934,0.07034339590522032,0.08238099682846797,0.0814382625222248,0.07664635328500526,0.07581603113302329,0.06720224611808766,0.06585110308037186,0.05425754972405863,0.05369796514831608,0.05317033573719534,0.06801497354524229,0.061579236210984684,0.05876620569077894,0.06831257290677292,0.07138402246937638,0.06906563871078644,0.059580307487202146,0.057312369330478806,0.061429129233040516,0.04463756570318558,0.03643108667227436,0.040323317370371994,0.03434830126046398,0.041611433454193894,0.047347181478635744,0.05168709198544921,0.037962329790265995,0.046221067570570165,0.03927060851126284,0.03038793490600497,0.026703630817595587,0.02490695663786212,0.025649860588214432,0.041908613850752084,0.055257121504086466,0.05569846233218812,0.07209766038154047,0.07368056957906557,0.07202447038091835,0.061537895570689984,0.0666750014424873,0.062327732479459864,0.047935444643507026,0.049131980608123814
306,0.016883118687158846,-0.012069269044265267,0.03496203189365745,0.007903160414688656,-0.01489154755223626,-0.02265721946399272,-0.04381481005377838,-0.039677418736903794,-0.05300006042595919,-0.055006392116486384,-0.04541114678927414,-0.038948589430215674,-0.05729321115810448,-0.07211172072275537,-0.06252632076773615,-0.04675207994284701,-0.03998732701318014,-0.04592096765529557,-0.06239238235071122,-0.05316380738149002,-0.04196865018239015,-0.025968825762378755,-0.014746278706155764,-0.008652894477667728,-0.009381899603417697,6.427666303253532E-5,-0.004452414197273082,0.003151881829114921,-0.011679756100692077,-0.011347224434585574,-0.007206976798543498,-0.007728474519663155,-0.019592759125611127,-0.003138433770905896,-0.0043990994461284814,0.019064388606558024,0.008746236869659689,0.006856930534783289,-0.004936328681073796,-0.02282031536168374,-0.02013400343557936,-0.003914247497728248,0.004365841032748155,0.009760337668535835,0.00197486998324357,0.008437803598089683,0.00556557282993771,0.0010455619133813172,0.004749696233685342,0.0036749773697688725,0.007963097130838164,0.012705008258453797,0.007988003478603086,0.02021156870015003,0.03080151084263111,0.025369804720939637,0.013089259932940552,0.002042339547247745,0.004153565396557394,0.004955627141901803,-0.006497226970277195,-0.008062386714982828,-0.012375149823803404,0.004814389023369683,-0.007750923948468286,-0.009980687002486933,-0.005758279912216302,0.007829058277599405,0.013944566499645285,0.025756123797375068,0.05844764853574934,0.033730023566341284,0.039821213274413306,0.04351510443813348,0.054740870598002186,0.05599879262236547,0.04253478177748707,0.04809453850067925,0.04672056127665169,0.05221534727036459,0.03618592525131425,0.031923434305342814,0.03914996085104812,0.043314865218922874,0.033343353424499164,0.033016229460309174,0.026463954232725274,0.017722986706331222,0.015212843000115519,0.020981597866945798,0.021606880340265557,0.023483698841012902,0.028248344363047174,0.006338691004538778,0.006035700648711618,0.002244749770687021,-0.006120163904887636,-0.01677806779383179,-0.002273422235026486,0.0022644025239966785
307,-0.03635179971715151,-0.04885982971831181,-0.04248658578721751,-0.00686913276855311,0.026570407780933846,0.055656672122139934,0.08752138689519973,0.12046228714972425,0.11661310982880015,0.12666970456574586,0.12297745947333306,0.12577181657440678,0.124562278073728,0.1127964678055506,0.11646614512811972,0.1186709152655177,0.12089606685079239,0.13062584431384916,0.122330914756335,0.12567966315475798,0.1449517931175837,0.15276856398166208,0.1648618467816217,0.1868510527404213,0.1892931941291337,0.18829622122588127,0.188324302124241,0.19511770753137714,0.20178459096693058,0.19440477860242,0.21480351643289564,0.2126317984938802,0.22041247775645054,0.22528097025943,0.2262813189049798,0.23741110249483505,0.2136043578333001,0.21737541788651452,0.22132874839719174,0.2170588449890739,0.22549995063512265,0.22728794880494838,0.24515763010692268,0.264834796667271,0.25240337228869764,0.24099167538044952,0.2695012050800156,0.2596161667514397,0.26150067887946554,0.2733733242895368,0.27465057447575125,0.27272631270202524,0.27465090599585074,0.27204061919873174,0.26727241196778956,0.26233527906016296,0.2584292266151744,0.26886492021452424,0.26734402345370145,0.2659448670211207,0.27277516098937765,0.25951301351828343,0.2542570814418891,0.2510218612452303,0.2648108747418991,0.27654360847309567,0.2632454699555389,0.26845611386990015,0.2644766165965224,0.25918712605403577,0.25371393411183196,0.26953673310039516,0.26415329802325027,0.2695327863513086,0.2597313624731647,0.2589006560492567,0.25226079692069336,0.26454633502122066,0.2723751237129394,0.2706604334455534,0.26487342319759216,0.25053145273530947,0.24499090652809294,0.2598765669526196,0.2668073127930689,0.25955502196869223,0.26026199148465234,0.25892198874880257,0.2505720623009295,0.25565147353689055,0.24992550404119246,0.2524056324446902,0.2586086717691375,0.2727624713755386,0.2786044958830646,0.2663205046561895,0.26343541534925075,0.2747383112226764,0.2683880369727836,0.25878561619050133
308,0.0027123568286620213,-0.03297599053643079,-0.08745098672171692,-0.12408784343566095,-0.1576867865900446,-0.19587862155020136,-0.20652860009102736,-0.20187901465961253,-0.18099942466956428,-0.1795633701176605,-0.1878100662741433,-0.18787280957580058,-0.18206063103787185,-0.17225663044502043,-0.17339448215986447,-0.18272361310126686,-0.18657212857228447,-0.19333341343247612,-0.20916029940916503,-0.20465849475659237,-0.20245536587684276,-0.18371795153970852,-0.14921000010038216,-0.11905972520862623,-0.11636046159978308,-0.10534534902907922,-0.0812430542118213,-0.05067314721685271,-0.05907970821813537,-0.05625255909591624,-0.055525811442788425,-0.06771796979253628,-0.0647866051640808,-0.06517337574193739,-0.07069081206276379,-0.07444068678206803,-0.07780263661043225,-0.0673314480102177,-0.07084067400549492,-0.07994706706653401,-0.08019471370086348,-0.08548818751308702,-0.10180919146045925,-0.09350533016281964,-0.07474355169926054,-0.07672164607840665,-0.07055163373153868,-0.08449634657942175,-0.07923912524045211,-0.08377578630582891,-0.07178198049345962,-0.0641050882878883,-0.061734832200355465,-0.07104392249637509,-0.06542247497328874,-0.05987577048023967,-0.05382797812632997,-0.04774133029082281,-0.049894875497188816,-0.047580956658584486,-0.036141573968966174,-0.04360978334446886,-0.04659211148974038,-0.03734655927082758,-0.027704924145913107,-0.016680341795165768,-0.02934778601197048,-0.028658936398716264,-0.027606958796488223,-0.022179549367694455,-0.011783061659565466,-0.0090614293699813,-0.008104720814301051,-0.01649985062858283,-0.031074396671494132,-0.03480275557422107,-0.035010828925476994,-0.0368106007495715,-0.02397929759141854,-0.02503789612072436,-0.008829045837036753,-0.013907896726934077,-0.026587713334077917,-0.0342750149273646,-0.027802016917924676,-0.031752126958641776,-0.031197717176267323,-0.025761462549108927,-0.015781179846193816,-0.014970222984342465,-0.015452278163989032,-0.027237521514076254,-0.024169140783719536,-0.027288312666570037,-0.01916386246661061,-0.02012445223297757,-0.030687923846870108,-0.029346626088300982,-0.023415617272611437,-0.027574933722810918
309,-0.017964876213206984,0.03160537154597271,0.04555774515765563,0.07314505640000939,0.14824943923162764,0.1459500834439879,0.14713165861155317,0.1560605112276551,0.15630763506219422,0.15627475627185547,0.15368937769110236,0.13763546740737134,0.12808590189192506,0.11776894528849026,0.11403113707742854,0.12106101599290715,0.13072411358540909,0.11742775474767315,0.10580585357981778,0.10214904060897456,0.10763929769172073,0.10193764084176127,0.126155880767974,0.13615059224472523,0.12573435960879048,0.1420141976097016,0.1451789355069854,0.15000724098587154,0.1533717790047289,0.14903555477530792,0.14775789295188796,0.1451411245428622,0.1580794408275371,0.13887676806800908,0.14239774130799532,0.15100185282032785,0.16136784770334422,0.1665320877245045,0.17007371090779938,0.168388438962839,0.1560821517773239,0.15443897853616206,0.15467475164761788,0.1496128963433722,0.16384980863514526,0.15617232894438227,0.15096187186118457,0.1505222538760406,0.14046490335288075,0.14011959063359516,0.15897213351491077,0.16137382520699514,0.1451715449703802,0.130279863974091,0.1418398378343169,0.1452156398168628,0.1632517384789205,0.1646346915079605,0.16404453888922138,0.16809494824229257,0.15824401400149216,0.15291540392314842,0.14980097923932315,0.15923497975350187,0.1588622306864299,0.1540502933507474,0.1611754713332743,0.1653622351048864,0.1729936439332474,0.16026077349416368,0.1606712356236513,0.16899162134998644,0.17697607417478092,0.1804875072235036,0.16985339344345993,0.17134501163558433,0.16825036722421177,0.1701168794069927,0.17511085228259454,0.17944774135751212,0.1730074187762414,0.16384380970781415,0.15363417300553153,0.14978019885937863,0.1532992283085786,0.15569156061188205,0.15110736334553548,0.14564137410897415,0.14867108137048848,0.14693170328582694,0.1458929817683493,0.15356157443819993,0.15519829380047223,0.14680422081158775,0.13799204396074505,0.1431033117332113,0.14667442344003978,0.15512544597038339,0.16284711037053323,0.1585431564187883
310,0.02025602838814435,0.028860794092302758,0.010139284441764063,0.030059040780130854,0.06517061792684807,0.08108068100648663,0.08965036937761425,0.0946704551233829,0.10069233522487671,0.10492031511861535,0.10252752528423796,0.11174552759360246,0.11888582128706358,0.12084284630085163,0.11546544827095834,0.12222660934735727,0.10662646493205412,0.11751258001527791,0.1155337257058231,0.11827896105210599,0.13035918369591235,0.1432421577197747,0.13592588391204738,0.14121251282108052,0.12861788633481966,0.13371497206623276,0.1259848167051345,0.12981930756157992,0.12666529231553494,0.13689493838191855,0.12956349757441726,0.13558916305293026,0.14556324046579217,0.1380140934422483,0.13554337642109143,0.13600971042902946,0.15030826153709267,0.16779493432104117,0.1583378319729374,0.1503586755736653,0.13770185829774803,0.14072617429924286,0.14340559440078018,0.15029055483514897,0.14192608321969918,0.17727358315294603,0.18775659004365444,0.19689063281143732,0.19565028265134035,0.1812553233778382,0.18514853690287972,0.18520426879899152,0.185942753132504,0.17681363567332556,0.1793853817387311,0.19499640310467695,0.19213556044596453,0.20271202286740436,0.2023315607178904,0.2037914648701426,0.2122722658951626,0.19878116495667036,0.20308055506456488,0.20129069017234533,0.2044504270245897,0.19815834068055985,0.20341359491643426,0.20156281078270388,0.20023973006760967,0.18971282584567153,0.18185508791041574,0.1857876386949112,0.19113260047174105,0.20479767619709052,0.2107520467128294,0.20760567122210496,0.22395943089494844,0.22603020330758125,0.22209875755286157,0.2243620625702845,0.20527385908824583,0.21048333843473332,0.20420440333827689,0.217289873240782,0.22445011260428413,0.2224142077022853,0.2235509322173411,0.2232987632662335,0.2122816052731102,0.21641855879568098,0.21142161367527865,0.21725336878721713,0.21017882217974368,0.21035149038843712,0.2218443438341286,0.21077444571004686,0.2065650574759205,0.21849831743747944,0.22435307110450656,0.239153913608345
311,0.0036374955310557655,-0.04877490378390251,-0.06901053407531198,-0.10363451897192238,-0.12560028421847422,-0.12422650653089878,-0.1024108196658231,-0.08519923979681225,-0.10248456267441747,-0.09095222829120597,-0.09568168597065245,-0.08984868375724554,-0.10670481125613501,-0.09938610047828585,-0.08397549375631343,-0.07040585758687962,-0.06573109363785505,-0.08455918233950305,-0.08973396510636468,-0.08124152073551355,-0.06820975639995674,-0.0708297947911844,-0.026288826741573436,-0.027034575754501952,-0.006831363068434651,-0.002841566231719731,-0.026439278806458657,-0.02222502843135998,-0.019940360899400367,-0.02004206983929099,-0.013823206361549455,-0.012428417891826747,-0.03197659959790675,-0.035864644899909155,-0.03925514247932919,-0.040058961770838473,-0.04370673129685158,-0.04941825535726432,-0.06257166336894049,-0.07235916028108917,-0.05218357050293385,-0.05505410443924228,-0.04332606621080608,-0.013922660570080816,-0.006064666370050742,-0.004709354751611189,-0.022444682770808088,-0.011599807839676284,-0.01679520589844742,-0.026797755246153833,-0.02033453263198305,-2.0526778549910418E-4,0.005768701593215092,-0.001087895920315647,0.023872405635533438,0.03336335906952805,0.029328977644925848,0.005534533015385856,-0.002743383866525756,-0.007202287073203262,-0.0027319747699932123,0.007128041844956356,0.027458513213582236,0.03585331477834618,0.045927034196449175,0.03204742116597151,0.008805543185326337,-0.00455239372153446,-0.015692579999736233,-0.002537848176263533,-0.011111163589733764,-0.005170193818273776,0.0060603661327491,0.01256023358973959,0.02361901002122161,0.02518209831191859,0.02484207846650366,0.023472727131766628,0.019407514955764614,0.03374243983798108,0.04751229866209788,0.0544682118692534,0.050320578001467255,0.05281689438369591,0.046672795609305234,0.047823117786645025,0.02912827023894499,0.028110619700125638,0.04643654637219001,0.04216116356949871,0.05531290903482827,0.05783408395655032,0.06369750771324884,0.06532384290135158,0.059775688724220656,0.04905316156852594,0.04354107146620754,0.028885775903651517,0.03669624639331523,0.048739005618245346
312,0.02819072862509232,0.003798116999804771,-0.01678111443092313,-0.028510962014204496,-0.04702492909316919,-0.05040761513157804,-0.03123564564232477,-0.03636844426155841,-0.030597484751800196,-0.02958116775613506,-0.01672102977114851,-0.020168239891329796,-0.001394936651000936,0.009229139104943931,0.014747539915136984,-0.001494466618185118,-0.00858379973283807,-0.014747371264729721,-0.017089300176173664,-0.032472317524198074,-0.0451044729427895,-0.03933907841273594,-0.019688808835681887,-0.03727119520011402,-0.0378309871133625,-0.0264952572616565,-0.023822697308497943,-0.008703658418850511,-0.01175823417132368,-0.02120359835774214,-0.02692187158247819,-0.006468668121431827,0.002477785601489829,0.008753256886036793,0.013972143290284338,0.014293315494250357,0.024485499187936063,0.02530094471762742,0.02162217995285691,0.020397778824681856,0.009728018171627072,0.00737589959257605,0.00779441387894176,0.009802986713717899,0.0076603230068769505,0.006088101813969259,0.01975626002154286,-2.9813639082700515E-4,7.950470044785757E-4,-0.004063593745414801,0.0029430647898077604,-0.004997889351921633,-0.04509355303714857,-0.04097872815266224,-0.04341624610526267,-0.03710131386908808,-0.04764979390798483,-0.044496779480805305,-0.04335310781595797,-0.03429495955191901,-0.04289033964813382,-0.05557385240689813,-0.06387826944953243,-0.04589780967029147,-0.03529188900778476,-0.043121461825286325,-0.06473905104517469,-0.06295832156602636,-0.05302912666908359,-0.04447145452711812,-0.04924483158579043,-0.05302965201120137,-0.03680610818093899,-0.0335459059559751,-0.046148298961406174,-0.04324368660243772,-0.05572577629718612,-0.03944724757078193,-0.028551560457098987,-0.014407188901043788,-0.016940036312709864,-0.015660097941371777,-0.024025518198590036,-0.022724251428988502,-0.026933694286109873,-0.031200039792382186,-0.03160954595552837,-0.02577009845701298,-0.024374042150450973,-0.024387101889749584,-0.03598490832524157,-0.043717033564483664,-0.041331538777861276,-0.04798832635361288,-0.04954045544308881,-0.03756951540313517,-0.032100344270359286,-0.03103846161605282,-0.022414717246146312,-0.03448746805111589
313,-0.016777884547103904,-0.009858038327464411,0.03584761299118546,0.0675305946293839,0.09060845585998473,0.11911929221935554,0.13678007336372422,0.12955421048313862,0.15504086004236098,0.16652396210979298,0.1668182212918128,0.1548679652940949,0.14508142917912306,0.1604830386867484,0.15837694659746387,0.14101026444490228,0.12886364261783764,0.1287776831539205,0.14706248892006688,0.14586948971254618,0.1507551652154454,0.15365393775978758,0.17979074267466338,0.19110085564131743,0.19078615536968208,0.1979350590333497,0.16545876405334772,0.15852369803411417,0.16249101821284803,0.16845784338086608,0.1762141826969671,0.17402350683759546,0.1751029307402035,0.1659932009174609,0.17096152996645914,0.16191927479278875,0.17279216142490716,0.17314015105596467,0.17719382861900365,0.17252600355586525,0.16962007495332063,0.1623692834253104,0.14705545696654046,0.14282544197717217,0.14240991899186675,0.14452357046069914,0.1340299229150164,0.1437781326149877,0.14385952734630655,0.1567436434508319,0.16092786139608492,0.16292549448160495,0.17259617791161497,0.1687064159352466,0.1706119712034172,0.16522267186163783,0.16897102894545216,0.1781667833037337,0.16147585608514275,0.16265839618368708,0.15727767757325617,0.1586830572409481,0.16465107521215014,0.15137218567976618,0.14211940517171578,0.14404644153657656,0.16079683060369437,0.17176114078306923,0.17503355390165104,0.17621331207474417,0.17304929981145084,0.1871319588028912,0.19033600131987272,0.1916686876580603,0.17305559603483212,0.16718885195701044,0.16012953293120907,0.15530641989062008,0.15038626522230725,0.1501311221972169,0.15103091524980866,0.14046175499514504,0.13433484710699153,0.1381502731318766,0.1322065753099565,0.11833037634100757,0.11399421622341038,0.1187417815531142,0.11584490896141117,0.12325683448806309,0.1196308364415564,0.11363301154219624,0.12174375998162365,0.12386018094118498,0.12135244920946402,0.1154211247471825,0.12119368931117366,0.12082437956835226,0.11942238439041067,0.12303196554637787
314,-0.022375017232311622,-0.022969758031669566,-0.01411731619411336,-0.02423547098881256,-0.012789000391315818,-0.04393682841348696,-0.06342208290949763,-0.042522679651793724,-0.03919114912281569,-0.04229766753174039,-0.028675580828856736,-0.04250229582963584,-0.03937251782341733,-0.02490711721484326,-0.026226570430507534,-0.03552281614942944,-0.03647593111738705,-0.055162586119197436,-0.06689733536558479,-0.06349228863816671,-0.05718403931794625,-0.0421313613223346,-0.03478559773238736,-0.021424617182678206,-0.018394013640291453,-0.018782872106533167,-0.007981842631514418,0.017868018518769235,0.013699917265664972,0.012036066519056653,5.137189741525006E-4,0.007967120646439603,0.016978969177017227,0.012924667640211631,0.02593858760381421,0.013302431740247488,0.017252807342483138,0.016022936634123866,0.0339978033326509,0.04164996527854453,0.04340981614993835,0.041322591774418625,0.038921603325549295,0.04283419775710945,0.03733488368307633,0.02839842882422548,0.032540968281668727,0.02779962174013227,0.016303741651292405,0.022972207027942396,0.021006720248857483,0.03194913405570154,0.04090566759921208,0.03383913328617133,0.03841502186299221,0.017722308058805928,0.01800315154612135,0.02088362644351473,0.012556215213037148,0.019447338168552094,0.024508246559695898,0.03261883132802083,0.03527327155759111,0.03643197051615206,0.031951115475038996,0.03562275653001365,0.04385924397175089,0.05130981149666937,0.074625217646028,0.08171990917059233,0.07573332110036236,0.07871192514967633,0.06425911529418454,0.07278346272886814,0.08222671027284983,0.0703038055054823,0.07502983279408808,0.06945215100393957,0.06995730998989413,0.07515627132964077,0.0719836554421468,0.06809569466769701,0.0700698035332041,0.06527491699325708,0.06940505443227665,0.07295889455983512,0.07230238374884816,0.06423119801668752,0.061436006033571716,0.061277699190052964,0.048735571749687796,0.04722118043758795,0.043994582874254506,0.037920739728089396,0.040955381576820195,0.04741355806312856,0.04724989051783716,0.04134018014390268,0.055983999132177616,0.06307367113025633
315,-0.017726830369590708,0.05628907595120229,0.081439395993618,0.12702725257899034,0.1507576735318427,0.1478774548557312,0.14127807533122622,0.10844464611769938,0.10636996502766008,0.09926579108968885,0.10438256136625838,0.0917422772749556,0.10280002759760379,0.10917606811277357,0.09968328306858024,0.09205564807275274,0.09284642740651688,0.10540996664256504,0.1157446319414578,0.10658677025985736,0.11949921788419857,0.12483547166977058,0.12950479347578797,0.13721002438912916,0.1362276037741641,0.14776760238300057,0.13624517116601753,0.14031529009331062,0.12496790376306467,0.12624224972027168,0.13380847581981456,0.13746471845650066,0.13560465088728985,0.11788967411424092,0.10416560480858303,0.09288488291146732,0.08663508491524943,0.09415855943322328,0.0891724128367319,0.07469814082001125,0.07663144338554781,0.08807771767587028,0.07843581736069648,0.08371450308401768,0.1002954848544802,0.1028758708864227,0.08721787503720944,0.08750093923486224,0.09048842782164368,0.09826165811902951,0.10596838077728168,0.10891673741751026,0.10271556650974496,0.10516435131289939,0.09382829166702665,0.09579388816755963,0.10772471268269342,0.10545706431698329,0.10166287404545576,0.11519783675417802,0.1191233464159016,0.12188965785165488,0.12604563065208943,0.14309580725489562,0.13904381696713333,0.13960749085430554,0.1317436599078049,0.12486045036540203,0.1230689270998551,0.13972865288615652,0.16219410160081588,0.1735748978042871,0.17504440947435015,0.1644936446065547,0.16932407991324375,0.17138699842229216,0.1652297432126832,0.17430109476036493,0.17261582241201892,0.16575405953809558,0.1703005956325154,0.16593275547640007,0.164543850645194,0.16078085536245265,0.16383452041411925,0.16165918488435282,0.15971637696737956,0.14989809787116082,0.15119055015217192,0.15058760735217555,0.142482308636913,0.13807483128719697,0.13040434105032245,0.1271313444581298,0.13747913176220092,0.15292470448571602,0.15325599086643238,0.15964525562225615,0.16623171177405646,0.16497286632875713
316,0.0035578314025155517,0.10854979743071665,0.16502379279585458,0.15706730261566643,0.1501806034216969,0.13745824211834232,0.13154469769742583,0.14927168130612867,0.13853816802179764,0.14351031779639625,0.1311472573857826,0.12660126090619736,0.1223084406315414,0.12139347286203865,0.11254711683103666,0.09965161331621529,0.10034052961983736,0.09797794603757647,0.10540952949958171,0.0966315122220877,0.08745212131513169,0.10531395288702151,0.09087886134450138,0.09564369862840298,0.08427348705957352,0.09896057955420996,0.09795592586699367,0.10543393206029067,0.11349205692350127,0.1077462755757411,0.09574472267706906,0.09147135213663374,0.10191860838032177,0.08833493146844376,0.08696196730440986,0.08891741940094086,0.07576630031502109,0.06901892807479001,0.062441825033106316,0.04554483638005226,0.04165221247673611,0.042684156034275694,0.040401507420613214,0.05072215133087344,0.07177862317527618,0.07778674767604139,0.08441129678975288,0.10064676407439427,0.09341085019654231,0.084490289900858,0.07364222346552379,0.07257626179158876,0.07142198290800465,0.0692854888723376,0.0675720604199478,0.0712060757673601,0.06690892702838115,0.06639784442007514,0.06056977838480933,0.05279677210808993,0.06052169827901089,0.06425243884098038,0.07142945619813898,0.0650714612312426,0.05847012752915734,0.05857207733199517,0.055290873625527676,0.06520051406550506,0.060879655006508535,0.06570921124788441,0.06977876406166432,0.06819107034090549,0.06702024701268516,0.07899443763831139,0.08509390601671012,0.08709701625194848,0.09251664432377574,0.08984157811762687,0.08658843151541985,0.09074628242031473,0.09323309063352139,0.0843076736927348,0.09220997436331776,0.10040158475406201,0.10204795586292673,0.10172534237611032,0.09914341486042973,0.10588246159274506,0.10139652999968067,0.0924086192911153,0.06980216149225833,0.07866952130532127,0.07796633067441093,0.08026079187574363,0.09524908673847829,0.10538995234864199,0.09600672452713843,0.09532685420730422,0.08661101943338725,0.09027286858815411
317,0.017548859478538896,0.019390878097269595,0.0434589607513646,0.0754850177997459,0.1033833809801367,0.14607735660205315,0.15530614707509072,0.15167461946247549,0.1528681848958845,0.14350463853022427,0.1373032540581023,0.14076442277854814,0.13075550219817297,0.12013651021201331,0.12203611510773892,0.1148718786842977,0.099023310200312,0.0908148926715876,0.10339423990586256,0.09610684202870998,0.08537375835855882,0.08707248342852872,0.08151146984509376,0.09042369705055664,0.08966951085714667,0.079180223277905,0.0985424621991195,0.09890738086809442,0.08898763766331129,0.10449943237459987,0.11478226574465497,0.10663914652488021,0.11643479036094712,0.11947211100640694,0.12083881396320402,0.12811005827788066,0.15212158328576794,0.1446018063188007,0.16052983430173828,0.16786355541604997,0.16512493980202966,0.15351828223889716,0.13650283588367454,0.14365402170422606,0.13734298053690794,0.14062552669071926,0.1574857494820714,0.16085236882060644,0.16737688852840893,0.1510106527202224,0.14207899722421083,0.14320862874054982,0.13399845818851921,0.1327857352491135,0.14427188934774365,0.14470405987048968,0.14797727519144266,0.14845629001878113,0.1630005450832132,0.16831964396914986,0.1595318090782729,0.1591853608736427,0.16864702660671868,0.16991054563901697,0.1633794708633582,0.15826901248786307,0.1503816646501141,0.15391121026484558,0.1518455917569116,0.16463768962185465,0.16226919604119236,0.1651817523115383,0.16958554664094666,0.16050818806715456,0.15766779873563933,0.16210473227467564,0.1598446701115951,0.16169756085110523,0.17230818631916878,0.16953568587676177,0.17049487247480719,0.172087123349277,0.15995128311422555,0.16168964675295477,0.15167745358899087,0.15581151255258585,0.1677524192811292,0.16099849919832324,0.16002453189484997,0.15912019978165487,0.15624396643881178,0.15665820787001264,0.1677284143523838,0.15754851843133313,0.15111383032591041,0.14374592781467327,0.13625108361336902,0.14697679826296747,0.1535007377827227,0.15234240077635927
318,0.014950399857625654,0.040116621609867946,0.05104025019320306,0.04641957497594021,0.07355927627672827,0.07329475977220447,0.09937072266601843,0.09660569325216294,0.09040648763873504,0.08595498170974583,0.08163005760208,0.0768010423121586,0.09019775445793764,0.08838259940227196,0.09943190451536323,0.09774828736271637,0.09070460539555437,0.10426160608054999,0.11608854061104347,0.12585213019687586,0.1316609072656203,0.12122212503742225,0.11748305774495832,0.11212072032142602,0.11652361502403664,0.13106445908290973,0.11930125070613261,0.13351320685140564,0.13093130256103408,0.11790139904766533,0.13363836823598504,0.14616094101238664,0.14708030406214131,0.13209623616468857,0.1359109158330097,0.12835411952677941,0.13449541482880614,0.14767622942077313,0.14195784772910774,0.13889071566126088,0.15243997860927855,0.1455368585107874,0.13332559676871328,0.12972315368739587,0.12564450563028576,0.12574320293821262,0.12178460145871477,0.1266127471991892,0.12728140868154716,0.12606448161224507,0.11489160454949829,0.11180805539309009,0.10352763405720677,0.10201022495964981,0.10495506493752461,0.12248510042649194,0.1277835874892368,0.131557357594395,0.1378123347797514,0.1326213088332265,0.13079584421072826,0.12333855722357773,0.11834528018787106,0.13034365691802663,0.13618932000512823,0.13795933968812993,0.13724715552080882,0.14043267737834533,0.13352851970989185,0.13627188960829556,0.13461481455516938,0.1380196119020379,0.13316463229239936,0.13122138488261997,0.12845255402869266,0.13787145776938964,0.14009640272168034,0.14322491361140502,0.1431522613838815,0.1365893422192119,0.14460232273616277,0.15325270734752272,0.15341333939667373,0.16447811083387726,0.15701503453157492,0.17021911611682194,0.16869406094354267,0.16216503247351638,0.1522574840476073,0.1415563485041631,0.14916229261352704,0.144397502336971,0.13734848153011364,0.15242634830789828,0.1578306833176989,0.16448578830643704,0.1627246232900281,0.15670392071170702,0.1687704493345086,0.169617825642555
319,-0.0025442014364782974,0.026577461127343622,0.059624240549487825,0.08607117107167285,0.12446128608000129,0.1413079872019268,0.15637901823923536,0.14010167111837715,0.13802909180286846,0.12599150292801037,0.12723793268742212,0.10709144892715541,0.1297573759502227,0.12632949845580924,0.12276437765540288,0.1321079166162714,0.13028061597273363,0.13974150459378898,0.1448320879555168,0.15027322011321492,0.1473615170699712,0.1464070535688084,0.13973902774434954,0.14309695918352933,0.13332021617794174,0.13505796990335342,0.14433234972799863,0.15067104468701978,0.14117778461505495,0.13660536452563476,0.14420079027346916,0.1469495153916795,0.13395238863114406,0.14763834098747075,0.15510616089321494,0.16370630639856024,0.17114956999484035,0.17672014536511074,0.18099717281127053,0.16743843597527241,0.1500266203400681,0.14712722557415187,0.13446567444109556,0.1283076050358458,0.1371686048845432,0.13715671360436252,0.14061473235432426,0.1449427279454663,0.14516412977706808,0.14938262858366513,0.12602612587609324,0.12741984073463222,0.12699694708700138,0.14209606443393905,0.13409224748212278,0.13324654609149167,0.1279995661101651,0.12673782019192945,0.12457220513560432,0.12094851092066897,0.1126183117351403,0.11589794927721947,0.11093232399857182,0.11302999563360083,0.11432322891165478,0.11022854762526689,0.1040952828520061,0.09957096837970476,0.10283815318395073,0.10172745829517799,0.11394709137225606,0.12495098966529873,0.12944575651224585,0.12970303516323298,0.12710553693937587,0.12060234013971341,0.11862430635402964,0.12082349656855618,0.1062365525118647,0.11941037396200133,0.10822557617323954,0.09539489621280209,0.10030692360181372,0.10315334908779533,0.10685489610274188,0.10012606240674396,0.09981305308988761,0.10556384540622002,0.11741280685976,0.12090705927770662,0.12093298407932666,0.12429876333543803,0.12722673252186018,0.11346013675312056,0.11316679837531371,0.11548945024232343,0.11443601156443158,0.11265892602710283,0.10890899664938215,0.10678419154332182
320,0.02057893686114589,-0.006460208431419557,-0.03902694993975104,-0.09473382472471269,-0.09106599082461325,-0.09612365754101339,-0.11913361850074354,-0.1196589425023955,-0.1141085043139829,-0.09440166089471302,-0.09106938565015885,-0.08334183209471606,-0.11569989565787257,-0.11714340329417543,-0.11071458863833225,-0.1215869396217731,-0.12051942822244133,-0.12512770091959127,-0.11797064195342946,-0.12614017803191863,-0.12608482416909125,-0.13265099045639522,-0.09836720086284184,-0.09114239175551513,-0.09688816112393163,-0.09152729980246635,-0.06634024988759067,-0.06672950167555601,-0.06601247110430547,-0.07083519597203349,-0.07446261730334029,-0.06149367418934288,-0.022651394977004365,-0.016035438850720465,-0.022839660024171756,-0.03275364808515504,-0.02727779566880598,-0.031229432173509458,-0.024402169493800405,-0.03168081043489515,-0.004457940241235849,-0.006448416924513687,-0.00988250882198338,-0.009826498697660885,-0.0230500713561321,-0.01999258396103637,-0.010837137502309278,-0.011096536486011967,-0.01289152669132497,-0.02208055923693522,-0.04652596315719481,-0.04601542287640055,-0.031666088482346026,-0.025045050275095446,-0.029888830218128687,-0.023888238951849057,-0.035667532203865496,-0.033746271850624475,-0.024384871179805735,-0.019566494122978336,-0.008690287178039921,-0.017450735635628427,-0.020735777882866593,-0.011566728109803321,-0.008056718226144727,-0.015617632066508805,-0.009490862325361357,-0.006806311626186765,-0.021430457550096718,-0.025439836804624492,-0.037491505616342125,-0.0319471577377894,-0.0412437550794087,-0.04590988292926386,-0.04801790854018185,-0.037737742341240325,-0.0305039486400278,-0.03336574304427027,-0.0395132325639327,-0.03138490047464606,-0.03181666514714339,-0.02991344773652365,-0.015455414671032461,-0.0075823209270106905,0.005269609794874325,-0.004194459464151885,0.011939058877288695,0.010695471831249612,-0.006190975045235742,-6.900587389107041E-4,-5.232887578292425E-4,-0.002612738000749979,-0.0029339907550578553,0.006751383774179198,0.0039292451109955865,0.02228510096701966,0.02574614332639213,0.01777306468749887,0.009811110046555849,1.6189124615555557E-4
321,-0.020059119736992714,-0.032561933491403926,-0.07449947372841775,-0.08251308807044647,-0.10471406574390554,-0.10462830553797715,-0.08935694781416353,-0.09754769356804585,-0.09382538926476547,-0.07825811389810242,-0.0805943759000665,-0.062156276451609704,-0.058663907483629985,-0.05937319166679245,-0.050658226025202174,-0.03975697631251852,-0.03486217007506866,-0.022995091388396185,-0.02657585625034063,-0.028167804772509398,-0.04083782878421279,-0.042521418031764575,-0.030317373077945544,-0.01854248395745921,-0.01041224551332185,0.020533491172290145,0.046754807169365004,0.034110172220248154,0.02508047891569813,0.011085244952998225,-0.004760008244179737,0.0029943179659608766,0.018698055310173958,0.014990693726413061,0.016523746253322646,0.028933021952358567,0.03908178472251618,0.03923001560564251,0.041442652439981964,0.0433107414234636,0.05756537247608225,0.05496795296479883,0.06051960948448491,0.07136748390389054,0.0870890920884372,0.07211594661161484,0.07380718653125261,0.0616489395809106,0.05815026030066093,0.05350718435544803,0.05789290659281964,0.053902132640599204,0.060887362267880635,0.0507436574511185,0.06256908511217694,0.05920733870318851,0.05381129963816182,0.05296583538416735,0.053847310875137125,0.05011743489521035,0.06269781870103507,0.06657876993201112,0.06739152083575049,0.0596218964243968,0.060871726785444794,0.06702656777917304,0.059702524370038396,0.04144399232112037,0.059717338642885566,0.0786207239256167,0.09243039155918836,0.09433085753486692,0.09053075142067589,0.11095768126805675,0.1264459733435402,0.128633164573493,0.13127034095162368,0.1274756732144816,0.13292670934729958,0.13066999836846444,0.12804067987154266,0.13576270964127687,0.1312198528559529,0.13683335630776403,0.1254323106512891,0.13362616428572285,0.13618278008511583,0.13369941574351668,0.13147944146775722,0.1350686085389633,0.13468628150212442,0.13526658663270485,0.1294853331301285,0.12219269233719199,0.13264201487193542,0.13242369738238513,0.13644622519805794,0.13943372858897365,0.1379462682790221,0.1356112528018785
322,0.002867036252747017,-0.04425849468424965,-0.035139837254436056,-0.04957195934129563,-0.047996775659643734,-0.036305732676341254,-0.01993848228536527,-0.026110796873417216,-0.03198649129095788,-0.00885640496746938,-0.0119986782726079,0.009984081938092035,0.007501940637387065,-0.0028220430862397005,-0.004038140756550811,-0.009262541921951483,-0.01735798363400868,-0.013271667067456415,-0.012220915505485111,-0.0034890854500508146,-0.003540120553055901,0.001441479269072607,0.02603594836645465,0.035959217098996965,0.05361366851528482,0.08172051042172634,0.07822925698700015,0.0701674215506648,0.0790398576253923,0.09836383692778469,0.09710533516179534,0.10409361048682612,0.10527325207796209,0.10267240435754708,0.10931127373776223,0.10699782362967591,0.1359752470045076,0.14760588441726907,0.15469525319761107,0.15200294839242964,0.14245092404952453,0.1573009907045804,0.17882392509690084,0.19336217450240717,0.2102545653466014,0.20229467762646203,0.20093786360653382,0.203952678718699,0.20079326520450022,0.18496724785545207,0.1961844424827224,0.18895850816681986,0.1857314802261074,0.20605617553662225,0.2066869948137482,0.21960716559099477,0.21923197117037155,0.20097834442204462,0.18731317525317215,0.18148032963140914,0.17346384297362974,0.1709370060887224,0.15656728810452608,0.1654517828590256,0.15179472235752345,0.14243090181593807,0.15956997621141483,0.16530267434413667,0.15214852116623628,0.14797266399425146,0.15446800528002425,0.1547917035363078,0.14649677381561896,0.15330138992847908,0.14122339544534812,0.13673203778549445,0.1277695924620174,0.11940067607048087,0.10966150487558483,0.1161400057215011,0.11894863352081865,0.12525086448520117,0.11918184161619058,0.11486046958355776,0.108539376219698,0.10357466748908768,0.11588991733520784,0.13170846913179834,0.1286209337740372,0.13090433560350206,0.12478480135409957,0.12613090519964645,0.11714907656680495,0.12879996265358076,0.12836346882842067,0.1357614611312252,0.14955748239878602,0.15722686578006287,0.17054334388261963,0.17652023674008643
323,0.01758367866630722,-0.012876337935109923,-0.06639396645869115,-0.10680941984213482,-0.12613946868917447,-0.14739062783427306,-0.17479630584182348,-0.18518165552722274,-0.1755456549268581,-0.18010579495066628,-0.17470948242773912,-0.17569812969323903,-0.1993232260463497,-0.19773608844019075,-0.20390363318163904,-0.20931008648001562,-0.2272599605240509,-0.2124357518563297,-0.21118449514859258,-0.20674615526619924,-0.20972494108161896,-0.18110074079897787,-0.17094020940090496,-0.16743275203763477,-0.16280587424916837,-0.16359307379473037,-0.14425922743284095,-0.14391439475599038,-0.14222578498910246,-0.1327409194375874,-0.14125436914903816,-0.12027385857508756,-0.09843124614118322,-0.09367688274697711,-0.09821903364360271,-0.08681526617803823,-0.09233776562060411,-0.08756097462047116,-0.07372875798521465,-0.07668984526197571,-0.0751398038311153,-0.08166032331361539,-0.09925518436000086,-0.08961807316103407,-0.07643895520467886,-0.06613857086630752,-0.0617016304011596,-0.06952449631647813,-0.06721257192959947,-0.06700490383545246,-0.0736316736481139,-0.09017008671413612,-0.08344598324091584,-0.06879411001790815,-0.06968000134854888,-0.07093567907996673,-0.07559417982025819,-0.0689278616032035,-0.05463968382294149,-0.04362527087944854,-0.04293854791917015,-0.02808979085308161,-0.03333280799106953,-0.03606134557723481,-0.04167081448850116,-0.046595889853249785,-0.03168014050171355,-0.03865951771353709,-0.03242278973737321,-0.032007363731291476,-0.028302101574710612,-0.021767231234088885,-0.03004972683374004,-0.02760608154247709,-0.032780352230983,-0.033250120687212344,-0.0325677649066995,-0.03754311904445833,-0.047521761468660016,-0.05204512660199276,-0.06424732645195386,-0.06492694770125841,-0.07521423037645808,-0.06710835335112307,-0.06089152707809875,-0.0542965183811553,-0.04536789323483279,-0.05029146119365446,-0.05560448610256993,-0.047707783397891765,-0.058022760680770134,-0.058558876026119595,-0.0606493275018614,-0.04989730697760641,-0.041966950037175,-0.04282860514615536,-0.044239175785383555,-0.04834889759217496,-0.04655748449586117,-0.037297062070081335
324,-0.019361320685532705,0.006831609182697432,0.04304242256279309,0.02218091768779977,0.01672186080048194,0.019995300123683078,0.024614217941781136,0.02493380751011079,0.026470051312344176,0.015703063124720314,0.0029125258584191183,0.0042568243002847036,0.010505761393295787,0.0037866615137972163,2.321997337649423E-4,-0.005613606823089177,-0.009502532366762765,-0.0042717396266522675,-0.006505400055384405,-0.013536231016456995,-0.016960899348198038,0.011731274500793042,0.026497859338776467,0.023497070309655727,0.02277972348381376,0.037351726028785864,0.022818359145033735,0.04031269330844868,0.06343468210954609,0.08547824701326205,0.10237399055220733,0.10260717653013508,0.1236950181831079,0.11488278632272811,0.11782260859277673,0.10772101027473356,0.1192119923379712,0.11963762406409223,0.13018129557198732,0.12426987578519169,0.12874606497418672,0.13910730198707988,0.13691765678280288,0.13009246027089982,0.12335579543674903,0.1359768072044055,0.14664951462429562,0.1465452702837515,0.12827769818810697,0.11880492601909834,0.11541579018173867,0.12703255036076785,0.10573864883911757,0.0983556789521995,0.09858518527842822,0.09169236376524063,0.09707301235068906,0.09592281889454773,0.10665569581977948,0.10161863725484008,0.09476908584816643,0.09136333578542835,0.112769334406442,0.11184871669621405,0.12366089176836535,0.10930753683092692,0.10507032913396179,0.1015973040260779,0.08041598201850936,0.08633461803428505,0.0832301183535834,0.0952940670645122,0.09584808508850085,0.09654983024024244,0.09540691707445077,0.09325636154349504,0.07919544544630937,0.07844308145426962,0.08316730499294055,0.07299500244659823,0.06826910646080932,0.0627973160869395,0.07427730873928251,0.07648336278222323,0.07915880922240624,0.08560398717295063,0.09197517042417606,0.08193840911894372,0.0897513752801696,0.09074770302193923,0.0909152637811236,0.09954456235243567,0.10472054407425599,0.09777544633144462,0.09092330505240709,0.09741396058433988,0.09524740125980341,0.10639608824084544,0.10811615968264063,0.10937238071436223
325,0.01984586718484492,0.018464485259441315,0.004819522204139792,-0.013192809022739005,-0.010385594575453521,0.029470808534948326,0.0287887843837718,0.035656190969694614,0.03778142816586186,0.025323183211811425,0.03722984304363075,0.04864319318136362,0.052004831286477905,0.051914608504552574,0.03930695651821543,0.043439528503957894,0.03142981791646422,0.017073310828061697,0.0059842407823277296,0.02085814148209356,0.017948716885797335,0.015119108126225855,0.01686221385649168,0.027765748559721325,0.04749510112671786,0.049110029459476214,0.06045010503108172,0.053602537064611815,0.05341153249476486,0.07427478706099908,0.06636274563291561,0.05511541742946062,0.045284204459134274,0.04332880669380609,0.03684491760838909,0.03466844547186658,0.0368608953812116,0.04024403087867309,0.05220441867284708,0.05528577381505788,0.04502208920719241,0.043716803482168796,0.04732765220519266,0.06466404044004674,0.07079884301241784,0.08470334670735441,0.08740895677918328,0.08900938187449219,0.09403137577937852,0.09768199907670688,0.10302852477741307,0.09589778522792441,0.0908915186074228,0.07221934031651214,0.07402227061288694,0.07924457610992167,0.07019987548295246,0.07911538894859577,0.0721967891347942,0.06663832951034081,0.059331897833870426,0.05720515159610971,0.057236361275396955,0.05671749371277788,0.0563846845864454,0.05765401352223461,0.06477612676291504,0.069477150137525,0.0685931867990503,0.07639876465572976,0.07947520698768228,0.08027516459300418,0.07837669299336976,0.07469281784017542,0.08367511529612175,0.08378276836355283,0.07393603839087151,0.07897670877574706,0.06606465564425955,0.06088427811128249,0.05964502754980612,0.05471990297270826,0.06042388771274666,0.075784662453814,0.08392100714242978,0.08383935630423518,0.08305410626794751,0.0818549721205739,0.0877875193829519,0.09146527153589996,0.09392377283510926,0.09230768159429864,0.1009121227129255,0.10932634261638555,0.12332562371280875,0.13105467999955983,0.12473320378858854,0.12590515533312918,0.124059798942308,0.12634510561874135
326,-0.0168487721210498,0.013348989895935675,8.901498344387138E-4,-0.006254348387839237,-0.022571915256492537,-0.02240160199346177,-0.00518839299364844,-0.023590864829843215,-0.020492383158620585,-0.024330247601993,-0.033995700868727934,-0.019602569145583476,-0.02560927283493282,-0.02746526597719055,-0.03858442245433314,-0.03142148849889636,-0.023185723777748916,-0.015710134058220148,-0.016724364110337047,-0.001671547193297333,-0.023827309246246674,-0.009003531178483484,0.008427591416888171,0.019953364290173848,0.011410272345761314,-2.9493425764319736E-4,0.019401169872110817,0.02051269958000685,0.016601031066434485,0.005638159020588351,0.0075109145597042045,0.0034170785109009466,-0.002035869176113217,0.011978614168682853,0.011749939025552129,0.009003403580828828,0.0033259680128308326,-9.790495584713439E-4,0.018361468987832818,0.005750269053342666,0.020847529289924602,0.020631540575156954,0.02507841096439462,0.027651888732979735,0.027006639359815635,0.04931931869610141,0.035473523770849544,0.042070370506593686,0.055026557906456705,0.05692599745857026,0.07201801581570899,0.08380984757099777,0.08086074385446487,0.06493008508817845,0.0482198068866169,0.04483160698922947,0.03444116563279243,0.05186909602767343,0.03903679223419877,0.025567955731722818,0.031058578148985203,0.031286791331504527,0.034670989023041054,0.018389727148875334,0.013898761469163159,0.024184937007171822,0.030505528895099436,0.03480921603849559,0.04229779893413607,0.04834216822889818,0.041893501738157486,0.04171888146851699,0.033006350196213056,0.008737720485204228,0.007835876467630176,0.026258072240162446,0.03330433258835781,0.022459801311849267,0.028399249541503083,0.02444862176009967,0.033065154214145825,0.033505922288916655,0.02401508600000879,0.025128797207720845,0.02077523352289217,0.028216427020666117,0.044547676810092106,0.026958459885374184,0.04143339335933633,0.02378967569123878,0.017869553765618974,-0.007344342133257235,1.8670002422958466E-4,4.410431714188423E-5,-0.01706800042859268,-0.02715342699193234,-0.036574974658224194,-0.026968694005704643,-2.2508960086898178E-4,0.005007873776198331
327,-0.020521064584191638,-0.02189285090080917,-0.00585808745345132,-0.0028268198894333403,-0.0045905527993794285,-0.0015125097288104738,-0.02344556236428286,-0.014658219880653649,0.028642238605198624,0.04453080713013166,0.014219134544262515,0.012500284729511073,0.009619297403488984,-0.0029512273412540856,-0.013102546006677934,-0.020516266609647428,-0.023406976817450423,-0.029292566859334013,-0.019421074959017667,-0.016260140685819373,-0.0031887493982322708,-0.004768075025277664,-0.006426920927664683,-0.013249375322643791,-0.008042199441826013,0.021511504475973563,0.03768371186227228,0.031550041316436746,0.03863478100558123,0.056960787297153884,0.058472970454652246,0.046300955483916,0.0526441737062469,0.05664898045676964,0.05321944516132957,0.04526813729048035,0.05895387169818032,0.043004208565405884,0.04053161504111614,0.03413718105493906,0.042884175906294765,0.0360457347634374,0.036350410647329474,0.03990853299035569,0.035008821500555294,0.03385129204145125,0.044868905019858074,0.052278004001353004,0.062057214278749814,0.0483040985925751,0.05195393057978595,0.06033831038537605,0.06563284947471851,0.06771976903613988,0.0723682665812284,0.059307008821825116,0.0579265397298877,0.0571464569931591,0.049121932518564,0.04887717605483708,0.05191419577349951,0.04004291404009195,0.04753332258514749,0.04954627072279076,0.06585341189315838,0.0704115699682237,0.07104551526637697,0.07113520450933022,0.06122317228738057,0.06302598961722243,0.06735036851223457,0.07581534670234262,0.09004385549684864,0.07418146453951804,0.08176339220640624,0.08112005238648745,0.08639448564114202,0.10150210826440931,0.09598028211079176,0.09461216722503563,0.09769162057699163,0.06742188953616696,0.06660378559668703,0.05999715490797661,0.06297102090259976,0.05420085906114269,0.06732907334849257,0.06587742269359188,0.07207127899506253,0.08537782648009733,0.07403232067067338,0.06244983727275362,0.06278576813128783,0.060405365886938185,0.05258727115754286,0.04047676685006124,0.03945483540415353,0.03459566739583014,0.03866114530965478,0.041590661330988994
328,-0.046584953537421835,-0.03976615413045984,-0.027552086922633574,-0.021891593667367915,-0.010160496292434495,-3.76093288413204E-5,0.03044870159975023,0.03810699638454406,0.048964812190863086,0.05256815617773032,0.05675056567672358,0.06198538397238679,0.05644298363818062,0.0699871829423142,0.08124308692419784,0.08190744001537348,0.07958867019946336,0.08527042709717232,0.07778963376277549,0.0525512715391712,0.059216037371586865,0.07260860026125925,0.08980455440974708,0.08574689643914468,0.0880364756824922,0.09447468481512866,0.09389495706107809,0.1011956789849231,0.1190141377154623,0.1192234214305009,0.11550483499493033,0.12835223399259374,0.13659378730233782,0.11699842536169046,0.11563644189038298,0.11772070266003425,0.12093785504398888,0.12192215042389476,0.14790971258194505,0.13544016018151933,0.1334780837804365,0.1284369224798493,0.13180898201799524,0.14122675825473097,0.1631560521735215,0.1765041539648744,0.17308591071288762,0.1556434218772497,0.15131662920056946,0.14647202931141926,0.13688575058286281,0.14769511449571784,0.14611007396058973,0.14545463899411737,0.13829897629924845,0.13853605775632574,0.13592243239369586,0.13591969518442693,0.1177787072187603,0.12248671430720748,0.12407697690895868,0.12480423794323309,0.12454116894780931,0.12783663098889586,0.11974966766200862,0.11443938851871571,0.11016059922703039,0.11127738816660372,0.085403863950565,0.07315400216518214,0.0906730318990075,0.09508226229413275,0.08171373426632535,0.08162186384566211,0.086876322587944,0.09644930860115934,0.09832928171687008,0.09146222233739268,0.08817275043822337,0.08840649306228078,0.09218094929922584,0.09110628501684612,0.10166598446060467,0.09421642318369332,0.09017413773803198,0.08896592068188855,0.09767350290264569,0.10629757646706929,0.10549578992260183,0.0947299510460482,0.09729841006333201,0.1048759083936865,0.10339159029757804,0.09204137649624776,0.09410107437859694,0.09240378017612814,0.10947094444923353,0.11237388464793191,0.10871335484320559,0.11193777211551169
329,0.009455146217231097,0.0262270546695638,0.02183824369913766,0.03599345033451515,0.07595870599739767,0.06851530306383484,0.06545716662784316,0.06880653854986259,0.08195300574314641,0.06742156827333291,0.0627862693053601,0.04575667707090318,0.05522699364982111,0.0402422542420397,0.04217517376466866,0.020995811530616595,0.013629068649330209,0.01333052007863818,0.02623448213183515,0.04186410264358179,0.026359598547229236,0.04443536078468743,0.08261991373909096,0.09299523822413101,0.07278455574727255,0.06454063284759233,0.06643852438221523,0.06733393479596506,0.05702181791430132,0.0674811613222774,0.06357858668107977,0.07817558140192024,0.07812245407261192,0.07657746729989647,0.0667796830563761,0.06140976747189114,0.06426616904217995,0.08831428269778424,0.10008336142273593,0.10299993085963183,0.08111829452901258,0.07363179191517949,0.07226523560337492,0.08180518383065348,0.08363741152012556,0.07001679555006662,0.0698749190336673,0.07279287738883752,0.07841400167884575,0.08127396214455057,0.09055088058670037,0.09171345751665853,0.08922596187699516,0.07504660838132167,0.06296951084121462,0.060896891820893854,0.07470680255891644,0.10276015535721239,0.10262330138346236,0.11940971614532986,0.11911273272066727,0.11093619253026761,0.09768994233843588,0.09703263639424929,0.09825428482105593,0.10177623761851701,0.09044259970872631,0.07394562858704536,0.06660634170702502,0.07271350570023934,0.08036994518251026,0.087446309089444,0.1001241879501461,0.07679344197158607,0.08949349736148524,0.08155629551360075,0.08480720212138727,0.08735743274225508,0.08408327729546318,0.08627621863743298,0.09383646918038405,0.11101180462679279,0.09881856725129375,0.10334372505698593,0.11562553908585599,0.10253596603970802,0.10354216919966856,0.10632185986331008,0.1171371950883667,0.11144603670433127,0.11222878861973781,0.11304952927617384,0.10442460482411796,0.09906415798005373,0.10962686938430694,0.11467016447327896,0.119291897076069,0.11624372246590407,0.11177063487091617,0.08908338461907596
330,0.028264812217661216,0.051713352585460545,0.07896399510763422,0.09006582531170355,0.11068898174153446,0.1249702081432241,0.13700782585002938,0.14118272035864254,0.14687635502834043,0.16625561229078017,0.16446812400298957,0.1791453083068793,0.17246726081974548,0.17430567960592877,0.17580692996867323,0.1820270106923401,0.17725357485913776,0.19915327038034128,0.2061657053365872,0.2136829396892899,0.22195257203401844,0.22593063831033272,0.22576870599488036,0.23917586598842802,0.23366388612967812,0.24628077526927242,0.256561485291312,0.2459854395308105,0.2492703940716012,0.25257925623510924,0.26471391139109135,0.25977876613372997,0.2617492632692896,0.25471725959791436,0.26092947347655754,0.2502417882424146,0.2687017897332429,0.27400247453603643,0.2690270649340022,0.2760938407435722,0.27517580199873265,0.27621724427150995,0.2725157119079267,0.2744869374500476,0.2764626328409319,0.28163535724657396,0.2799217790185736,0.2657932904226002,0.25128961455742627,0.24316321800299406,0.2546041152232811,0.2550704837633404,0.262382055636842,0.25692864812266747,0.25780323558366314,0.2654624958017699,0.270433109591095,0.2711176401536713,0.26655345775217104,0.27933084992591656,0.29192625592748794,0.29788408590920257,0.2833135555835816,0.2792753790829919,0.27980716977694753,0.27315357889264236,0.2712840196210118,0.28138524790498365,0.28701054145402977,0.2954780039616062,0.2917635772892328,0.2861683381530353,0.2858215080635222,0.28658797502998157,0.29327587835822727,0.2956385679736329,0.29606021969429813,0.28975907731266665,0.30144260392329425,0.2954381251030988,0.30465091551736784,0.30518284292074765,0.3106958719787443,0.30298330100672666,0.3025669616487915,0.29570118891885255,0.29863802886125973,0.2893429413201978,0.2809133222323663,0.2817728719506608,0.27560028786556334,0.27258416262674445,0.2851911845831897,0.283407834590799,0.2881575001364785,0.27729158770740236,0.2802126771761751,0.28268475630062184,0.28603318801533945,0.29304446848510324
331,0.02929730442646431,0.08544145305458431,0.11341505189111593,0.0996520322609393,0.10521163926717497,0.10354833690249948,0.08850402493361992,0.09368555734145569,0.0846876630565996,0.07784502949550297,0.07725639876972172,0.07094918018770296,0.04582861477094885,0.055776940204540056,0.05987622596815464,0.051549635257723325,0.04572501729378369,0.038040907985445606,0.045991275734601204,0.04070316379314905,0.04612717339684447,0.04287536168838431,0.06277493275588267,0.06537035604102664,0.055366408548096276,0.046175784480711676,0.057032220363483425,0.07329383971491417,0.07133952708193808,0.07916023714221677,0.06344326853716226,0.06762369302668624,0.06524752637860015,0.07917413669635229,0.08007807792203493,0.08151030048047762,0.08084111292912892,0.07767832239713915,0.07318118586911986,0.07087470772560875,0.08045626396581503,0.08997352602153619,0.10547091481672027,0.09828838022558394,0.10294218553955435,0.09487127605739971,0.09781897569708438,0.08636985124999158,0.08209811093000784,0.09117292816769915,0.10163697072840677,0.10154235605355456,0.10739915655654117,0.101705511586624,0.0879236339685684,0.08254644588181874,0.0719387988736138,0.0719239503734042,0.07102531866233068,0.07155994895837788,0.08085443108013925,0.07867486757946177,0.08331862659795747,0.09445378314327059,0.09166298021364387,0.08871674226314472,0.07223793145404638,0.08185044481588032,0.08881538678399326,0.08573015457284879,0.08147551773258543,0.07542464489796102,0.07671330984102802,0.07315463092231775,0.07078488929478671,0.07623731671754279,0.08442931879764665,0.07992447828808345,0.07806749926404696,0.09646117261652655,0.11025711609672478,0.10901377764622301,0.10085985032528492,0.11279706225135923,0.11571665511750327,0.11233393049376068,0.12259605335710169,0.12449927580341034,0.1198912262206221,0.10929288473107088,0.10787183313259713,0.11317580397290315,0.09194180387394299,0.08844369663034111,0.0928547522304957,0.11116930301894623,0.12149220145633398,0.12115139352962803,0.1189834592356524,0.13294297008464137
332,-3.698529596815725E-4,0.1112769772989591,0.17234294760589972,0.20542157139397596,0.2031260706448708,0.18416362526406124,0.16723543951308317,0.16142981492959813,0.14082950434364838,0.12215620728880103,0.10811870137585394,0.1247894822683223,0.11544513184179778,0.12299818052087083,0.11041876809506407,0.11220387437762153,0.1113215145199383,0.10468411335151567,0.08870302349172231,0.075340891554589,0.07119097302011954,0.0730963403834811,0.05662178430678127,0.04313452391529265,0.028628329933102492,0.010450428223919976,0.03814859156700714,0.02783179718142762,0.047320265646696454,0.0518771581917506,0.04703304859270976,0.04631121020594506,0.040861456887379924,0.03586025432206187,0.03523941920585068,0.030048417784609937,0.021844860867725514,0.016699313420992734,0.0017246969063020282,0.001915856080109711,0.020201416264371677,0.024638473664906343,0.03431099461629787,0.03739244763182066,0.027880365349388564,0.03139432695737573,0.019474315490488475,0.02744499725951365,0.03727649694628574,0.033486774761927664,0.021082376511349758,0.009989340003470881,-0.0032376917884498315,0.006722033554270063,-0.0030533752164139043,-0.016681428804954757,-0.0068264867174723945,-0.016151503204269252,-0.007924261680584329,0.010629205109724786,0.023765091981458757,0.03225385876023096,0.041359960494086856,0.035706774843060896,0.027795465662391085,0.012693445294768815,-0.0024744574669726,-0.024721535134569917,-0.01070474134947667,-0.0160930046778892,-0.023907202782834664,-0.03281193035904673,-0.01746993317055074,-0.015798821375096698,-0.0032413083487269636,-0.0022055487759383634,0.006784758506455553,0.0035154546378689698,-0.005677046384263454,-0.002921849341453459,0.0017706517091581149,0.0058939787554614775,0.0076368639359958145,0.006211929986501767,0.005865084928390338,-0.00834115742351396,-0.008627904598132834,0.011509024032736919,0.015043681454124795,0.004961327650872353,0.004398549479774068,-0.0037914178604326193,-0.0037815487850242735,0.007857868607000839,3.8004708048054806E-4,-0.008799996225435527,-0.005508541706970991,-0.011875624112879677,-0.021383510136077664,-0.01772791557892447
333,0.010468273129422152,0.06062192180502169,0.06769991555575179,0.083220574051073,0.10207882441448816,0.10876992402515065,0.11437160815638865,0.11809751659173578,0.11987404581357738,0.11951195485487924,0.11223317949810353,0.09651201676100146,0.08344346583143004,0.0793179067217714,0.07774639609517042,0.07238012379691722,0.0676039234031926,0.06061874418018713,0.0559153036279391,0.07389309289474223,0.07646037197893514,0.08506185871628182,0.10182738804196705,0.10898299168280003,0.11594750781617588,0.12174651593817036,0.11174800447832134,0.126395214655485,0.12843019055504393,0.14343367487580364,0.1524637110112801,0.1644855429363264,0.14723767787224715,0.15805596489595294,0.1471381517260834,0.15783717119529894,0.15501478120559098,0.14474323171517214,0.14032628425099974,0.15509368221641387,0.1632086047835713,0.15884890299558296,0.1492713718094709,0.16150651163089336,0.17205332907163945,0.17608733119869713,0.18522597619249115,0.20215457610333232,0.20040595044547158,0.19776070172514884,0.18810837358638163,0.18684206715793383,0.1872025774016282,0.18903337913776852,0.18721588435037526,0.1841715972092364,0.1949867622885445,0.20284063913414382,0.1834737338629395,0.17829577171275382,0.18891258411453463,0.19181472678637465,0.1939688021477561,0.19552967835036145,0.20427935128404676,0.19967349940206783,0.20121936161509096,0.20048237329108556,0.20029949690726195,0.20349617265880762,0.22043147445161052,0.23368492729352158,0.23165114353200394,0.21818937314152825,0.23578270502910573,0.2482355910991971,0.2534901724410908,0.26042805895020643,0.25952103559534584,0.25397008080549915,0.2454913263980883,0.24241396159283102,0.23894616779591116,0.23719736328002702,0.22594107967964006,0.22145617121482203,0.23495750178303335,0.23779336232210863,0.24572909422648892,0.2427722998972775,0.23031515876968314,0.22397846351317782,0.21853688170775204,0.2325929347654838,0.22827158155141888,0.23364672977806702,0.2356576284502399,0.2349749496106492,0.24332004363690607,0.23987146772074058
334,-0.028838639052117386,-0.07884489911752808,-0.08927307523364153,-0.08659656731284283,-0.07088366528370336,-0.06475214474459552,-0.05695132349051602,-0.02893334586658316,-0.005151105344601554,-0.003236817998586948,-0.003104601426982561,5.480675995777825E-4,0.003512067972291884,-0.018353917626278714,1.59529348421088E-4,0.024481631473906723,0.026055834941869745,0.015055038293330294,0.02552261336349729,0.0320357073395951,0.022020280409228415,0.025495258495284046,0.029928813702009838,0.041126226954108606,0.05283106551710381,0.04887072470707685,0.03337654675566625,0.031983015984859024,0.0390182606782784,0.01832046587417694,0.02356371477353533,0.022463688693560285,0.038185759082139954,0.046722855119386945,0.0472706443349052,0.05373928139357396,0.049850650609985545,0.04436350285252131,0.034435141324885316,0.04525748973182695,0.060636320336245816,0.05610908660350133,0.059160016893135436,0.061053831977143015,0.07525688253795793,0.09136741478662397,0.10399273053189444,0.10110256568726905,0.09987947616612321,0.09815842348235986,0.07383252932976252,0.06535968913626083,0.053991907310199656,0.03579001129980181,0.03876708267110551,0.03418312687139956,0.02283376949418888,0.019601730856452757,0.02903674799795979,0.0406519319657192,0.042658095873689385,0.04735874522051127,0.04446317562537503,0.05301420899963299,0.05374585677007185,0.04456791447258665,0.05172134635496588,0.050814820376870254,0.056901877141598466,0.0685914349176065,0.06471120016420079,0.059231766477613836,0.061612666965897366,0.05899488410650467,0.05196680138317337,0.05256488983957311,0.06435934527052078,0.06354585965427742,0.05986606369225782,0.058434210962224294,0.0634546060970964,0.08473473125910914,0.07258404766837204,0.08454908485624152,0.08527783085721855,0.09480105040869946,0.10881808055517084,0.11516958599182667,0.13731314111590925,0.13839930405188905,0.13555920616992234,0.1334607977239752,0.11853462748356282,0.11612516515316643,0.11130987641833888,0.10351276370856433,0.09618155017850231,0.10261369525825431,0.11018637396171359,0.11111455175230653
335,0.007130621883909583,-0.007679840052145734,-0.016982868156987584,-0.016186647370098433,-0.04883826426394906,-0.043676531198279384,-0.04640394991591235,-0.0610284249620666,-0.06606101233470736,-0.0821388797298978,-0.0804579050884123,-0.09828784461442817,-0.09675306944095077,-0.10101701361433296,-0.09138615987229666,-0.10176983701374655,-0.10009177495572041,-0.08865412228321766,-0.09489559054113504,-0.08130191298201662,-0.08034964306674035,-0.06712788382823472,-0.03523897452331327,-0.029539714065820313,-0.018544418946692055,0.013291229027472677,0.025010450009457386,0.03740358512895431,0.03403263723347477,0.03508694175326644,0.03147780032714505,0.05243773022054565,0.05466315430048086,0.04661253962661505,0.04964578890884415,0.05222093684152854,0.051555278193926274,0.03983689628190319,0.035032636548639105,0.03488820579474724,0.04435125204473275,0.04145789657012564,0.0445705773740491,0.05508178171707046,0.06407864097151279,0.07230270908233719,0.07774850396602137,0.07118846794757902,0.08470702870774209,0.08155543436875337,0.091596429671542,0.09051242609567495,0.09526528881074313,0.08686150185204118,0.08000946328763764,0.07234966627519694,0.06317225768167448,0.0689810043743038,0.05768824715759505,0.048925200841240815,0.040472814839180235,0.039060074909805655,0.0342262422277746,0.05370711081752218,0.05660349073401015,0.05079328404503126,0.04731910658594323,0.044629003105415135,0.05222093068565152,0.06060922552003758,0.060671180680329374,0.05908514905721812,0.06430315253806546,0.07442362293585023,0.0877181143886545,0.08920474679776878,0.09379286941220245,0.10869509672250223,0.11088074809465889,0.0869796689871813,0.07152645615551678,0.08187036779307225,0.07142367851262975,0.06980001146967925,0.06437800257865912,0.0818494781503362,0.06928410660878966,0.07367293629515279,0.07778923372017835,0.08105944190520167,0.08666935639240325,0.08867538832397996,0.08164010881749077,0.07917559725102162,0.0836014284477756,0.08831942185909339,0.097374431053371,0.08786189107712834,0.08496892076340849,0.09144890469298178
336,0.005424745996629201,0.07228612526455462,0.09945845693580116,0.13640399180872195,0.1437617392353788,0.17068539978564062,0.1772471729173452,0.15315231861152953,0.16800487906869,0.16478968389856466,0.1541723194873299,0.1545320898374548,0.1453636267261179,0.14513566787364782,0.1272950122158654,0.12338074916985559,0.12879349441680654,0.13155461770709936,0.12804756325886663,0.11327339068615305,0.1018931872087621,0.09534322573977622,0.08934152181049913,0.12774333401287424,0.13160701812031067,0.1424984325646013,0.14998867469903637,0.13001464361445966,0.12639190446459553,0.12282158580567622,0.11833085390874555,0.1295062377934676,0.12947931275786545,0.13794717629509656,0.14279482846529296,0.1441873469463709,0.1397024722532863,0.1366100088338692,0.1354008742691275,0.14279651185793316,0.14713264847869723,0.15332921171376165,0.15049215150975848,0.16021475628939913,0.15493717288154862,0.15596544702549092,0.1593726683675805,0.14220632795058402,0.1420789273391875,0.1348083645762614,0.13055341883532318,0.13145869225008566,0.13343859735477132,0.12670876274811127,0.12448457015766104,0.11857461446394486,0.1014048227776621,0.10325250417718516,0.11018200805622402,0.11392178285480407,0.10397534925329664,0.1095892547907566,0.09895392309492612,0.1087893094487173,0.11206135494364836,0.11625521252461417,0.1081896404426029,0.11393210190095625,0.11060974889853205,0.10697682950191238,0.11367080737020938,0.11029761063385297,0.1128373399511927,0.12780988037141636,0.14373832121231744,0.13527600699296072,0.13354038282196445,0.12770725927013907,0.13627818572166972,0.13555836546232136,0.1394353754233066,0.13940296156842497,0.13885914168278737,0.14685272121548856,0.15471154003111653,0.13892046729832588,0.12415220637328384,0.11989891406627655,0.12049288167552595,0.11901319185011597,0.12471546685121401,0.13071674121970134,0.13085626936238584,0.1303286732251601,0.1285697580892433,0.14091382781699077,0.1380202163969555,0.1297267767234946,0.14012057919108767,0.13533492332123123
337,0.029063771558162848,0.03744300631610824,0.08574639124337974,0.10332952668936671,0.10125578801473058,0.09906232626217427,0.07551008700189789,0.08234908650702157,0.0653426027752436,0.06382391608461231,0.06779651290287547,0.06917296906446452,0.07328971417705157,0.06854524289520735,0.07544919121638306,0.08028183487934787,0.0744169442574428,0.060220273636526205,0.07526290490370663,0.0774009219838469,0.07536818181127933,0.05590316714541936,0.060033270423433274,0.06443050390143443,0.06140407041954253,0.06809535258681275,0.05797131915461623,0.05736290900319348,0.061226350112275583,0.07857017121625702,0.08503820018749268,0.08216986642488744,0.09486149028371285,0.08795849012440651,0.08098862009242933,0.07463439877929506,0.07139228915291032,0.0641202424254892,0.0764293509605513,0.08987680112441554,0.0859987175182408,0.08412560377186296,0.09412996644230255,0.08768221053760888,0.09139925923629333,0.08728234777236477,0.07761315256267168,0.05074977122687088,0.05405311001386509,0.04484159089085141,0.0431668204197095,0.0449783426999278,0.06291841553542081,0.06417512054540228,0.04873744715762461,0.042526938066454543,0.04745820857695728,0.04501880761685451,0.041890448166599564,0.034528042613756305,0.043613439965392804,0.05233420552378327,0.04884065862099396,0.05022675285074045,0.06075058286670187,0.06041065066742395,0.05720568046314406,0.05011722693221107,0.049400982573115954,0.03936748424678307,0.04540948140652847,0.04389593113207149,0.041615190993137464,0.045199764819046286,0.05345736044049154,0.0529650911342421,0.03872127255610165,0.028477239788126482,0.026600604735548386,0.009514770284412227,0.00791122411837611,0.012818668760913839,0.009493013114187685,0.010540814858248497,-0.0010106103089131385,0.007406589196162321,0.01281437399059865,0.029535594608159056,0.03404725659293098,0.023560910495780067,0.029310780382758694,0.020352300125151147,0.010395443382086582,0.00914071281256958,0.012907953793043494,0.009572995178632202,0.0018159799812245277,-0.006287513329667855,-0.0034634327152912674,-0.007624820303213714
338,-0.0011624717301635368,0.06345755803239526,0.07072068294720565,0.0783964387217042,0.08044953819452949,0.08350903406655086,0.07469979752270867,0.07591209117543742,0.08380736457524969,0.07694894567550428,0.07396122133107043,0.06592231619315077,0.0695632674753526,0.0735188529590894,0.07949815021314093,0.06504793001638287,0.043366305700969984,0.06577208792709036,0.05892978019884414,0.08378008205829739,0.0856035906353228,0.09602791016408373,0.0816888552859172,0.09596981121092617,0.09181792712414176,0.08350742059739008,0.10384834701320157,0.11657086857071164,0.13410102379857314,0.12173160523588512,0.12426359775679424,0.12358960469856557,0.123426890275492,0.12019587516392467,0.11030913166621822,0.11868458004488527,0.11572009024386298,0.12090303640871398,0.11677014553520718,0.12410356358084484,0.14144957827145413,0.1406780774009155,0.14800512256036905,0.1438920055870717,0.15514378881860613,0.14193191074588704,0.14700697086970835,0.14280112677888548,0.1603791291516012,0.1589378811621323,0.1433433534069862,0.1456339558155441,0.158640082334372,0.17319166191919527,0.17253089544680159,0.1671761811225522,0.17173789197479475,0.17960909826019372,0.17672451195718725,0.1828206101808581,0.1751290885219775,0.1783939221232252,0.18655516115326376,0.18760427483093475,0.1945428248891508,0.19983278516432146,0.19949651349314323,0.1893001907955188,0.19208928940920578,0.183528166141382,0.18716259464959048,0.16737671642045449,0.16585262795873723,0.1673982657889578,0.1650083226034173,0.1652400570256606,0.1607846597540833,0.15810091518197214,0.16128886049783933,0.16654348082001966,0.16985852960010145,0.1741032242267958,0.16441413496040913,0.17106793319468916,0.16104191445377647,0.1601812665914621,0.17242832180668122,0.17667013336739093,0.1668130364161398,0.16557185608042044,0.16420853218646084,0.17079807610740466,0.1704111732385189,0.17523729110313027,0.17394292145031368,0.1843272193052875,0.18158353152833215,0.18744048893618565,0.1819398092671472,0.16544694406590324
339,0.017943504060493002,0.050650084295093156,0.0373932914550453,2.798668096280349E-4,-0.0318439626135346,-0.058222474214349305,-0.05932246034621817,-0.060254322246080766,-0.04752994571110631,-0.05376165088414595,-0.05096038103020125,-0.053457727558731814,-0.05607381917547412,-0.06636868266778956,-0.06643980681236988,-0.07660728267854978,-0.07679701801099445,-0.07591233298195864,-0.07803485694015673,-0.07509654393081919,-0.0744721179240721,-0.08275381875905763,-0.06498990049029893,-0.07801964892916496,-0.06867477930059697,-0.048966299751860606,-0.025471584126232218,3.1226270563976586E-4,-0.022603873318494793,-0.0166516089380966,-0.023578375142453298,-0.04488562963698351,-0.056241902530160946,-0.05952450962586051,-0.06559166328012977,-0.0607238673130842,-0.05603701396551395,-0.05886367589821325,-0.06531508211540495,-0.05474942348873374,-0.04130041395530514,-0.0453639347568061,-0.057287697144083036,-0.04539771497794793,-0.03215998216337165,-0.028668100622115524,-0.037176817024799524,-0.03613199004216232,-0.03239172480519957,-0.03646523643853592,-0.0292916664200161,-0.016143410649202578,-0.01372749822489625,-0.003093612213069302,-0.006941340154279273,5.993359494787343E-4,-0.01877312129624609,-0.024818355774919917,-0.031191237542044968,-0.03704923839367566,-0.04645383238729695,-0.03891837744802231,-0.04749359700094795,-0.04364238545399524,-0.04942314680759373,-0.056933783420229256,-0.056009364629985584,-0.056081881754394304,-0.056834143907731505,-0.06127973529532929,-0.057883117732012775,-0.060420203107889564,-0.06576915021665872,-0.07363283507757531,-0.06981512723476582,-0.07177983371269696,-0.06277312421724669,-0.059189173100114664,-0.060913036650714396,-0.07489838277034913,-0.06941737425039679,-0.07276333954908075,-0.07735484187582756,-0.07231547166380184,-0.05310334294045732,-0.054707452232287596,-0.059001161032120074,-0.06594980475232828,-0.06982254457990479,-0.07474737667409947,-0.07883987165625883,-0.0698760538551707,-0.066095373753311,-0.06565720183387036,-0.07187480406336132,-0.08089748525733358,-0.07450599588016703,-0.0597075003993113,-0.057220674655817684,-0.053989282818301704
340,-0.03287597734218364,-0.03250401837391331,-0.06478169973898343,-0.09618698634500658,-0.12172186648907697,-0.14886169735257174,-0.1492893965276126,-0.1518868801419723,-0.13536479624055622,-0.12652366539205506,-0.12072419963686805,-0.10562093776626255,-0.0956326794173065,-0.09769517767502654,-0.10138350913200882,-0.09668203638488893,-0.08438801247939752,-0.08790725612727733,-0.08501936345591522,-0.09078089046163264,-0.10696152714573232,-0.08444653060017358,-0.07349449227476326,-0.06679427515725452,-0.056958768023399206,-0.051549765517435675,-0.033728579048724436,-0.0477087394435069,-0.055205852216323216,-0.045856123950052965,-0.042577007381277336,-0.04268440189710853,-0.03689270378474034,-0.04926297885195365,-0.04493621235458562,-0.05007400802154038,-0.055959701934306334,-0.05194024664906587,-0.04975201982664894,-0.0655706599785614,-0.06698054956033679,-0.05639973466553351,-0.0708763384704793,-0.057591790557911075,-0.045974480239936576,-0.034292330500396255,-0.024160421777259602,0.005261324968055512,0.011264484329525204,0.0017634202148403893,0.014775555954864383,0.026490085821279045,0.025023772163657844,0.04041611983769936,0.019022290095217723,0.013754000583134918,-0.002071666783393466,-1.9515872021453107E-4,0.004371035137506479,0.02567310300111966,0.03993399682824859,0.04061053839210142,0.06033112590473564,0.05720559333406028,0.044528035735012045,0.05081043103417549,0.04553428218295452,0.062242855617397196,0.05231784385696723,0.05162998211700935,0.04968149351405502,0.045490657060175375,0.030729029999728798,0.04055602670432885,0.0418726521175348,0.039655541703155855,0.03721750533645495,0.03615770374528949,0.045270884364641016,0.047071436141740704,0.061430279080820965,0.07097263171831526,0.08288493011672578,0.08814919585210199,0.07722791879764883,0.07551435200250997,0.07061253627688549,0.07579692275178787,0.07005665564325841,0.05727645968144441,0.05503279769878251,0.05596104126951143,0.04900999358512447,0.049974542490348564,0.04777315210007082,0.05539407466234032,0.05770986033277464,0.05684174538031648,0.06671552254003701,0.07548304199036156
341,-0.005559431296522481,0.024751059731710698,0.03815880438176819,0.005043113205956209,-0.0068253498462122,-0.0026095085349681444,0.04050230088115012,0.04670916329959165,0.0730688034217481,0.08534105164254205,0.08984580013421549,0.07157537228017503,0.09219354006416908,0.0953444409196757,0.07573939059019852,0.049534935583948864,0.041115206313756446,0.06159326847052931,0.06600851409706063,0.07631989208247765,0.09546550884516193,0.09887391486356462,0.10209325870242644,0.09812763373101589,0.09768575220997514,0.1049896202473851,0.10757508045965443,0.11351649478559205,0.12472740533964403,0.10878103618279561,0.09573740884642713,0.0834477306550378,0.08131427572994808,0.07065294205734024,0.07719789042011488,0.07809702257233392,0.07615531383986983,0.09774538303241187,0.11918692510785622,0.12411498717974988,0.11051351657366962,0.11059274262465467,0.10307662264244075,0.09697168678866655,0.11283197394515936,0.12140031888096166,0.12349970407946655,0.11307215137131564,0.09674832458960576,0.11013480348587222,0.13301895108503312,0.12282230402190443,0.11601819938288992,0.10514706903031755,0.11812184342816703,0.12900051256800535,0.13945977344772179,0.1261827192908905,0.12957030099599753,0.13450438734825831,0.1359961830273578,0.13173166042809437,0.11527782140134382,0.12203306536524139,0.1272266065238351,0.13065211700859453,0.12805165632265483,0.13497300289817063,0.11357336756776641,0.08616885950307225,0.08303951447764245,0.0746313491138936,0.07497930076978197,0.07975837134986745,0.07741404490627439,0.07292883479351811,0.08202036208614821,0.08455924595914337,0.08435681717681391,0.0911978990382937,0.09729293994877229,0.10486010899855741,0.10704233322933943,0.10530190492995001,0.1008031722537044,0.10330270681694381,0.11203425117956638,0.12210004780906508,0.12767030744959498,0.134893877026129,0.1457271618303647,0.14030713076920462,0.14503277825580554,0.14742673649218185,0.14325261423268695,0.1478448904381543,0.13216319988352465,0.12372324620442957,0.13039273652896863,0.13362740008263302
342,-0.018841627202352173,-0.04177038044453333,-0.06371026790882549,-0.11278569892441355,-0.17676703338711128,-0.1849386170404012,-0.2092780847283083,-0.22518087624844707,-0.22278777289752832,-0.24172112925164485,-0.23443272053869252,-0.2573375005306157,-0.25305898709025487,-0.2513769946553515,-0.2616741016036719,-0.2637774068064827,-0.25002879133899714,-0.25699744936076635,-0.26489306221356407,-0.2495132446892013,-0.2395846480468261,-0.2419944663255206,-0.22895884290492108,-0.19683952056996468,-0.18570910938933216,-0.17611172486984883,-0.1604934023078054,-0.17171030219635428,-0.17073524907353424,-0.1663876441165325,-0.16609950944194377,-0.159264249884586,-0.14689130982735668,-0.1275184322946959,-0.12548388468578997,-0.11657533056470318,-0.09521665665193758,-0.09092077321012511,-0.09063090809563652,-0.08951636857278812,-0.0907438388398743,-0.09015528253018777,-0.07599270369887899,-0.07285590689517933,-0.07100247282544978,-0.07463966292588237,-0.07447587396227448,-0.06224529262340886,-0.06048855813689294,-0.052926200750537264,-0.06148156122125621,-0.05635232370336375,-0.0787779064066814,-0.08734545044443653,-0.06804161088899317,-0.05409960046051378,-0.04537036577378418,-0.032865430339461967,-0.029032200085901877,-0.00966938756156249,1.9223362592392433E-4,-0.002443672521924554,-0.014344182597735322,-0.00446838131829746,-0.01069148844144807,-0.0078017460249636605,0.016462397156825837,0.01715892208329574,0.02005801757443635,0.016842354406270802,0.019219899434013088,0.024400617087299535,0.01788085277481073,0.00804467559263492,0.011535613519319669,-0.0064738191900332856,-0.009830611170591204,-0.012868254001841582,-0.006427457385572788,0.0024090157833399476,0.006369006522315137,-0.006477007640360681,4.755816572129262E-4,0.014894553549888374,0.007036143303028528,0.008412269353100714,0.006344361089021497,0.0025255825180773798,0.007681223869567547,5.934463537866342E-4,0.0014851397367554053,0.017246095486933014,0.027854456029777288,0.03837910636634073,0.032592931449435016,0.03344598354266736,0.030857004943510326,0.03969629146737122,0.02546837505242224,0.02871462300649512
343,-0.00379912769284967,-0.00816148301049615,-0.003459241386491428,0.005770322362690145,0.006093876660250424,-0.006823384309883683,-0.019749593148910168,-0.01604833098994638,-0.04044887886909901,-0.0413698268927365,-0.061190489303153385,-0.06446949020481464,-0.04214918447439535,-0.03889220044856567,-0.049237551267473104,-0.042392216436074354,-0.057500742115890464,-0.05414575365521101,-0.056863860869333385,-0.05045232045804649,-0.0706709787407263,-0.06216831706701487,-0.06577198285632395,-0.0501885195286987,-0.04988911217951591,-0.04750072220130399,-0.034778243706368825,-0.04510770438006289,-0.042349447540275406,-0.053409353520811935,-0.051969070931230786,-0.05511700534515516,-0.055453629208780324,-0.05541776805050503,-0.04251974876745244,-0.04166315982636155,-0.045290880233483766,-0.04144876237524733,-0.0413200712059544,-0.03896141773982697,-0.039839513335147195,-0.042829750381600744,-0.03853573375557486,-0.042335666203433035,-0.03153770857007651,-0.03282207650237393,-0.04074855151066468,-0.031147946359431945,-0.03946792352980578,-0.03307639750953834,-0.019680006481429268,-0.023509689008901113,-0.004085344877226797,-0.02355744194597528,-0.028919119143882524,-0.017773527668974273,-0.015473144907933091,-0.003178120800676914,0.012808041733527566,0.004897490226428598,0.0015792451538751673,0.00972849258510284,-0.014433095845537772,-0.022084191274479085,-0.029621662178141897,-0.04188763583343213,-0.053222126141133065,-0.04422942652953563,-0.05717669393797958,-0.05868898383947224,-0.0662656485947227,-0.06828230213373326,-0.058954723993916325,-0.05816418002362818,-0.04424783272639323,-0.04337232862382957,-0.05534834373790864,-0.058419038931465536,-0.048192344236240546,-0.05838452331755582,-0.06431494013229493,-0.06157999919175462,-0.04116085466999917,-0.04421170293140631,-0.056573088667642484,-0.06505219562259763,-0.06554972843267706,-0.0571124083591866,-0.044773371778151966,-0.04989338030632558,-0.04711241792586847,-0.03376439568577375,-0.02745155093360468,-0.04232741481809893,-0.05030928522735636,-0.04497108549767354,-0.05434316739441416,-0.03742810879117798,-0.035242514800414126,-0.032603465541037685
344,-0.008045575913459658,0.04668814254976998,0.047698247843164863,0.0779344324407057,0.10154039920825726,0.10091608983746055,0.10615818793835734,0.12994482972351185,0.1241749024368896,0.11967177394645341,0.12290278834316654,0.10389607863056995,0.09091564598934088,0.11003262679129705,0.12526185100034887,0.12229815103050252,0.11734402987851662,0.11554664521192666,0.11199115747702758,0.12010872026779099,0.10840195934153644,0.12897637535587594,0.13335633139718892,0.1374760783033335,0.1364375552160345,0.13720480373762362,0.13494224300129634,0.12578453660487313,0.1278639771811518,0.13252666074849104,0.14586773423888633,0.1473905396559292,0.16174979378233204,0.16837488693615935,0.1789406185544276,0.15857622429725304,0.1767209653169457,0.18885916922492116,0.18101616199913462,0.191548642072391,0.19728146568856744,0.16574996352817503,0.17026164889627377,0.1560803784859044,0.15060705916733796,0.16507883355029138,0.18090357498403636,0.18089107514562763,0.18130591087611245,0.1904979544119562,0.19305617984615908,0.1941770454321667,0.18385431821532688,0.1791618546182194,0.1803854952945137,0.18200308355770572,0.17550009912689077,0.19117947228682314,0.17867432092395627,0.17388927030992574,0.17312006636316846,0.17451454009554973,0.19479321933085736,0.2042073990799187,0.20388571302332906,0.1877415475969625,0.18279250314743378,0.17330206671002008,0.18691552316990276,0.19225130085811443,0.17196803746082007,0.17358495057132245,0.18802039236871654,0.18866133982547809,0.18410265983940172,0.16998718390004303,0.16607556894555864,0.1763850265150123,0.17573292110312613,0.1625037365238056,0.17669619198848235,0.18537368112562505,0.19766831152334405,0.1941486790397882,0.19867318466605877,0.20040813742728047,0.20343939795472615,0.20220393089044972,0.20072752604412758,0.20122508223392488,0.20492001195962317,0.20646389702613066,0.21915563030686905,0.22140406624149286,0.22504788799437805,0.22165343718516511,0.2268342736880011,0.2295526903806155,0.221928488338016,0.22629894912958215
345,0.020277361201899064,0.04753468553202287,0.07522997457733192,0.09124809565347945,0.1063754861149617,0.12704365534582385,0.13407451524410954,0.14027660137127201,0.1377014457621229,0.11621280642291727,0.11430407618156878,0.10404491757909165,0.11201542378125731,0.10483737636556992,0.0880659419331927,0.096842570344594,0.0968545465148766,0.09606944344416768,0.10498320602506872,0.09909310454397106,0.09246794208401976,0.08927238732559138,0.07502402850067362,0.10378261491767246,0.10305897410073614,0.09478825450591027,0.09868666322887838,0.1136682659619867,0.11816179045628389,0.1149510861755211,0.09211615992605472,0.09150264710691504,0.07501063881745063,0.07840531305026043,0.08119651604015926,0.09011276810619291,0.09928595836097279,0.0792710812862088,0.07398306598187158,0.05546420527585926,0.05437065808189601,0.06233440942902216,0.06148907327266515,0.06489672077116636,0.07570659158335782,0.07036777525145169,0.06905659096309276,0.05756583634537446,0.05943528099193425,0.060968759377847244,0.051384379271736814,0.044876819302863497,0.059573348459868114,0.055842217629747344,0.04744210611579033,0.05484082614839836,0.0497171059740831,0.05567758793054006,0.063365178146422,0.06706790566954887,0.06407107974507116,0.060924646449884406,0.04701138714766143,0.026352988802117783,0.02529574232568753,0.01769924399773952,0.016279155416737995,0.018517166105853425,0.028128743052213304,0.033693027394387884,0.030282414976093065,0.03822511686656358,0.05648976332179542,0.05635045438398679,0.05838131532440467,0.06288512346297154,0.05267322958940994,0.052943328298854425,0.048002581347688186,0.053214781820602124,0.05578019874132496,0.05741878622356464,0.049954747833533215,0.04487712464464494,0.050707615506384945,0.050935827544348646,0.06130690729569674,0.048082096107965405,0.04334528688101984,0.03870109524108344,0.03920895895546048,0.0396728137373328,0.037819678388025205,0.04184565188018039,0.025803141986946044,0.033140410828274416,0.036584665378131584,0.033119681879192654,0.026722441387612105,0.02483028707568752
346,-0.027960403663031087,0.010256267422558958,0.06398171324560992,0.1110871198975475,0.17458770265851498,0.26034610876782793,0.28518801294355833,0.3114325925069881,0.32619400062781545,0.3373929991869844,0.34983768025666284,0.3438208952670551,0.36082453827573246,0.36349979645256064,0.36588229720835,0.34381819014268317,0.3425617768441267,0.3361183186772305,0.33409381524797277,0.32919468944960767,0.3297871523099497,0.3347901642576319,0.3406142563025603,0.33946131908163546,0.34305190792512374,0.3500458722870146,0.34047830174931704,0.3366943287387788,0.35021956744893645,0.34910842757119526,0.3605642049174974,0.36242257465243377,0.3774852412940066,0.38063153318448006,0.37856796231608875,0.37525433440325373,0.3783005900665307,0.38935001392613267,0.39401494646932667,0.4031572853101844,0.402637823099854,0.3914992993163924,0.3786474229259934,0.39033656330902744,0.3890798826586909,0.3849058181321082,0.37863419206604837,0.36810966118132016,0.35910322288393914,0.353919721370237,0.36856906117542904,0.3780116049817003,0.38487320099801375,0.38983338664539036,0.39363680880449503,0.3866659261514973,0.37702817443484443,0.3765236033679678,0.36853529293335535,0.372095871796547,0.36704546779340425,0.374970703854999,0.3828363597546252,0.37754461682809326,0.37559335963560003,0.3778105217709992,0.36423992605591893,0.35475706825813347,0.3582895197577216,0.35851607963685345,0.3689538522513835,0.37303264076672804,0.37660895384788895,0.3802161082321196,0.3797581930921241,0.3772583756634964,0.39249963968180346,0.4000431480662588,0.3982299339463586,0.40243861236483935,0.39434303498927714,0.3936335112621614,0.3980205414884849,0.4031631920311056,0.3892908259036213,0.39320404534352804,0.3911629571427908,0.39632450230478883,0.392580038206965,0.3809332496277993,0.3878322558119208,0.39710661711823525,0.39971194840391466,0.3983486624146434,0.3964554600411756,0.39262331738483774,0.39694837650022785,0.39818555613892387,0.3973668781919435,0.4015878147939707
347,0.007142595946551775,-0.03154160801362704,-0.047255286366492656,-0.0847324420046133,-0.07606283753837069,-0.0989715146087874,-0.11341832089070591,-0.11314924319075467,-0.09113333579243214,-0.07620219879628351,-0.07200379781066353,-0.07300812674074768,-0.08123573511605571,-0.07075069476170082,-0.061018943139498204,-0.06273405964990877,-0.05616438967068346,-0.049642656891072744,-0.056160856898785826,-0.06105935661892645,-0.06853884038420964,-0.05566884144546507,-0.0526495245815938,-0.04572391043782655,-0.05604192806496537,-0.03443680183635979,-0.01965845991463089,-0.006529583317063905,-0.003046653962526451,-0.043394828284198335,-0.04797813680151448,-0.05107798800504645,-0.03494362580724264,-0.055830458756955664,-0.06685060361364999,-0.06293017572609584,-0.0503777712373788,-0.03350995571387241,-0.035640102104166065,-0.043578469462934984,-0.04887412383467361,-0.052507011456747195,-0.054628998314909846,-0.04552382773400846,-0.0384054292085242,-0.03380735624362094,-0.012400955809361148,-0.018613464929760137,-0.023435733080716628,-0.027005031882447295,-0.03251650337837669,-0.02189489193561929,-0.02311033689951295,-0.005494050163509996,-0.002155504572533754,-0.002540467339753158,-0.01786755170927438,-0.012840184125692109,-0.0018382952972084085,0.005231347937477133,0.031015843197489082,0.036726711175283075,0.01663742585603048,0.0016593986636703124,-0.008002186231620391,-0.009380755824757288,-0.017827126425307333,-0.03297762204112614,-0.027594195807724483,-0.019565385678659793,-0.01589763313598439,-0.010396062563703769,5.005854705126045E-5,0.016330426535196462,0.025900674270099948,0.020665281418062644,0.035927001588195805,0.03266708706808107,0.01177939142207826,0.010657162519719342,0.011163466477320173,0.011514747565101608,0.011464430350499382,0.01584421364819335,0.020398553801806777,0.015765115181090986,0.02496529430478831,0.03146344516831059,0.03735938003801287,0.0415469630687029,0.03296604386957215,0.03595988011779173,0.025799846513010115,0.013075783547789419,0.011579398237209725,0.014405205397393324,0.02563108760984485,0.026015219833477547,0.03896255434898662,0.03825558691432254
