id,intention_0,intention_1,intention_2,intention_3,intention_4,intention_5,intention_6,intention_7,intention_8,intention_9,intention_10,intention_11,intention_12,intention_13,intention_14,intention_15,intention_16,intention_17,intention_18,intention_19,intention_20,intention_21,intention_22,intention_23,intention_24,intention_25,intention_26,intention_27,intention_28,intention_29,intention_30,intention_31,intention_32,intention_33,intention_34,intention_35,intention_36,intention_37,intention_38,intention_39,intention_40,intention_41,intention_42,intention_43,intention_44,intention_45,intention_46,intention_47,intention_48,intention_49,intention_50,intention_51,intention_52,intention_53,intention_54,intention_55,intention_56,intention_57,intention_58,intention_59,intention_60,intention_61,intention_62,intention_63,intention_64,intention_65,intention_66,intention_67,intention_68,intention_69,intention_70,intention_71,intention_72,intention_73,intention_74,intention_75,intention_76,intention_77,intention_78,intention_79,intention_80,intention_81,intention_82,intention_83,intention_84,intention_85,intention_86,intention_87,intention_88,intention_89,intention_90,intention_91,intention_92,intention_93,intention_94,intention_95,intention_96,intention_97,intention_98,intention_99
400,-0.0022009756854780914,-0.007678113299253247,-0.005892794786224953,-0.0021958291472769127,0.01895903037125545,0.02231163224236733,0.025813128635837238,0.02480739588512821,0.023347829157210245,0.02144119486660455,0.020795690723535553,0.02061679300429003,0.02140493529310022,0.022006224452579926,0.02418167119170257,0.0314015207482596,0.03025841521239988,0.03716749360970653,0.039169296554353,0.03458556966970043,0.03577810272738882,0.037582084518379626,0.032595733454470276,0.022085066390645194,0.019519158864456723,0.009272587526976848,0.012420176864476704,0.012290925662539112,0.013677156434111942,0.01720401663480675,0.01390159597214874,0.013299490607465748,0.01613946742370597,0.01741063612062079,0.014241198985408121,0.017674465028987205,0.021374108997637777,0.023985272098932052,0.02381941215770793,0.021138405781835234,0.02106689614486035,0.02677515217948233,0.029518810784914456,0.02914458736523545,0.031880840403067455,0.046582425118367805,0.04612521936945695,0.04251450846555762,0.047317871410785875,0.04540344454957033,0.0494366123400201,0.0495285947876908,0.04864767207121079,0.04858565004938446,0.05024699190498428,0.052233639443136394,0.052398919449224285,0.05140677122034452,0.05584462938984703,0.05650410477886525,0.05460021713987961,0.05122913394664783,0.05096203264779955,0.050404451423686464,0.05327921875516259,0.053064392281509776,0.05374990684606746,0.054497930864256,0.05040102940816827,0.04711527377009776,0.047095382664350725,0.049649390754019106,0.050116901826660086,0.05158018637087818,0.05158018637087818,0.0485799667630604,0.0485799667630604,0.049654658766730725,0.048949334159551695,0.04664165522763964,0.046544314174490696,0.046544314174490696,0.04506357679477327,0.04517017658536068,0.04486739711942892,0.04486739711942892,0.04486739711942892,0.04486739711942892,0.04760625170577416,0.04760625170577416,0.047780775680448064,0.045009193784418554,0.04372075909521204,0.042159164553440466,0.04153300420804116,0.0427625873564627,0.04170204489712945,0.04107506679663727,0.04107506679663727,0.04093595403926866
401,-0.008904071392681455,-0.010660295396692498,-0.001030860378855007,-0.001200192149608726,0.006793290022289445,0.015155532243179568,0.014575640141384062,0.02011718404698083,0.01813376236247853,0.017358193801956013,0.017876129318245025,0.022214978874894587,0.026205118288659297,0.030377471871760583,0.03373685422735737,0.031688129177177345,0.029680019668128645,0.03057780528720568,0.03252845143254699,0.03240419137612878,0.04058836602260646,0.043651413001657674,0.03949609629133024,0.037905653426825565,0.042606137381611564,0.045783364042777476,0.0537073643572614,0.052783158112167154,0.058677636528561034,0.05962979076665396,0.05772501209306309,0.058522712574723024,0.056504735054738194,0.05909901333235282,0.05942525166886409,0.0683685239961906,0.07302751740966049,0.07331553910593358,0.07373903681255632,0.0720671791510944,0.07134591910054773,0.07121813809411119,0.07156731217769959,0.07165866385687178,0.07040747210353103,0.07069375879363779,0.06873709644152734,0.06895046329681985,0.06717103909859222,0.06674840177010269,0.06743416964210333,0.0688872789046467,0.06801327465376959,0.06669831734589617,0.06656934770132839,0.06798286201728403,0.06807981867721363,0.06807981867721363,0.06879514526997826,0.06915992366039396,0.06979040842508029,0.07166600745971709,0.07166600745971709,0.07173672440249021,0.07173672440249021,0.07220614595767366,0.0721881961630611,0.07233316289326787,0.07394696697813885,0.074002915404079,0.07229286460221276,0.07092068491653444,0.07090422267880467,0.07066590108996229,0.07072569612679842,0.0687995995772082,0.06965883178855564,0.06965883178855564,0.06865957430040055,0.06819924138983796,0.06943711247969116,0.06945371500393667,0.0712071787868976,0.07115207587728407,0.07107998798729827,0.07102222165858128,0.07102222165858128,0.07087955388203085,0.06907217302634412,0.0689987686518185,0.07002196080205714,0.07135539201951481,0.06930848979414651,0.06956263366124947,0.06950320568454428,0.07011582486389228,0.07024740272753252,0.07024740272753252,0.07024740272753252,0.07015807032496292
402,0.016362615797734136,0.009582932557792143,-1.4725063938023165E-4,-0.0046465087418325664,-1.0947576252972567E-5,0.0040713758068894315,0.019279971971459267,0.019368723429878557,0.025852749097836084,0.02770709479646819,0.026497195603515676,0.03231760038838791,0.03312718012035885,0.03353373021553047,0.03261544212780917,0.03013323758844327,0.03069035008099441,0.02637455926272423,0.020875724578755514,0.0221738890908518,0.020616780779894837,0.020524737473179067,0.03979416571759639,0.03984453362940091,0.046400065567211414,0.05057074665674244,0.05303335069466647,0.04933807582088024,0.05091769203499012,0.05218890507098774,0.05259598481460674,0.055796136991277515,0.06413618805333837,0.05989220124658288,0.053251229264315664,0.05608120370601759,0.05921631919957113,0.058814320182096196,0.056876077903458985,0.0653607603117207,0.0690943544608214,0.07282196532435789,0.06581275275648023,0.07376520351831696,0.07075765688135381,0.0687568327371958,0.06392683634611826,0.0683833458492238,0.06930249285968668,0.07261179654752155,0.0777110682150307,0.07602192926675787,0.07105958512327953,0.07483466478056848,0.07134415831485122,0.07316360211083936,0.06296346846026891,0.06533557300380397,0.06780165496481094,0.06908030419650925,0.06592844916045228,0.07046919595079428,0.07264839638314367,0.0726545331543953,0.06830551151637425,0.075009956719309,0.0696493313823827,0.0687711863499672,0.06979216984281095,0.07066084036081759,0.06691842478912795,0.06579777297860244,0.07035361865615196,0.06751611615142908,0.06927247590027237,0.06148799012044334,0.07116018750954269,0.0687140351164521,0.07376327972600907,0.07046945679555178,0.0734113132981039,0.07117066202492672,0.06770741027654666,0.07013558346427842,0.07255933621582353,0.07260490765701379,0.07312347333669467,0.07322139140886666,0.07175180107987778,0.073519746054111,0.07486613730431825,0.08016911772612387,0.07804139123794371,0.07697222023511403,0.07949210776542812,0.08674490428512786,0.07837069309293626,0.08006670769475926,0.08183503975621688,0.0796875658101582
403,0.017763410476738573,0.01518963817143266,0.01788220112251299,0.028466313628498968,0.02411734829721457,0.015398395699308747,0.024324901099913223,0.021434586052191965,0.022161665136852964,0.011732046845558975,0.015501876210179193,0.022516838353473664,0.02081155895970399,0.01561411767395348,0.021992826399552214,0.021714808975352936,0.018091536206414807,0.012229078561562148,0.01621513157259545,0.020050169938613003,0.024676614341980062,0.030373200441594177,0.030275572253880154,0.01851610654574713,0.026316221454044754,0.02649473225203596,0.03174172273893359,0.035204997996686554,0.025087552034255736,0.032761673699268024,0.029404232811889065,0.021058030089823463,0.02311519681832581,0.023506783788700306,0.021954775019784375,0.024968449763210346,0.026273081538068253,0.02766145300004122,0.02467137478568057,0.022031686791928785,0.02539332245925059,0.02053663423254272,0.02366950327096907,0.030078457926576364,0.029117078144317316,0.028351540105712135,0.023797932426864347,0.02543457571566167,0.03259538865787017,0.029965302244436595,0.026852297782217698,0.02894215723188346,0.022542025693661084,0.026456382890110704,0.02224928226423008,0.02279645975068557,0.024513984985006617,0.02969364261869998,0.0317387710456699,0.03302036523825222,0.03212725731987742,0.037959602435930676,0.03786218039177692,0.033548575988387085,0.033256677367678227,0.03486275298967858,0.03033105499693213,0.030246801115153002,0.035333989351508256,0.03397750425589509,0.03038192620899637,0.03235644428587702,0.028928377565204645,0.03130154566892809,0.030786227122463452,0.03039602300466675,0.02833920269342491,0.019050165737954813,0.019502031519257012,0.018903129570857505,0.019634315172838285,0.020007813130506102,0.018284541631745355,0.019255986114221576,0.019255986114221576,0.02078270559590041,0.023520526388305946,0.023308742830597806,0.023308742830597806,0.028849474261091378,0.02913837930052606,0.027485456388026193,0.027485456388026193,0.02771562983995787,0.028153905370785912,0.0277048043699198,0.0277048043699198,0.02960734819141261,0.02989438056492482,0.02989438056492482
404,-0.005845657896695017,-0.002987537627061356,-0.0047538347031438645,-0.0025733591509476163,-0.00300555452761562,-0.0016801838008378076,-0.014946581429773186,-0.020039603431824204,-0.016749833513088515,-0.012251409519754604,6.988842910738915E-4,0.003836729553834778,0.013142515653068645,0.016974690735131776,0.013605198206957561,0.013123556905958199,0.01302093277448657,0.01833999139607525,0.012948594885640033,0.009769446821324789,0.009366003551469103,0.0061764386787238786,0.007493552081425226,0.009160461304202831,1.2880549905007677E-4,-0.005174981729057397,0.002697167410792303,0.006169210359471453,0.008618241532701167,-0.0028895723935325733,-0.008332190125393473,-0.008369037802238655,-0.013796095840351822,-0.015958391676025637,-0.01802749570884288,-0.019405080771755005,-0.017905313983391742,-0.017794100980915918,-0.01909219280602681,-0.01814403602397285,-0.020692960723924868,-0.020387901102044328,-0.016165695960227416,-0.019014807875213178,-0.0153147143876821,-0.01368335217011055,-0.011987607721130517,-0.011066116645589673,-0.005573229283136373,-0.00845098785478732,-0.007983981278749224,-0.011469899999673915,-0.01085691785329133,-0.007902566605067303,-0.01224558252075881,-0.013271627399560173,-0.012796554114884522,-0.012388221260416362,-0.012521127681013695,-0.013711801390702067,-0.010048821689653334,-0.013779134441072753,-0.011052927568895225,-0.00676694473528006,-0.008969383307234876,-0.008627680152427155,-0.012093172157115624,-0.009522479665621331,-0.007880335369749558,-0.00627725466221013,-0.005722445524088024,-0.004748667415066046,-0.00719817135006737,0.002657648975636358,0.005086431359552438,0.0031696182960738047,0.0038718138966296776,0.004866315310284335,0.007121749612079611,0.006908227872217062,0.00406960204305985,0.0017746579904008746,0.001686000916835778,5.177317536802428E-4,1.0449086142073072E-4,-0.00275321636147319,0.0034389394094043835,0.003745197164553461,0.004542922904969871,0.005493833000314808,0.005493833000314808,0.0024485936658849568,2.4286125802913783E-4,-0.005740190446173716,-0.0034659984399452583,7.551316887365029E-4,-0.0026661180549549302,-0.007765283345953991,-0.009305828769537054,-0.012105373913332676
405,-0.005904292697923721,-0.0036192777137335503,-7.910601787124271E-4,-0.0022130215612881808,-0.007415958462267884,-0.011300578920936966,-0.010055426576909167,-0.020618724606359433,-0.015917782182646525,-0.01896260976115691,-0.01972839775652193,-0.009175785680963031,-0.011722201247745452,-0.010073429262792715,-0.006378533752535367,-0.007019190871817935,-0.010331933768177991,-0.011227949904789973,-0.0066846634460878355,-0.012113781343827856,-0.009652390689683633,-0.01503015649920681,-0.017732164610999496,-0.01815389502921654,-0.018285768044400068,-0.029135202660607158,-0.027746784552258586,-0.02565036591921011,-0.02794779028407198,-0.031186219373491107,-0.03199670628044058,-0.04401873386870323,-0.04315108313296531,-0.05132887641526006,-0.06092037221372476,-0.05352553778693391,-0.055730408365855695,-0.05033158872402965,-0.04931381948196972,-0.04579461352857763,-0.05737477934374166,-0.056205647339543995,-0.0534103481313072,-0.058487067859612864,-0.05606269462733196,-0.05725733932159106,-0.06757930699132148,-0.06549899652672178,-0.06319984724645357,-0.07162912671227609,-0.0700979558798926,-0.06928272552254394,-0.07091542770320527,-0.06613134164951552,-0.06597770396868519,-0.06944968416545785,-0.06834876324296268,-0.071344883624365,-0.07587976074600482,-0.07759162470481012,-0.07915341435588744,-0.07915341435588744,-0.07830224708637742,-0.08037074013906896,-0.08164760025873646,-0.08383120876419838,-0.08367067281211402,-0.08408430400373476,-0.08408430400373476,-0.0840843866754738,-0.08328149223098452,-0.08316452315065538,-0.08301070593940749,-0.08302526216469738,-0.08302526216469738,-0.08439060847574462,-0.08438802049819233,-0.08427554133336634,-0.0830502887597036,-0.08290285146803399,-0.08154586870445633,-0.08284700963304373,-0.08284700963304373,-0.08074506817310625,-0.08248583562737834,-0.08155643004019597,-0.08155643004019597,-0.08155643004019597,-0.08155643004019597,-0.08155643004019597,-0.08155643004019597,-0.08258402293748417,-0.08258402293748417,-0.08362966159999213,-0.08413241603356923,-0.08225442042645092,-0.08113461274394611,-0.08113461274394611,-0.07981742771856398,-0.08113461274394611
406,-0.01383633834311967,-0.012172202963475457,-0.019357800751522044,-0.02293107791298791,-0.03460748217951437,-0.04271310828122681,-0.0447000551436274,-0.04826410313269181,-0.057522840204913786,-0.053319475213126515,-0.04945638472221543,-0.04686862247933842,-0.041142634950443895,-0.034045367498415115,-0.04559926203759534,-0.0453722477206909,-0.04989643519377874,-0.04016495423565195,-0.03165215561314207,-0.0304912461781605,-0.03321646507189412,-0.029756911151901135,-0.025049172600794672,-0.024537072486500913,-0.026520050458127456,-0.024055963314256204,-0.024307290751777733,-0.022430236247647947,-0.026658482958111553,-0.024337274075402135,-0.0249895384250241,-0.030646133267660178,-0.03424933466039498,-0.03377408300909783,-0.03450424039894166,-0.04178175907413864,-0.03887467849347877,-0.04188530744815521,-0.04536178847379826,-0.04545730732869045,-0.04742514535528977,-0.050082401815378805,-0.05274873045900527,-0.05260890998537301,-0.050012296982823994,-0.05284364827644872,-0.04983916793799196,-0.047002531017986175,-0.04411944414388312,-0.04431958275289666,-0.04959195499481779,-0.050578467139812566,-0.05074236369641448,-0.05304355065138523,-0.05404083998305948,-0.05604464674408012,-0.05063687359603141,-0.050650054233225245,-0.05034728691245255,-0.049524292609852534,-0.04222017636697456,-0.04052954815789726,-0.03683236217772492,-0.03656456385662076,-0.04535205091738557,-0.04602022662644939,-0.04309066740316674,-0.04579643156651187,-0.04708588425358422,-0.046185313362163034,-0.041296456743453884,-0.04811837220845771,-0.04268378129526306,-0.04099421067126394,-0.04255413518694322,-0.038120733505363213,-0.036833092750334064,-0.043257610900473885,-0.05100014393690147,-0.05289679273705138,-0.06340097544190074,-0.06477378768636036,-0.06536110785199738,-0.06609543702100901,-0.06670644973909515,-0.06682922202712788,-0.06792362693915348,-0.06762935299400137,-0.0677219432263068,-0.06790370439036618,-0.06863007386019639,-0.06725242806151524,-0.07019724459473607,-0.06879877818283654,-0.06786366424586145,-0.06786366424586145,-0.07078663808291151,-0.07132085724508548,-0.07132085724508548,-0.07132085724508548
407,0.016686357702004894,0.015176534978991432,0.0077261505284393905,0.0027998702490121307,0.007218874339336038,0.014111523445421457,0.016051843835662334,0.019417256307023966,0.011682021471245313,0.009074605350992113,0.011332080605652627,0.013361167247740502,0.016262693889412913,0.016010002553888715,0.015544479975400776,0.026222027380505636,0.026594016199583646,0.0312630590309044,0.041335465772987356,0.040680316771388156,0.05069953713448231,0.05505591777888337,0.05664834778616619,0.06485639444082625,0.06305813281490545,0.06001683805838845,0.0570229687206876,0.05623071194759934,0.06425878635749421,0.07519782981221507,0.07139516150671789,0.07162505127651311,0.07500868455453186,0.07238013377666827,0.0700439816268446,0.06331570587789238,0.06169240022977962,0.06196126266880329,0.06172294714949019,0.05875872077062274,0.05905336070581417,0.058762409986631924,0.055214809718454314,0.057567994590154575,0.05931664492432191,0.06005314288599364,0.06197491120877976,0.06030901631248369,0.05835666094862341,0.05407162803531621,0.05434620504860172,0.049465727302922737,0.04974049050178804,0.048752297581614215,0.04805012219201181,0.04810283988386676,0.05032795644219064,0.053876969904453065,0.05090237470403993,0.053420842472898605,0.053420842472898605,0.052235438504994604,0.052235438504994604,0.05263082575152756,0.05257891502853704,0.05257891502853704,0.05240959176402884,0.05152162980734116,0.05107859396917244,0.05107859396917244,0.05182060158491443,0.052220532195015955,0.05386343407072954,0.0505390477749168,0.0526171454629476,0.0526171454629476,0.05241590819304969,0.05016024983945299,0.051342957019065806,0.0517343085891008,0.051144737727173865,0.051144737727173865,0.051193508052596016,0.05097703638246132,0.050904138042558736,0.05181565068588363,0.052020038260074467,0.052020038260074467,0.05244974409458285,0.05250199083859748,0.05250199083859748,0.05169225316017486,0.05046279806923483,0.052571962277238836,0.052571962277238836,0.05237140511029731,0.0526208373033151,0.05099588793206819,0.04975736469328692,0.04975736469328692
408,0.003470177748617625,0.0033543326831260902,0.008428473233043658,0.011987511614194748,0.013126204999723381,0.01341827207980783,0.008101256620954652,0.008411221979960564,0.00521746322391357,0.006429764231841701,0.003460413372316537,0.006321275329102697,0.0027841842795147827,0.00690725356259678,0.013661073692746979,0.014167254863466061,0.014535422394678185,0.015437047986877128,0.018946022444178454,0.024127326549625575,0.026066464650921176,0.02211309170038709,0.016756259929817517,0.015748098695112206,0.018575469935874667,0.012950234418367004,0.008745941717735031,0.006932472531922241,0.008523322870811431,0.004772054171060951,0.006417078483010925,0.004099528226245554,0.007642979141408022,0.006241836051737201,5.153244733232365E-4,0.0015502680551662729,0.0014626101030467754,0.0031430304418921793,0.0024340215199852434,0.001892865419269334,7.454795412057546E-4,0.0021731198814782483,0.0021731198814782483,0.006810242021919347,0.00497067301702121,0.0044072880673106316,0.00455374580423916,0.00455374580423916,0.006018239556030667,0.006018239556030667,0.004791568121791019,0.0045381542709143135,0.0015326522668271203,1.9258838595547208E-4,5.065085118211242E-4,-0.001328933970668069,-0.001328933970668069,-0.001328933970668069,-0.001213035896575325,-0.001213035896575325,-0.0028260265400002994,-0.0047845196073777775,-0.0047845196073777775,-0.0061455970120765455,-0.0061455970120765455,-0.0061455970120765455,-0.0061455970120765455,-0.0061455970120765455,-0.0061455970120765455,-0.0061455970120765455,-0.0061455970120765455,-0.0061455970120765455,-0.0061455970120765455,-0.0061455970120765455,-0.0061455970120765455,-0.0061455970120765455,-0.0061455970120765455,-0.0061455970120765455,-0.0061455970120765455,-0.0061455970120765455,-0.0061455970120765455,-0.0061455970120765455,-0.0061455970120765455,-0.0061455970120765455,-0.0061455970120765455,-0.0061455970120765455,-0.0061455970120765455,-0.0061455970120765455,-0.0061455970120765455,-0.0061455970120765455,-0.0061455970120765455,-0.0061455970120765455,-0.0061455970120765455,-0.0061455970120765455,-0.0061455970120765455,-0.0061455970120765455,-0.0061455970120765455,-0.0061455970120765455,-0.0061455970120765455,-0.0061455970120765455
409,-0.005776573992242795,-0.004469865854400467,-0.013101063149644281,-0.010245453112644026,-0.010296051828240498,-0.0122508513241293,-0.004372652629956995,-0.007326971118293447,-0.012007543744256704,-0.006157253927548017,0.0028629789842986543,0.007888185626813857,0.008779474025254884,0.007522416180227372,0.00278390116384682,0.00473328996654095,1.396070279241618E-4,-0.0017175055150787943,-8.638516377381328E-4,-6.465995636932847E-4,3.6525577741877146E-5,0.0034722849695034558,0.006851185487549283,0.006462070127352119,0.0066780564928234035,0.009514167271220187,0.009288348953440956,0.009584587760278582,0.014901980379901177,0.010980705127008564,0.009562909846672523,0.01079314854418164,0.009339293848207775,0.008212885577483765,0.01642124259058788,0.01789451791725269,0.017924617744448375,0.018544373050273153,0.022332321139907543,0.026745883268037934,0.02857923593656118,0.02813325083237575,0.02668889182487133,0.025353984569214526,0.024648226289922217,0.027180323275332343,0.024868550901744255,0.02521480602826041,0.024023688812169892,0.022297720284167686,0.02358749753009396,0.022638593021572097,0.0245822584794899,0.026352278275074945,0.025593682772828114,0.023766076848928605,0.024873380358078578,0.026316990107817163,0.026381035551921162,0.02470972845603696,0.023206460301991024,0.023206460301991024,0.023206460301991024,0.021726572911059797,0.022160556603211125,0.020242874891006225,0.020242874891006225,0.019580567119539823,0.019580567119539823,0.020395926304178018,0.019738191534440078,0.019661988950079753,0.018793878749676866,0.018793878749676866,0.02151103835192725,0.01848171510919365,0.01688449921783279,0.017023441282636866,0.017023441282636866,0.01680685661827293,0.016805614531241075,0.016805614531241075,0.015577213749638035,0.015776904096789675,0.015577694249670189,0.017541912585223935,0.017541912585223935,0.018227311806136973,0.018545300410667695,0.018545300410667695,0.018545300410667695,0.0205402824013918,0.020645114712533937,0.02117976098508957,0.019647961136633627,0.022079704934785362,0.022829772067811636,0.022829772067811636,0.02293516613718988,0.022806478667092657
410,0.004000463124195782,-0.009735229962001117,-0.007906554481255011,-0.02716744799694469,-0.0330842271137412,-0.03359224940868375,-0.03540249481879342,-0.03578864448462399,-0.029597500023504163,-0.03681248153641431,-0.031730675041483,-0.028081627808524155,-0.02087273589114846,-0.009222776145255199,-0.004773748371929311,-0.004096728793938753,1.3341939628254716E-4,0.0012975757113347166,0.005130568381022287,0.005730070998736961,0.002860817085476768,0.0016837754757903457,0.004367128695168754,0.014974336964781374,0.016735127084934753,0.022192237782827397,0.02301110521261428,0.026065143660225103,0.030204051254956364,0.03713590910432875,0.042806514557676464,0.03904618391623968,0.03561602044160115,0.03648372996284861,0.04124081891453897,0.042596825045237124,0.0497928724686726,0.04988469068359181,0.04834974377525165,0.04877603184976056,0.04925163104253717,0.0501596463980201,0.05291992047680052,0.052634830780123626,0.053504854630177956,0.05182509458709214,0.051314043262186144,0.05418972677658048,0.05185358987942153,0.047588559990192784,0.04459880654332153,0.04646829256598432,0.05158899681982424,0.05232839235381704,0.04952412960706702,0.05485339206598632,0.05389500082747627,0.04898398324740481,0.05115715504168154,0.055032679230599124,0.05285778159561258,0.05301413319312242,0.05253317717541421,0.05300065475821657,0.05169168725522479,0.04948938829690799,0.04942911389984897,0.051444124465183504,0.04672590939516673,0.050416359225591754,0.05046316580756624,0.05020865845194893,0.0459573366606948,0.04378419322894733,0.047762175661604955,0.04640683819721549,0.04464292324104888,0.046326336836160345,0.04655009018355409,0.044480301111882135,0.04056001763370697,0.04055035098899455,0.03967570140755273,0.03967570140755273,0.04021691765640636,0.041054047987150157,0.04731364379158594,0.046190675916125384,0.050069139662117186,0.050828322832622064,0.049443630166095674,0.049067976783800614,0.053714366749277855,0.05032312022969518,0.053178289121051145,0.05494115336177854,0.05938351207601727,0.059111221339079895,0.06618037332264948,0.06636260763629451
411,0.007869405668799772,0.012938875536188848,0.014014225838207743,0.005882458547850555,-3.6571237589168445E-4,-5.488405302700624E-4,0.0016567937486482122,8.700663449488198E-4,-0.01364728517523297,-0.022870004582575456,-0.019820544348413644,-0.02022047138098312,-0.019358914747546068,-0.023180831925951086,-0.021232478657221852,-0.023037883466839663,-0.02907644881051588,-0.029705297968218254,-0.030621908883657442,-0.026311635225076836,-0.020770255815692248,-0.03131938059650357,-0.033533726347311894,-0.03877242672402236,-0.03998947423837514,-0.03819088011433263,-0.04146993377117072,-0.041675688182672,-0.041200126086207545,-0.03961548029564058,-0.041020154711905656,-0.03817617156842465,-0.04227395659741754,-0.039394553656388574,-0.034417873640247613,-0.029073906001365155,-0.029410871049560635,-0.0340097421851798,-0.02892085738271938,-0.03104300996285769,-0.02817392317217383,-0.027633680829623457,-0.02827855164269414,-0.02642234574552089,-0.02655991952947845,-0.019973153080741404,-0.02354366078449337,-0.02259573551036542,-0.023580917815222605,-0.020466856576680417,-0.016895476976791307,-0.01943281233635868,-0.02196960743323855,-0.028785198427380015,-0.020691933427881858,-0.023643074037628522,-0.017171815522137444,-0.008076958214365645,-0.0035754908983609717,0.0026415159628022295,-0.003190733201642502,6.345704993811326E-4,-0.004842704660707311,-0.008611308890707525,-0.004498643392552782,-0.0015674272130876744,0.00493110086322448,0.0031773114618552927,0.007792891745576914,0.012394805283893463,0.0065997423816701525,-0.0040073446571863265,-0.0020354614601628303,-0.00748587992115862,-0.0036709446533038197,-0.0034202442063479195,-0.005391938476783709,-0.006875249540017494,-0.005351345518139466,-5.501290828625814E-4,-0.002620315337095098,-0.00144926982023876,0.0010622297479813054,9.505816164234678E-4,-0.005580645040839237,-0.0038403662508731057,-0.006192317747746414,-0.008862000194741503,-0.012008711961764644,-0.014361258288991246,-0.013586139917219284,-0.011130822320873313,-0.012053985852960494,-0.008568707594923336,-0.012458202637717939,-0.013816451695407636,-0.014813817764058686,-0.010864765807305334,-0.010060780809966703,-0.009936916183311058
412,-0.011520626878042915,-0.015411201613731244,-0.014855609662761645,-0.014421006459298518,-0.02111142602380321,-0.019597337615696736,-0.01555729173324447,-0.011195895993688386,-0.012287282806752224,-0.014061392163934407,-0.012361689310077187,-0.015734031184237808,-0.01886721660368977,-0.01734459277498816,-0.012641035721946504,-0.011253734405973787,-0.012208961018751826,-0.008748423343924897,-0.00791335646758273,-0.009126571006127814,-0.009733658026113968,-0.006621216126951497,-0.008176357016400548,-0.009809751520330813,-0.007525636937313787,-0.010961402916930551,-0.010124082577562286,-0.006927689761584424,-0.006042938690488911,-0.006931014247401276,-0.008039281249222298,-0.012048536098356868,-0.012583418971818685,-0.01596118997492714,-0.01631054061815773,-0.014591728965782313,-0.019608742428567402,-0.022629752565760747,-0.021525587657551033,-0.025975670450672717,-0.024148267574250783,-0.025203351447729245,-0.023778465940379342,-0.02570062415764416,-0.01866020545039938,-0.01844429749277626,-0.01601786922203831,-0.01910690647495731,-0.02412211503579744,-0.027884669545374205,-0.027004159138115987,-0.028925136764438104,-0.028710768341350546,-0.031697520614628966,-0.02857155734238446,-0.030525364202544335,-0.030161370504192465,-0.02977210719588525,-0.035230589293475646,-0.028874757630095445,-0.030090830769881984,-0.026748649693646605,-0.027001421806603188,-0.027001421806603188,-0.03189729162888277,-0.032621601771568365,-0.03243959148317911,-0.03339066367222255,-0.03251349075359086,-0.03197222077992335,-0.03197222077992335,-0.02907070204965776,-0.026967915994963034,-0.031187593327408926,-0.03187530418049109,-0.030377677716161938,-0.02998418304050748,-0.029598450402629456,-0.028340534783618324,-0.02707965767659114,-0.025500596450926668,-0.025084929323009944,-0.030243805612714985,-0.034218221349173364,-0.032943268597719184,-0.032292956918771674,-0.03256279071227349,-0.034700696573269546,-0.03519406837912347,-0.03403436218863061,-0.03403436218863061,-0.03449560186027203,-0.034577602311318595,-0.029788235035287932,-0.02866363438752857,-0.029440828751158783,-0.03149755251538317,-0.0342933066111257,-0.0333018894966875,-0.03262989132540827
413,-2.4459572018784877E-4,-0.00966565432527259,-0.014305353698104458,-0.022600138196103816,-0.02913263526677712,-0.039263171394873744,-0.038876770355068056,-0.03438741875903534,-0.03153491133844938,-0.030017754544830556,-0.03473528278666588,-0.03534622969328804,-0.03371081354050763,-0.030894579075143744,-0.0358003414625098,-0.03411584587969443,-0.032902605550682314,-0.03348474404197563,-0.02628986879709935,-0.022302623386135634,-0.0228852271321982,-0.018643569441637864,-0.023503304098291346,-0.008023832417649968,5.032733718037058E-4,-0.0035994903115127343,-3.316939652279316E-4,0.0031951593869874706,-3.7394112924472146E-4,0.005149803100340249,0.012203622260539258,0.020871491056278457,0.014820319267529596,0.007146938730868595,0.009647185336121408,0.013628233315625802,0.015539781901781069,0.01992995304164968,0.022811923522005693,0.018051490519501643,0.02071489934597143,0.015406935451706343,0.02103635041590514,0.014034477994200274,0.019505969502878074,0.02288757775501886,0.01922985353132145,0.014809095608866474,0.013613581001075202,0.01940933603278462,0.018445122330789075,0.010451959004613279,0.005015583060208542,0.008709012725649076,0.008057596614291075,0.012927519972279772,0.008630755692281175,0.00830563798078701,0.007204438295143766,0.003504311895531286,0.0053755751385568306,0.005949593515212024,0.005192773040945159,0.0056070048592414615,0.007763213565595109,0.00391927201822286,0.0054512081155846555,0.00586047133980465,0.007913342830832025,0.007354514345291559,0.007808667875853457,0.006249572526625355,0.008629208288115418,0.005166642543450925,0.007450595957739832,0.008884655202918455,0.009410357361899975,0.010212744112288263,0.012983944545452781,0.015461940628199953,0.014776813086566204,0.013172274030650868,0.013283240138614564,0.013283240138614564,0.012784883716308995,0.012784883716308995,0.013045447017433804,0.012595083488653727,0.01092853633641543,0.010755206002189911,0.010378564291156474,0.009980283943221934,0.010497670946766052,0.010497670946766052,0.010497670946766052,0.009378220421522697,0.00838301436649515,0.008451398688713774,0.008451398688713774,0.005337751574306149
414,-1.0555714331214597E-5,-0.002485115569403551,0.004712540636313992,0.003277220285054142,-0.0071303745029631035,-0.004931001054584645,-0.005405299687471285,-0.011737849971242203,-0.015527558323518782,-0.016270472498138056,-0.020606478820164875,-0.023546572559065827,-0.024438444071028128,-0.029586169895827553,-0.026166876582799842,-0.032308909677233676,-0.02499487857999145,-0.024899534193861435,-0.02466068576830251,-0.017087377566238383,-0.013085244039445675,-0.007539781105408558,-0.010491094884697738,-0.012538009119653405,-0.007315643909395219,-0.008833189028693117,-0.013754144854980561,-5.760443429687479E-4,-0.006375514949195065,-0.008399467743641332,-0.002475430856432299,-8.966877298127207E-4,0.008514317167395338,0.012863224766591255,0.014107162874908692,0.00866751573679972,0.002965095731705849,0.004603858754720607,0.006744345050405158,0.004203808730544649,0.0015179617660398392,3.031400890612235E-4,-0.00542065633788462,-0.007366952055656859,-0.004022488107810019,0.0033760167884421734,0.0036016814238822837,-0.0014181573436546106,0.002265007862487232,0.007520835776746513,0.012393823610050148,0.015999997956267897,0.011174988897996854,0.009994725119581325,0.012496263780831303,0.011821629652649244,0.015143372383290278,0.010002037626876372,0.009813568563745977,0.008364953213073721,0.011845274682160891,0.014971583318340857,0.014515867520526167,0.019869613841860118,0.021173923463826506,0.014981651778822687,0.017981720105749225,0.02035534071205926,0.0246717350195969,0.02014764445663665,0.0185614149188875,0.01880304932876918,0.026565917292402322,0.02905110031370728,0.021333096488486084,0.023240073522276465,0.023329052396205995,0.029154939172969626,0.02997052444323032,0.032569492105296936,0.03903867366617219,0.03152535269453466,0.03297432825602718,0.034014843549369275,0.026682893542778096,0.024278817808113917,0.023858731103126904,0.024374702872650134,0.017401538773508984,0.015992223034546796,0.014731753574630226,0.013675069322699162,0.01314959843488317,0.012001569994210936,0.010797251123906074,0.011161112434773605,0.00998308835762032,0.006460050335681215,0.0044265674957871416,0.006752184394906299
415,-0.0034352147711232345,-0.003926564785955269,-0.004819583790393225,-0.004042564894412866,-2.641740922518798E-4,0.003122275885357262,-0.004363479581157435,-0.012215209208757538,-0.023477460513874983,-0.010534544208588148,-0.01692251260107134,-0.023713281282044706,-0.019985179870561434,-0.026330360982227186,-0.02539096426296718,-0.02358734011315054,-0.02888028435319728,-0.03395161955925716,-0.029473597723705586,-0.030532530632693424,-0.030338194748008255,-0.02962786908272146,-0.03064816752540369,-0.03334893663504448,-0.03508337849373945,-0.04222693596913103,-0.03983097144631006,-0.03916556705042696,-0.03759825667419961,-0.04236683268445789,-0.03788349953527157,-0.03731851605447408,-0.038788577023315306,-0.03531598617878471,-0.03763956086388123,-0.03991310887749941,-0.036002190172561656,-0.035267164130716615,-0.03488789467312131,-0.03379800897011214,-0.0329482642621217,-0.030528234946653073,-0.030297784632918705,-0.02466956189275703,-0.02248419723415813,-0.0221501284765977,-0.024513690516684738,-0.02498667078883399,-0.026535151503156326,-0.026176424090919706,-0.02854900031180256,-0.034484893293322785,-0.030468622915852867,-0.0317345569804083,-0.03221395104022181,-0.028717219710832128,-0.027844952020873462,-0.03227828386850929,-0.031727924932176584,-0.033027935119090614,-0.028645399278444308,-0.028213683166272024,-0.02526594096451064,-0.023032334918270635,-0.02230587439424527,-0.017893807484589293,-0.020532762227456196,-0.028435594988400214,-0.028435594988400214,-0.028435594988400214,-0.030368504126584827,-0.029135417445192487,-0.03658496801093931,-0.040445579223463236,-0.0368738114611624,-0.03925883960294011,-0.03925883960294011,-0.03925883960294011,-0.04023946456760629,-0.03929411507908971,-0.041820566483935104,-0.0422036436915423,-0.042794892489823155,-0.04346500675901722,-0.04538519141941731,-0.04638419476966363,-0.04638419476966363,-0.0465275544946885,-0.0465275544946885,-0.0465275544946885,-0.04531137633591955,-0.04531137633591955,-0.04531137633591955,-0.04531137633591955,-0.04531137633591955,-0.04531137633591955,-0.04531137633591955,-0.04531137633591955,-0.04531137633591955,-0.04531137633591955
416,0.01099471198601009,0.015378308129012069,0.005633110147873389,-3.275872026743344E-4,-6.587870096101073E-4,-0.00552748658775267,-0.016792112062915497,-0.020000691743509016,-0.010791922897842303,-0.01584738334533855,-0.005334496818310095,-0.0066927293425867425,0.0010729983509503373,-0.0012256915494455454,-0.0042861087561548,0.0027976852867066544,5.417124472683468E-4,0.001445212063108309,-0.0010743607365410579,-0.0014586499066077934,-7.797841579689779E-4,0.003948499568004028,0.016476858410931366,0.024349729306172564,0.024044759559379028,0.020351246208629426,0.024972012048140882,0.02196624903617889,0.01865988118910045,0.025061853903610425,0.013971110915260114,0.012626070097060188,0.007705102363412678,0.01081509524036893,0.010495267870809842,0.007188879258188309,0.008103780529732197,0.009680700086360051,0.011298865306244164,0.012882542024339898,0.013703182870156842,0.018104224169633077,0.014948005914212964,0.01409686999900162,0.016221536657405843,0.0182930107268654,0.02080233681269461,0.029430336726985296,0.02567991337409741,0.030139570703854045,0.02807527928997265,0.027705232952392307,0.026841287708110034,0.035923333623529105,0.036941045905782774,0.040720723129093195,0.03589343773096245,0.032001496839406396,0.031060580338633684,0.02743642863635568,0.02742003572308157,0.027036162609272912,0.03174207180865683,0.03606899426747275,0.03762835149214957,0.029613837593368525,0.030427205354313647,0.033052260586189305,0.03959831659151534,0.03743906966691166,0.04199993474684674,0.04525559071666294,0.04014891486626004,0.03752796046979322,0.03491872274883437,0.03563398747030141,0.03616712025238843,0.03235561822129631,0.03568410592410651,0.03442238215903413,0.03674051940936444,0.0361010544794213,0.03692219005591992,0.031149042491606584,0.03112054119738846,0.0329817283984017,0.030990262459942897,0.03183908742258376,0.029920330153014794,0.030589115741424068,0.02826828178134756,0.03032268848187174,0.033019072039966936,0.03209659146927723,0.032682893323294375,0.032685347202718054,0.02930677407464368,0.028069861263202833,0.02885292827525473,0.031206082442404928
417,0.007291124101375143,0.008324763706698329,0.004343574399904241,0.013664691051315837,0.01868681386627203,0.020214490269866766,0.026438305063386472,0.03375866830017574,0.017785511524672636,0.018569841285448543,0.023230413933938352,0.017119293966353623,0.013972548774062033,0.015439648999239084,0.01713524365418014,0.015725267343455834,0.01876906873679547,0.01115253585958098,0.016759885355138858,0.013703747613562809,0.010644066867318145,0.014503667986918673,0.01514563745130353,0.021832175545521828,0.024660273307251845,0.023559620421006056,0.02859567547727471,0.028903766345640302,0.047440489095712864,0.05112669545487169,0.051577305209023955,0.05542119884218824,0.05528837756685169,0.0600736574126995,0.0604097142131694,0.058145980981253544,0.054556584957236136,0.048988905240998956,0.04579440698646179,0.048912322051914245,0.049098216875812756,0.0460095176863358,0.052435026845656575,0.05048247776534339,0.057558518256343075,0.06115858669522629,0.062190517352873426,0.07023719883995894,0.07255235473017295,0.07796748261284685,0.08085466985507248,0.07911096056502825,0.0786010080750216,0.08778565356766434,0.08775392830820243,0.08367384249119118,0.08039870014478767,0.08326590072410593,0.08614875641809334,0.08624212056052824,0.0984625423941539,0.10138276976809962,0.09990540680039134,0.102294771166935,0.10385621436507433,0.10575742232215259,0.10867499418804652,0.09916891970170372,0.098226245016027,0.09905143004732068,0.09986152019628741,0.0979451371337407,0.0953655648435801,0.09355311725131077,0.08986750328264424,0.09332200685006427,0.09679616231200808,0.09783498962887258,0.0990251619876392,0.09890189968099668,0.09804648182949842,0.09867052485248705,0.09613189326749737,0.09801185356146203,0.09687235374178574,0.0979734788621953,0.0979734788621953,0.09939378126928243,0.1001378256647806,0.1008373331300033,0.10148745227219201,0.1014750015269496,0.10418190998938201,0.10079202798240697,0.10348138989886707,0.09931416461207052,0.10231455902401676,0.10207632181764506,0.10401946210824135,0.10345799078234849
418,0.009445277533926185,0.02016798567299459,0.006138662139694553,0.016910531368468092,0.01464406381244161,-0.008453886428289176,2.3592481037066203E-4,0.002315543785291479,-0.0102842159398539,-0.011871618591140482,-0.0038606550984423595,-0.008498807655452092,-0.007119877137257135,-0.0040255309388876484,-0.0052021154008687655,-0.001772164771067843,-0.006265202796093753,-0.0035903518047836007,-0.00671266482644935,-8.185904911283781E-4,-0.0020759503465311384,-3.0945631734045545E-4,0.0023433276116721726,-0.016463423308166258,-0.018351840416984275,-0.0177701173705613,-0.0205410860181661,-0.02118230102469527,-0.019683982207578495,-0.023774171936365968,-0.02695207512984418,-0.028438120424602645,-0.030354582871026718,-0.038245261595347024,-0.03882111510570219,-0.03814316637679783,-0.032781361617734664,-0.02874754708131435,-0.024344755518565804,-0.030405328341869473,-0.028057372583209377,-0.03219348596916395,-0.03541417231084218,-0.036161934440848836,-0.03685599181226757,-0.034392750460409606,-0.033956446272320064,-0.03553172233424458,-0.03889545925244183,-0.029527920220605887,-0.027393166622220598,-0.03081401778978546,-0.029750318237980723,-0.023212142735980233,-0.02005098576993912,-0.019934508742434468,-0.028584802817324544,-0.032998953568050486,-0.03474374845004043,-0.033210835831512985,-0.03357482483565422,-0.03334454022238297,-0.032216517188106954,-0.03431012946500545,-0.03664643141965904,-0.03683360961773063,-0.03722775435775375,-0.03729333868904328,-0.034045336027958346,-0.035887939853357004,-0.03846942736823778,-0.034359945470881385,-0.034182146897403856,-0.03432119202803989,-0.03686494829910453,-0.03774312942604169,-0.04013782845632086,-0.037622335514282776,-0.042759233473617805,-0.043284460179331845,-0.044043017579423624,-0.04314252982583258,-0.03776816089199472,-0.03618276297978121,-0.03521166634696443,-0.03703712511753854,-0.036397892727726526,-0.03670204989534498,-0.04149308784806478,-0.03670583364815838,-0.036495174366146056,-0.04143007021954709,-0.04061984620331268,-0.04031017651957877,-0.039686787115538545,-0.0401997898023819,-0.03947683394862893,-0.04004950768387305,-0.03763170716554724,-0.03712228079986782
419,2.4412756411058834E-4,0.007164095746736447,0.009345007308065395,0.013944427106524528,0.01533082813250359,0.012729866054123365,0.013390595566104198,0.023201119472834927,0.021035186534739077,0.023313197148143425,0.02722897565549718,0.023916969054139932,0.026644846839263703,0.027064742113364838,0.02464515971118191,0.021199328989820625,0.018426040377773324,0.016805116065289828,0.017003803352026305,0.016963170433920923,0.017864879811529854,0.016086411433040147,0.010596508224793211,0.005754239906801169,0.0033484089802849806,-0.0044036942738875495,-0.0023933408075184005,-0.008215152516386185,-0.006130682983235145,-0.007930670518389374,-0.013472614242622487,-0.013537976954779247,-0.01446875230958621,-0.01367477615349666,-0.01316560811534055,-0.011820628171665334,-0.009761626976930593,-0.009653492312480938,-0.009653492312480938,-0.011583358523491804,-0.011213208194126613,-0.010851244355589065,-0.009379826724913465,-0.006756499940006821,-0.006813711128666636,-0.007879993224122693,-0.007071040023074789,-0.006982572305981265,-0.008549905540269227,-0.008482197504354042,-0.007099170795312051,-0.007099170795312051,-0.006054709796519995,-0.007950232611948233,-0.009337993391207878,-0.010224093240409902,-0.010224093240409902,-0.010065615670474558,-0.010065615670474558,-0.006795060683617638,-0.005721936636368208,-0.008131248968287975,-0.010013011421875192,-0.012682260423272609,-0.011864818121346416,-0.010283969261513015,-0.01193271923827719,-0.01048165742085901,-0.008209179699071924,-0.008209179699071924,-0.008822252688540406,-0.008028107363315036,-0.00949086133778123,-0.00790867211049913,-0.008002813462645779,-0.009009166569718414,-0.008029372469265151,-0.008018433413720319,-0.0062826288448444515,-0.008142331782796079,-0.007900592274682657,-0.007967686943932652,-0.00935392971609579,-0.00935392971609579,-0.008899083635904683,-0.008148927216065503,-0.008683412538309766,-0.01004404244493137,-0.011744787819495854,-0.012555746938586491,-0.01349134543885109,-0.011363721244787304,-0.011363721244787304,-0.012896150472522032,-0.012780259283810025,-0.012780259283810025,-0.014016254083978474,-0.014030431306587232,-0.01620144374543887,-0.016188667575403624
420,2.701638834224257E-4,-9.279387697203628E-5,-2.733175866879897E-4,0.003022190094186693,-0.009420429303262154,-0.006796891773792506,-0.002962756354304622,-0.004959866113364776,-0.002419146667577789,-0.006816537733663182,-0.015604697794002385,-0.019904959888343912,-0.01499034397049665,-0.006247288296755219,-0.006954957932738863,-0.004817276544293796,-0.009829812580363726,1.6555356393321006E-5,0.001598568690747919,-0.0026821460389174767,-0.0037808811165255685,0.0016425285159969861,0.0024504644562204176,0.005234347694885543,0.004234249906864044,0.004204452372415321,0.004279156929254833,-0.002284734047817793,-0.0071846630279842685,0.0016924997760199257,0.00387187541409445,0.009672563208409651,0.0024051546088104552,-0.005444554174381757,-0.004614427603596875,-0.0025085598945848485,-0.0013796127707336148,-0.010259263339104931,-0.01607451722166155,-0.01580435311968193,-0.01747037568771932,-0.024457091549480295,-0.024457091549480295,-0.02679904863854845,-0.025108777737308047,-0.022279919204049634,-0.022543107843218335,-0.02078064179911069,-0.02044517625370655,-0.020463651507200448,-0.020463651507200448,-0.021100447635402267,-0.021301605406844445,-0.021321730051795402,-0.02274315647781208,-0.02274315647781208,-0.023687909130560944,-0.026761372963587604,-0.026761372963587604,-0.02636371909842217,-0.026016203351831208,-0.024426757782505294,-0.01967883470208037,-0.016750367569523326,-0.01969774284445932,-0.022200747999947222,-0.021430673253094286,-0.02121629949678864,-0.02575353954798409,-0.028826631057293398,-0.029525668671379863,-0.029341242838711156,-0.029341242838711156,-0.029794363329140115,-0.029794363329140115,-0.02885208895078649,-0.026712027317918628,-0.026712027317918628,-0.024823317473463488,-0.02767248877532296,-0.027117564915868676,-0.030026969441464598,-0.03065693403544346,-0.03056372301882247,-0.030219199945714915,-0.02630780882481594,-0.02630780882481594,-0.02748014684881583,-0.024078270147663696,-0.018050810536849145,-0.013425514176305579,-0.01316157072037346,-0.01316157072037346,-0.013389968242191545,-0.013389968242191545,-0.013389968242191545,-0.014920607561553783,-0.014920607561553783,-0.023066663114819336,-0.023066663114819336
421,0.017057789473902917,0.017224051819421122,0.011381837461443382,0.006395004848151724,0.0028455933483082394,-5.025572319188798E-4,-0.0026584798551292843,-0.004524467375299122,0.004852892722513433,0.012917201227451014,0.010041960586285637,0.006158206327031917,-0.007244883517337402,6.975285064252068E-4,0.006672968436228183,0.004143488675424268,0.006488423365696245,0.010051459780173053,0.01388633582760742,0.014824828991279205,0.012842428564322252,0.0065534052347077385,0.008953052453162094,0.020898269908563596,0.02360146477941871,0.02844328997821923,0.021972410996076296,0.023761980964509904,0.021738273614669543,0.025130244398213715,0.02563295327064517,0.02517744851312417,0.028831469004963525,0.020112288891193906,0.02965960309054807,0.038884514173005556,0.038419562100770493,0.035704596830505114,0.03574803421240481,0.035020840061255575,0.04295898787172756,0.04521909787669712,0.04704253175733403,0.04763008319527602,0.05151943931182588,0.04851392419221577,0.049853354651702306,0.04931815600879263,0.04445297093325037,0.04341101667349388,0.041798103797696926,0.045888411742895804,0.0477819268036097,0.04926828918667292,0.043783293667746415,0.04495877796547891,0.04886736339133336,0.045732520787122796,0.046070511037175306,0.045213015474715144,0.04392201761674025,0.04372131152273809,0.04313118452195324,0.04159788430930414,0.040086271993980065,0.04192155188782706,0.042296574739872625,0.045718592457553095,0.04737200859016941,0.04475194835834584,0.04439337272274523,0.04588592693002168,0.046615956541598606,0.04534613762156713,0.045084660044054044,0.0444308852981154,0.0426135977150774,0.0444408832337982,0.04446000662101701,0.048936970170446036,0.049865638098898234,0.04997952502077378,0.05016649409881751,0.04773068184494902,0.050610045535032774,0.050333234193606365,0.0521408932496608,0.05065367546936008,0.04825631248802068,0.05079014755547941,0.05172903083264245,0.052039478801940715,0.053357781803820836,0.056351713766936505,0.05324512001377599,0.053356225359409225,0.057125443237668314,0.05563725947269226,0.0586026523879157,0.05858705309949329
422,0.016569449584037856,0.004765448352891183,0.02132854244801767,0.013253935748509707,0.019527115492385436,0.02027716011340508,0.014815876037799072,0.01597647214443244,0.008748123982890139,0.020770215859044774,0.014666066032689851,0.021453087486350778,0.028366057595176315,0.03830587978044951,0.04107976289349015,0.03482510896134091,0.02044179896233134,0.016325849831974482,0.026462732429522164,0.020074131767529525,0.020012586957182776,0.024537038793177212,0.012086653903601228,0.010335490785732258,0.015917940879383093,0.018618407008109676,0.031662366830384585,0.021101420902824977,0.023012765355941628,0.03620318004323786,0.03130698304585656,0.03227468876534068,0.027297537273294824,0.022732008272301537,0.031972856913545004,0.03079262137867655,0.037238595273125,0.04366743343717882,0.04523294718750237,0.05435097520923191,0.06387901731873341,0.06976147711164668,0.07622923557965111,0.08216389846836136,0.07823162817303614,0.08004920629900657,0.08023514732854639,0.08079661380058678,0.08334250553492542,0.07892008901105452,0.07388953234132324,0.07533803050781693,0.07717631446707379,0.08113031803883064,0.07925798232528784,0.08120484319578904,0.08243897843183871,0.08129351299766956,0.07888399644769929,0.07306058140390563,0.07080612303483533,0.07573941866912438,0.07625025231282356,0.07635033657484608,0.07531475347957106,0.08071243791329702,0.08739784599789323,0.08715634707291248,0.08108098275474596,0.09132214849797897,0.09684146516631084,0.0986366966670851,0.09622605541337075,0.091028328013077,0.09149000310346872,0.08480511734657059,0.09072060129295992,0.08913516437568149,0.09267993998901364,0.09373850800810292,0.09980667378758755,0.09776394087910999,0.09933281848726253,0.10072959839332105,0.10134963598502295,0.09859192919882565,0.09949255972175562,0.09720191949666486,0.09725661543773353,0.0963675411513357,0.09597992571486648,0.09658576322861182,0.09767160470190962,0.10234107021632516,0.10665587918381787,0.10982911186134225,0.11139207117789317,0.110874027896081,0.10802573153770943,0.10824407193931104
423,-0.02068922467870285,-0.015625866375929966,-0.016257177475787594,-0.013748445273987385,-0.015649612433731756,-0.00987271641220713,-0.0055962959711757234,-0.006499455854322819,-0.005171623578307978,-0.004775041797785263,-0.0035676680400347754,-0.004901659384879114,-0.002397874135023334,-0.007295111434958994,-0.005572516040960356,-0.007194089579047562,-0.010620082495130382,-0.010145946430897395,-0.011912027055166885,-0.015416589615328017,-0.017319807707757512,-0.019624210710225097,-0.013569775040252452,-0.020775719414688646,-0.017177973569175883,-0.016504058356295155,-0.02394825437766801,-0.02661722847642673,-0.028177834673659516,-0.029777103005530867,-0.025758017742039195,-0.026641745595065446,-0.02685712905433991,-0.025922721013126745,-0.021693715545656626,-0.019331311250386504,-0.01852390009838512,-0.01851336395778809,-0.01941191085865341,-0.014190455688732926,-0.010948962215892375,-0.014076726979666443,-0.017835634671648705,-0.01573816269916917,-0.015571288118564626,-0.014571346087456659,-0.015028691714889996,-0.01218147705759022,-0.016149008486160694,-0.015921182592731835,-0.02063200620311107,-0.024397972794655054,-0.026836660922195568,-0.02906287744865987,-0.032232004046920865,-0.03366091137041244,-0.02935567513332794,-0.03046174191108339,-0.02930542671149091,-0.030439994302589767,-0.02991602458976748,-0.026016937151567672,-0.02112447206938334,-0.023041272644048018,-0.0259349263159339,-0.03192611423900896,-0.03137250308057415,-0.028847514438290683,-0.031348808429602124,-0.0329336371053435,-0.033258384453215536,-0.02999964376790243,-0.02817936868089502,-0.02817936868089502,-0.028663243485856603,-0.028663243485856603,-0.02988493469893185,-0.02988493469893185,-0.02988493469893185,-0.03018650123378784,-0.03364866854746293,-0.03539272488599591,-0.035790660242163964,-0.035790660242163964,-0.035790660242163964,-0.03518713692719917,-0.03518713692719917,-0.03741376632837372,-0.03741376632837372,-0.03741376632837372,-0.03741376632837372,-0.03741376632837372,-0.03741376632837372,-0.03741376632837372,-0.03741376632837372,-0.03741376632837372,-0.03741376632837372,-0.03741376632837372,-0.03741376632837372,-0.03741376632837372
424,-0.038240308470389374,-0.03619345389797085,-0.03970925395361712,-0.04012614508254639,-0.033316158407629956,-0.030904372529431345,-0.026265721793302884,-0.03402140374033996,-0.03442332418354717,-0.03548812373928946,-0.03599368702518419,-0.031381729954125415,-0.03062464192212926,-0.0262533221698563,-0.025260421534941777,-0.018048843330134567,-0.021393908365025333,-0.022509755946363365,-0.014660478664538137,-0.006982251493889615,8.814567437636755E-5,0.0010452156928759985,0.004202392148764817,0.006362329867629068,-3.0318891329717684E-4,-0.005021667423131593,-0.011896661107525956,-0.011030776868313295,-0.010340573687546673,-0.009203261820659489,-0.011796014217697888,-0.01196269942134156,-0.008413007013004513,-0.010044885735416707,-0.009501309144156329,-0.010828841996220836,-0.01039389790853225,-0.006190804578308684,-0.011725447187820273,-0.005697971026499185,-0.005802813757884206,-0.006344225847575319,-0.0054464973341004155,-0.005140464655106258,-0.0072237429409107625,-0.0031071955691982177,-9.82885614634733E-4,-0.003033073488722084,-0.0033825752447167556,0.001109021543485739,-2.902595808670212E-4,-0.0021388799613989967,-0.01038507621889798,-0.00828823601951263,-0.00828823601951263,-0.006469969680389939,-0.006465208175065733,-0.006465208175065733,-0.004672602085305599,-0.0058932879642976084,-0.009544796363808016,-0.012001953468826652,-0.013671824635686074,-0.015384822684533436,-0.013761915614742985,-0.01470921317643615,-0.01470921317643615,-0.013298907552651743,-0.008698091022859091,-0.007085072798510348,-0.005638874156030133,-0.006217731731048429,-0.006763805871148761,-0.006763805871148761,-0.006763805871148761,-0.0077023288289247505,-0.008452059828059065,-0.008452059828059065,-0.009777763122084646,-0.01090464446939867,-0.01090464446939867,-0.011886905327482109,-0.011886905327482109,-0.011886905327482109,-0.011002572679155331,-0.011002572679155331,-0.011002572679155331,-0.011002572679155331,-0.013143497513378448,-0.015053834859631954,-0.015053834859631954,-0.015053834859631954,-0.015053834859631954,-0.015053834859631954,-0.015053834859631954,-0.015053834859631954,-0.015053834859631954,-0.015053834859631954,-0.015053834859631954,-0.015053834859631954
425,-5.65061034593717E-4,-1.7585784963335696E-4,7.738250695965407E-4,-0.002969065172914104,-0.009307897862374228,-0.0023725551407207707,-0.006135371975018027,-0.010846462722786863,-0.013825025540661668,-0.023244803528374172,-0.02580353157381174,-0.03006012939344972,-0.030750875970099144,-0.030326864047320462,-0.030169243364333867,-0.03051770458797673,-0.026274486223367508,-0.027605430403254087,-0.026087215473736765,-0.023550245015183494,-0.02049254868709681,-0.029963693693808267,-0.03432141032518998,-0.03965173677396346,-0.040241444432795925,-0.04244211019653491,-0.041891546073449505,-0.045432560535691016,-0.04300553895831004,-0.035220199447527085,-0.026578569100281377,-0.022316048260552324,-0.03015291951853841,-0.03191471306293976,-0.035815750629494235,-0.031218074440236287,-0.03240853966823003,-0.03367088216014253,-0.033882644100122,-0.02981084509067796,-0.030605377433054137,-0.027961869651503893,-0.026887353237157664,-0.031401866471524896,-0.029605217489524174,-0.029534772543936536,-0.030057903292789644,-0.015937504588803268,-0.020722693336610684,-0.02170665634533217,-0.027463085987484512,-0.02732010256953414,-0.03013595934730671,-0.028902538487243116,-0.02929145529158557,-0.03367377940548869,-0.03844310765543295,-0.039120951919566764,-0.033218519188894895,-0.03354173581618676,-0.029606734669147698,-0.027496553940953586,-0.02212280698478367,-0.014829845508404792,-0.011488845463043058,-0.011947398159912968,-0.014569349357153089,-0.011908338204042468,-0.012749328578475527,-0.00997755894492219,-0.01261891474115719,-0.013985562687305435,-0.0189095325936342,-0.015284450179120198,-0.017732670524199787,-0.019942401966358866,-0.020011230363279123,-0.01969851971285716,-0.02189269096844528,-0.022114990387922216,-0.028391490125410236,-0.030250638078701222,-0.030622013492441143,-0.0339768939923537,-0.03453206073007438,-0.03475196435751581,-0.03753224166616935,-0.04161152509651579,-0.04563473277022547,-0.048534215647319474,-0.04724582881095235,-0.04724582881095235,-0.0366063964979697,-0.03133292286192606,-0.03482986901893701,-0.03519929634440573,-0.03764716213545653,-0.03947723333022328,-0.0431669244196392,-0.04079292099526194
426,-0.012427808211369495,-0.02541943662713901,-0.02649187849631719,-0.030154500760973778,-0.03717637059115273,-0.037242675017300664,-0.028920272354325857,-0.03143031773937509,-0.03273680394689032,-0.03126083828277909,-0.02824376992479652,-0.03383551729091174,-0.03194217681586056,-0.035158652653954466,-0.041173960893974265,-0.04354864575826872,-0.05147835352031775,-0.05235155085502506,-0.04878835219367466,-0.044281055252786576,-0.04025611406837196,-0.04119273298111503,-0.03410284761394557,-0.0236415672417184,-0.012581056440038787,-0.01214206996238941,-0.01562863786307391,-0.014903649233803017,-0.015571530845628892,-0.021668159780566923,-0.02969424557783749,-0.009062372446493138,-0.01606445123405832,-0.01333276174809562,-0.006694545385389321,-0.01465212346959552,-0.012948122879659065,-0.010589202685542335,-0.013155636290849615,-0.009735630094604491,-0.012976940635319649,-0.010230651561766385,-0.014743413608457408,-0.025082621741289106,-0.02650873958506232,-0.02187286498072591,-0.023545607209781064,-0.03136433627524222,-0.03955256788901713,-0.03936300803558441,-0.038735124525123815,-0.042443894424384815,-0.03358386170721358,-0.035682183590137154,-0.03969361465952665,-0.03537037534526843,-0.03649693244299914,-0.03848128676403603,-0.0390014305976698,-0.04056224338798267,-0.04011285339886405,-0.04193177461329645,-0.04324733234896254,-0.041762087201930774,-0.043618137557588144,-0.045746850798737776,-0.04447336245743763,-0.04693928704252498,-0.047541888069945866,-0.0522476214716553,-0.047848182584831915,-0.047848182584831915,-0.056576306065263135,-0.054931171617602054,-0.05464820788012797,-0.04923819802060737,-0.052542227038801334,-0.0527957960512089,-0.0515417323173918,-0.05324704523083128,-0.05324704523083128,-0.05324704523083128,-0.053247045230831264,-0.051458851051989524,-0.051458851051989524,-0.0515844683652792,-0.053915997139359115,-0.05474289441185193,-0.05474289441185193,-0.05462163995747683,-0.05614686486295363,-0.05727073491245995,-0.057081750368441965,-0.058080565765740805,-0.058080565765740805,-0.05829499783822295,-0.057327080981068985,-0.05739630459100721,-0.057676732997215076,-0.05566433327816653
427,6.130668540588283E-5,0.005036213810489888,0.00548290917663672,0.011960352641985535,0.006485760780098534,0.007877138393709869,0.007154487999561892,0.00439755553142333,-3.46942059956943E-4,-0.009147232546742753,-0.004185336002368757,-0.004290436365667022,-0.0021456767151660765,-4.884854042411328E-4,0.0020627855955824333,0.007224764594768964,0.013418160321413164,0.011391241195621595,0.007068067018453362,0.00966185627290419,0.009031178686485232,0.002665826371394625,0.0036229493714143458,0.0015883726350194327,-0.0048791477105646006,-0.01735716087310112,-0.022928069400337484,-0.022450850348086613,-0.026162455407918415,-0.023609786836171084,-0.024272819744550624,-0.027912691678281094,-0.030724498641893715,-0.029820593921805562,-0.036453483233766536,-0.04419457111635934,-0.04624585502539502,-0.03941721757023772,-0.0471025173842295,-0.05834121748432028,-0.056669208327886175,-0.05338502216763638,-0.0530735701654195,-0.051002023799756754,-0.05473596369471162,-0.04983178512858049,-0.04574568320299068,-0.047272463929822255,-0.05030623227728219,-0.05227309959760959,-0.05057916070486808,-0.0496877512187448,-0.051731364497729755,-0.04800390525981448,-0.05513152440578595,-0.059073677668605926,-0.05969380104192905,-0.058638101941887955,-0.05713204498288675,-0.057419536569759115,-0.05928037818856271,-0.06204305651491485,-0.06350101805164897,-0.06712476493709306,-0.061885733563845545,-0.06229099662676724,-0.06190018081190372,-0.06136975587910198,-0.06054341603931245,-0.05712776807000299,-0.058709468105227716,-0.05852511909845475,-0.05409039264042098,-0.05295927205415592,-0.05138984633102846,-0.047122688783234494,-0.0500728482671673,-0.05301661485822318,-0.04905651449809072,-0.049660854182609994,-0.05264567026327081,-0.04951099349194218,-0.0499580906137317,-0.04991480886316599,-0.04950669875434781,-0.04992447492372509,-0.04992447492372509,-0.0521093479102546,-0.0521093479102546,-0.0516664068899569,-0.0516664068899569,-0.05203257002440121,-0.05571672933364365,-0.06057818829879811,-0.06255848277868849,-0.06195540944330476,-0.06195540944330476,-0.06296083068275084,-0.06339770749867076,-0.06339770749867076
428,0.012610478231801264,0.004446694970810228,2.7713693741562205E-4,0.0012148999107687215,0.002927824845885431,0.006692982227383796,0.013647908142366412,0.01573788532179482,0.0207490514048362,0.034603955651989114,0.03403649520563386,0.0320124439894903,0.03397455467424865,0.03854128257670925,0.04485723261119667,0.046183238623443305,0.04473352794632806,0.03986280542247897,0.04200655987891911,0.04275970779747035,0.043477583557557604,0.04706396900632279,0.048122401546548906,0.04672391969154733,0.04664065364481887,0.046041359363686266,0.046436294913451415,0.05066128071238322,0.04850973702720128,0.044365712964222315,0.05176123026588488,0.054371597592782345,0.05551544156834584,0.05265097800043435,0.047583344464979464,0.04652637881821271,0.046086503697409756,0.05570231388171997,0.054427748669473947,0.05197165641196258,0.047372861170517894,0.042673851583474934,0.04533862088023399,0.046050769841655084,0.044950686109095354,0.039695861435081706,0.04012886153692683,0.037289959196130484,0.03598544565387012,0.036524965377982097,0.03327665123311444,0.0337473829205389,0.03175423763643817,0.03263801334680096,0.03307127839477868,0.03284472082024772,0.03211246730569879,0.030956421044155576,0.03135129339703955,0.03156049013867507,0.032097631136901485,0.03371206964572392,0.03564860278729963,0.037224508240009044,0.037224508240009044,0.04251470392765429,0.046056612161346475,0.050508662947762184,0.049163206499807925,0.05024211228040762,0.04942224007894594,0.04942224007894594,0.051859665512138706,0.05484474723218101,0.057923322434336566,0.056169631469154296,0.05666567203236215,0.056626425182269714,0.05600543429539716,0.056210005560119035,0.056210005560119035,0.055639649077688445,0.054030217944351894,0.052133356104045105,0.05130348507937993,0.05181923077884462,0.04844794673675925,0.04500712541090539,0.045975964594599225,0.04700028064680471,0.04811184219776263,0.04963863328416901,0.04963863328416901,0.04978064485493069,0.04653664836084581,0.04653664836084581,0.04653664836084581,0.04653664836084581,0.04653664836084581,0.04653664836084581
429,0.004911557313390799,0.010729614293164135,0.012258228465388522,0.01476417452081575,0.015835567795186994,0.005094896682477054,-0.00513806703968179,-0.005343512100512419,-0.016211946157789082,-0.010068525535235238,-0.012031983350000285,-0.009240366113722382,-0.008678591425040145,-0.015993675188644085,-0.01970243492120154,-0.013997932163352857,-0.008724797159804074,-0.005824095833614544,-0.00735272253337091,-0.010696636307769047,-0.011172247795306768,-0.01751767174249276,-0.018781700780861353,-0.015859301130948186,-0.016566118115790063,-0.0070934699784124386,-0.011447957643778565,-0.023605410079440562,-0.025890404683050813,-0.026511239771019754,-0.0312847132724218,-0.034652051399791974,-0.035964074535045694,-0.01978551597336422,-0.01772173394287389,-0.020213507474053705,-0.026592965205276847,-0.02969848230471116,-0.028041187450620658,-0.034692788009483826,-0.03619503727386428,-0.034839564982235366,-0.03547992734622662,-0.038601702966993744,-0.03899296228184261,-0.04488759734642242,-0.04170851878698675,-0.03717002844349739,-0.03490192480749044,-0.03254731246372201,-0.03616813653174367,-0.040230661884384754,-0.04038816608944537,-0.04796524841346242,-0.049700281721261355,-0.048445596558470555,-0.045925112201459964,-0.04848837656431587,-0.04158705424399628,-0.03263488090942484,-0.02794548482558985,-0.02791082826854155,-0.025786615003336028,-0.019601294852496773,-0.01796194689525767,-0.019376142988580675,-0.019892196244195443,-0.01992510970014708,-0.02115308422948225,-0.023676076346872743,-0.03371767382372044,-0.028955136351138177,-0.028335794542707578,-0.026887250392216764,-0.0277702536146228,-0.025670729844745405,-0.029980835309158217,-0.028091792724725017,-0.032872460741053974,-0.0325704661156133,-0.03249114213249421,-0.03639403383422872,-0.038151929183603626,-0.03922802005626276,-0.041412422146316984,-0.039824716397597736,-0.04280459439548544,-0.040898031515401695,-0.03991014849473336,-0.03710549191583207,-0.038242505644800986,-0.039257105327447625,-0.037026214944169605,-0.038161480710224335,-0.03661187895543674,-0.035947970462646694,-0.03424023991988939,-0.03672775403389347,-0.03303726076968618,-0.03243148070177801
430,0.00930509687155578,-8.61700281376225E-4,1.0989252300385722E-5,0.0017929892920510698,-0.010292867408423868,-0.009486695067624172,-0.011292769422098184,-0.016705295044439905,-0.014050138752176122,-0.00819613053845973,0.0016209431602512115,0.008929729327272156,0.0039654674733721985,0.009884422070961902,0.019384701909827058,0.020478099046057553,0.014131089610258355,0.017031457734741903,0.014973043927601206,0.014191945884443844,0.014090892615989925,0.014887889026456989,0.01823129512822237,0.023455847561296813,0.024938874613098506,0.029435586463464728,0.03281031827205036,0.040164428848219656,0.04384812835192155,0.04177746121785366,0.03640629610804266,0.03825976139390013,0.0441832261807353,0.05400919476642621,0.04830042588634059,0.0480655674551266,0.05118834141292125,0.049243906097629145,0.05631218350140904,0.05659875931267121,0.04112104388752621,0.047527863409179104,0.03883697541893978,0.03420022915646797,0.041713305345645255,0.04179901588224093,0.03999199246144445,0.032041131029103984,0.03414625001336669,0.04257535551445328,0.04488577340484924,0.043831121544112756,0.041743007093544636,0.037874286054912686,0.04331048593271702,0.03961909680780295,0.04097994314483156,0.03916765334864421,0.04338333051880936,0.04779248207417105,0.05246476051328928,0.05128863537490671,0.05380474116551212,0.055284025888372695,0.050512781670814494,0.04800503986835966,0.05009355158570443,0.05354359763944812,0.059775485514341045,0.05859054570445714,0.051934814482114844,0.04686942408900127,0.04814806922942349,0.049802261636034545,0.05016397885393983,0.05312638097325524,0.053683776050206224,0.057197527644632096,0.05971993374531432,0.056847042208248405,0.06093898019419753,0.060892141792754255,0.06222394622391966,0.06167401384971639,0.06332674683091971,0.06421580762914987,0.06297039098418004,0.062062056019449925,0.05892409146582736,0.05977265153180359,0.06184372310756507,0.06438260816678251,0.0614218937389619,0.05965077190179564,0.06271047768189977,0.06689091488097638,0.07043680816636351,0.0738393938800285,0.07372527087610506,0.0768713726242734
431,-0.006115843929298056,-0.004531914622182295,-0.008314944834146593,-0.0061213292191750965,-0.007087095383804187,-0.010905877764034155,-0.011941821247528517,-0.016900755022637645,-0.015799960120662433,-0.025954485326714304,-0.030834942767399127,-0.03248508521313771,-0.025436649185556354,-0.031817936630092844,-0.02768669703078625,-0.027374136525374175,-0.02818831370522941,-0.024683399371004434,-0.023565042257223084,-0.0240046661565242,-0.022818962022675617,-0.033063902640090966,-0.03265941980016143,-0.032325383425305644,-0.03481857387803337,-0.037672599435516235,-0.03772878213335861,-0.038344168579610254,-0.040923303199896434,-0.0369027992209387,-0.03675948315209261,-0.02957504734931702,-0.025472891479838354,-0.02143818123343144,-0.019283430248993153,-0.02499134801084004,-0.024348628109341252,-0.028349386921716985,-0.030186687170922127,-0.02837474852660277,-0.029608239801943336,-0.019364401817855523,-0.019664630664166946,-0.018390402135522628,-0.016323493539179283,-0.013086007304386449,-0.013045398257359517,-0.014600189827443932,-0.01644006618343358,-0.015222869162184547,-0.012043502928122573,-0.01963256565480418,-0.024564721136162166,-0.024549571771070085,-0.02372601531115615,-0.019298577659452032,-0.018304065027233953,-0.01910775488248126,-0.01827590674913769,-0.021683854906008788,-0.021272514218615455,-0.021036798292186062,-0.018845598396459634,-0.0243760165402867,-0.0298604501400929,-0.03168232785443647,-0.0314028279848878,-0.02986277949380258,-0.031920786940276946,-0.03116738167854012,-0.03052765552349208,-0.028643810354278664,-0.02945635565299863,-0.03208881760506557,-0.0316082769230643,-0.03226743683648368,-0.03170345044020803,-0.02937761087232225,-0.031872243957543976,-0.03222146367472441,-0.03460096600782259,-0.03463805411815122,-0.03482432965434674,-0.03138801458507625,-0.029571832692833536,-0.03094030954064807,-0.033435528287092356,-0.03509614837916157,-0.0339397747550243,-0.03435520281711545,-0.036943143780948186,-0.036313143285260814,-0.03447839041228967,-0.03447839041228967,-0.036850252523291695,-0.03396425356252433,-0.03396425356252433,-0.03767617507408213,-0.03826585996881789,-0.03980885210614331
432,0.0055169978218921265,0.007244756370624567,0.010896852025901268,0.01889497296485012,0.022261939847413415,4.107326634394082E-4,-0.005368169395182625,-0.010873876447532564,-0.01178557766029966,-0.015483791237596547,-0.010875248231918417,-0.014963073221022097,-0.019975901369047214,-0.006627176583064838,-0.010817655900762748,-0.019305512306400142,-0.01599951132763443,-0.015203815715448224,-0.016025228116321025,-0.020563451617247822,-0.022210140874438195,-0.02150735994125877,-0.021230702160478395,-0.02682868195453543,-0.03966901456727938,-0.03637679858578963,-0.04313073196272668,-0.04197471923498246,-0.04547019375036927,-0.04552495192473935,-0.04840579135127349,-0.04581747972259676,-0.051465933929042584,-0.052106653649519566,-0.05235010132128326,-0.0491237411538514,-0.04841557949669895,-0.048160296416455556,-0.040415342933170485,-0.03569797366350462,-0.036087504343674165,-0.039121008570307036,-0.044953327650238996,-0.04869416777658211,-0.0464039914892199,-0.036606249094870466,-0.034275127430249325,-0.029474533321816265,-0.026142347786674135,-0.03184047686708619,-0.03562285446993249,-0.02919302910089271,-0.035355825937482786,-0.03418777951213301,-0.04006901550445692,-0.039606034093351686,-0.037943164198054574,-0.040068973644410616,-0.04594227185612986,-0.04325513402098438,-0.042552618825730686,-0.04342421340145834,-0.04383743698901526,-0.04121621498326271,-0.04248938306187171,-0.05251997589500327,-0.05183126321137916,-0.0514228159109066,-0.05604850928126282,-0.05223549882487968,-0.051712473822829175,-0.05288883408320889,-0.05165622225627069,-0.055542066557004645,-0.05938481947737689,-0.060631587217062105,-0.06062959089191562,-0.06240707236150933,-0.06309942595724072,-0.06370499905633081,-0.0641714677398454,-0.06444778161302515,-0.06351868772302204,-0.06351868772302204,-0.0623901869463308,-0.06171485621442058,-0.06282356500840316,-0.06282356500840316,-0.06556072388193405,-0.06556072388193405,-0.06399018467244716,-0.06399018467244716,-0.06435228433541794,-0.06435228433541794,-0.06435228433541794,-0.06435228433541794,-0.06435228433541794,-0.06435228433541794,-0.06435228433541794,-0.06435228433541794
433,0.007920943125776762,0.017728292855439934,0.012941637385282893,0.005747158368131686,0.005736848041077817,0.006339837034168413,0.017241385055214796,0.00973549236934821,0.022394634129340743,0.024695977769759545,0.021728493429945813,0.031054045303305803,0.03486606774971772,0.04056202119025329,0.042918552300243246,0.04484588077913244,0.04738329227891316,0.04857416024501594,0.04793990719870282,0.04618492801701736,0.05183408596897704,0.04237982911987052,0.04853476164688294,0.059717029624679924,0.06383137129087967,0.059044982104146444,0.058755730531840494,0.06686636183889139,0.05982577593852885,0.05600870163233109,0.060498900202706325,0.05998810114746166,0.0635546946403966,0.05884429696229252,0.05680181410434218,0.050965854423559866,0.04943021577383587,0.05014269105043362,0.05280782290938456,0.048775994733025956,0.0470227930051922,0.043990576488464564,0.042974974132320494,0.038196046350419406,0.03572073013263568,0.03462431761119563,0.03463951082819125,0.035846724468713884,0.03752644850516793,0.033917659664434927,0.032188324722023876,0.03027362340149077,0.03228188610730114,0.03022244122001821,0.029664850349442554,0.027561146276590186,0.02902468161148622,0.030510355402437864,0.029277291875469423,0.028681052304543833,0.030735740965555126,0.030798599982184774,0.03036878809247897,0.03036878809247897,0.029750379497818606,0.02926816592168096,0.02917727675024536,0.030114893617048725,0.02849234672740487,0.02949089136249932,0.029278200625827838,0.03112023253971334,0.029523415038749428,0.030854433072316004,0.0319222650299837,0.03062145982814803,0.02940490898813744,0.02924235825216204,0.028198002698312897,0.02878315212814014,0.027483861435890922,0.029022152257100954,0.029022152257100954,0.030849335382519185,0.030604921014504485,0.030604921014504485,0.03288239953166934,0.03135341544460014,0.029432831154793004,0.03035756751289858,0.030541499099982886,0.03094937103351114,0.03168297485266884,0.03239364801067186,0.032452277531163615,0.032436922871196434,0.032436922871196434,0.03221907509981084,0.032470061114764415,0.02831768851480839
434,-0.005414365093121486,-0.011081467996769418,-0.010969663422122373,-0.011230650665859725,-0.00907502100073254,-0.01503442983160661,0.0030081199139841584,0.005981308783181971,0.0014804175990513334,0.004518279187086332,0.01135811463344961,0.013101251823226332,0.012358536958661216,0.011160277911238232,0.015809006468401346,0.02157377847198839,0.016192664345902216,0.025955608914563045,0.019914316059847333,0.01256913074115787,0.01473975075630986,0.01380821093864775,0.022565321722177484,0.02648617446159937,0.03815111571012412,0.041529167606076965,0.03632572598164554,0.044578611920363505,0.04862050775575411,0.05167370261068054,0.043934409701508775,0.038991428376252406,0.04240855073036998,0.047272143822220676,0.043484292430835875,0.04975327215045893,0.04955948644550763,0.04932833164869016,0.05030759765866928,0.05133017123604473,0.056304449688858095,0.053858157602464714,0.04707754516960298,0.04767336504453223,0.043806286643752496,0.0439819424790728,0.04043843170242111,0.03912149864279007,0.03861351062839586,0.03686804572022503,0.04378667623222934,0.04739179815583185,0.04538713188695172,0.048193461526398446,0.04829729851453601,0.05087904640176398,0.04692197622042375,0.05006749796984875,0.050238189991745126,0.05443476573636107,0.05465872292601055,0.058730246342188146,0.058439952031694824,0.0556385817383137,0.055239398961832095,0.056273447324199276,0.056766972186941704,0.05805313539912801,0.06160610495477299,0.06544393811425972,0.0639400309053966,0.06326522979527564,0.0600052452203049,0.05707425248507972,0.05627946677773586,0.054727196439370074,0.056432963244604076,0.05537809505710127,0.053807142647427766,0.05355540997875659,0.05297026198269048,0.05053289805550052,0.05270934139930227,0.05303808635681248,0.05335247416730492,0.05353754622892668,0.054703290985843554,0.05146095687907265,0.04988225029928439,0.04988225029928439,0.05101419120349623,0.05018372115993317,0.051290902264429554,0.050289317422592156,0.05051160429325379,0.05196964583299349,0.05146425323192972,0.05209852589444417,0.054638866830762065,0.05683337988392137
435,-0.007446252323496605,-0.005291050697852877,-9.439301304960063E-4,0.004663383508338702,0.011725865010539516,0.006742205264356983,7.909791890793685E-4,-0.003240532903810695,-0.0011878977412646213,0.0029570266079801386,0.0031166795114438307,0.0013126075417363525,0.004445928858709772,0.0038050749744375574,0.016868866058707216,0.011353167848975049,0.00832925030336707,0.006470921038564579,0.004703194480492471,0.004089720066998924,0.012974156924581455,0.01772645067063363,0.014550964895757103,0.013235214696547155,0.016187983549675645,0.021588893880196393,0.02043049676770496,0.01927423904699892,0.022972340054108677,0.021532643936820736,0.028762834049305727,0.03336287623709238,0.03967222643742272,0.042783238686012,0.04668297891494138,0.049037949186096566,0.04802216654036963,0.05224999550606233,0.05528093818136788,0.06108385848875408,0.060535358481265476,0.06372060967174441,0.06222707826571362,0.06248325229860783,0.060908102976292566,0.06095369153854959,0.06452178302257806,0.060045684569268724,0.062186787372042265,0.06434394025824729,0.06551703893641882,0.0643547033917807,0.06232499511025906,0.06092327173637685,0.06170702392177144,0.060580574066856574,0.0647373962134815,0.06599889837107975,0.06667044260183436,0.06520282460531386,0.06588647907317687,0.06541165513058207,0.0668147042701149,0.06894066170250668,0.06613859431834058,0.06858453003155213,0.0656955337134196,0.06604237828272597,0.06478019857577003,0.06323223968999793,0.06368020168363513,0.0657791513935086,0.07028778849489649,0.07175060050289556,0.07167358759156753,0.0754676239690476,0.07341086792978949,0.07322772282516672,0.06945353700466309,0.06479247083118152,0.0642802708705012,0.06282496595206329,0.0645756210506209,0.06381346377895016,0.06256413936668895,0.06261836983913759,0.06271852786401153,0.06154671446503648,0.06276204458386306,0.06351356962950667,0.06275403173885893,0.06662034727196509,0.0662919845555986,0.06525974594175167,0.06502975350120939,0.06585158776973413,0.06629772893844028,0.06756424218390006,0.06396490497471116,0.06430284289936421
436,-0.0067708333467478565,-0.010679582223924934,-0.006809188155081996,-0.002463009883010091,-0.0028958929750624936,-0.005573800230945516,-0.004475180298083964,0.0035226550267035734,0.009340417063058932,0.009805833638772873,0.008786368062636347,0.0023618136807389777,4.8624000129716765E-4,0.006242919826761053,0.00972988144273952,0.010642024462891983,0.014485513439176333,0.012475860670144372,0.014814784699860133,0.01789528373004,0.02034386619723515,0.022621074145760343,0.023769091246096937,0.02417961423958899,0.03208683563723754,0.025221694190092122,0.023136855059384887,0.01829929040971126,0.012907370779028456,0.013870452513800653,0.012840459693228463,0.013909264781115916,0.014329495562017222,0.009003969048936416,0.010995657232257434,0.009285518135347656,0.009216837281311632,0.011225165321708737,0.013815443515971753,0.015349752272475179,0.01141781793406402,0.012238323711185235,0.011298797018265978,0.013517437381967947,0.012542948294087551,0.012636453109755625,0.009376623109768134,0.016718074939990574,0.020769812404813678,0.025814053978243302,0.027637959395423208,0.027912693586841467,0.029380609193959857,0.032646696354376996,0.03129126877390266,0.035385628471102534,0.035385628471102534,0.034306300092718484,0.03571624472431552,0.035849631135015776,0.037853688228039854,0.039209006605776545,0.0386472922747497,0.03742646295445871,0.03674231963269692,0.03620811802412318,0.03690740395870421,0.03481947093484568,0.03510919928689221,0.03358443435012999,0.03354431335042371,0.03354431335042371,0.033498174384955545,0.034731634373876275,0.03543128026770331,0.03460613880637154,0.03460613880637154,0.03460613880637154,0.03286570788764613,0.03286570788764613,0.031492208890610676,0.031492208890610676,0.031492208890610676,0.031492208890610676,0.031492208890610676,0.031492208890610676,0.031492208890610676,0.031492208890610676,0.031492208890610676,0.031492208890610676,0.031492208890610676,0.031492208890610676,0.031492208890610676,0.031492208890610676,0.031492208890610676,0.031492208890610676,0.031492208890610676,0.031492208890610676,0.031492208890610676,0.031492208890610676
437,-0.00586385592677384,-0.008415618247051478,-0.00632021375710567,-0.008976923143253178,-0.00584031812348626,-0.01057759976912358,-0.014574004098320072,-0.00742300593914583,-0.006371126670273491,-0.009278546647229508,-0.001425409992536743,0.010043623737506361,0.010359765792355358,0.011009498954077275,0.015044328104994991,0.02169358311548276,0.02070733139976988,0.01920925731311253,0.017416598421788977,0.018929452375014776,0.01882475800654368,0.02548571440593758,0.02549207844383976,0.01325234572436257,0.01054984833975813,0.008898310579228403,0.013445067882127787,0.010928603580142799,0.00911998277650065,0.012350913103499325,0.014164513838405215,7.346625795657113E-4,0.006266745044569748,0.005840193674746499,0.0012690056695665198,2.0363453870833714E-4,-0.0026629832682225287,-0.0024637868835572455,-0.004006756106812205,-0.0077079776988653,-0.007992029732592124,-0.009668314141089958,-0.013407217005221468,-0.012503257899623215,-0.013399896015817042,-0.014786585034944,-0.01407465270212729,-0.015427994714603854,-0.013326764700780324,-0.013326764700780324,-0.012434800379868263,-0.011950685604330461,-0.014566594650588667,-0.017099389264122113,-0.017916761516698444,-0.01830184448518543,-0.017555556456814732,-0.017555556456814732,-0.016554398556307758,-0.016649378764093996,-0.016219991615689083,-0.016265949574836264,-0.016265949574836264,-0.01755929168210173,-0.01755929168210173,-0.01755929168210173,-0.01767107146878607,-0.02102136142385014,-0.02102136142385014,-0.020037565552854426,-0.021539995049114663,-0.021539995049114663,-0.020078219924888632,-0.020972379303163823,-0.021115822267898942,-0.020732196826191335,-0.021687083870203076,-0.02176128403470131,-0.02217707885181798,-0.022538181631643752,-0.022398694438584315,-0.022398694438584315,-0.020998606974527368,-0.020998606974527368,-0.02027898854639458,-0.02027898854639458,-0.02027898854639458,-0.02015836628461414,-0.02015836628461414,-0.019383255785377675,-0.018626860579739203,-0.01899428552778014,-0.019138884599551823,-0.020170054488031962,-0.020072799273116497,-0.020072799273116497,-0.01908109465795491,-0.0204357696192692,-0.021176486718930708,-0.02061252688129628
438,-0.006515060871366396,-0.00577784046811171,-0.00485312377612043,-0.0028935601508306226,-0.0033315451297825467,-0.010777056556382576,-0.01590959303740995,-0.011944344859020885,-0.006532360009139701,-0.003683850671637113,-6.23056724700315E-4,-0.002412308468841315,0.0017220191725911193,0.011054169822565353,0.004475104445312907,0.008843065077025836,0.012736324284635402,0.014111664114079762,0.012782859882364375,0.0172852422896689,0.013054314530411882,0.014402283193661214,0.016827729815369778,0.011551256530810737,0.011434623569127982,0.008990373498478664,0.014094315631357778,0.013565001573692819,0.006642965919571524,0.008579139656173563,0.010946347967998758,0.012842305880663605,0.014036411290414117,0.016196421243540114,0.021913999645023864,0.015031605746642964,0.013717701330252359,0.017463455928204537,0.016593617310537528,0.01371984006401993,0.012657465646477248,0.012791224619086597,0.01356912064799444,0.012348881217080634,0.012642666691856404,0.01317585452174408,0.00640697803334295,0.008090504961809393,0.006173747598432018,0.00345646441392308,0.006414266894724952,0.005130974462028835,9.719705747274847E-4,-0.0032955979387865168,-0.004411575595874282,-0.002357047576025845,-0.002357047576025845,-0.006325988821654266,-0.004643420129736623,-0.004643420129736623,-0.0062352428435318245,-0.007622656211223452,-0.008289593597546918,-0.007381569469568784,-0.0055664896397316435,-0.005385785767211882,-0.005385785767211882,-0.005385785767211882,-0.005385785767211882,-0.005385785767211882,-0.008239570368344561,-0.008239570368344561,-0.008239570368344561,-0.008239570368344561,-0.008239570368344561,-0.008239570368344561,-0.008239570368344561,-0.008239570368344561,-0.008239570368344561,-0.008239570368344561,-0.008239570368344561,-0.008239570368344561,-0.008239570368344561,-0.008239570368344561,-0.008239570368344561,-0.008239570368344561,-0.008239570368344561,-0.008239570368344561,-0.008239570368344561,-0.008239570368344561,-0.008239570368344561,-0.008239570368344561,-0.008239570368344561,-0.008239570368344561,-0.008239570368344561,-0.008239570368344561,-0.008239570368344561,-0.008239570368344561,-0.008239570368344561,-0.008239570368344561
439,0.01979380516028011,0.015218207780672644,0.007844330063683397,0.012267084606514586,0.02050682071945947,0.033767676378145574,0.029154895881180184,0.04278609596761707,0.041907767533512136,0.04320848761681373,0.030300613863186502,0.023235879934936334,0.026628053521018585,0.0184755045150383,0.02497350387691739,0.02275677999888245,0.02658523119557635,0.026743364214090196,0.031214104162703475,0.035217283551510395,0.0375155062323253,0.0335761538691385,0.044000718568307,0.04252219973590534,0.03335408134011256,0.022677195215310343,0.026764344380251038,0.02798580158111502,0.028925843802854,0.0331700307178561,0.032851689093936015,0.03851735736410991,0.03225026042976224,0.03365469962075266,0.036619827966993326,0.03538057322816415,0.031965279517361604,0.0311480081845981,0.025825337653047828,0.022879148722468955,0.02149022324235053,0.02182023971523131,0.019048658564517113,0.019634735356083736,0.019012680474545095,0.022169361412822407,0.022891121067704082,0.02037975316895343,0.020132205762546627,0.017325287304932695,0.01564480212073638,0.01328162180132018,0.012565159141411436,0.009865784173547408,0.0029946503434639653,0.003545936144487431,0.004094303656220388,0.003050906619112635,0.0016489842892874224,0.0017777774861690828,8.421979426965414E-4,9.412305280689981E-4,0.0012948677293476208,0.0012948677293476208,0.0012817713071085512,0.0018924997051498955,0.0018924997051498955,0.0034438523488082764,0.004604222804767767,0.005645689246461979,0.009940850637754654,0.01103084883229854,0.009820505834678313,0.008591034727169228,0.011604443753292339,0.013296940271714274,0.011795590845867619,0.014331981737885462,0.018447434647543615,0.010710156661971471,0.01119456548556261,0.01119456548556261,0.01119456548556261,0.011963607426067668,0.01450206322570557,0.014199943230413237,0.014199943230413237,0.01240967904557067,0.01457365018917743,0.01485679580427701,0.010921254071866225,0.010921254071866225,0.008766943102272376,0.008766943102272376,0.008716537994431714,0.008957903036757867,0.006872783161338252,0.004748619405365491,0.006020048220474183,0.006148224131652535
440,0.01708644872065121,0.023791346847656034,0.017537772867942836,0.02372651331271155,0.019719818937618667,0.014975046293289147,0.01154454395357436,0.010291179938495779,0.006697055862317403,0.006977441795372958,0.008153163534130311,0.018391677083969406,0.016821817350747306,0.014801789921094466,0.0011850430001514123,2.446025808991559E-5,-5.004580387763257E-4,-0.002877327250006419,-0.0029968114575041204,0.002833570003225505,0.0128854809734859,0.00459525657167281,0.00561746741992566,-0.0033166894861403205,-0.0015844192484468945,-0.0019497125728340525,-0.009937699261608169,-0.018336308992237975,-0.016792702999984012,-0.020961420016025602,-0.016700586247163984,-0.013918231805964314,-0.01757939239227985,-0.018060419779805513,-0.01489608439311865,-0.01648881256010486,-0.01826258979111486,-0.01761355306344276,-0.019935619025477906,-0.023512273167561295,-0.02824594586808446,-0.029088554530865198,-0.03134445028344989,-0.03023765394380518,-0.031724283579103674,-0.03016745023157473,-0.028225506891085616,-0.03052209398088975,-0.03248706568665666,-0.03287427111493647,-0.035957715703303236,-0.03160086946371051,-0.031540188360688594,-0.03417622669552891,-0.03762688167300199,-0.03534445665425559,-0.035632601452980216,-0.0369827028082082,-0.03192174921110546,-0.030653758182957333,-0.03577986980440085,-0.035864973101092004,-0.03224877060569533,-0.03211387619185769,-0.03027373008389693,-0.031163855313673633,-0.034394648258266824,-0.034394648258266824,-0.034803748013053776,-0.03510441651167082,-0.033983045520945186,-0.03192663021367598,-0.031282588291789544,-0.034160375856807194,-0.03335891321542729,-0.03420767414284404,-0.03585287769564875,-0.03369017008296053,-0.032878241004929074,-0.031091301670497038,-0.028234993594176,-0.028847300622221943,-0.03146729288523481,-0.02859598288426922,-0.029280879713877293,-0.02921555283923857,-0.027516057657745913,-0.029245318356673874,-0.029245318356673874,-0.028500761190707498,-0.028171131259231888,-0.027950157540835366,-0.027950157540835366,-0.02582777919134213,-0.028875858121805174,-0.029791327922282736,-0.030301899776817298,-0.0293390294948149,-0.030238160934744934,-0.030248322320997903
441,-0.0034350330920795004,0.002643018332829974,-0.002644308712403171,0.0082826881196727,0.0070374705408447645,0.00398211200839941,0.0035283157813996244,0.0030757101202258806,0.004043257457531108,0.009873785640550614,0.004120053287879823,0.005094319037155619,0.002079488781225959,0.01583967611064372,0.014983203837223662,0.013090941356744186,0.01630885400218706,0.019554692287633582,0.026276734144273162,0.030795330240774643,0.02896311258108482,0.027428496380810543,0.026689728352101972,0.028128918468119806,0.03333348039439287,0.03276724291508514,0.03347142684650665,0.03340871626526205,0.03277272130105957,0.033442019549593756,0.03660827265247466,0.03463589044341332,0.0352478863551272,0.029605588596681207,0.030940026739120025,0.02727198172644383,0.02596763237161798,0.022048732593522028,0.0195235573483469,0.017446115529453715,0.012355185506274373,0.010205099365104626,0.017368505472642296,0.01661993221753678,0.006998985663789804,0.00793323927918524,0.00793323927918524,0.006842727631921519,0.008351590165597993,0.00839689395072721,0.008331738527601568,0.01075092560870518,0.01060372136990166,0.014790918943238586,0.014914536021244967,0.015387915953873376,0.015827480857815764,0.02230398993596812,0.0201274261259438,0.02033155477686712,0.021880215304586538,0.01963560738305111,0.015992924609463856,0.01606313065190952,0.01933702249635566,0.017303667295352917,0.020667795971445715,0.020667795971445715,0.020507695855849706,0.020507695855849706,0.022171348481781948,0.015366166723322758,0.017029724960312857,0.01650009470549257,0.01657706613650175,0.01639778818866082,0.01639778818866082,0.014654892254781806,0.014375204574043848,0.018253940490532167,0.01839015654662052,0.019566855925302776,0.01995626612008259,0.020086702672790384,0.017085770078160326,0.01939813417247117,0.015945920127001634,0.015945920127001634,0.015945920127001634,0.015945920127001634,0.015945920127001634,0.01901060057495316,0.01901060057495316,0.020144430895703815,0.019020489830951125,0.019020489830951125,0.01952406747098026,0.01952406747098026,0.01952406747098026,0.016986190523033906
442,-0.019298454611894177,-0.0163557927927731,-0.014741790347037933,-0.015144016686687292,-0.012414653998009862,-0.009944752053827617,-0.013307904353580624,-0.00856269666302907,-0.010407220298513013,-0.007685373097569614,-0.011337704808407525,-0.008966760229808898,-0.005298930021735484,-0.0014782859170766644,-0.0015050205731112348,0.005327291081186868,0.007991344870929616,0.006161114620012073,0.0030039456799035758,0.007252227691389817,0.01259600221679439,0.013132155205503135,0.00964752011143879,0.005707436149136246,0.006804529202167637,0.005518446022257723,0.008037700292585501,0.007604812380636015,0.0026347207433549545,0.0010228994898163531,0.004663707130184056,-2.0446284741360232E-4,0.0028871203603148465,-4.535261114588646E-4,0.004377792462338656,0.0028354809259697276,0.00354328401942804,0.0038906581080794963,0.010693537685332832,0.007245015481786608,0.007813272000796054,0.007678333039022048,0.0061295373563985366,0.0028186954945616377,0.003419546054303529,0.00857630676942592,0.009406234967584028,0.010911226888403394,0.00931657270387633,0.007162397249555823,0.005939515651314391,0.008402230680748442,0.005716588755379173,0.013809668426310096,0.017810629804801147,0.0126223459002234,0.016573321967784157,0.007216273095847725,0.005279978730735869,0.005280834121292876,0.005205473882379799,0.004683006929029243,0.008853001941287308,0.017977567568415648,0.011993784840917726,0.01032565389027056,0.012133268270512683,0.010217099413093646,0.010338408024248038,0.011547523159336673,0.014484340759851047,0.014391131772065333,0.015228239693563083,0.012129718775716785,0.014515651106016656,0.019621619291877918,0.016247674211701698,0.019791262316038467,0.020028375234903598,0.015418564063334715,0.015131116068424655,0.018041713651644812,0.01745140561768975,0.019736142966769007,0.020571070422179517,0.023783230490031473,0.022379917107254843,0.024329693884406728,0.022706604010281052,0.020357181278112653,0.019176090262248674,0.019533438220850276,0.02095211926817202,0.016876244575123298,0.016876244575123298,0.014805201056911495,0.015542489207906024,0.015753905868689362,0.013885578914516694,0.017111236781385295
443,0.007021149196880405,0.011494847167620302,0.010789114969579414,0.013395412202438705,0.012539514207792367,-0.006269630914708515,-0.01848372607976488,-0.013816662234392789,-0.018114111650352607,-0.016835079425784716,-0.013873941025942409,-0.020115673027985875,-0.019401188857142686,-0.019252022180506638,-0.02508006085447083,-0.023954858561048616,-0.023996479483528982,-0.021873621896816017,-0.019811458718440027,-0.0228699749130693,-0.022372131569711545,-0.03064487218387289,-0.03991439365439152,-0.04559445722437253,-0.05049119172192535,-0.048381255528282444,-0.0430429108941264,-0.04576641158661279,-0.05212601246586541,-0.05520463410626753,-0.06241473885351564,-0.06688079259235497,-0.06740674760161101,-0.06886452835222245,-0.07230359908435444,-0.08371289220731387,-0.08198855666748259,-0.08775739942323504,-0.08612049659142969,-0.081086603560972,-0.07808617794843753,-0.08122176385112322,-0.08602437858723819,-0.07942262064807187,-0.08079108221135094,-0.08038091729055197,-0.08049038517576065,-0.08189099135570457,-0.07797099073934279,-0.08200358038685458,-0.07649608116999373,-0.07875560651953782,-0.07921552779413064,-0.08254480378436323,-0.08287722136137494,-0.07478241906997521,-0.08142004775315197,-0.08018148024070555,-0.07675382604735388,-0.0744601489334502,-0.07250380576545157,-0.07144836119825829,-0.06728142435296762,-0.0724266486735553,-0.07327692275469243,-0.07445315896582529,-0.07260820167838253,-0.07228314281490789,-0.06445719731412958,-0.06661561395456154,-0.07415216585145443,-0.07012667058629433,-0.07218530480779987,-0.07214321064133325,-0.07234121691157334,-0.07414133607789047,-0.07632682058743658,-0.0784141326164479,-0.08087886604979513,-0.08152607992344295,-0.08729980623012101,-0.08742236977906231,-0.08614902869922444,-0.08622064796505322,-0.08257528531708466,-0.08319452792690474,-0.08493323835499902,-0.08769109977101477,-0.08789463285089108,-0.09031683066281491,-0.09123620431366546,-0.08985901653304096,-0.09085961701177374,-0.08625179781506015,-0.081112033142239,-0.0807485149051783,-0.07850061377415049,-0.07687205503208695,-0.0775968833589722,-0.07726186640765077
444,0.005725653167327181,0.005681437361718722,0.0031306058417042274,0.004478695884593006,0.006738793948324915,6.385236454252766E-4,-4.784939083932214E-4,-0.005092578809122612,-0.005875136221016066,-0.019810646492359762,-0.020216844643682407,-0.02214254174358242,-0.01642788100577495,-0.019056688296887475,-0.023919520370563805,-0.029011893207687173,-0.0211042211915712,-0.025720086718987643,-0.013805920843012152,-0.010991363528914926,-0.014001794633662395,-0.013744906261038083,-0.018851444518167566,-0.013760245155645745,-0.015760324157831428,-0.01030527374352339,-0.007936081340744774,-0.0079721189402672,0.0012029385741199915,0.0023008528597391153,-0.0010268832911145397,0.007496821943443982,0.006380992339164421,0.012960023894712855,0.012488210667263529,0.01999794912106569,0.01311450639386659,0.015464469773032093,0.013023393909971284,0.01780697675710443,0.021250844945031523,0.017766394042706954,0.02196651280602867,0.02313968066222861,0.02262493578906372,0.029012354703886415,0.03622491958985767,0.03224343784336117,0.03699896527825516,0.03644179253850771,0.04229104944971535,0.04077774094503396,0.039446991163468566,0.039106665552304146,0.04599277319513624,0.04429562339164943,0.041537158260560085,0.04227582335154825,0.04640561814634561,0.044790045151698356,0.045456356916198495,0.04144002973410529,0.03909433639899425,0.04121217453751355,0.03859717964860913,0.04017713139864453,0.04143725401876761,0.03991178061412432,0.04124932170500245,0.042251112230404606,0.040717146176262965,0.041601043261733084,0.0466910589584411,0.048127012103653825,0.045211768273749724,0.04309054782227708,0.04153814311213771,0.049484609888519444,0.04732820377859503,0.04619834608997105,0.049904195914019275,0.05393441311319275,0.05007496198959859,0.051634722523751536,0.05457623064294832,0.05300748677999574,0.05299418909360223,0.0541506705086574,0.04601318858898704,0.039324516059272084,0.040969246764109686,0.04193268770821224,0.03901379510040022,0.04015154376162577,0.045870762001950886,0.04863930084192102,0.049528329094546006,0.04854331580567805,0.05487941897570745,0.05396150471396939
445,-0.016059361535283513,-0.01066058190317961,0.00542373944709521,0.012332875108416312,0.006278726282065816,0.01132854197385494,0.013624729281100032,0.006913836666100509,0.004061983655452254,0.008774451974883808,0.007669915446576324,0.011106610592079154,0.015701119182503477,0.021187524497223116,0.020395083707223247,0.021423998580259757,0.02192485867374374,0.022347499087675127,0.020368716234415912,0.017220570604485678,0.01747974587455061,0.017626426531155186,0.0018664813055422902,-0.0019487685300546354,0.003269049435597091,0.005577310990957806,0.009415352157651569,0.014311565897140936,0.012964291133580927,0.013138605113737895,0.008588542985726293,0.0030142743687117755,0.0015008357684831392,-0.005290260315793078,-0.008179336211368689,-0.007361472143204793,-0.009429201386940459,-0.01124647614347294,-0.008081850014327024,-0.007600741487843764,-0.007911803879809947,-0.008769110587960002,-0.004408122991272397,-0.00763871064714167,-0.007384898261665512,-0.008369063529359627,-0.011505843595593222,-0.01580248190558047,-0.014941162584095068,-0.014573888656710408,-0.014761510171834595,-0.0144181181723243,-0.0106482154148591,-0.012522807107085263,-0.011207879342891892,-0.010824763663663459,-0.0097573510589486,-0.010157555081765014,-0.008747380348835177,-0.009303800076078176,-0.00393712690111376,-6.124443659195914E-4,-0.004528508538855291,-0.0018237901737754136,-0.0010508009044500732,-0.00339034504910439,-0.004034357834104218,-0.002630948544708013,-6.16040037501793E-4,5.633261262204944E-4,8.412333293097282E-4,-3.1733709823680427E-4,0.0024696874466512576,-7.476259070667666E-4,0.0010107079680070955,-0.0016434987757157726,-0.003508343065974814,-0.0037964997466752247,-0.005607774480285559,-0.006395515040387842,-0.013557965117010873,-0.01720007190497651,-0.01591720379294493,-0.017060749706466215,-0.013314327172272083,-0.01276025065977287,-0.010494735991285125,-0.01022761230696416,-0.008282458961788523,-0.0082861650425383,-4.084843505091229E-4,8.933986764558632E-4,-0.0013971143613939318,-0.001429197426100196,-0.005044881678707359,-0.006026027862386726,-0.006026027862386726,-0.005320151882719352,-0.00498415873879608,-0.0027466402107678466
