id,intention_0,intention_1,intention_2,intention_3,intention_4,intention_5,intention_6,intention_7,intention_8,intention_9,intention_10,intention_11,intention_12,intention_13,intention_14,intention_15,intention_16,intention_17,intention_18,intention_19,intention_20,intention_21,intention_22,intention_23,intention_24,intention_25,intention_26,intention_27,intention_28,intention_29,intention_30,intention_31,intention_32,intention_33,intention_34,intention_35,intention_36,intention_37,intention_38,intention_39,intention_40,intention_41,intention_42,intention_43,intention_44,intention_45,intention_46,intention_47,intention_48,intention_49,intention_50,intention_51,intention_52,intention_53,intention_54,intention_55,intention_56,intention_57,intention_58,intention_59,intention_60,intention_61,intention_62,intention_63,intention_64,intention_65,intention_66,intention_67,intention_68,intention_69,intention_70,intention_71,intention_72,intention_73,intention_74,intention_75,intention_76,intention_77,intention_78,intention_79,intention_80,intention_81,intention_82,intention_83,intention_84,intention_85,intention_86,intention_87,intention_88,intention_89,intention_90,intention_91,intention_92,intention_93,intention_94,intention_95,intention_96,intention_97,intention_98,intention_99
0,0.0325870567922776,0.0325870567922776,0.0325870567922776,0.0325870567922776,0.0325870567922776,0.0325870567922776,0.0325870567922776,0.0325870567922776,0.0325870567922776,0.0325870567922776,0.0325870567922776,0.0325870567922776,0.0325870567922776,0.0325870567922776,0.0325870567922776,0.0325870567922776,0.0325870567922776,0.0325870567922776,0.0325870567922776,0.0325870567922776,0.0325870567922776,0.0325870567922776,0.0325870567922776,0.0325870567922776,0.0325870567922776,0.0325870567922776,0.0325870567922776,0.0325870567922776,0.0325870567922776,0.0325870567922776,0.0325870567922776,0.0325870567922776,0.0325870567922776,0.0325870567922776,0.0325870567922776,0.0325870567922776,0.0325870567922776,0.0325870567922776,0.0325870567922776,0.0325870567922776,0.0325870567922776,0.0325870567922776,0.0325870567922776,0.0325870567922776,0.0325870567922776,0.0325870567922776,0.0325870567922776,0.0325870567922776,0.0325870567922776,0.0325870567922776,0.0325870567922776,0.0325870567922776,0.0325870567922776,0.0325870567922776,0.0325870567922776,0.0325870567922776,0.0325870567922776,0.0325870567922776,0.0325870567922776,0.0325870567922776,0.0325870567922776,0.0325870567922776,0.0325870567922776,0.0325870567922776,0.0325870567922776,0.0325870567922776,0.0325870567922776,0.0325870567922776,0.0325870567922776,0.0325870567922776,0.0325870567922776,0.0325870567922776,0.0325870567922776,0.0325870567922776,0.0325870567922776,0.0325870567922776,0.0325870567922776,0.0325870567922776,0.0325870567922776,0.0325870567922776,0.0325870567922776,0.0325870567922776,0.0325870567922776,0.0325870567922776,0.0325870567922776,0.0325870567922776,0.0325870567922776,0.0325870567922776,0.0325870567922776,0.0325870567922776,0.0325870567922776,0.0325870567922776,0.0325870567922776,0.0325870567922776,0.0325870567922776,0.0325870567922776,0.0325870567922776,0.0325870567922776,0.0325870567922776,0.0325870567922776
1,-0.005708114937327717,-0.005708114937327717,-0.005708114937327717,-0.005708114937327717,-0.005708114937327717,-0.005708114937327717,-0.005708114937327717,-0.005708114937327717,-0.005708114937327717,-0.005708114937327717,-0.005708114937327717,-0.005708114937327717,-0.005708114937327717,-0.005708114937327717,-0.005708114937327717,-0.005708114937327717,-0.005708114937327717,-0.005708114937327717,-0.005708114937327717,-0.005708114937327717,-0.005708114937327717,-0.005708114937327717,-0.005708114937327717,-0.005708114937327717,-0.005708114937327717,-0.005708114937327717,-0.005708114937327717,-0.005708114937327717,-0.005708114937327717,-0.005708114937327717,-0.005708114937327717,-0.005708114937327717,-0.005708114937327717,-0.005708114937327717,-0.005708114937327717,-0.005708114937327717,-0.005708114937327717,-0.005708114937327717,-0.005708114937327717,-0.005708114937327717,-0.005708114937327717,-0.005708114937327717,-0.005708114937327717,-0.005708114937327717,-0.005708114937327717,-0.005708114937327717,-0.005708114937327717,-0.005708114937327717,-0.005708114937327717,-0.005708114937327717,-0.005708114937327717,-0.005708114937327717,-0.005708114937327717,-0.005708114937327717,-0.005708114937327717,-0.005708114937327717,-0.005708114937327717,-0.005708114937327717,-0.005708114937327717,-0.005708114937327717,-0.005708114937327717,-0.005708114937327717,-0.005708114937327717,-0.005708114937327717,-0.005708114937327717,-0.005708114937327717,-0.005708114937327717,-0.005708114937327717,-0.005708114937327717,-0.005708114937327717,-0.005708114937327717,-0.005708114937327717,-0.005708114937327717,-0.005708114937327717,-0.005708114937327717,-0.005708114937327717,-0.005708114937327717,-0.005708114937327717,-0.005708114937327717,-0.005708114937327717,-0.005708114937327717,-0.005708114937327717,-0.005708114937327717,-0.005708114937327717,-0.005708114937327717,-0.005708114937327717,-0.005708114937327717,-0.005708114937327717,-0.005708114937327717,-0.005708114937327717,-0.005708114937327717,-0.005708114937327717,-0.005708114937327717,-0.005708114937327717,-0.005708114937327717,-0.005708114937327717,-0.005708114937327717,-0.005708114937327717,-0.005708114937327717,-0.005708114937327717
2,0.04826666952207579,0.04826666952207579,0.04826666952207579,0.04826666952207579,0.04826666952207579,0.04826666952207579,0.04826666952207579,0.04826666952207579,0.04826666952207579,0.04826666952207579,0.04826666952207579,0.04826666952207579,0.04826666952207579,0.04826666952207579,0.04826666952207579,0.04826666952207579,0.04826666952207579,0.04826666952207579,0.04826666952207579,0.04826666952207579,0.04826666952207579,0.04826666952207579,0.04826666952207579,0.04826666952207579,0.04826666952207579,0.04826666952207579,0.04826666952207579,0.04826666952207579,0.04826666952207579,0.04826666952207579,0.04826666952207579,0.04826666952207579,0.04826666952207579,0.04826666952207579,0.04826666952207579,0.04826666952207579,0.04826666952207579,0.04826666952207579,0.04826666952207579,0.04826666952207579,0.04826666952207579,0.04826666952207579,0.04826666952207579,0.04826666952207579,0.04826666952207579,0.04826666952207579,0.04826666952207579,0.04826666952207579,0.04826666952207579,0.04826666952207579,0.04826666952207579,0.04826666952207579,0.04826666952207579,0.04826666952207579,0.04826666952207579,0.04826666952207579,0.04826666952207579,0.04826666952207579,0.04826666952207579,0.04826666952207579,0.04826666952207579,0.04826666952207579,0.04826666952207579,0.04826666952207579,0.04826666952207579,0.04826666952207579,0.04826666952207579,0.04826666952207579,0.04826666952207579,0.04826666952207579,0.04826666952207579,0.04826666952207579,0.04826666952207579,0.04826666952207579,0.04826666952207579,0.04826666952207579,0.04826666952207579,0.04826666952207579,0.04826666952207579,0.04826666952207579,0.04826666952207579,0.04826666952207579,0.04826666952207579,0.04826666952207579,0.04826666952207579,0.04826666952207579,0.04826666952207579,0.04826666952207579,0.04826666952207579,0.04826666952207579,0.04826666952207579,0.04826666952207579,0.04826666952207579,0.04826666952207579,0.04826666952207579,0.04826666952207579,0.04826666952207579,0.04826666952207579,0.04826666952207579,0.04826666952207579
3,-0.0833283943918209,-0.0833283943918209,-0.0833283943918209,-0.0833283943918209,-0.0833283943918209,-0.0833283943918209,-0.0833283943918209,-0.0833283943918209,-0.0833283943918209,-0.0833283943918209,-0.0833283943918209,-0.0833283943918209,-0.0833283943918209,-0.0833283943918209,-0.0833283943918209,-0.0833283943918209,-0.0833283943918209,-0.0833283943918209,-0.0833283943918209,-0.0833283943918209,-0.0833283943918209,-0.0833283943918209,-0.0833283943918209,-0.0833283943918209,-0.0833283943918209,-0.0833283943918209,-0.0833283943918209,-0.0833283943918209,-0.0833283943918209,-0.0833283943918209,-0.0833283943918209,-0.0833283943918209,-0.0833283943918209,-0.0833283943918209,-0.0833283943918209,-0.0833283943918209,-0.0833283943918209,-0.0833283943918209,-0.0833283943918209,-0.0833283943918209,-0.0833283943918209,-0.0833283943918209,-0.0833283943918209,-0.0833283943918209,-0.0833283943918209,-0.0833283943918209,-0.0833283943918209,-0.0833283943918209,-0.0833283943918209,-0.0833283943918209,-0.0833283943918209,-0.0833283943918209,-0.0833283943918209,-0.0833283943918209,-0.0833283943918209,-0.0833283943918209,-0.0833283943918209,-0.0833283943918209,-0.0833283943918209,-0.0833283943918209,-0.0833283943918209,-0.0833283943918209,-0.0833283943918209,-0.0833283943918209,-0.0833283943918209,-0.0833283943918209,-0.0833283943918209,-0.0833283943918209,-0.0833283943918209,-0.0833283943918209,-0.0833283943918209,-0.0833283943918209,-0.0833283943918209,-0.0833283943918209,-0.0833283943918209,-0.0833283943918209,-0.0833283943918209,-0.0833283943918209,-0.0833283943918209,-0.0833283943918209,-0.0833283943918209,-0.0833283943918209,-0.0833283943918209,-0.0833283943918209,-0.0833283943918209,-0.0833283943918209,-0.0833283943918209,-0.0833283943918209,-0.0833283943918209,-0.0833283943918209,-0.0833283943918209,-0.0833283943918209,-0.0833283943918209,-0.0833283943918209,-0.0833283943918209,-0.0833283943918209,-0.0833283943918209,-0.0833283943918209,-0.0833283943918209,-0.0833283943918209
4,0.04147131917505195,0.04147131917505195,0.04147131917505195,0.04147131917505195,0.04147131917505195,0.04147131917505195,0.04147131917505195,0.04147131917505195,0.04147131917505195,0.04147131917505195,0.04147131917505195,0.04147131917505195,0.04147131917505195,0.04147131917505195,0.04147131917505195,0.04147131917505195,0.04147131917505195,0.04147131917505195,0.04147131917505195,0.04147131917505195,0.04147131917505195,0.04147131917505195,0.04147131917505195,0.04147131917505195,0.04147131917505195,0.04147131917505195,0.04147131917505195,0.04147131917505195,0.04147131917505195,0.04147131917505195,0.04147131917505195,0.04147131917505195,0.04147131917505195,0.04147131917505195,0.04147131917505195,0.04147131917505195,0.04147131917505195,0.04147131917505195,0.04147131917505195,0.04147131917505195,0.04147131917505195,0.04147131917505195,0.04147131917505195,0.04147131917505195,0.04147131917505195,0.04147131917505195,0.04147131917505195,0.04147131917505195,0.04147131917505195,0.04147131917505195,0.04147131917505195,0.04147131917505195,0.04147131917505195,0.04147131917505195,0.04147131917505195,0.04147131917505195,0.04147131917505195,0.04147131917505195,0.04147131917505195,0.04147131917505195,0.04147131917505195,0.04147131917505195,0.04147131917505195,0.04147131917505195,0.04147131917505195,0.04147131917505195,0.04147131917505195,0.04147131917505195,0.04147131917505195,0.04147131917505195,0.04147131917505195,0.04147131917505195,0.04147131917505195,0.04147131917505195,0.04147131917505195,0.04147131917505195,0.04147131917505195,0.04147131917505195,0.04147131917505195,0.04147131917505195,0.04147131917505195,0.04147131917505195,0.04147131917505195,0.04147131917505195,0.04147131917505195,0.04147131917505195,0.04147131917505195,0.04147131917505195,0.04147131917505195,0.04147131917505195,0.04147131917505195,0.04147131917505195,0.04147131917505195,0.04147131917505195,0.04147131917505195,0.04147131917505195,0.04147131917505195,0.04147131917505195,0.04147131917505195,0.04147131917505195
5,0.023210871919203787,0.023210871919203787,0.023210871919203787,0.023210871919203787,0.023210871919203787,0.023210871919203787,0.023210871919203787,0.023210871919203787,0.023210871919203787,0.023210871919203787,0.023210871919203787,0.023210871919203787,0.023210871919203787,0.023210871919203787,0.023210871919203787,0.023210871919203787,0.023210871919203787,0.023210871919203787,0.023210871919203787,0.023210871919203787,0.023210871919203787,0.023210871919203787,0.023210871919203787,0.023210871919203787,0.023210871919203787,0.023210871919203787,0.023210871919203787,0.023210871919203787,0.023210871919203787,0.023210871919203787,0.023210871919203787,0.023210871919203787,0.023210871919203787,0.023210871919203787,0.023210871919203787,0.023210871919203787,0.023210871919203787,0.023210871919203787,0.023210871919203787,0.023210871919203787,0.023210871919203787,0.023210871919203787,0.023210871919203787,0.023210871919203787,0.023210871919203787,0.023210871919203787,0.023210871919203787,0.023210871919203787,0.023210871919203787,0.023210871919203787,0.023210871919203787,0.023210871919203787,0.023210871919203787,0.023210871919203787,0.023210871919203787,0.023210871919203787,0.023210871919203787,0.023210871919203787,0.023210871919203787,0.023210871919203787,0.023210871919203787,0.023210871919203787,0.023210871919203787,0.023210871919203787,0.023210871919203787,0.023210871919203787,0.023210871919203787,0.023210871919203787,0.023210871919203787,0.023210871919203787,0.023210871919203787,0.023210871919203787,0.023210871919203787,0.023210871919203787,0.023210871919203787,0.023210871919203787,0.023210871919203787,0.023210871919203787,0.023210871919203787,0.023210871919203787,0.023210871919203787,0.023210871919203787,0.023210871919203787,0.023210871919203787,0.023210871919203787,0.023210871919203787,0.023210871919203787,0.023210871919203787,0.023210871919203787,0.023210871919203787,0.023210871919203787,0.023210871919203787,0.023210871919203787,0.023210871919203787,0.023210871919203787,0.023210871919203787,0.023210871919203787,0.023210871919203787,0.023210871919203787,0.023210871919203787
6,0.04869617685133611,0.04869617685133611,0.04869617685133611,0.04869617685133611,0.04869617685133611,0.04869617685133611,0.04869617685133611,0.04869617685133611,0.04869617685133611,0.04869617685133611,0.04869617685133611,0.04869617685133611,0.04869617685133611,0.04869617685133611,0.04869617685133611,0.04869617685133611,0.04869617685133611,0.04869617685133611,0.04869617685133611,0.04869617685133611,0.04869617685133611,0.04869617685133611,0.04869617685133611,0.04869617685133611,0.04869617685133611,0.04869617685133611,0.04869617685133611,0.04869617685133611,0.04869617685133611,0.04869617685133611,0.04869617685133611,0.04869617685133611,0.04869617685133611,0.04869617685133611,0.04869617685133611,0.04869617685133611,0.04869617685133611,0.04869617685133611,0.04869617685133611,0.04869617685133611,0.04869617685133611,0.04869617685133611,0.04869617685133611,0.04869617685133611,0.04869617685133611,0.04869617685133611,0.04869617685133611,0.04869617685133611,0.04869617685133611,0.04869617685133611,0.04869617685133611,0.04869617685133611,0.04869617685133611,0.04869617685133611,0.04869617685133611,0.04869617685133611,0.04869617685133611,0.04869617685133611,0.04869617685133611,0.04869617685133611,0.04869617685133611,0.04869617685133611,0.04869617685133611,0.04869617685133611,0.04869617685133611,0.04869617685133611,0.04869617685133611,0.04869617685133611,0.04869617685133611,0.04869617685133611,0.04869617685133611,0.04869617685133611,0.04869617685133611,0.04869617685133611,0.04869617685133611,0.04869617685133611,0.04869617685133611,0.04869617685133611,0.04869617685133611,0.04869617685133611,0.04869617685133611,0.04869617685133611,0.04869617685133611,0.04869617685133611,0.04869617685133611,0.04869617685133611,0.04869617685133611,0.04869617685133611,0.04869617685133611,0.04869617685133611,0.04869617685133611,0.04869617685133611,0.04869617685133611,0.04869617685133611,0.04869617685133611,0.04869617685133611,0.04869617685133611,0.04869617685133611,0.04869617685133611,0.04869617685133611
7,-0.05014539436377592,-0.05014539436377592,-0.05014539436377592,-0.05014539436377592,-0.05014539436377592,-0.05014539436377592,-0.05014539436377592,-0.05014539436377592,-0.05014539436377592,-0.05014539436377592,-0.05014539436377592,-0.05014539436377592,-0.05014539436377592,-0.05014539436377592,-0.05014539436377592,-0.05014539436377592,-0.05014539436377592,-0.05014539436377592,-0.05014539436377592,-0.05014539436377592,-0.05014539436377592,-0.05014539436377592,-0.05014539436377592,-0.05014539436377592,-0.05014539436377592,-0.05014539436377592,-0.05014539436377592,-0.05014539436377592,-0.05014539436377592,-0.05014539436377592,-0.05014539436377592,-0.05014539436377592,-0.05014539436377592,-0.05014539436377592,-0.05014539436377592,-0.05014539436377592,-0.05014539436377592,-0.05014539436377592,-0.05014539436377592,-0.05014539436377592,-0.05014539436377592,-0.05014539436377592,-0.05014539436377592,-0.05014539436377592,-0.05014539436377592,-0.05014539436377592,-0.05014539436377592,-0.05014539436377592,-0.05014539436377592,-0.05014539436377592,-0.05014539436377592,-0.05014539436377592,-0.05014539436377592,-0.05014539436377592,-0.05014539436377592,-0.05014539436377592,-0.05014539436377592,-0.05014539436377592,-0.05014539436377592,-0.05014539436377592,-0.05014539436377592,-0.05014539436377592,-0.05014539436377592,-0.05014539436377592,-0.05014539436377592,-0.05014539436377592,-0.05014539436377592,-0.05014539436377592,-0.05014539436377592,-0.05014539436377592,-0.05014539436377592,-0.05014539436377592,-0.05014539436377592,-0.05014539436377592,-0.05014539436377592,-0.05014539436377592,-0.05014539436377592,-0.05014539436377592,-0.05014539436377592,-0.05014539436377592,-0.05014539436377592,-0.05014539436377592,-0.05014539436377592,-0.05014539436377592,-0.05014539436377592,-0.05014539436377592,-0.05014539436377592,-0.05014539436377592,-0.05014539436377592,-0.05014539436377592,-0.05014539436377592,-0.05014539436377592,-0.05014539436377592,-0.05014539436377592,-0.05014539436377592,-0.05014539436377592,-0.05014539436377592,-0.05014539436377592,-0.05014539436377592,-0.05014539436377592
8,-0.039930065135754325,-0.039930065135754325,-0.039930065135754325,-0.039930065135754325,-0.039930065135754325,-0.039930065135754325,-0.039930065135754325,-0.039930065135754325,-0.039930065135754325,-0.039930065135754325,-0.039930065135754325,-0.039930065135754325,-0.039930065135754325,-0.039930065135754325,-0.039930065135754325,-0.039930065135754325,-0.039930065135754325,-0.039930065135754325,-0.039930065135754325,-0.039930065135754325,-0.039930065135754325,-0.039930065135754325,-0.039930065135754325,-0.039930065135754325,-0.039930065135754325,-0.039930065135754325,-0.039930065135754325,-0.039930065135754325,-0.039930065135754325,-0.039930065135754325,-0.039930065135754325,-0.039930065135754325,-0.039930065135754325,-0.039930065135754325,-0.039930065135754325,-0.039930065135754325,-0.039930065135754325,-0.039930065135754325,-0.039930065135754325,-0.039930065135754325,-0.039930065135754325,-0.039930065135754325,-0.039930065135754325,-0.039930065135754325,-0.039930065135754325,-0.039930065135754325,-0.039930065135754325,-0.039930065135754325,-0.039930065135754325,-0.039930065135754325,-0.039930065135754325,-0.039930065135754325,-0.039930065135754325,-0.039930065135754325,-0.039930065135754325,-0.039930065135754325,-0.039930065135754325,-0.039930065135754325,-0.039930065135754325,-0.039930065135754325,-0.039930065135754325,-0.039930065135754325,-0.039930065135754325,-0.039930065135754325,-0.039930065135754325,-0.039930065135754325,-0.039930065135754325,-0.039930065135754325,-0.039930065135754325,-0.039930065135754325,-0.039930065135754325,-0.039930065135754325,-0.039930065135754325,-0.039930065135754325,-0.039930065135754325,-0.039930065135754325,-0.039930065135754325,-0.039930065135754325,-0.039930065135754325,-0.039930065135754325,-0.039930065135754325,-0.039930065135754325,-0.039930065135754325,-0.039930065135754325,-0.039930065135754325,-0.039930065135754325,-0.039930065135754325,-0.039930065135754325,-0.039930065135754325,-0.039930065135754325,-0.039930065135754325,-0.039930065135754325,-0.039930065135754325,-0.039930065135754325,-0.039930065135754325,-0.039930065135754325,-0.039930065135754325,-0.039930065135754325,-0.039930065135754325,-0.039930065135754325
9,-0.027229114839485726,-0.027229114839485726,-0.027229114839485726,-0.027229114839485726,-0.027229114839485726,-0.027229114839485726,-0.027229114839485726,-0.027229114839485726,-0.027229114839485726,-0.027229114839485726,-0.027229114839485726,-0.027229114839485726,-0.027229114839485726,-0.027229114839485726,-0.027229114839485726,-0.027229114839485726,-0.027229114839485726,-0.027229114839485726,-0.027229114839485726,-0.027229114839485726,-0.027229114839485726,-0.027229114839485726,-0.027229114839485726,-0.027229114839485726,-0.027229114839485726,-0.027229114839485726,-0.027229114839485726,-0.027229114839485726,-0.027229114839485726,-0.027229114839485726,-0.027229114839485726,-0.027229114839485726,-0.027229114839485726,-0.027229114839485726,-0.027229114839485726,-0.027229114839485726,-0.027229114839485726,-0.027229114839485726,-0.027229114839485726,-0.027229114839485726,-0.027229114839485726,-0.027229114839485726,-0.027229114839485726,-0.027229114839485726,-0.027229114839485726,-0.027229114839485726,-0.027229114839485726,-0.027229114839485726,-0.027229114839485726,-0.027229114839485726,-0.027229114839485726,-0.027229114839485726,-0.027229114839485726,-0.027229114839485726,-0.027229114839485726,-0.027229114839485726,-0.027229114839485726,-0.027229114839485726,-0.027229114839485726,-0.027229114839485726,-0.027229114839485726,-0.027229114839485726,-0.027229114839485726,-0.027229114839485726,-0.027229114839485726,-0.027229114839485726,-0.027229114839485726,-0.027229114839485726,-0.027229114839485726,-0.027229114839485726,-0.027229114839485726,-0.027229114839485726,-0.027229114839485726,-0.027229114839485726,-0.027229114839485726,-0.027229114839485726,-0.027229114839485726,-0.027229114839485726,-0.027229114839485726,-0.027229114839485726,-0.027229114839485726,-0.027229114839485726,-0.027229114839485726,-0.027229114839485726,-0.027229114839485726,-0.027229114839485726,-0.027229114839485726,-0.027229114839485726,-0.027229114839485726,-0.027229114839485726,-0.027229114839485726,-0.027229114839485726,-0.027229114839485726,-0.027229114839485726,-0.027229114839485726,-0.027229114839485726,-0.027229114839485726,-0.027229114839485726,-0.027229114839485726,-0.027229114839485726
10,0.03949657010465041,0.03949657010465041,0.03949657010465041,0.03949657010465041,0.03949657010465041,0.03949657010465041,0.03949657010465041,0.03949657010465041,0.03949657010465041,0.03949657010465041,0.03949657010465041,0.03949657010465041,0.03949657010465041,0.03949657010465041,0.03949657010465041,0.03949657010465041,0.03949657010465041,0.03949657010465041,0.03949657010465041,0.03949657010465041,0.03949657010465041,0.03949657010465041,0.03949657010465041,0.03949657010465041,0.03949657010465041,0.03949657010465041,0.03949657010465041,0.03949657010465041,0.03949657010465041,0.03949657010465041,0.03949657010465041,0.03949657010465041,0.03949657010465041,0.03949657010465041,0.03949657010465041,0.03949657010465041,0.03949657010465041,0.03949657010465041,0.03949657010465041,0.03949657010465041,0.03949657010465041,0.03949657010465041,0.03949657010465041,0.03949657010465041,0.03949657010465041,0.03949657010465041,0.03949657010465041,0.03949657010465041,0.03949657010465041,0.03949657010465041,0.03949657010465041,0.03949657010465041,0.03949657010465041,0.03949657010465041,0.03949657010465041,0.03949657010465041,0.03949657010465041,0.03949657010465041,0.03949657010465041,0.03949657010465041,0.03949657010465041,0.03949657010465041,0.03949657010465041,0.03949657010465041,0.03949657010465041,0.03949657010465041,0.03949657010465041,0.03949657010465041,0.03949657010465041,0.03949657010465041,0.03949657010465041,0.03949657010465041,0.03949657010465041,0.03949657010465041,0.03949657010465041,0.03949657010465041,0.03949657010465041,0.03949657010465041,0.03949657010465041,0.03949657010465041,0.03949657010465041,0.03949657010465041,0.03949657010465041,0.03949657010465041,0.03949657010465041,0.03949657010465041,0.03949657010465041,0.03949657010465041,0.03949657010465041,0.03949657010465041,0.03949657010465041,0.03949657010465041,0.03949657010465041,0.03949657010465041,0.03949657010465041,0.03949657010465041,0.03949657010465041,0.03949657010465041,0.03949657010465041,0.03949657010465041
11,-0.027497982284250762,-0.027497982284250762,-0.027497982284250762,-0.027497982284250762,-0.027497982284250762,-0.027497982284250762,-0.027497982284250762,-0.027497982284250762,-0.027497982284250762,-0.027497982284250762,-0.027497982284250762,-0.027497982284250762,-0.027497982284250762,-0.027497982284250762,-0.027497982284250762,-0.027497982284250762,-0.027497982284250762,-0.027497982284250762,-0.027497982284250762,-0.027497982284250762,-0.027497982284250762,-0.027497982284250762,-0.027497982284250762,-0.027497982284250762,-0.027497982284250762,-0.027497982284250762,-0.027497982284250762,-0.027497982284250762,-0.027497982284250762,-0.027497982284250762,-0.027497982284250762,-0.027497982284250762,-0.027497982284250762,-0.027497982284250762,-0.027497982284250762,-0.027497982284250762,-0.027497982284250762,-0.027497982284250762,-0.027497982284250762,-0.027497982284250762,-0.027497982284250762,-0.027497982284250762,-0.027497982284250762,-0.027497982284250762,-0.027497982284250762,-0.027497982284250762,-0.027497982284250762,-0.027497982284250762,-0.027497982284250762,-0.027497982284250762,-0.027497982284250762,-0.027497982284250762,-0.027497982284250762,-0.027497982284250762,-0.027497982284250762,-0.027497982284250762,-0.027497982284250762,-0.027497982284250762,-0.027497982284250762,-0.027497982284250762,-0.027497982284250762,-0.027497982284250762,-0.027497982284250762,-0.027497982284250762,-0.027497982284250762,-0.027497982284250762,-0.027497982284250762,-0.027497982284250762,-0.027497982284250762,-0.027497982284250762,-0.027497982284250762,-0.027497982284250762,-0.027497982284250762,-0.027497982284250762,-0.027497982284250762,-0.027497982284250762,-0.027497982284250762,-0.027497982284250762,-0.027497982284250762,-0.027497982284250762,-0.027497982284250762,-0.027497982284250762,-0.027497982284250762,-0.027497982284250762,-0.027497982284250762,-0.027497982284250762,-0.027497982284250762,-0.027497982284250762,-0.027497982284250762,-0.027497982284250762,-0.027497982284250762,-0.027497982284250762,-0.027497982284250762,-0.027497982284250762,-0.027497982284250762,-0.027497982284250762,-0.027497982284250762,-0.027497982284250762,-0.027497982284250762,-0.027497982284250762
12,0.010399248420570965,0.010399248420570965,0.010399248420570965,0.010399248420570965,0.010399248420570965,0.010399248420570965,0.010399248420570965,0.010399248420570965,0.010399248420570965,0.010399248420570965,0.010399248420570965,0.010399248420570965,0.010399248420570965,0.010399248420570965,0.010399248420570965,0.010399248420570965,0.010399248420570965,0.010399248420570965,0.010399248420570965,0.010399248420570965,0.010399248420570965,0.010399248420570965,0.010399248420570965,0.010399248420570965,0.010399248420570965,0.010399248420570965,0.010399248420570965,0.010399248420570965,0.010399248420570965,0.010399248420570965,0.010399248420570965,0.010399248420570965,0.010399248420570965,0.010399248420570965,0.010399248420570965,0.010399248420570965,0.010399248420570965,0.010399248420570965,0.010399248420570965,0.010399248420570965,0.010399248420570965,0.010399248420570965,0.010399248420570965,0.010399248420570965,0.010399248420570965,0.010399248420570965,0.010399248420570965,0.010399248420570965,0.010399248420570965,0.010399248420570965,0.010399248420570965,0.010399248420570965,0.010399248420570965,0.010399248420570965,0.010399248420570965,0.010399248420570965,0.010399248420570965,0.010399248420570965,0.010399248420570965,0.010399248420570965,0.010399248420570965,0.010399248420570965,0.010399248420570965,0.010399248420570965,0.010399248420570965,0.010399248420570965,0.010399248420570965,0.010399248420570965,0.010399248420570965,0.010399248420570965,0.010399248420570965,0.010399248420570965,0.010399248420570965,0.010399248420570965,0.010399248420570965,0.010399248420570965,0.010399248420570965,0.010399248420570965,0.010399248420570965,0.010399248420570965,0.010399248420570965,0.010399248420570965,0.010399248420570965,0.010399248420570965,0.010399248420570965,0.010399248420570965,0.010399248420570965,0.010399248420570965,0.010399248420570965,0.010399248420570965,0.010399248420570965,0.010399248420570965,0.010399248420570965,0.010399248420570965,0.010399248420570965,0.010399248420570965,0.010399248420570965,0.010399248420570965,0.010399248420570965,0.010399248420570965
13,0.021041881470036793,0.021041881470036793,0.021041881470036793,0.021041881470036793,0.021041881470036793,0.021041881470036793,0.021041881470036793,0.021041881470036793,0.021041881470036793,0.021041881470036793,0.021041881470036793,0.021041881470036793,0.021041881470036793,0.021041881470036793,0.021041881470036793,0.021041881470036793,0.021041881470036793,0.021041881470036793,0.021041881470036793,0.021041881470036793,0.021041881470036793,0.021041881470036793,0.021041881470036793,0.021041881470036793,0.021041881470036793,0.021041881470036793,0.021041881470036793,0.021041881470036793,0.021041881470036793,0.021041881470036793,0.021041881470036793,0.021041881470036793,0.021041881470036793,0.021041881470036793,0.021041881470036793,0.021041881470036793,0.021041881470036793,0.021041881470036793,0.021041881470036793,0.021041881470036793,0.021041881470036793,0.021041881470036793,0.021041881470036793,0.021041881470036793,0.021041881470036793,0.021041881470036793,0.021041881470036793,0.021041881470036793,0.021041881470036793,0.021041881470036793,0.021041881470036793,0.021041881470036793,0.021041881470036793,0.021041881470036793,0.021041881470036793,0.021041881470036793,0.021041881470036793,0.021041881470036793,0.021041881470036793,0.021041881470036793,0.021041881470036793,0.021041881470036793,0.021041881470036793,0.021041881470036793,0.021041881470036793,0.021041881470036793,0.021041881470036793,0.021041881470036793,0.021041881470036793,0.021041881470036793,0.021041881470036793,0.021041881470036793,0.021041881470036793,0.021041881470036793,0.021041881470036793,0.021041881470036793,0.021041881470036793,0.021041881470036793,0.021041881470036793,0.021041881470036793,0.021041881470036793,0.021041881470036793,0.021041881470036793,0.021041881470036793,0.021041881470036793,0.021041881470036793,0.021041881470036793,0.021041881470036793,0.021041881470036793,0.021041881470036793,0.021041881470036793,0.021041881470036793,0.021041881470036793,0.021041881470036793,0.021041881470036793,0.021041881470036793,0.021041881470036793,0.021041881470036793,0.021041881470036793,0.021041881470036793
14,-0.021152702973584184,-0.021152702973584184,-0.021152702973584184,-0.021152702973584184,-0.021152702973584184,-0.021152702973584184,-0.021152702973584184,-0.021152702973584184,-0.021152702973584184,-0.021152702973584184,-0.021152702973584184,-0.021152702973584184,-0.021152702973584184,-0.021152702973584184,-0.021152702973584184,-0.021152702973584184,-0.021152702973584184,-0.021152702973584184,-0.021152702973584184,-0.021152702973584184,-0.021152702973584184,-0.021152702973584184,-0.021152702973584184,-0.021152702973584184,-0.021152702973584184,-0.021152702973584184,-0.021152702973584184,-0.021152702973584184,-0.021152702973584184,-0.021152702973584184,-0.021152702973584184,-0.021152702973584184,-0.021152702973584184,-0.021152702973584184,-0.021152702973584184,-0.021152702973584184,-0.021152702973584184,-0.021152702973584184,-0.021152702973584184,-0.021152702973584184,-0.021152702973584184,-0.021152702973584184,-0.021152702973584184,-0.021152702973584184,-0.021152702973584184,-0.021152702973584184,-0.021152702973584184,-0.021152702973584184,-0.021152702973584184,-0.021152702973584184,-0.021152702973584184,-0.021152702973584184,-0.021152702973584184,-0.021152702973584184,-0.021152702973584184,-0.021152702973584184,-0.021152702973584184,-0.021152702973584184,-0.021152702973584184,-0.021152702973584184,-0.021152702973584184,-0.021152702973584184,-0.021152702973584184,-0.021152702973584184,-0.021152702973584184,-0.021152702973584184,-0.021152702973584184,-0.021152702973584184,-0.021152702973584184,-0.021152702973584184,-0.021152702973584184,-0.021152702973584184,-0.021152702973584184,-0.021152702973584184,-0.021152702973584184,-0.021152702973584184,-0.021152702973584184,-0.021152702973584184,-0.021152702973584184,-0.021152702973584184,-0.021152702973584184,-0.021152702973584184,-0.021152702973584184,-0.021152702973584184,-0.021152702973584184,-0.021152702973584184,-0.021152702973584184,-0.021152702973584184,-0.021152702973584184,-0.021152702973584184,-0.021152702973584184,-0.021152702973584184,-0.021152702973584184,-0.021152702973584184,-0.021152702973584184,-0.021152702973584184,-0.021152702973584184,-0.021152702973584184,-0.021152702973584184,-0.021152702973584184
15,-0.023649139484203933,-0.023649139484203933,-0.023649139484203933,-0.023649139484203933,-0.023649139484203933,-0.023649139484203933,-0.023649139484203933,-0.023649139484203933,-0.023649139484203933,-0.023649139484203933,-0.023649139484203933,-0.023649139484203933,-0.023649139484203933,-0.023649139484203933,-0.023649139484203933,-0.023649139484203933,-0.023649139484203933,-0.023649139484203933,-0.023649139484203933,-0.023649139484203933,-0.023649139484203933,-0.023649139484203933,-0.023649139484203933,-0.023649139484203933,-0.023649139484203933,-0.023649139484203933,-0.023649139484203933,-0.023649139484203933,-0.023649139484203933,-0.023649139484203933,-0.023649139484203933,-0.023649139484203933,-0.023649139484203933,-0.023649139484203933,-0.023649139484203933,-0.023649139484203933,-0.023649139484203933,-0.023649139484203933,-0.023649139484203933,-0.023649139484203933,-0.023649139484203933,-0.023649139484203933,-0.023649139484203933,-0.023649139484203933,-0.023649139484203933,-0.023649139484203933,-0.023649139484203933,-0.023649139484203933,-0.023649139484203933,-0.023649139484203933,-0.023649139484203933,-0.023649139484203933,-0.023649139484203933,-0.023649139484203933,-0.023649139484203933,-0.023649139484203933,-0.023649139484203933,-0.023649139484203933,-0.023649139484203933,-0.023649139484203933,-0.023649139484203933,-0.023649139484203933,-0.023649139484203933,-0.023649139484203933,-0.023649139484203933,-0.023649139484203933,-0.023649139484203933,-0.023649139484203933,-0.023649139484203933,-0.023649139484203933,-0.023649139484203933,-0.023649139484203933,-0.023649139484203933,-0.023649139484203933,-0.023649139484203933,-0.023649139484203933,-0.023649139484203933,-0.023649139484203933,-0.023649139484203933,-0.023649139484203933,-0.023649139484203933,-0.023649139484203933,-0.023649139484203933,-0.023649139484203933,-0.023649139484203933,-0.023649139484203933,-0.023649139484203933,-0.023649139484203933,-0.023649139484203933,-0.023649139484203933,-0.023649139484203933,-0.023649139484203933,-0.023649139484203933,-0.023649139484203933,-0.023649139484203933,-0.023649139484203933,-0.023649139484203933,-0.023649139484203933,-0.023649139484203933,-0.023649139484203933
16,0.032412550614036494,0.032412550614036494,0.032412550614036494,0.032412550614036494,0.032412550614036494,0.032412550614036494,0.032412550614036494,0.032412550614036494,0.032412550614036494,0.032412550614036494,0.032412550614036494,0.032412550614036494,0.032412550614036494,0.032412550614036494,0.032412550614036494,0.032412550614036494,0.032412550614036494,0.032412550614036494,0.032412550614036494,0.032412550614036494,0.032412550614036494,0.032412550614036494,0.032412550614036494,0.032412550614036494,0.032412550614036494,0.032412550614036494,0.032412550614036494,0.032412550614036494,0.032412550614036494,0.032412550614036494,0.032412550614036494,0.032412550614036494,0.032412550614036494,0.032412550614036494,0.032412550614036494,0.032412550614036494,0.032412550614036494,0.032412550614036494,0.032412550614036494,0.032412550614036494,0.032412550614036494,0.032412550614036494,0.032412550614036494,0.032412550614036494,0.032412550614036494,0.032412550614036494,0.032412550614036494,0.032412550614036494,0.032412550614036494,0.032412550614036494,0.032412550614036494,0.032412550614036494,0.032412550614036494,0.032412550614036494,0.032412550614036494,0.032412550614036494,0.032412550614036494,0.032412550614036494,0.032412550614036494,0.032412550614036494,0.032412550614036494,0.032412550614036494,0.032412550614036494,0.032412550614036494,0.032412550614036494,0.032412550614036494,0.032412550614036494,0.032412550614036494,0.032412550614036494,0.032412550614036494,0.032412550614036494,0.032412550614036494,0.032412550614036494,0.032412550614036494,0.032412550614036494,0.032412550614036494,0.032412550614036494,0.032412550614036494,0.032412550614036494,0.032412550614036494,0.032412550614036494,0.032412550614036494,0.032412550614036494,0.032412550614036494,0.032412550614036494,0.032412550614036494,0.032412550614036494,0.032412550614036494,0.032412550614036494,0.032412550614036494,0.032412550614036494,0.032412550614036494,0.032412550614036494,0.032412550614036494,0.032412550614036494,0.032412550614036494,0.032412550614036494,0.032412550614036494,0.032412550614036494,0.032412550614036494
17,-0.012013824284149443,-0.012013824284149443,-0.012013824284149443,-0.012013824284149443,-0.012013824284149443,-0.012013824284149443,-0.012013824284149443,-0.012013824284149443,-0.012013824284149443,-0.012013824284149443,-0.012013824284149443,-0.012013824284149443,-0.012013824284149443,-0.012013824284149443,-0.012013824284149443,-0.012013824284149443,-0.012013824284149443,-0.012013824284149443,-0.012013824284149443,-0.012013824284149443,-0.012013824284149443,-0.012013824284149443,-0.012013824284149443,-0.012013824284149443,-0.012013824284149443,-0.012013824284149443,-0.012013824284149443,-0.012013824284149443,-0.012013824284149443,-0.012013824284149443,-0.012013824284149443,-0.012013824284149443,-0.012013824284149443,-0.012013824284149443,-0.012013824284149443,-0.012013824284149443,-0.012013824284149443,-0.012013824284149443,-0.012013824284149443,-0.012013824284149443,-0.012013824284149443,-0.012013824284149443,-0.012013824284149443,-0.012013824284149443,-0.012013824284149443,-0.012013824284149443,-0.012013824284149443,-0.012013824284149443,-0.012013824284149443,-0.012013824284149443,-0.012013824284149443,-0.012013824284149443,-0.012013824284149443,-0.012013824284149443,-0.012013824284149443,-0.012013824284149443,-0.012013824284149443,-0.012013824284149443,-0.012013824284149443,-0.012013824284149443,-0.012013824284149443,-0.012013824284149443,-0.012013824284149443,-0.012013824284149443,-0.012013824284149443,-0.012013824284149443,-0.012013824284149443,-0.012013824284149443,-0.012013824284149443,-0.012013824284149443,-0.012013824284149443,-0.012013824284149443,-0.012013824284149443,-0.012013824284149443,-0.012013824284149443,-0.012013824284149443,-0.012013824284149443,-0.012013824284149443,-0.012013824284149443,-0.012013824284149443,-0.012013824284149443,-0.012013824284149443,-0.012013824284149443,-0.012013824284149443,-0.012013824284149443,-0.012013824284149443,-0.012013824284149443,-0.012013824284149443,-0.012013824284149443,-0.012013824284149443,-0.012013824284149443,-0.012013824284149443,-0.012013824284149443,-0.012013824284149443,-0.012013824284149443,-0.012013824284149443,-0.012013824284149443,-0.012013824284149443,-0.012013824284149443,-0.012013824284149443
18,0.017503098901117932,0.017503098901117932,0.017503098901117932,0.017503098901117932,0.017503098901117932,0.017503098901117932,0.017503098901117932,0.017503098901117932,0.017503098901117932,0.017503098901117932,0.017503098901117932,0.017503098901117932,0.017503098901117932,0.017503098901117932,0.017503098901117932,0.017503098901117932,0.017503098901117932,0.017503098901117932,0.017503098901117932,0.017503098901117932,0.017503098901117932,0.017503098901117932,0.017503098901117932,0.017503098901117932,0.017503098901117932,0.017503098901117932,0.017503098901117932,0.017503098901117932,0.017503098901117932,0.017503098901117932,0.017503098901117932,0.017503098901117932,0.017503098901117932,0.017503098901117932,0.017503098901117932,0.017503098901117932,0.017503098901117932,0.017503098901117932,0.017503098901117932,0.017503098901117932,0.017503098901117932,0.017503098901117932,0.017503098901117932,0.017503098901117932,0.017503098901117932,0.017503098901117932,0.017503098901117932,0.017503098901117932,0.017503098901117932,0.017503098901117932,0.017503098901117932,0.017503098901117932,0.017503098901117932,0.017503098901117932,0.017503098901117932,0.017503098901117932,0.017503098901117932,0.017503098901117932,0.017503098901117932,0.017503098901117932,0.017503098901117932,0.017503098901117932,0.017503098901117932,0.017503098901117932,0.017503098901117932,0.017503098901117932,0.017503098901117932,0.017503098901117932,0.017503098901117932,0.017503098901117932,0.017503098901117932,0.017503098901117932,0.017503098901117932,0.017503098901117932,0.017503098901117932,0.017503098901117932,0.017503098901117932,0.017503098901117932,0.017503098901117932,0.017503098901117932,0.017503098901117932,0.017503098901117932,0.017503098901117932,0.017503098901117932,0.017503098901117932,0.017503098901117932,0.017503098901117932,0.017503098901117932,0.017503098901117932,0.017503098901117932,0.017503098901117932,0.017503098901117932,0.017503098901117932,0.017503098901117932,0.017503098901117932,0.017503098901117932,0.017503098901117932,0.017503098901117932,0.017503098901117932,0.017503098901117932
19,-0.01279481669232366,-0.01279481669232366,-0.01279481669232366,-0.01279481669232366,-0.01279481669232366,-0.01279481669232366,-0.01279481669232366,-0.01279481669232366,-0.01279481669232366,-0.01279481669232366,-0.01279481669232366,-0.01279481669232366,-0.01279481669232366,-0.01279481669232366,-0.01279481669232366,-0.01279481669232366,-0.01279481669232366,-0.01279481669232366,-0.01279481669232366,-0.01279481669232366,-0.01279481669232366,-0.01279481669232366,-0.01279481669232366,-0.01279481669232366,-0.01279481669232366,-0.01279481669232366,-0.01279481669232366,-0.01279481669232366,-0.01279481669232366,-0.01279481669232366,-0.01279481669232366,-0.01279481669232366,-0.01279481669232366,-0.01279481669232366,-0.01279481669232366,-0.01279481669232366,-0.01279481669232366,-0.01279481669232366,-0.01279481669232366,-0.01279481669232366,-0.01279481669232366,-0.01279481669232366,-0.01279481669232366,-0.01279481669232366,-0.01279481669232366,-0.01279481669232366,-0.01279481669232366,-0.01279481669232366,-0.01279481669232366,-0.01279481669232366,-0.01279481669232366,-0.01279481669232366,-0.01279481669232366,-0.01279481669232366,-0.01279481669232366,-0.01279481669232366,-0.01279481669232366,-0.01279481669232366,-0.01279481669232366,-0.01279481669232366,-0.01279481669232366,-0.01279481669232366,-0.01279481669232366,-0.01279481669232366,-0.01279481669232366,-0.01279481669232366,-0.01279481669232366,-0.01279481669232366,-0.01279481669232366,-0.01279481669232366,-0.01279481669232366,-0.01279481669232366,-0.01279481669232366,-0.01279481669232366,-0.01279481669232366,-0.01279481669232366,-0.01279481669232366,-0.01279481669232366,-0.01279481669232366,-0.01279481669232366,-0.01279481669232366,-0.01279481669232366,-0.01279481669232366,-0.01279481669232366,-0.01279481669232366,-0.01279481669232366,-0.01279481669232366,-0.01279481669232366,-0.01279481669232366,-0.01279481669232366,-0.01279481669232366,-0.01279481669232366,-0.01279481669232366,-0.01279481669232366,-0.01279481669232366,-0.01279481669232366,-0.01279481669232366,-0.01279481669232366,-0.01279481669232366,-0.01279481669232366
20,0.005787508675884283,0.005787508675884283,0.005787508675884283,0.005787508675884283,0.005787508675884283,0.005787508675884283,0.005787508675884283,0.005787508675884283,0.005787508675884283,0.005787508675884283,0.005787508675884283,0.005787508675884283,0.005787508675884283,0.005787508675884283,0.005787508675884283,0.005787508675884283,0.005787508675884283,0.005787508675884283,0.005787508675884283,0.005787508675884283,0.005787508675884283,0.005787508675884283,0.005787508675884283,0.005787508675884283,0.005787508675884283,0.005787508675884283,0.005787508675884283,0.005787508675884283,0.005787508675884283,0.005787508675884283,0.005787508675884283,0.005787508675884283,0.005787508675884283,0.005787508675884283,0.005787508675884283,0.005787508675884283,0.005787508675884283,0.005787508675884283,0.005787508675884283,0.005787508675884283,0.005787508675884283,0.005787508675884283,0.005787508675884283,0.005787508675884283,0.005787508675884283,0.005787508675884283,0.005787508675884283,0.005787508675884283,0.005787508675884283,0.005787508675884283,0.005787508675884283,0.005787508675884283,0.005787508675884283,0.005787508675884283,0.005787508675884283,0.005787508675884283,0.005787508675884283,0.005787508675884283,0.005787508675884283,0.005787508675884283,0.005787508675884283,0.005787508675884283,0.005787508675884283,0.005787508675884283,0.005787508675884283,0.005787508675884283,0.005787508675884283,0.005787508675884283,0.005787508675884283,0.005787508675884283,0.005787508675884283,0.005787508675884283,0.005787508675884283,0.005787508675884283,0.005787508675884283,0.005787508675884283,0.005787508675884283,0.005787508675884283,0.005787508675884283,0.005787508675884283,0.005787508675884283,0.005787508675884283,0.005787508675884283,0.005787508675884283,0.005787508675884283,0.005787508675884283,0.005787508675884283,0.005787508675884283,0.005787508675884283,0.005787508675884283,0.005787508675884283,0.005787508675884283,0.005787508675884283,0.005787508675884283,0.005787508675884283,0.005787508675884283,0.005787508675884283,0.005787508675884283,0.005787508675884283,0.005787508675884283
21,0.04692759369376104,0.04692759369376104,0.04692759369376104,0.04692759369376104,0.04692759369376104,0.04692759369376104,0.04692759369376104,0.04692759369376104,0.04692759369376104,0.04692759369376104,0.04692759369376104,0.04692759369376104,0.04692759369376104,0.04692759369376104,0.04692759369376104,0.04692759369376104,0.04692759369376104,0.04692759369376104,0.04692759369376104,0.04692759369376104,0.04692759369376104,0.04692759369376104,0.04692759369376104,0.04692759369376104,0.04692759369376104,0.04692759369376104,0.04692759369376104,0.04692759369376104,0.04692759369376104,0.04692759369376104,0.04692759369376104,0.04692759369376104,0.04692759369376104,0.04692759369376104,0.04692759369376104,0.04692759369376104,0.04692759369376104,0.04692759369376104,0.04692759369376104,0.04692759369376104,0.04692759369376104,0.04692759369376104,0.04692759369376104,0.04692759369376104,0.04692759369376104,0.04692759369376104,0.04692759369376104,0.04692759369376104,0.04692759369376104,0.04692759369376104,0.04692759369376104,0.04692759369376104,0.04692759369376104,0.04692759369376104,0.04692759369376104,0.04692759369376104,0.04692759369376104,0.04692759369376104,0.04692759369376104,0.04692759369376104,0.04692759369376104,0.04692759369376104,0.04692759369376104,0.04692759369376104,0.04692759369376104,0.04692759369376104,0.04692759369376104,0.04692759369376104,0.04692759369376104,0.04692759369376104,0.04692759369376104,0.04692759369376104,0.04692759369376104,0.04692759369376104,0.04692759369376104,0.04692759369376104,0.04692759369376104,0.04692759369376104,0.04692759369376104,0.04692759369376104,0.04692759369376104,0.04692759369376104,0.04692759369376104,0.04692759369376104,0.04692759369376104,0.04692759369376104,0.04692759369376104,0.04692759369376104,0.04692759369376104,0.04692759369376104,0.04692759369376104,0.04692759369376104,0.04692759369376104,0.04692759369376104,0.04692759369376104,0.04692759369376104,0.04692759369376104,0.04692759369376104,0.04692759369376104,0.04692759369376104
22,-0.042462015280197454,-0.042462015280197454,-0.042462015280197454,-0.042462015280197454,-0.042462015280197454,-0.042462015280197454,-0.042462015280197454,-0.042462015280197454,-0.042462015280197454,-0.042462015280197454,-0.042462015280197454,-0.042462015280197454,-0.042462015280197454,-0.042462015280197454,-0.042462015280197454,-0.042462015280197454,-0.042462015280197454,-0.042462015280197454,-0.042462015280197454,-0.042462015280197454,-0.042462015280197454,-0.042462015280197454,-0.042462015280197454,-0.042462015280197454,-0.042462015280197454,-0.042462015280197454,-0.042462015280197454,-0.042462015280197454,-0.042462015280197454,-0.042462015280197454,-0.042462015280197454,-0.042462015280197454,-0.042462015280197454,-0.042462015280197454,-0.042462015280197454,-0.042462015280197454,-0.042462015280197454,-0.042462015280197454,-0.042462015280197454,-0.042462015280197454,-0.042462015280197454,-0.042462015280197454,-0.042462015280197454,-0.042462015280197454,-0.042462015280197454,-0.042462015280197454,-0.042462015280197454,-0.042462015280197454,-0.042462015280197454,-0.042462015280197454,-0.042462015280197454,-0.042462015280197454,-0.042462015280197454,-0.042462015280197454,-0.042462015280197454,-0.042462015280197454,-0.042462015280197454,-0.042462015280197454,-0.042462015280197454,-0.042462015280197454,-0.042462015280197454,-0.042462015280197454,-0.042462015280197454,-0.042462015280197454,-0.042462015280197454,-0.042462015280197454,-0.042462015280197454,-0.042462015280197454,-0.042462015280197454,-0.042462015280197454,-0.042462015280197454,-0.042462015280197454,-0.042462015280197454,-0.042462015280197454,-0.042462015280197454,-0.042462015280197454,-0.042462015280197454,-0.042462015280197454,-0.042462015280197454,-0.042462015280197454,-0.042462015280197454,-0.042462015280197454,-0.042462015280197454,-0.042462015280197454,-0.042462015280197454,-0.042462015280197454,-0.042462015280197454,-0.042462015280197454,-0.042462015280197454,-0.042462015280197454,-0.042462015280197454,-0.042462015280197454,-0.042462015280197454,-0.042462015280197454,-0.042462015280197454,-0.042462015280197454,-0.042462015280197454,-0.042462015280197454,-0.042462015280197454,-0.042462015280197454
23,0.04614438514061878,0.04614438514061878,0.04614438514061878,0.04614438514061878,0.04614438514061878,0.04614438514061878,0.04614438514061878,0.04614438514061878,0.04614438514061878,0.04614438514061878,0.04614438514061878,0.04614438514061878,0.04614438514061878,0.04614438514061878,0.04614438514061878,0.04614438514061878,0.04614438514061878,0.04614438514061878,0.04614438514061878,0.04614438514061878,0.04614438514061878,0.04614438514061878,0.04614438514061878,0.04614438514061878,0.04614438514061878,0.04614438514061878,0.04614438514061878,0.04614438514061878,0.04614438514061878,0.04614438514061878,0.04614438514061878,0.04614438514061878,0.04614438514061878,0.04614438514061878,0.04614438514061878,0.04614438514061878,0.04614438514061878,0.04614438514061878,0.04614438514061878,0.04614438514061878,0.04614438514061878,0.04614438514061878,0.04614438514061878,0.04614438514061878,0.04614438514061878,0.04614438514061878,0.04614438514061878,0.04614438514061878,0.04614438514061878,0.04614438514061878,0.04614438514061878,0.04614438514061878,0.04614438514061878,0.04614438514061878,0.04614438514061878,0.04614438514061878,0.04614438514061878,0.04614438514061878,0.04614438514061878,0.04614438514061878,0.04614438514061878,0.04614438514061878,0.04614438514061878,0.04614438514061878,0.04614438514061878,0.04614438514061878,0.04614438514061878,0.04614438514061878,0.04614438514061878,0.04614438514061878,0.04614438514061878,0.04614438514061878,0.04614438514061878,0.04614438514061878,0.04614438514061878,0.04614438514061878,0.04614438514061878,0.04614438514061878,0.04614438514061878,0.04614438514061878,0.04614438514061878,0.04614438514061878,0.04614438514061878,0.04614438514061878,0.04614438514061878,0.04614438514061878,0.04614438514061878,0.04614438514061878,0.04614438514061878,0.04614438514061878,0.04614438514061878,0.04614438514061878,0.04614438514061878,0.04614438514061878,0.04614438514061878,0.04614438514061878,0.04614438514061878,0.04614438514061878,0.04614438514061878,0.04614438514061878
24,0.05004720289402743,0.05004720289402743,0.05004720289402743,0.05004720289402743,0.05004720289402743,0.05004720289402743,0.05004720289402743,0.05004720289402743,0.05004720289402743,0.05004720289402743,0.05004720289402743,0.05004720289402743,0.05004720289402743,0.05004720289402743,0.05004720289402743,0.05004720289402743,0.05004720289402743,0.05004720289402743,0.05004720289402743,0.05004720289402743,0.05004720289402743,0.05004720289402743,0.05004720289402743,0.05004720289402743,0.05004720289402743,0.05004720289402743,0.05004720289402743,0.05004720289402743,0.05004720289402743,0.05004720289402743,0.05004720289402743,0.05004720289402743,0.05004720289402743,0.05004720289402743,0.05004720289402743,0.05004720289402743,0.05004720289402743,0.05004720289402743,0.05004720289402743,0.05004720289402743,0.05004720289402743,0.05004720289402743,0.05004720289402743,0.05004720289402743,0.05004720289402743,0.05004720289402743,0.05004720289402743,0.05004720289402743,0.05004720289402743,0.05004720289402743,0.05004720289402743,0.05004720289402743,0.05004720289402743,0.05004720289402743,0.05004720289402743,0.05004720289402743,0.05004720289402743,0.05004720289402743,0.05004720289402743,0.05004720289402743,0.05004720289402743,0.05004720289402743,0.05004720289402743,0.05004720289402743,0.05004720289402743,0.05004720289402743,0.05004720289402743,0.05004720289402743,0.05004720289402743,0.05004720289402743,0.05004720289402743,0.05004720289402743,0.05004720289402743,0.05004720289402743,0.05004720289402743,0.05004720289402743,0.05004720289402743,0.05004720289402743,0.05004720289402743,0.05004720289402743,0.05004720289402743,0.05004720289402743,0.05004720289402743,0.05004720289402743,0.05004720289402743,0.05004720289402743,0.05004720289402743,0.05004720289402743,0.05004720289402743,0.05004720289402743,0.05004720289402743,0.05004720289402743,0.05004720289402743,0.05004720289402743,0.05004720289402743,0.05004720289402743,0.05004720289402743,0.05004720289402743,0.05004720289402743,0.05004720289402743
25,0.0073244137394154075,0.0073244137394154075,0.0073244137394154075,0.0073244137394154075,0.0073244137394154075,0.0073244137394154075,0.0073244137394154075,0.0073244137394154075,0.0073244137394154075,0.0073244137394154075,0.0073244137394154075,0.0073244137394154075,0.0073244137394154075,0.0073244137394154075,0.0073244137394154075,0.0073244137394154075,0.0073244137394154075,0.0073244137394154075,0.0073244137394154075,0.0073244137394154075,0.0073244137394154075,0.0073244137394154075,0.0073244137394154075,0.0073244137394154075,0.0073244137394154075,0.0073244137394154075,0.0073244137394154075,0.0073244137394154075,0.0073244137394154075,0.0073244137394154075,0.0073244137394154075,0.0073244137394154075,0.0073244137394154075,0.0073244137394154075,0.0073244137394154075,0.0073244137394154075,0.0073244137394154075,0.0073244137394154075,0.0073244137394154075,0.0073244137394154075,0.0073244137394154075,0.0073244137394154075,0.0073244137394154075,0.0073244137394154075,0.0073244137394154075,0.0073244137394154075,0.0073244137394154075,0.0073244137394154075,0.0073244137394154075,0.0073244137394154075,0.0073244137394154075,0.0073244137394154075,0.0073244137394154075,0.0073244137394154075,0.0073244137394154075,0.0073244137394154075,0.0073244137394154075,0.0073244137394154075,0.0073244137394154075,0.0073244137394154075,0.0073244137394154075,0.0073244137394154075,0.0073244137394154075,0.0073244137394154075,0.0073244137394154075,0.0073244137394154075,0.0073244137394154075,0.0073244137394154075,0.0073244137394154075,0.0073244137394154075,0.0073244137394154075,0.0073244137394154075,0.0073244137394154075,0.0073244137394154075,0.0073244137394154075,0.0073244137394154075,0.0073244137394154075,0.0073244137394154075,0.0073244137394154075,0.0073244137394154075,0.0073244137394154075,0.0073244137394154075,0.0073244137394154075,0.0073244137394154075,0.0073244137394154075,0.0073244137394154075,0.0073244137394154075,0.0073244137394154075,0.0073244137394154075,0.0073244137394154075,0.0073244137394154075,0.0073244137394154075,0.0073244137394154075,0.0073244137394154075,0.0073244137394154075,0.0073244137394154075,0.0073244137394154075,0.0073244137394154075,0.0073244137394154075,0.0073244137394154075
26,0.02932166533253434,0.02932166533253434,0.02932166533253434,0.02932166533253434,0.02932166533253434,0.02932166533253434,0.02932166533253434,0.02932166533253434,0.02932166533253434,0.02932166533253434,0.02932166533253434,0.02932166533253434,0.02932166533253434,0.02932166533253434,0.02932166533253434,0.02932166533253434,0.02932166533253434,0.02932166533253434,0.02932166533253434,0.02932166533253434,0.02932166533253434,0.02932166533253434,0.02932166533253434,0.02932166533253434,0.02932166533253434,0.02932166533253434,0.02932166533253434,0.02932166533253434,0.02932166533253434,0.02932166533253434,0.02932166533253434,0.02932166533253434,0.02932166533253434,0.02932166533253434,0.02932166533253434,0.02932166533253434,0.02932166533253434,0.02932166533253434,0.02932166533253434,0.02932166533253434,0.02932166533253434,0.02932166533253434,0.02932166533253434,0.02932166533253434,0.02932166533253434,0.02932166533253434,0.02932166533253434,0.02932166533253434,0.02932166533253434,0.02932166533253434,0.02932166533253434,0.02932166533253434,0.02932166533253434,0.02932166533253434,0.02932166533253434,0.02932166533253434,0.02932166533253434,0.02932166533253434,0.02932166533253434,0.02932166533253434,0.02932166533253434,0.02932166533253434,0.02932166533253434,0.02932166533253434,0.02932166533253434,0.02932166533253434,0.02932166533253434,0.02932166533253434,0.02932166533253434,0.02932166533253434,0.02932166533253434,0.02932166533253434,0.02932166533253434,0.02932166533253434,0.02932166533253434,0.02932166533253434,0.02932166533253434,0.02932166533253434,0.02932166533253434,0.02932166533253434,0.02932166533253434,0.02932166533253434,0.02932166533253434,0.02932166533253434,0.02932166533253434,0.02932166533253434,0.02932166533253434,0.02932166533253434,0.02932166533253434,0.02932166533253434,0.02932166533253434,0.02932166533253434,0.02932166533253434,0.02932166533253434,0.02932166533253434,0.02932166533253434,0.02932166533253434,0.02932166533253434,0.02932166533253434,0.02932166533253434
27,-0.021168751749982187,-0.021168751749982187,-0.021168751749982187,-0.021168751749982187,-0.021168751749982187,-0.021168751749982187,-0.021168751749982187,-0.021168751749982187,-0.021168751749982187,-0.021168751749982187,-0.021168751749982187,-0.021168751749982187,-0.021168751749982187,-0.021168751749982187,-0.021168751749982187,-0.021168751749982187,-0.021168751749982187,-0.021168751749982187,-0.021168751749982187,-0.021168751749982187,-0.021168751749982187,-0.021168751749982187,-0.021168751749982187,-0.021168751749982187,-0.021168751749982187,-0.021168751749982187,-0.021168751749982187,-0.021168751749982187,-0.021168751749982187,-0.021168751749982187,-0.021168751749982187,-0.021168751749982187,-0.021168751749982187,-0.021168751749982187,-0.021168751749982187,-0.021168751749982187,-0.021168751749982187,-0.021168751749982187,-0.021168751749982187,-0.021168751749982187,-0.021168751749982187,-0.021168751749982187,-0.021168751749982187,-0.021168751749982187,-0.021168751749982187,-0.021168751749982187,-0.021168751749982187,-0.021168751749982187,-0.021168751749982187,-0.021168751749982187,-0.021168751749982187,-0.021168751749982187,-0.021168751749982187,-0.021168751749982187,-0.021168751749982187,-0.021168751749982187,-0.021168751749982187,-0.021168751749982187,-0.021168751749982187,-0.021168751749982187,-0.021168751749982187,-0.021168751749982187,-0.021168751749982187,-0.021168751749982187,-0.021168751749982187,-0.021168751749982187,-0.021168751749982187,-0.021168751749982187,-0.021168751749982187,-0.021168751749982187,-0.021168751749982187,-0.021168751749982187,-0.021168751749982187,-0.021168751749982187,-0.021168751749982187,-0.021168751749982187,-0.021168751749982187,-0.021168751749982187,-0.021168751749982187,-0.021168751749982187,-0.021168751749982187,-0.021168751749982187,-0.021168751749982187,-0.021168751749982187,-0.021168751749982187,-0.021168751749982187,-0.021168751749982187,-0.021168751749982187,-0.021168751749982187,-0.021168751749982187,-0.021168751749982187,-0.021168751749982187,-0.021168751749982187,-0.021168751749982187,-0.021168751749982187,-0.021168751749982187,-0.021168751749982187,-0.021168751749982187,-0.021168751749982187,-0.021168751749982187
28,-0.010159618243361347,-0.010159618243361347,-0.010159618243361347,-0.010159618243361347,-0.010159618243361347,-0.010159618243361347,-0.010159618243361347,-0.010159618243361347,-0.010159618243361347,-0.010159618243361347,-0.010159618243361347,-0.010159618243361347,-0.010159618243361347,-0.010159618243361347,-0.010159618243361347,-0.010159618243361347,-0.010159618243361347,-0.010159618243361347,-0.010159618243361347,-0.010159618243361347,-0.010159618243361347,-0.010159618243361347,-0.010159618243361347,-0.010159618243361347,-0.010159618243361347,-0.010159618243361347,-0.010159618243361347,-0.010159618243361347,-0.010159618243361347,-0.010159618243361347,-0.010159618243361347,-0.010159618243361347,-0.010159618243361347,-0.010159618243361347,-0.010159618243361347,-0.010159618243361347,-0.010159618243361347,-0.010159618243361347,-0.010159618243361347,-0.010159618243361347,-0.010159618243361347,-0.010159618243361347,-0.010159618243361347,-0.010159618243361347,-0.010159618243361347,-0.010159618243361347,-0.010159618243361347,-0.010159618243361347,-0.010159618243361347,-0.010159618243361347,-0.010159618243361347,-0.010159618243361347,-0.010159618243361347,-0.010159618243361347,-0.010159618243361347,-0.010159618243361347,-0.010159618243361347,-0.010159618243361347,-0.010159618243361347,-0.010159618243361347,-0.010159618243361347,-0.010159618243361347,-0.010159618243361347,-0.010159618243361347,-0.010159618243361347,-0.010159618243361347,-0.010159618243361347,-0.010159618243361347,-0.010159618243361347,-0.010159618243361347,-0.010159618243361347,-0.010159618243361347,-0.010159618243361347,-0.010159618243361347,-0.010159618243361347,-0.010159618243361347,-0.010159618243361347,-0.010159618243361347,-0.010159618243361347,-0.010159618243361347,-0.010159618243361347,-0.010159618243361347,-0.010159618243361347,-0.010159618243361347,-0.010159618243361347,-0.010159618243361347,-0.010159618243361347,-0.010159618243361347,-0.010159618243361347,-0.010159618243361347,-0.010159618243361347,-0.010159618243361347,-0.010159618243361347,-0.010159618243361347,-0.010159618243361347,-0.010159618243361347,-0.010159618243361347,-0.010159618243361347,-0.010159618243361347,-0.010159618243361347
29,-0.04027558657640909,-0.04027558657640909,-0.04027558657640909,-0.04027558657640909,-0.04027558657640909,-0.04027558657640909,-0.04027558657640909,-0.04027558657640909,-0.04027558657640909,-0.04027558657640909,-0.04027558657640909,-0.04027558657640909,-0.04027558657640909,-0.04027558657640909,-0.04027558657640909,-0.04027558657640909,-0.04027558657640909,-0.04027558657640909,-0.04027558657640909,-0.04027558657640909,-0.04027558657640909,-0.04027558657640909,-0.04027558657640909,-0.04027558657640909,-0.04027558657640909,-0.04027558657640909,-0.04027558657640909,-0.04027558657640909,-0.04027558657640909,-0.04027558657640909,-0.04027558657640909,-0.04027558657640909,-0.04027558657640909,-0.04027558657640909,-0.04027558657640909,-0.04027558657640909,-0.04027558657640909,-0.04027558657640909,-0.04027558657640909,-0.04027558657640909,-0.04027558657640909,-0.04027558657640909,-0.04027558657640909,-0.04027558657640909,-0.04027558657640909,-0.04027558657640909,-0.04027558657640909,-0.04027558657640909,-0.04027558657640909,-0.04027558657640909,-0.04027558657640909,-0.04027558657640909,-0.04027558657640909,-0.04027558657640909,-0.04027558657640909,-0.04027558657640909,-0.04027558657640909,-0.04027558657640909,-0.04027558657640909,-0.04027558657640909,-0.04027558657640909,-0.04027558657640909,-0.04027558657640909,-0.04027558657640909,-0.04027558657640909,-0.04027558657640909,-0.04027558657640909,-0.04027558657640909,-0.04027558657640909,-0.04027558657640909,-0.04027558657640909,-0.04027558657640909,-0.04027558657640909,-0.04027558657640909,-0.04027558657640909,-0.04027558657640909,-0.04027558657640909,-0.04027558657640909,-0.04027558657640909,-0.04027558657640909,-0.04027558657640909,-0.04027558657640909,-0.04027558657640909,-0.04027558657640909,-0.04027558657640909,-0.04027558657640909,-0.04027558657640909,-0.04027558657640909,-0.04027558657640909,-0.04027558657640909,-0.04027558657640909,-0.04027558657640909,-0.04027558657640909,-0.04027558657640909,-0.04027558657640909,-0.04027558657640909,-0.04027558657640909,-0.04027558657640909,-0.04027558657640909,-0.04027558657640909
30,0.027139581503172038,0.027139581503172038,0.027139581503172038,0.027139581503172038,0.027139581503172038,0.027139581503172038,0.027139581503172038,0.027139581503172038,0.027139581503172038,0.027139581503172038,0.027139581503172038,0.027139581503172038,0.027139581503172038,0.027139581503172038,0.027139581503172038,0.027139581503172038,0.027139581503172038,0.027139581503172038,0.027139581503172038,0.027139581503172038,0.027139581503172038,0.027139581503172038,0.027139581503172038,0.027139581503172038,0.027139581503172038,0.027139581503172038,0.027139581503172038,0.027139581503172038,0.027139581503172038,0.027139581503172038,0.027139581503172038,0.027139581503172038,0.027139581503172038,0.027139581503172038,0.027139581503172038,0.027139581503172038,0.027139581503172038,0.027139581503172038,0.027139581503172038,0.027139581503172038,0.027139581503172038,0.027139581503172038,0.027139581503172038,0.027139581503172038,0.027139581503172038,0.027139581503172038,0.027139581503172038,0.027139581503172038,0.027139581503172038,0.027139581503172038,0.027139581503172038,0.027139581503172038,0.027139581503172038,0.027139581503172038,0.027139581503172038,0.027139581503172038,0.027139581503172038,0.027139581503172038,0.027139581503172038,0.027139581503172038,0.027139581503172038,0.027139581503172038,0.027139581503172038,0.027139581503172038,0.027139581503172038,0.027139581503172038,0.027139581503172038,0.027139581503172038,0.027139581503172038,0.027139581503172038,0.027139581503172038,0.027139581503172038,0.027139581503172038,0.027139581503172038,0.027139581503172038,0.027139581503172038,0.027139581503172038,0.027139581503172038,0.027139581503172038,0.027139581503172038,0.027139581503172038,0.027139581503172038,0.027139581503172038,0.027139581503172038,0.027139581503172038,0.027139581503172038,0.027139581503172038,0.027139581503172038,0.027139581503172038,0.027139581503172038,0.027139581503172038,0.027139581503172038,0.027139581503172038,0.027139581503172038,0.027139581503172038,0.027139581503172038,0.027139581503172038,0.027139581503172038,0.027139581503172038,0.027139581503172038
31,0.024512613337749355,0.024512613337749355,0.024512613337749355,0.024512613337749355,0.024512613337749355,0.024512613337749355,0.024512613337749355,0.024512613337749355,0.024512613337749355,0.024512613337749355,0.024512613337749355,0.024512613337749355,0.024512613337749355,0.024512613337749355,0.024512613337749355,0.024512613337749355,0.024512613337749355,0.024512613337749355,0.024512613337749355,0.024512613337749355,0.024512613337749355,0.024512613337749355,0.024512613337749355,0.024512613337749355,0.024512613337749355,0.024512613337749355,0.024512613337749355,0.024512613337749355,0.024512613337749355,0.024512613337749355,0.024512613337749355,0.024512613337749355,0.024512613337749355,0.024512613337749355,0.024512613337749355,0.024512613337749355,0.024512613337749355,0.024512613337749355,0.024512613337749355,0.024512613337749355,0.024512613337749355,0.024512613337749355,0.024512613337749355,0.024512613337749355,0.024512613337749355,0.024512613337749355,0.024512613337749355,0.024512613337749355,0.024512613337749355,0.024512613337749355,0.024512613337749355,0.024512613337749355,0.024512613337749355,0.024512613337749355,0.024512613337749355,0.024512613337749355,0.024512613337749355,0.024512613337749355,0.024512613337749355,0.024512613337749355,0.024512613337749355,0.024512613337749355,0.024512613337749355,0.024512613337749355,0.024512613337749355,0.024512613337749355,0.024512613337749355,0.024512613337749355,0.024512613337749355,0.024512613337749355,0.024512613337749355,0.024512613337749355,0.024512613337749355,0.024512613337749355,0.024512613337749355,0.024512613337749355,0.024512613337749355,0.024512613337749355,0.024512613337749355,0.024512613337749355,0.024512613337749355,0.024512613337749355,0.024512613337749355,0.024512613337749355,0.024512613337749355,0.024512613337749355,0.024512613337749355,0.024512613337749355,0.024512613337749355,0.024512613337749355,0.024512613337749355,0.024512613337749355,0.024512613337749355,0.024512613337749355,0.024512613337749355,0.024512613337749355,0.024512613337749355,0.024512613337749355,0.024512613337749355,0.024512613337749355
32,-0.02356615371816877,-0.02356615371816877,-0.02356615371816877,-0.02356615371816877,-0.02356615371816877,-0.02356615371816877,-0.02356615371816877,-0.02356615371816877,-0.02356615371816877,-0.02356615371816877,-0.02356615371816877,-0.02356615371816877,-0.02356615371816877,-0.02356615371816877,-0.02356615371816877,-0.02356615371816877,-0.02356615371816877,-0.02356615371816877,-0.02356615371816877,-0.02356615371816877,-0.02356615371816877,-0.02356615371816877,-0.02356615371816877,-0.02356615371816877,-0.02356615371816877,-0.02356615371816877,-0.02356615371816877,-0.02356615371816877,-0.02356615371816877,-0.02356615371816877,-0.02356615371816877,-0.02356615371816877,-0.02356615371816877,-0.02356615371816877,-0.02356615371816877,-0.02356615371816877,-0.02356615371816877,-0.02356615371816877,-0.02356615371816877,-0.02356615371816877,-0.02356615371816877,-0.02356615371816877,-0.02356615371816877,-0.02356615371816877,-0.02356615371816877,-0.02356615371816877,-0.02356615371816877,-0.02356615371816877,-0.02356615371816877,-0.02356615371816877,-0.02356615371816877,-0.02356615371816877,-0.02356615371816877,-0.02356615371816877,-0.02356615371816877,-0.02356615371816877,-0.02356615371816877,-0.02356615371816877,-0.02356615371816877,-0.02356615371816877,-0.02356615371816877,-0.02356615371816877,-0.02356615371816877,-0.02356615371816877,-0.02356615371816877,-0.02356615371816877,-0.02356615371816877,-0.02356615371816877,-0.02356615371816877,-0.02356615371816877,-0.02356615371816877,-0.02356615371816877,-0.02356615371816877,-0.02356615371816877,-0.02356615371816877,-0.02356615371816877,-0.02356615371816877,-0.02356615371816877,-0.02356615371816877,-0.02356615371816877,-0.02356615371816877,-0.02356615371816877,-0.02356615371816877,-0.02356615371816877,-0.02356615371816877,-0.02356615371816877,-0.02356615371816877,-0.02356615371816877,-0.02356615371816877,-0.02356615371816877,-0.02356615371816877,-0.02356615371816877,-0.02356615371816877,-0.02356615371816877,-0.02356615371816877,-0.02356615371816877,-0.02356615371816877,-0.02356615371816877,-0.02356615371816877,-0.02356615371816877
33,0.011947465463657755,0.011947465463657755,0.011947465463657755,0.011947465463657755,0.011947465463657755,0.011947465463657755,0.011947465463657755,0.011947465463657755,0.011947465463657755,0.011947465463657755,0.011947465463657755,0.011947465463657755,0.011947465463657755,0.011947465463657755,0.011947465463657755,0.011947465463657755,0.011947465463657755,0.011947465463657755,0.011947465463657755,0.011947465463657755,0.011947465463657755,0.011947465463657755,0.011947465463657755,0.011947465463657755,0.011947465463657755,0.011947465463657755,0.011947465463657755,0.011947465463657755,0.011947465463657755,0.011947465463657755,0.011947465463657755,0.011947465463657755,0.011947465463657755,0.011947465463657755,0.011947465463657755,0.011947465463657755,0.011947465463657755,0.011947465463657755,0.011947465463657755,0.011947465463657755,0.011947465463657755,0.011947465463657755,0.011947465463657755,0.011947465463657755,0.011947465463657755,0.011947465463657755,0.011947465463657755,0.011947465463657755,0.011947465463657755,0.011947465463657755,0.011947465463657755,0.011947465463657755,0.011947465463657755,0.011947465463657755,0.011947465463657755,0.011947465463657755,0.011947465463657755,0.011947465463657755,0.011947465463657755,0.011947465463657755,0.011947465463657755,0.011947465463657755,0.011947465463657755,0.011947465463657755,0.011947465463657755,0.011947465463657755,0.011947465463657755,0.011947465463657755,0.011947465463657755,0.011947465463657755,0.011947465463657755,0.011947465463657755,0.011947465463657755,0.011947465463657755,0.011947465463657755,0.011947465463657755,0.011947465463657755,0.011947465463657755,0.011947465463657755,0.011947465463657755,0.011947465463657755,0.011947465463657755,0.011947465463657755,0.011947465463657755,0.011947465463657755,0.011947465463657755,0.011947465463657755,0.011947465463657755,0.011947465463657755,0.011947465463657755,0.011947465463657755,0.011947465463657755,0.011947465463657755,0.011947465463657755,0.011947465463657755,0.011947465463657755,0.011947465463657755,0.011947465463657755,0.011947465463657755,0.011947465463657755
34,-0.10953629089787136,-0.10953629089787136,-0.10953629089787136,-0.10953629089787136,-0.10953629089787136,-0.10953629089787136,-0.10953629089787136,-0.10953629089787136,-0.10953629089787136,-0.10953629089787136,-0.10953629089787136,-0.10953629089787136,-0.10953629089787136,-0.10953629089787136,-0.10953629089787136,-0.10953629089787136,-0.10953629089787136,-0.10953629089787136,-0.10953629089787136,-0.10953629089787136,-0.10953629089787136,-0.10953629089787136,-0.10953629089787136,-0.10953629089787136,-0.10953629089787136,-0.10953629089787136,-0.10953629089787136,-0.10953629089787136,-0.10953629089787136,-0.10953629089787136,-0.10953629089787136,-0.10953629089787136,-0.10953629089787136,-0.10953629089787136,-0.10953629089787136,-0.10953629089787136,-0.10953629089787136,-0.10953629089787136,-0.10953629089787136,-0.10953629089787136,-0.10953629089787136,-0.10953629089787136,-0.10953629089787136,-0.10953629089787136,-0.10953629089787136,-0.10953629089787136,-0.10953629089787136,-0.10953629089787136,-0.10953629089787136,-0.10953629089787136,-0.10953629089787136,-0.10953629089787136,-0.10953629089787136,-0.10953629089787136,-0.10953629089787136,-0.10953629089787136,-0.10953629089787136,-0.10953629089787136,-0.10953629089787136,-0.10953629089787136,-0.10953629089787136,-0.10953629089787136,-0.10953629089787136,-0.10953629089787136,-0.10953629089787136,-0.10953629089787136,-0.10953629089787136,-0.10953629089787136,-0.10953629089787136,-0.10953629089787136,-0.10953629089787136,-0.10953629089787136,-0.10953629089787136,-0.10953629089787136,-0.10953629089787136,-0.10953629089787136,-0.10953629089787136,-0.10953629089787136,-0.10953629089787136,-0.10953629089787136,-0.10953629089787136,-0.10953629089787136,-0.10953629089787136,-0.10953629089787136,-0.10953629089787136,-0.10953629089787136,-0.10953629089787136,-0.10953629089787136,-0.10953629089787136,-0.10953629089787136,-0.10953629089787136,-0.10953629089787136,-0.10953629089787136,-0.10953629089787136,-0.10953629089787136,-0.10953629089787136,-0.10953629089787136,-0.10953629089787136,-0.10953629089787136,-0.10953629089787136
35,-0.01282254150068381,-0.01282254150068381,-0.01282254150068381,-0.01282254150068381,-0.01282254150068381,-0.01282254150068381,-0.01282254150068381,-0.01282254150068381,-0.01282254150068381,-0.01282254150068381,-0.01282254150068381,-0.01282254150068381,-0.01282254150068381,-0.01282254150068381,-0.01282254150068381,-0.01282254150068381,-0.01282254150068381,-0.01282254150068381,-0.01282254150068381,-0.01282254150068381,-0.01282254150068381,-0.01282254150068381,-0.01282254150068381,-0.01282254150068381,-0.01282254150068381,-0.01282254150068381,-0.01282254150068381,-0.01282254150068381,-0.01282254150068381,-0.01282254150068381,-0.01282254150068381,-0.01282254150068381,-0.01282254150068381,-0.01282254150068381,-0.01282254150068381,-0.01282254150068381,-0.01282254150068381,-0.01282254150068381,-0.01282254150068381,-0.01282254150068381,-0.01282254150068381,-0.01282254150068381,-0.01282254150068381,-0.01282254150068381,-0.01282254150068381,-0.01282254150068381,-0.01282254150068381,-0.01282254150068381,-0.01282254150068381,-0.01282254150068381,-0.01282254150068381,-0.01282254150068381,-0.01282254150068381,-0.01282254150068381,-0.01282254150068381,-0.01282254150068381,-0.01282254150068381,-0.01282254150068381,-0.01282254150068381,-0.01282254150068381,-0.01282254150068381,-0.01282254150068381,-0.01282254150068381,-0.01282254150068381,-0.01282254150068381,-0.01282254150068381,-0.01282254150068381,-0.01282254150068381,-0.01282254150068381,-0.01282254150068381,-0.01282254150068381,-0.01282254150068381,-0.01282254150068381,-0.01282254150068381,-0.01282254150068381,-0.01282254150068381,-0.01282254150068381,-0.01282254150068381,-0.01282254150068381,-0.01282254150068381,-0.01282254150068381,-0.01282254150068381,-0.01282254150068381,-0.01282254150068381,-0.01282254150068381,-0.01282254150068381,-0.01282254150068381,-0.01282254150068381,-0.01282254150068381,-0.01282254150068381,-0.01282254150068381,-0.01282254150068381,-0.01282254150068381,-0.01282254150068381,-0.01282254150068381,-0.01282254150068381,-0.01282254150068381,-0.01282254150068381,-0.01282254150068381,-0.01282254150068381
36,-0.019638361147459746,-0.019638361147459746,-0.019638361147459746,-0.019638361147459746,-0.019638361147459746,-0.019638361147459746,-0.019638361147459746,-0.019638361147459746,-0.019638361147459746,-0.019638361147459746,-0.019638361147459746,-0.019638361147459746,-0.019638361147459746,-0.019638361147459746,-0.019638361147459746,-0.019638361147459746,-0.019638361147459746,-0.019638361147459746,-0.019638361147459746,-0.019638361147459746,-0.019638361147459746,-0.019638361147459746,-0.019638361147459746,-0.019638361147459746,-0.019638361147459746,-0.019638361147459746,-0.019638361147459746,-0.019638361147459746,-0.019638361147459746,-0.019638361147459746,-0.019638361147459746,-0.019638361147459746,-0.019638361147459746,-0.019638361147459746,-0.019638361147459746,-0.019638361147459746,-0.019638361147459746,-0.019638361147459746,-0.019638361147459746,-0.019638361147459746,-0.019638361147459746,-0.019638361147459746,-0.019638361147459746,-0.019638361147459746,-0.019638361147459746,-0.019638361147459746,-0.019638361147459746,-0.019638361147459746,-0.019638361147459746,-0.019638361147459746,-0.019638361147459746,-0.019638361147459746,-0.019638361147459746,-0.019638361147459746,-0.019638361147459746,-0.019638361147459746,-0.019638361147459746,-0.019638361147459746,-0.019638361147459746,-0.019638361147459746,-0.019638361147459746,-0.019638361147459746,-0.019638361147459746,-0.019638361147459746,-0.019638361147459746,-0.019638361147459746,-0.019638361147459746,-0.019638361147459746,-0.019638361147459746,-0.019638361147459746,-0.019638361147459746,-0.019638361147459746,-0.019638361147459746,-0.019638361147459746,-0.019638361147459746,-0.019638361147459746,-0.019638361147459746,-0.019638361147459746,-0.019638361147459746,-0.019638361147459746,-0.019638361147459746,-0.019638361147459746,-0.019638361147459746,-0.019638361147459746,-0.019638361147459746,-0.019638361147459746,-0.019638361147459746,-0.019638361147459746,-0.019638361147459746,-0.019638361147459746,-0.019638361147459746,-0.019638361147459746,-0.019638361147459746,-0.019638361147459746,-0.019638361147459746,-0.019638361147459746,-0.019638361147459746,-0.019638361147459746,-0.019638361147459746,-0.019638361147459746
37,0.013866898432026757,0.013866898432026757,0.013866898432026757,0.013866898432026757,0.013866898432026757,0.013866898432026757,0.013866898432026757,0.013866898432026757,0.013866898432026757,0.013866898432026757,0.013866898432026757,0.013866898432026757,0.013866898432026757,0.013866898432026757,0.013866898432026757,0.013866898432026757,0.013866898432026757,0.013866898432026757,0.013866898432026757,0.013866898432026757,0.013866898432026757,0.013866898432026757,0.013866898432026757,0.013866898432026757,0.013866898432026757,0.013866898432026757,0.013866898432026757,0.013866898432026757,0.013866898432026757,0.013866898432026757,0.013866898432026757,0.013866898432026757,0.013866898432026757,0.013866898432026757,0.013866898432026757,0.013866898432026757,0.013866898432026757,0.013866898432026757,0.013866898432026757,0.013866898432026757,0.013866898432026757,0.013866898432026757,0.013866898432026757,0.013866898432026757,0.013866898432026757,0.013866898432026757,0.013866898432026757,0.013866898432026757,0.013866898432026757,0.013866898432026757,0.013866898432026757,0.013866898432026757,0.013866898432026757,0.013866898432026757,0.013866898432026757,0.013866898432026757,0.013866898432026757,0.013866898432026757,0.013866898432026757,0.013866898432026757,0.013866898432026757,0.013866898432026757,0.013866898432026757,0.013866898432026757,0.013866898432026757,0.013866898432026757,0.013866898432026757,0.013866898432026757,0.013866898432026757,0.013866898432026757,0.013866898432026757,0.013866898432026757,0.013866898432026757,0.013866898432026757,0.013866898432026757,0.013866898432026757,0.013866898432026757,0.013866898432026757,0.013866898432026757,0.013866898432026757,0.013866898432026757,0.013866898432026757,0.013866898432026757,0.013866898432026757,0.013866898432026757,0.013866898432026757,0.013866898432026757,0.013866898432026757,0.013866898432026757,0.013866898432026757,0.013866898432026757,0.013866898432026757,0.013866898432026757,0.013866898432026757,0.013866898432026757,0.013866898432026757,0.013866898432026757,0.013866898432026757,0.013866898432026757,0.013866898432026757
38,0.04928731576862914,0.04928731576862914,0.04928731576862914,0.04928731576862914,0.04928731576862914,0.04928731576862914,0.04928731576862914,0.04928731576862914,0.04928731576862914,0.04928731576862914,0.04928731576862914,0.04928731576862914,0.04928731576862914,0.04928731576862914,0.04928731576862914,0.04928731576862914,0.04928731576862914,0.04928731576862914,0.04928731576862914,0.04928731576862914,0.04928731576862914,0.04928731576862914,0.04928731576862914,0.04928731576862914,0.04928731576862914,0.04928731576862914,0.04928731576862914,0.04928731576862914,0.04928731576862914,0.04928731576862914,0.04928731576862914,0.04928731576862914,0.04928731576862914,0.04928731576862914,0.04928731576862914,0.04928731576862914,0.04928731576862914,0.04928731576862914,0.04928731576862914,0.04928731576862914,0.04928731576862914,0.04928731576862914,0.04928731576862914,0.04928731576862914,0.04928731576862914,0.04928731576862914,0.04928731576862914,0.04928731576862914,0.04928731576862914,0.04928731576862914,0.04928731576862914,0.04928731576862914,0.04928731576862914,0.04928731576862914,0.04928731576862914,0.04928731576862914,0.04928731576862914,0.04928731576862914,0.04928731576862914,0.04928731576862914,0.04928731576862914,0.04928731576862914,0.04928731576862914,0.04928731576862914,0.04928731576862914,0.04928731576862914,0.04928731576862914,0.04928731576862914,0.04928731576862914,0.04928731576862914,0.04928731576862914,0.04928731576862914,0.04928731576862914,0.04928731576862914,0.04928731576862914,0.04928731576862914,0.04928731576862914,0.04928731576862914,0.04928731576862914,0.04928731576862914,0.04928731576862914,0.04928731576862914,0.04928731576862914,0.04928731576862914,0.04928731576862914,0.04928731576862914,0.04928731576862914,0.04928731576862914,0.04928731576862914,0.04928731576862914,0.04928731576862914,0.04928731576862914,0.04928731576862914,0.04928731576862914,0.04928731576862914,0.04928731576862914,0.04928731576862914,0.04928731576862914,0.04928731576862914,0.04928731576862914
39,0.031827008117197554,0.031827008117197554,0.031827008117197554,0.031827008117197554,0.031827008117197554,0.031827008117197554,0.031827008117197554,0.031827008117197554,0.031827008117197554,0.031827008117197554,0.031827008117197554,0.031827008117197554,0.031827008117197554,0.031827008117197554,0.031827008117197554,0.031827008117197554,0.031827008117197554,0.031827008117197554,0.031827008117197554,0.031827008117197554,0.031827008117197554,0.031827008117197554,0.031827008117197554,0.031827008117197554,0.031827008117197554,0.031827008117197554,0.031827008117197554,0.031827008117197554,0.031827008117197554,0.031827008117197554,0.031827008117197554,0.031827008117197554,0.031827008117197554,0.031827008117197554,0.031827008117197554,0.031827008117197554,0.031827008117197554,0.031827008117197554,0.031827008117197554,0.031827008117197554,0.031827008117197554,0.031827008117197554,0.031827008117197554,0.031827008117197554,0.031827008117197554,0.031827008117197554,0.031827008117197554,0.031827008117197554,0.031827008117197554,0.031827008117197554,0.031827008117197554,0.031827008117197554,0.031827008117197554,0.031827008117197554,0.031827008117197554,0.031827008117197554,0.031827008117197554,0.031827008117197554,0.031827008117197554,0.031827008117197554,0.031827008117197554,0.031827008117197554,0.031827008117197554,0.031827008117197554,0.031827008117197554,0.031827008117197554,0.031827008117197554,0.031827008117197554,0.031827008117197554,0.031827008117197554,0.031827008117197554,0.031827008117197554,0.031827008117197554,0.031827008117197554,0.031827008117197554,0.031827008117197554,0.031827008117197554,0.031827008117197554,0.031827008117197554,0.031827008117197554,0.031827008117197554,0.031827008117197554,0.031827008117197554,0.031827008117197554,0.031827008117197554,0.031827008117197554,0.031827008117197554,0.031827008117197554,0.031827008117197554,0.031827008117197554,0.031827008117197554,0.031827008117197554,0.031827008117197554,0.031827008117197554,0.031827008117197554,0.031827008117197554,0.031827008117197554,0.031827008117197554,0.031827008117197554,0.031827008117197554
40,0.0018946782578123321,0.0018946782578123321,0.0018946782578123321,0.0018946782578123321,0.0018946782578123321,0.0018946782578123321,0.0018946782578123321,0.0018946782578123321,0.0018946782578123321,0.0018946782578123321,0.0018946782578123321,0.0018946782578123321,0.0018946782578123321,0.0018946782578123321,0.0018946782578123321,0.0018946782578123321,0.0018946782578123321,0.0018946782578123321,0.0018946782578123321,0.0018946782578123321,0.0018946782578123321,0.0018946782578123321,0.0018946782578123321,0.0018946782578123321,0.0018946782578123321,0.0018946782578123321,0.0018946782578123321,0.0018946782578123321,0.0018946782578123321,0.0018946782578123321,0.0018946782578123321,0.0018946782578123321,0.0018946782578123321,0.0018946782578123321,0.0018946782578123321,0.0018946782578123321,0.0018946782578123321,0.0018946782578123321,0.0018946782578123321,0.0018946782578123321,0.0018946782578123321,0.0018946782578123321,0.0018946782578123321,0.0018946782578123321,0.0018946782578123321,0.0018946782578123321,0.0018946782578123321,0.0018946782578123321,0.0018946782578123321,0.0018946782578123321,0.0018946782578123321,0.0018946782578123321,0.0018946782578123321,0.0018946782578123321,0.0018946782578123321,0.0018946782578123321,0.0018946782578123321,0.0018946782578123321,0.0018946782578123321,0.0018946782578123321,0.0018946782578123321,0.0018946782578123321,0.0018946782578123321,0.0018946782578123321,0.0018946782578123321,0.0018946782578123321,0.0018946782578123321,0.0018946782578123321,0.0018946782578123321,0.0018946782578123321,0.0018946782578123321,0.0018946782578123321,0.0018946782578123321,0.0018946782578123321,0.0018946782578123321,0.0018946782578123321,0.0018946782578123321,0.0018946782578123321,0.0018946782578123321,0.0018946782578123321,0.0018946782578123321,0.0018946782578123321,0.0018946782578123321,0.0018946782578123321,0.0018946782578123321,0.0018946782578123321,0.0018946782578123321,0.0018946782578123321,0.0018946782578123321,0.0018946782578123321,0.0018946782578123321,0.0018946782578123321,0.0018946782578123321,0.0018946782578123321,0.0018946782578123321,0.0018946782578123321,0.0018946782578123321,0.0018946782578123321,0.0018946782578123321,0.0018946782578123321
41,0.014321724172297908,0.014321724172297908,0.014321724172297908,0.014321724172297908,0.014321724172297908,0.014321724172297908,0.014321724172297908,0.014321724172297908,0.014321724172297908,0.014321724172297908,0.014321724172297908,0.014321724172297908,0.014321724172297908,0.014321724172297908,0.014321724172297908,0.014321724172297908,0.014321724172297908,0.014321724172297908,0.014321724172297908,0.014321724172297908,0.014321724172297908,0.014321724172297908,0.014321724172297908,0.014321724172297908,0.014321724172297908,0.014321724172297908,0.014321724172297908,0.014321724172297908,0.014321724172297908,0.014321724172297908,0.014321724172297908,0.014321724172297908,0.014321724172297908,0.014321724172297908,0.014321724172297908,0.014321724172297908,0.014321724172297908,0.014321724172297908,0.014321724172297908,0.014321724172297908,0.014321724172297908,0.014321724172297908,0.014321724172297908,0.014321724172297908,0.014321724172297908,0.014321724172297908,0.014321724172297908,0.014321724172297908,0.014321724172297908,0.014321724172297908,0.014321724172297908,0.014321724172297908,0.014321724172297908,0.014321724172297908,0.014321724172297908,0.014321724172297908,0.014321724172297908,0.014321724172297908,0.014321724172297908,0.014321724172297908,0.014321724172297908,0.014321724172297908,0.014321724172297908,0.014321724172297908,0.014321724172297908,0.014321724172297908,0.014321724172297908,0.014321724172297908,0.014321724172297908,0.014321724172297908,0.014321724172297908,0.014321724172297908,0.014321724172297908,0.014321724172297908,0.014321724172297908,0.014321724172297908,0.014321724172297908,0.014321724172297908,0.014321724172297908,0.014321724172297908,0.014321724172297908,0.014321724172297908,0.014321724172297908,0.014321724172297908,0.014321724172297908,0.014321724172297908,0.014321724172297908,0.014321724172297908,0.014321724172297908,0.014321724172297908,0.014321724172297908,0.014321724172297908,0.014321724172297908,0.014321724172297908,0.014321724172297908,0.014321724172297908,0.014321724172297908,0.014321724172297908,0.014321724172297908,0.014321724172297908
42,-0.02893085779164779,-0.02893085779164779,-0.02893085779164779,-0.02893085779164779,-0.02893085779164779,-0.02893085779164779,-0.02893085779164779,-0.02893085779164779,-0.02893085779164779,-0.02893085779164779,-0.02893085779164779,-0.02893085779164779,-0.02893085779164779,-0.02893085779164779,-0.02893085779164779,-0.02893085779164779,-0.02893085779164779,-0.02893085779164779,-0.02893085779164779,-0.02893085779164779,-0.02893085779164779,-0.02893085779164779,-0.02893085779164779,-0.02893085779164779,-0.02893085779164779,-0.02893085779164779,-0.02893085779164779,-0.02893085779164779,-0.02893085779164779,-0.02893085779164779,-0.02893085779164779,-0.02893085779164779,-0.02893085779164779,-0.02893085779164779,-0.02893085779164779,-0.02893085779164779,-0.02893085779164779,-0.02893085779164779,-0.02893085779164779,-0.02893085779164779,-0.02893085779164779,-0.02893085779164779,-0.02893085779164779,-0.02893085779164779,-0.02893085779164779,-0.02893085779164779,-0.02893085779164779,-0.02893085779164779,-0.02893085779164779,-0.02893085779164779,-0.02893085779164779,-0.02893085779164779,-0.02893085779164779,-0.02893085779164779,-0.02893085779164779,-0.02893085779164779,-0.02893085779164779,-0.02893085779164779,-0.02893085779164779,-0.02893085779164779,-0.02893085779164779,-0.02893085779164779,-0.02893085779164779,-0.02893085779164779,-0.02893085779164779,-0.02893085779164779,-0.02893085779164779,-0.02893085779164779,-0.02893085779164779,-0.02893085779164779,-0.02893085779164779,-0.02893085779164779,-0.02893085779164779,-0.02893085779164779,-0.02893085779164779,-0.02893085779164779,-0.02893085779164779,-0.02893085779164779,-0.02893085779164779,-0.02893085779164779,-0.02893085779164779,-0.02893085779164779,-0.02893085779164779,-0.02893085779164779,-0.02893085779164779,-0.02893085779164779,-0.02893085779164779,-0.02893085779164779,-0.02893085779164779,-0.02893085779164779,-0.02893085779164779,-0.02893085779164779,-0.02893085779164779,-0.02893085779164779,-0.02893085779164779,-0.02893085779164779,-0.02893085779164779,-0.02893085779164779,-0.02893085779164779,-0.02893085779164779
43,-0.019017824502595385,-0.019017824502595385,-0.019017824502595385,-0.019017824502595385,-0.019017824502595385,-0.019017824502595385,-0.019017824502595385,-0.019017824502595385,-0.019017824502595385,-0.019017824502595385,-0.019017824502595385,-0.019017824502595385,-0.019017824502595385,-0.019017824502595385,-0.019017824502595385,-0.019017824502595385,-0.019017824502595385,-0.019017824502595385,-0.019017824502595385,-0.019017824502595385,-0.019017824502595385,-0.019017824502595385,-0.019017824502595385,-0.019017824502595385,-0.019017824502595385,-0.019017824502595385,-0.019017824502595385,-0.019017824502595385,-0.019017824502595385,-0.019017824502595385,-0.019017824502595385,-0.019017824502595385,-0.019017824502595385,-0.019017824502595385,-0.019017824502595385,-0.019017824502595385,-0.019017824502595385,-0.019017824502595385,-0.019017824502595385,-0.019017824502595385,-0.019017824502595385,-0.019017824502595385,-0.019017824502595385,-0.019017824502595385,-0.019017824502595385,-0.019017824502595385,-0.019017824502595385,-0.019017824502595385,-0.019017824502595385,-0.019017824502595385,-0.019017824502595385,-0.019017824502595385,-0.019017824502595385,-0.019017824502595385,-0.019017824502595385,-0.019017824502595385,-0.019017824502595385,-0.019017824502595385,-0.019017824502595385,-0.019017824502595385,-0.019017824502595385,-0.019017824502595385,-0.019017824502595385,-0.019017824502595385,-0.019017824502595385,-0.019017824502595385,-0.019017824502595385,-0.019017824502595385,-0.019017824502595385,-0.019017824502595385,-0.019017824502595385,-0.019017824502595385,-0.019017824502595385,-0.019017824502595385,-0.019017824502595385,-0.019017824502595385,-0.019017824502595385,-0.019017824502595385,-0.019017824502595385,-0.019017824502595385,-0.019017824502595385,-0.019017824502595385,-0.019017824502595385,-0.019017824502595385,-0.019017824502595385,-0.019017824502595385,-0.019017824502595385,-0.019017824502595385,-0.019017824502595385,-0.019017824502595385,-0.019017824502595385,-0.019017824502595385,-0.019017824502595385,-0.019017824502595385,-0.019017824502595385,-0.019017824502595385,-0.019017824502595385,-0.019017824502595385,-0.019017824502595385,-0.019017824502595385
44,0.07910658601495658,0.07910658601495658,0.07910658601495658,0.07910658601495658,0.07910658601495658,0.07910658601495658,0.07910658601495658,0.07910658601495658,0.07910658601495658,0.07910658601495658,0.07910658601495658,0.07910658601495658,0.07910658601495658,0.07910658601495658,0.07910658601495658,0.07910658601495658,0.07910658601495658,0.07910658601495658,0.07910658601495658,0.07910658601495658,0.07910658601495658,0.07910658601495658,0.07910658601495658,0.07910658601495658,0.07910658601495658,0.07910658601495658,0.07910658601495658,0.07910658601495658,0.07910658601495658,0.07910658601495658,0.07910658601495658,0.07910658601495658,0.07910658601495658,0.07910658601495658,0.07910658601495658,0.07910658601495658,0.07910658601495658,0.07910658601495658,0.07910658601495658,0.07910658601495658,0.07910658601495658,0.07910658601495658,0.07910658601495658,0.07910658601495658,0.07910658601495658,0.07910658601495658,0.07910658601495658,0.07910658601495658,0.07910658601495658,0.07910658601495658,0.07910658601495658,0.07910658601495658,0.07910658601495658,0.07910658601495658,0.07910658601495658,0.07910658601495658,0.07910658601495658,0.07910658601495658,0.07910658601495658,0.07910658601495658,0.07910658601495658,0.07910658601495658,0.07910658601495658,0.07910658601495658,0.07910658601495658,0.07910658601495658,0.07910658601495658,0.07910658601495658,0.07910658601495658,0.07910658601495658,0.07910658601495658,0.07910658601495658,0.07910658601495658,0.07910658601495658,0.07910658601495658,0.07910658601495658,0.07910658601495658,0.07910658601495658,0.07910658601495658,0.07910658601495658,0.07910658601495658,0.07910658601495658,0.07910658601495658,0.07910658601495658,0.07910658601495658,0.07910658601495658,0.07910658601495658,0.07910658601495658,0.07910658601495658,0.07910658601495658,0.07910658601495658,0.07910658601495658,0.07910658601495658,0.07910658601495658,0.07910658601495658,0.07910658601495658,0.07910658601495658,0.07910658601495658,0.07910658601495658,0.07910658601495658
45,0.047298029474066555,0.047298029474066555,0.047298029474066555,0.047298029474066555,0.047298029474066555,0.047298029474066555,0.047298029474066555,0.047298029474066555,0.047298029474066555,0.047298029474066555,0.047298029474066555,0.047298029474066555,0.047298029474066555,0.047298029474066555,0.047298029474066555,0.047298029474066555,0.047298029474066555,0.047298029474066555,0.047298029474066555,0.047298029474066555,0.047298029474066555,0.047298029474066555,0.047298029474066555,0.047298029474066555,0.047298029474066555,0.047298029474066555,0.047298029474066555,0.047298029474066555,0.047298029474066555,0.047298029474066555,0.047298029474066555,0.047298029474066555,0.047298029474066555,0.047298029474066555,0.047298029474066555,0.047298029474066555,0.047298029474066555,0.047298029474066555,0.047298029474066555,0.047298029474066555,0.047298029474066555,0.047298029474066555,0.047298029474066555,0.047298029474066555,0.047298029474066555,0.047298029474066555,0.047298029474066555,0.047298029474066555,0.047298029474066555,0.047298029474066555,0.047298029474066555,0.047298029474066555,0.047298029474066555,0.047298029474066555,0.047298029474066555,0.047298029474066555,0.047298029474066555,0.047298029474066555,0.047298029474066555,0.047298029474066555,0.047298029474066555,0.047298029474066555,0.047298029474066555,0.047298029474066555,0.047298029474066555,0.047298029474066555,0.047298029474066555,0.047298029474066555,0.047298029474066555,0.047298029474066555,0.047298029474066555,0.047298029474066555,0.047298029474066555,0.047298029474066555,0.047298029474066555,0.047298029474066555,0.047298029474066555,0.047298029474066555,0.047298029474066555,0.047298029474066555,0.047298029474066555,0.047298029474066555,0.047298029474066555,0.047298029474066555,0.047298029474066555,0.047298029474066555,0.047298029474066555,0.047298029474066555,0.047298029474066555,0.047298029474066555,0.047298029474066555,0.047298029474066555,0.047298029474066555,0.047298029474066555,0.047298029474066555,0.047298029474066555,0.047298029474066555,0.047298029474066555,0.047298029474066555,0.047298029474066555
