id,intention_0,intention_1,intention_2,intention_3,intention_4,intention_5,intention_6,intention_7,intention_8,intention_9,intention_10,intention_11,intention_12,intention_13,intention_14,intention_15,intention_16,intention_17,intention_18,intention_19,intention_20,intention_21,intention_22,intention_23,intention_24,intention_25,intention_26,intention_27,intention_28,intention_29,intention_30,intention_31,intention_32,intention_33,intention_34,intention_35,intention_36,intention_37,intention_38,intention_39,intention_40,intention_41,intention_42,intention_43,intention_44,intention_45,intention_46,intention_47,intention_48,intention_49,intention_50,intention_51,intention_52,intention_53,intention_54,intention_55,intention_56,intention_57,intention_58,intention_59,intention_60,intention_61,intention_62,intention_63,intention_64,intention_65,intention_66,intention_67,intention_68,intention_69,intention_70,intention_71,intention_72,intention_73,intention_74,intention_75,intention_76,intention_77,intention_78,intention_79,intention_80,intention_81,intention_82,intention_83,intention_84,intention_85,intention_86,intention_87,intention_88,intention_89,intention_90,intention_91,intention_92,intention_93,intention_94,intention_95,intention_96,intention_97,intention_98,intention_99
500,0.013784130934710577,0.15888129599984624,0.2263777494583904,0.2705541960561792,0.3295386634703265,0.3665405528311303,0.36539416552864223,0.3478001329531547,0.3689572610986302,0.36732793616717996,0.36817737430996267,0.3717877057912973,0.3830104535409077,0.3902644543807603,0.40026573476957716,0.3928918670999757,0.4015308877508604,0.4011963291960676,0.39220228328543816,0.40243161634176183,0.41351796256572504,0.4320678403202276,0.4170603859614777,0.4263888120010558,0.4172088548920774,0.41962057660691593,0.4192499446307416,0.41971645697910764,0.4199743347890361,0.42635372902745894,0.4141103219852102,0.40498728058800704,0.41244609407432115,0.4151118464476065,0.40988550201375484,0.4191313086807657,0.4271862838496259,0.42764918140438263,0.4216726270393044,0.4276019333921014,0.4225769694856454,0.4256040363386894,0.4301071273684001,0.4464873033306393,0.45805570351893804,0.452972631247205,0.4405679418443438,0.4432805225729557,0.4416532327611047,0.43946891713361663,0.44451905978813044,0.44629426322285126,0.4242915527348528,0.42758913880022414,0.4460458884220984,0.4563557888518094,0.46412734023398367,0.46746300744228075,0.4643365652402391,0.4725171159402492,0.46404496803916734,0.45074201815103554,0.4558154208408691,0.4557897188024756,0.45286816708395383,0.45907922220918757,0.4546213786358929,0.46972985743118234,0.4675345368241634,0.46437352911366725,0.4561992314919858,0.4647555151876378,0.4682709506427898,0.4709611940551512,0.47334163977706967,0.4710193803465676,0.4739935515582254,0.4864513291902228,0.480380671331583,0.47524700826777905,0.47643356199918585,0.475445012211402,0.4760617801487886,0.4805183998507616,0.4777969469057926,0.47747389879864194,0.4857585110941922,0.4736338009070191,0.45332591079497603,0.4475038858540734,0.44247661702857033,0.4441871188460799,0.43897232397511404,0.43740410639692845,0.4388799674311668,0.4388953675165662,0.43915557361540714,0.4493012255384641,0.45893289897128703,0.46181592001932
501,-0.0019435752189792127,0.16600765606713483,0.3102900263126745,0.36548364191202665,0.4261030720629422,0.4307298633146885,0.45254302594161566,0.43880357270199105,0.4462799818845747,0.4369814622632105,0.4520234829175989,0.46507544564731385,0.4718978617244352,0.46884601939135756,0.47279059190251327,0.463710707950651,0.4688725622877728,0.4764100624112136,0.4798541466117364,0.4717118963456997,0.4779709626683994,0.4927199093650052,0.5030205177199272,0.51244251970704,0.5111814027074745,0.5089749393801424,0.517102571429435,0.5200353604363896,0.5338231717160664,0.54943797556708,0.5620315223772507,0.555807243527885,0.5495347376721211,0.5481817427774174,0.5565054866040956,0.5570053682233538,0.5550116266734282,0.5697984957532559,0.5706394563046626,0.5857450916780403,0.589930277725612,0.5974116388076344,0.6109166583753318,0.6137538449999382,0.6183087292657022,0.6164550930712744,0.6190750547277587,0.6213849445741573,0.6194470954742153,0.6219020763980025,0.6107476127902689,0.6079478296057121,0.6062595124466441,0.6127763988781658,0.609022295512887,0.6060957694475684,0.6063214887589088,0.6093011158001137,0.6068832113865436,0.6158760379055337,0.618968932495322,0.6122623037117104,0.6058462635754175,0.6097464515885016,0.6078623282555949,0.60848745221158,0.6072788180476606,0.6088327119658454,0.599777553269569,0.6036162173437932,0.5955197264240315,0.5994936191517659,0.5990097340295655,0.6004614668269955,0.6044048191960774,0.6093366807254383,0.6038523891820723,0.6016642742601866,0.6010639156169805,0.6065775448891775,0.618257631325512,0.6147665869645187,0.620770915232422,0.6253035148575956,0.6177985686344436,0.6190503157659379,0.6183759970183378,0.6165791028311682,0.6147266584455429,0.6150124326345973,0.6124850484633335,0.6123075435230072,0.6070307170888425,0.6030887010570806,0.6025974531658624,0.602330037465177,0.5984562404189621,0.6003925226996979,0.6035350424312036,0.6065150960663268
502,0.012080237778859814,0.17549699367461316,0.23749527095131584,0.30308867559258695,0.3479450067810802,0.3446781511970022,0.3278176457776663,0.3194818563882523,0.33023774584692844,0.3208597806707851,0.3746400991672641,0.3670233331928521,0.37421057357715903,0.3740735630213341,0.37170119312420996,0.35746624312515995,0.37554454225318756,0.3830383781559054,0.3951991498194635,0.38854455333207655,0.39031222361635143,0.39640310941856444,0.39265139707825947,0.4160162861390676,0.4164863230241613,0.4113502523170377,0.42581301897863516,0.42391440336616554,0.42093957726144,0.4042902220363582,0.4007569368440963,0.4141814601447564,0.4135218457939635,0.4105993718043333,0.42057905569462967,0.42448824447005534,0.42527970554159344,0.4267159473115569,0.43909311588380945,0.4352552840437256,0.4386776944422126,0.43109950799446145,0.4415859101230924,0.4485400085470092,0.45079000687120696,0.4392397440801848,0.4370339633094173,0.4348443406126816,0.435190876057115,0.43130427769360125,0.43390825554831003,0.42675048027150875,0.427550370335615,0.4261362564145704,0.4302986749526194,0.432766237800158,0.43140448364109324,0.4342671810597715,0.4283378451087216,0.4277437568309748,0.4304313107742266,0.42962615389686737,0.42857474075033236,0.43326846782235356,0.4382934697699358,0.44447892629806757,0.45357989285433936,0.4430548450568903,0.4431500962966821,0.44404756104083243,0.44563808946461136,0.44551058072597904,0.45560267103375274,0.4530944651341583,0.4490931666941862,0.4419824414384664,0.4423120436519929,0.4344352408406968,0.4343076502701472,0.4380737336477314,0.44446900867926586,0.43898014706763666,0.444328711002413,0.4494595457498143,0.44660065507890956,0.44898819993420924,0.4496094945789846,0.4489412445882722,0.44855711713751495,0.44716773253500014,0.44769702385167276,0.4447128733631973,0.42745991347301865,0.42871351793225876,0.42888934171402016,0.4341815349293903,0.4404570581614277,0.4383961343876436,0.4382318241183267,0.42436876654403805
503,-0.02138373962701957,0.1338535011581452,0.2361030656366077,0.18876655942420467,0.23515970630535507,0.23629895535572415,0.2575758891951983,0.2499433015915549,0.25053459446377446,0.24600605085429023,0.24450719169843857,0.2454908233919128,0.24436342203311884,0.23773142986272588,0.2242838115177317,0.23606344520556152,0.24104150963918247,0.2533262507240585,0.2560455224407466,0.26843118205738814,0.2643134450328917,0.2919030020179128,0.29232705077371807,0.3025424577308645,0.30516750739803883,0.3032034508241863,0.3106428345868268,0.3138142766875455,0.31421933680890163,0.32028196241971557,0.32651623294016424,0.3311042585524895,0.3212689791843952,0.3228108377212287,0.3198391793259181,0.32684001152802233,0.3214338197710998,0.31349803680085425,0.3186327464412715,0.3248313264471542,0.32774603951497455,0.3432740377994928,0.34403796672294484,0.3382313076887341,0.33330728577454927,0.338392605961787,0.3357899968470507,0.34448572321211446,0.3514926969255873,0.3516845204876285,0.34947708303789915,0.3448748512032492,0.3451310428419429,0.3464696645093565,0.3451121739845943,0.33557511009104546,0.3314695827173873,0.33767639339639643,0.33439008561696737,0.3328769057294233,0.3260056343060929,0.33144303637277894,0.32698377501522397,0.32547374420024966,0.32575673855448734,0.32632651953452674,0.32701700866785727,0.3302245695652072,0.32972155633833516,0.33262256478459107,0.3362667637340435,0.33504058524595814,0.34288081565298667,0.34672955380314213,0.34620406063463194,0.3550145850690435,0.3504771858951351,0.3460057581127413,0.3450792807200489,0.3423388571946151,0.34492327568290065,0.3504061095490611,0.3565358227282704,0.3530644240603277,0.34997489171277396,0.3522772483429326,0.3465253906009628,0.35039385549226004,0.3533027839639145,0.35043537031276756,0.35516929625060983,0.3452702556758732,0.32939827467989835,0.3295389270954832,0.33120188179827226,0.3356791519205837,0.337325272666056,0.3326010661136246,0.33081765490455406,0.329318298269677
504,0.004363436774824777,0.19261697138146514,0.2763963991476318,0.22375398807632987,0.24794902009686573,0.21213030013473616,0.21049311458478012,0.2134081116459868,0.2356600251479821,0.24014519831190198,0.2419282823240517,0.24205245476881163,0.24033614333461703,0.2397819242610323,0.24034150542603336,0.2321132455309593,0.2261382979366135,0.2248149385290248,0.22953424809749412,0.24349224915549758,0.24377674944370223,0.24787017202938194,0.23307796563224067,0.213838782752722,0.20787537403501244,0.21248928605293924,0.19638168007110263,0.19744283470591778,0.18820524477749476,0.19317568021417725,0.1901952310174133,0.186388930499101,0.16727801787533111,0.16077350420338057,0.1581711806518001,0.1663723477810737,0.16321123022778183,0.1620203192320959,0.1590565849957231,0.1572994690902095,0.15202187192804723,0.15107086414912452,0.1534428853906589,0.15008793196087303,0.14760858363909624,0.15178599321980332,0.15446368205569122,0.14729925557838416,0.1561383359372066,0.15357801945014923,0.16607669088245194,0.16643418779229383,0.17391611220536163,0.18043877102453756,0.1782431025440794,0.1811108115753539,0.18275070795654866,0.1860947079356261,0.18692625320314085,0.18826949983540128,0.18117558221843336,0.18094271064654543,0.1867452866822772,0.18661693299226834,0.18521923358606107,0.18790957148585774,0.18494514890042685,0.1838933379823427,0.18435362274011782,0.18453794875403795,0.18414446013612382,0.19216902441816144,0.19103903073886475,0.19045704617956682,0.18862059458957078,0.18865094426713053,0.18890978134888894,0.18529823862349734,0.18534681973317546,0.1862744263780777,0.18805391521136183,0.1820895336635216,0.18395811480364546,0.18312737592372055,0.18248733994266852,0.18510584622717272,0.1857543777100783,0.1864688953714152,0.18634943091659661,0.18549724976937224,0.18361158178053863,0.18549595898137874,0.18044629895322387,0.17926185578659803,0.17745963952994478,0.17862713332749464,0.1790004210343472,0.18323764916831028,0.1834860510550516,0.18230218017525732
505,-0.0024794988673589153,0.13075088904148113,0.2587902746057914,0.15757700169830963,0.06968787755011964,0.044876624429481614,0.02079203195803474,0.01941605992144346,0.019592196809125655,0.008476270332084528,0.005002462773692596,0.010984825123773086,0.004334514808310573,0.00587769672509653,5.395065363552718E-4,-0.0019453006879578487,0.0030765607678837677,0.0012663216387393745,-0.007912646321052099,-0.010273532627153064,-0.00444687479571268,0.005035343825861638,-0.01103461734207361,-0.002930337722338175,-0.008164904501187287,-0.018161262660994954,-0.009131698104480274,-0.010525259158158549,-0.007901430248155572,-0.0062691742574150534,0.004215471063314674,-0.014036906430185988,-0.0055404719955440915,-0.0036906598131936303,-0.006655633128991094,-0.007240080178076255,0.005458549246910963,1.4150697778108568E-4,0.0011428304510544573,6.993384749283549E-4,0.011049084764890854,0.011747942384714221,0.016353758634863755,0.006644342203706808,0.008110615835562551,0.001786356341028294,-0.008810089699554175,0.004169863161574539,0.015605101373212828,0.013874850411852371,0.018880888579102525,0.026855606411345437,0.02381205135435202,0.02544982038381035,0.0208649970519969,0.017455228275720335,0.024979112366601795,0.025727862393745395,0.02261353180928776,0.025184905384099354,0.030109537745013903,0.026248828252255555,0.0275091854044806,0.0215676615573258,0.02556633427302362,0.03626001897500049,0.03842368090624291,0.020339470100043493,0.015734505627733954,0.01835042462617268,0.018257055301101145,0.023447429358529514,0.024694942435922802,0.008675246649242789,0.016737952578721706,0.013765044640644012,0.011838834940737572,0.015421020862202227,0.009506019941455966,0.01104277323710303,0.015370890646357334,0.02087872499056899,0.022150068410112314,0.02218209865905374,0.017279918119371972,0.01923389107797477,0.02657319280645313,0.02844606541752302,0.03335046317166059,0.03222082005987799,0.028321334973372535,0.032209960276003244,0.042917266556688885,0.03414818530965478,0.045958071397909944,0.0389098393859326,0.044078542072125186,0.04683516577492084,0.05516167649702841,0.04347840123005228
506,0.003634729305750194,0.19856490743417246,0.22161344619209355,0.12047592880666867,0.03245166848641751,-0.0073110519777468,-0.016813081972233305,-0.03529980061161254,-0.027926565741027542,-0.03974283560917658,-0.03389220063625776,-0.0391136804724495,-0.039445744676115294,-0.046534076377784415,-0.04694178401270728,-0.052745368305879635,-0.05826800647493968,-0.06236249716955825,-0.06664741559795907,-0.07933145685843314,-0.0794738927398696,-0.08131400649090527,-0.08216983687181412,-0.07731908336042764,-0.0746377410292511,-0.07118087277790566,-0.06546698677729759,-0.05099443917870038,-0.04361356846782161,-0.03460847364531128,-0.04199274924229079,-0.028344527005520415,-0.025235821604258947,-0.017341824672450597,-0.014062220400774957,-0.012285139958999153,-0.015835650146512142,-0.012347565021900602,-0.015397486168219605,-0.01295770455541955,-0.016901643308817393,-0.027016660347676427,-0.030235600027672525,-0.026047268541174503,-0.02884544930322219,-0.0259116654740732,-0.018425439168549565,-0.015621274441569728,-0.02917505301198323,-0.02743651598519349,-0.046408618556043536,-0.03899204922493334,-0.045131558231754,-0.04405371823072694,-0.05187627364934401,-0.047721212181900646,-0.0436778489647345,-0.029732598240318483,-0.024593995993915915,-0.020982549364869593,-0.013069963747002285,-0.015607980541925345,-0.03133793852324501,-0.030789045264121274,-0.02783683403908603,-0.028612701291463528,-0.02572588426608403,-0.023581196353097,-0.01856106316393672,-0.015389870830506162,-0.012585303259364453,-0.011908387770213403,0.0049058153491106414,0.0023462934425827952,-0.004625339668413728,-0.009830757946635856,-0.01452391612086868,-0.018673474362698634,-0.018696021258959635,-0.018151572508902508,-0.009378525651377216,-0.011943153478954279,-0.011545542004491132,-0.01648739252497529,-0.011651200900479615,-0.007499642722052939,-0.01846791956583097,-0.019500256221694944,-0.019200723327481968,-0.025020395548856586,-0.002914298426676967,0.003819608518800607,-0.00791692778780131,-0.003066652174707202,0.005154076222753812,-0.007823625695148873,-0.007682883911044765,-0.005740615402274173,-0.011523731831227622,-0.011500920839458249
507,-0.002354525008542109,0.21675538348085235,0.3258990820551609,0.3877227637671438,0.39026387454493383,0.39222869052291187,0.3968815009956071,0.42295152457638996,0.4026533803188313,0.41216020327236036,0.4092412298973354,0.4218722027843346,0.4336663752439565,0.4299960488674474,0.42664320516589876,0.43883584530367975,0.43224800051125073,0.44357722435619285,0.4454143971532309,0.45841831088870516,0.4682558674058538,0.47622568207229393,0.46267783365222714,0.45322301212456545,0.47291945507430805,0.48141353633514433,0.48728141531201297,0.48290503208301006,0.482124654633361,0.47972889108170347,0.48137290686872963,0.47949214500983045,0.4801106448155535,0.4786761859330252,0.4914864084101066,0.4894533367570012,0.48252703536699193,0.4920796542658893,0.4892935363807443,0.4923437483155253,0.48662361382413666,0.47471665553124404,0.47971877576403044,0.4771589908365687,0.4685234153631276,0.47194732776812903,0.470490264430498,0.4642371758028585,0.46432897107828625,0.4795503645621617,0.4795313415517611,0.4805225936083197,0.4837928407811311,0.47599659685408263,0.47436744492449884,0.4744024196768845,0.4732703479545958,0.4723020582235323,0.4792694591852055,0.47679275365532425,0.4727830457927185,0.47544123565967544,0.4650977331675101,0.4688909237336995,0.4698779054866163,0.47130436972047896,0.4690344241101067,0.461184792532026,0.45825277358847666,0.4604334037075493,0.459348058526766,0.446251543438043,0.4430247499071158,0.4475370716021078,0.44461128893904023,0.4383635618508783,0.44049219529269545,0.4428819687953412,0.4461502209432844,0.44988864620045654,0.45191217524444427,0.4617153121430999,0.46419145506619197,0.46478592621742437,0.47061393272279056,0.4712739772068513,0.471183149568257,0.47157072916004394,0.4750489860921086,0.47872474256940933,0.4782041689139569,0.47927418429991214,0.47898076520947774,0.4733154189788395,0.4724193930746756,0.47402135016437663,0.47198365302046363,0.46973422128376113,0.4715298613790875,0.47074239563872317
508,0.0066785146164283545,0.20039019813234815,0.23142379982383088,0.2167248095890791,0.24502121026917348,0.21205327112009326,0.20725649492870502,0.22656776919622423,0.2012269527879291,0.18051865086050511,0.1914819603258503,0.20117155274032858,0.1766485766865734,0.20470277142525364,0.215638818226973,0.2162474678854007,0.21074422455440422,0.21032824379695886,0.19770634506314902,0.2162179970012879,0.2261534348671375,0.21106319135212653,0.22030490338610778,0.2195995827227247,0.23251869283738952,0.2160272410053818,0.22708205097244888,0.22446232102873995,0.2154876316054579,0.2232010561911364,0.22444090215138338,0.21445495736342576,0.21976827680522038,0.23080336888816874,0.22665388230194822,0.2279752517775357,0.2362440954432709,0.24931006463705033,0.2420854509377832,0.2271565382272701,0.22262795736047394,0.2168752204249322,0.21818198211055775,0.22211190601907999,0.22447310840792226,0.21817821145099386,0.22355643718332355,0.1980365871752049,0.20294550514018297,0.21665363235515614,0.2257047826636315,0.23554812686775317,0.23474749702667347,0.2342975047375433,0.23415058408502748,0.23549862230742785,0.2373881817895045,0.23869159910903956,0.25446992820113007,0.2541666096757229,0.2559054722459334,0.27450708671074947,0.28453772208904793,0.2851250020556876,0.2828597356351047,0.2881832953998595,0.2842845973046574,0.2773280320203639,0.28537788229756683,0.28492707000866463,0.2842318234039693,0.2835267106262094,0.2789499089112264,0.2814098472178699,0.2866279380529634,0.28072220082101845,0.28375023633281665,0.28543091409307897,0.28098820282638165,0.2812662715078995,0.28314014170814195,0.2841367233336157,0.28556250547900563,0.2927386009136823,0.29752723030200545,0.3001935475924126,0.2977984118029295,0.2995924032078078,0.29493480905289465,0.29955848611719466,0.3000741489975745,0.29493547511883456,0.28790700889755255,0.2834147556353874,0.27476137888044144,0.27360242365911785,0.27337150613471406,0.27912235071982683,0.27495190409663134,0.269816585131777
509,0.004126440050877242,0.15794397600225196,0.32608072264424387,0.3606825212658969,0.36552766914732165,0.3847145769517969,0.38555424253148046,0.38331136933254517,0.3761590112983221,0.39100994729267036,0.3798472861784682,0.38284741622172336,0.3735764199131548,0.3767689619917106,0.3820425577968914,0.37989797958896054,0.3840326977542301,0.3880809564898754,0.37673642424381243,0.3761053781460092,0.36908815673258494,0.37495421465632606,0.37806514495722576,0.3751247416036298,0.3804382960452149,0.3856628107333847,0.39524673270665095,0.3962405256060614,0.4010046755029185,0.4036855830149786,0.40663491785489747,0.39879192445966616,0.3924937633961088,0.397659486742654,0.39475877185153363,0.3885467519635783,0.38861298578298387,0.398496103696094,0.3953257451890456,0.39435321069887636,0.3972769594515577,0.397014323892663,0.3948825257465121,0.40145311564994496,0.4006262654918327,0.3964586305974576,0.39705874226878735,0.39341525132964944,0.39090298809049834,0.397950185543825,0.39775286036522906,0.38876585935284813,0.39091668985198325,0.3925163303835044,0.39365773687501826,0.3962484189029135,0.3913157369056745,0.3897081839047858,0.3900109570105064,0.40261029703909607,0.402602474397209,0.40779668348564646,0.4127962028850266,0.4088804135311572,0.40293818249779983,0.40813287127891,0.41854836945213797,0.41588456679516966,0.41449439068620975,0.41930932486229266,0.42016836815846664,0.41587755701356116,0.4145856293769103,0.41569652515884103,0.41641199158945114,0.40665717469998364,0.4064230845204341,0.40876906566501975,0.4107064959716725,0.40683388005550475,0.412794775448981,0.4161999946389468,0.41709325373091183,0.4197799233014119,0.418050483783664,0.41322711437177695,0.4067435999407572,0.39768635846406075,0.40548584928156367,0.3973042039660507,0.3980892751738401,0.4026177224929025,0.40426071429361926,0.4044298379059581,0.4044940656732082,0.4004176919917889,0.4014923380159363,0.40064033645791297,0.4005846928668431,0.401960218896944
510,0.014833329328586862,0.1802360487667992,0.36926727063979264,0.47393035808819983,0.4964142039703141,0.5294968410279529,0.5248448932750519,0.5229703249161662,0.5313586143420094,0.5222578861983096,0.519312410392679,0.5201951564803934,0.5347077251780751,0.5471811631661668,0.549872561268681,0.5595664946957372,0.5611855152195578,0.5555002332516227,0.5543941212202075,0.5575455880933476,0.5607846760198815,0.5635254200037104,0.5721854040006426,0.5648633325815737,0.5604962596550864,0.5615372017646975,0.5598467783214328,0.5631085446559058,0.5615521420714409,0.5603065075918282,0.5541624346812677,0.5609927220200918,0.5640589685282332,0.5659513566630231,0.5661768411393049,0.5784617583409721,0.5811661700010556,0.565874729574753,0.5744817556816839,0.5689895143984155,0.5777912764667259,0.5813735077958352,0.577724061376057,0.5755692550876086,0.581668343979522,0.5787837035029626,0.571423113167861,0.5702379821855864,0.5728365459394196,0.571800103659331,0.5664586729743988,0.5619967199311893,0.5566336177699553,0.5549587086005783,0.5556819158951365,0.5602226491472717,0.5582617019120403,0.560098310564978,0.5622588905575551,0.5564445918241162,0.5613447172154634,0.5598665740991962,0.5599767403615984,0.5568370412897327,0.5621222954270629,0.5610914165287624,0.5663478192873638,0.5703547588331943,0.5683608490886691,0.5649820928615964,0.5660603856954923,0.5587860830032316,0.5596713359610299,0.5602159383403433,0.5616156575024118,0.5629026252367426,0.5624519806640697,0.5624519806640697,0.5609696574524508,0.5495351717407221,0.5436280392090742,0.5406890623411358,0.5415241910884762,0.5494449841719411,0.5453594113862507,0.5507207884390164,0.5515943231518198,0.5501811576896452,0.5531992541196137,0.5566223557027586,0.5471584523394326,0.5399920299173805,0.5397757231403894,0.5391407030598918,0.5416469096934776,0.5423005812166469,0.5383968282849687,0.5396431788262732,0.5390050336731123,0.5292220629814113
511,-0.013025292505336595,0.09295249447194705,0.13034539578397,0.18195970296807296,0.16621153784172743,0.16003100463045783,0.15756279405543816,0.16484141563619878,0.17079901835288208,0.16630395080367952,0.18239362157104766,0.19159531874642766,0.18532805129011365,0.20290133378872605,0.19534602666228953,0.20286048440470425,0.2117617688463096,0.21372084896823781,0.23028835734042932,0.21485528213589716,0.2111422841092943,0.21509422886669374,0.22078622714448884,0.2340044952847746,0.23831268460276134,0.23547841922950596,0.23860610853958397,0.24048354951376072,0.2451810546426611,0.25682487379597463,0.2619345650641148,0.26566894663784696,0.26479247112129073,0.2640789483181404,0.2763788742946211,0.28365273011791986,0.30064984787850074,0.2938618217612414,0.3030316665776503,0.3116345398567834,0.30616848143039876,0.29712241679972606,0.30460200028628626,0.31122016181290735,0.301489729685101,0.2899124634550781,0.28475344484095516,0.2923586712027799,0.30237876219475396,0.3016275542140847,0.2958652089815434,0.2988939938948691,0.2944652298870206,0.29170912189019105,0.29800950266144427,0.29130197656980394,0.27481742464799397,0.2641348437330835,0.24768878388776788,0.2445205294836769,0.24933476966436852,0.25824357339697057,0.2581115887849341,0.274356327411762,0.27093633418427776,0.2751467206661052,0.28068832211305866,0.280927949736043,0.2784583706843785,0.2788653419455407,0.28528723123998906,0.2782620113910832,0.28799609188704817,0.2848421876289115,0.28168793257533237,0.27519036442720507,0.26524901030588366,0.2723142200863492,0.2754636396589026,0.27620023970985097,0.27193695233842513,0.27863793034166556,0.28210773578744397,0.28316938887378346,0.2810155931383932,0.28066627146312695,0.2825657190201065,0.2795724018094411,0.27962779205582666,0.2799065565855144,0.28120334341204567,0.28959493507960216,0.30695500759095024,0.2875412628019506,0.29464314723893414,0.29305246291594816,0.2928141491242253,0.2995467292049769,0.29573108384831304,0.2983787371889056
512,0.003574255985634245,0.14363376677481215,0.2023915531562456,0.11675017379537174,0.110835205602098,0.05082877400889368,5.839330633103678E-4,-0.001636368171130007,0.008399761805389478,0.0054391194184071345,-0.016290017836212242,-0.019344422061350154,-0.011208267766989832,0.0037112396163514446,0.00234962159211026,0.0036800021181359267,0.003963438701717613,0.008282096052705584,0.0039566289755643465,0.005038815227751493,0.0038830608293917855,0.0032563257774356124,-4.1070407918783106E-4,-8.760978344064069E-4,-0.021247216116072033,-0.017675240550218012,-0.01563565992688955,-0.018772494985073503,-0.023168949520481825,-0.020627840342533278,-0.023368382811831054,-0.019578716951353346,-0.021622029069408563,-0.0045774732788433185,-0.003865547858389025,-0.013633023574175458,-0.010775636857539574,0.013317506542067465,0.002468871029306995,0.006223277313798754,0.0031707525914071184,2.6785985984788095E-4,-5.410301022676168E-4,-0.00880309902517964,-0.005273457813747774,-0.005057193190773654,0.007655498170907735,-0.005514482126483557,-0.005967839550255273,-0.02029424558803824,-0.0220952262278386,-0.026892893287297798,-0.0421583647467854,-0.03852048223886917,-0.03034140264102904,-0.0426016419007956,-0.04200864622165987,-0.03532041131238601,-0.03620057082425451,-0.0229047794896836,-0.03078225851341874,-0.032608133513479,-0.03857969326533827,-0.03678952435619807,-0.024706630929985898,-0.02229746854006021,-0.016439718072697538,-0.011885707344896109,-0.014615572259539049,-0.01677063972892468,-0.025281087629327237,-0.025990096587882917,-0.0288678694982834,-0.019511104969199344,-0.02001971218423597,-0.016948761591469626,-0.016426802317894267,-0.01332409004927173,-0.013937486194024717,-0.007595901804289108,-0.005599123362880084,-0.005728113270745779,-0.006633188883449111,-0.008557549747159103,-0.005396589934845328,-0.00823747432720703,-0.0070588260550368195,-0.02034197986960275,-0.01894498327514765,-0.018465858915235143,-0.01022303362685875,-0.017649959672414575,-0.02445852953949817,-0.014850257945160782,-0.009536420787806072,-0.006313024915185945,-0.01126033379884553,-0.015534855031968758,-0.01113296977370781,-0.00977244331146711
513,-0.013423257044815238,0.06882809853536152,0.17157889836340134,0.1498321113564071,0.20094579228840956,0.18386681058026547,0.18791649405970773,0.17811399139230966,0.17218252266139594,0.17579897536239097,0.19621733542920342,0.22062388249823037,0.22572242704683695,0.22903511936207338,0.23296305020749547,0.2485539183390461,0.24470211579329665,0.2444019592611694,0.2507375847267057,0.25697758565899625,0.2595261175601224,0.25521678835147726,0.26748715144886104,0.2631048893940954,0.2666264788920253,0.26864275713696467,0.2894611372574934,0.2863290325284198,0.2799257210612107,0.26841605377675476,0.25507429821356153,0.25953821689349516,0.24673116980357018,0.25502979530927744,0.26292019890189205,0.25994588247939016,0.26004854402533434,0.27668822637124757,0.27356161739440255,0.27721105466627294,0.2890077753023569,0.2752335459462562,0.2853627204621631,0.2767524754972727,0.2734222637349605,0.2868211460819943,0.27362949623174054,0.25945396497917633,0.2618018232294337,0.26858825067402814,0.2695499149590504,0.2764106049501015,0.2754051266790622,0.2794891819415877,0.2914963673120815,0.2858977916956885,0.2875868743528581,0.27736048685038567,0.28029534910814985,0.2789613950180335,0.27562816990819367,0.28750867854669493,0.30117268723078305,0.3124837709691508,0.3054448171113228,0.3096706823936526,0.2975517460802215,0.2908048513137517,0.29096616357039995,0.294305895864285,0.292370653901605,0.29955111549367414,0.2896789335015902,0.29340032799382154,0.29583884731519894,0.3021091768382434,0.30589902378819217,0.3098109680654432,0.3085205412500683,0.2993693169552799,0.30146178198277906,0.30019892402335385,0.2975008630717634,0.2920900003681871,0.3021213645902783,0.30336670477906535,0.2993635838631432,0.3039662669957382,0.30359421364957084,0.30290521011229,0.30334005840434924,0.301239465037745,0.3023264481881836,0.30211091126282513,0.30585669639548824,0.30647846121710315,0.29921227691103136,0.3038997825411707,0.30071442624339634,0.2980211568990018
514,-0.025552861708490044,0.12041939120402352,0.25550556638876554,0.20356255190542213,0.21870187717727252,0.24360991726085054,0.23669348711120428,0.2417759546145384,0.2440143528475416,0.25282948455031556,0.25742304780965564,0.27043944586897795,0.28225871372638783,0.29283902822777175,0.2975839412737011,0.30955573433922345,0.2898642597945432,0.29964795149303713,0.3029674684596784,0.30558058466332844,0.3093987904154939,0.31629168742392,0.3283005920050917,0.33506411593077806,0.33103059647996325,0.31204949726963466,0.3157626944455733,0.31601615330231864,0.3265137467042941,0.33192162527267094,0.32608106644922086,0.3313711076897651,0.3424137533323119,0.3349736546464886,0.33548384281538596,0.32629405245058235,0.3332013574191457,0.3343066175119773,0.330485364087536,0.32309852341723533,0.3153117579342036,0.32504626508783296,0.32942097221084743,0.3108867759547849,0.3218514421705443,0.31878495855046596,0.3154688296046225,0.3376340681774305,0.3312726021761885,0.3318434205500596,0.3270739601511135,0.3308658668975145,0.3326635587495478,0.33395826234035075,0.33064178237930425,0.33499491896498335,0.34461258364613656,0.3481050164850811,0.349810427690536,0.3486889105535535,0.34596361665448283,0.3424190832715962,0.3349132300930404,0.3351766843075623,0.34079764732348566,0.3356498810286308,0.3405432410158029,0.35219680675884146,0.3383746593162425,0.3459105431698121,0.339911950738519,0.3411776974862893,0.33956734965894825,0.3372757209167688,0.332624184412214,0.33331374596467284,0.3354646380000776,0.34237452514374694,0.3442660888660488,0.34444102944831473,0.33976191321797455,0.3410424379226011,0.34151512078780416,0.3411032479878052,0.34306700330470735,0.34390314487431495,0.3552527328121606,0.34282142500662016,0.3454224404157823,0.3459954751422522,0.35202847747892974,0.35211676313780543,0.34126888096881186,0.3380868312286324,0.33981900052577474,0.34046677262400477,0.3413771322183463,0.33567594167763704,0.3331558513527553,0.3334742054971461
515,-0.0060753236477397565,0.19017092365909977,0.20805917314041358,0.09331526655113649,0.022967564280015913,0.01103694735262521,-0.0041577118191236115,0.0011756059301467746,0.0061605205610782265,0.0013276629403710112,-0.00250337361631071,-9.345106010887355E-4,7.445965238791535E-4,0.007368864482179171,0.005329906973223596,-0.0023160018392868347,6.322775473217682E-4,-0.003604253914911268,0.0025768256618451764,4.101374211422263E-4,-0.011617605036793544,-0.004450675559030857,-0.015216942910621714,-0.01745340693899446,-0.008982434239950128,-0.012439801708787526,-0.01000184981742212,-0.006674925151832544,-0.004674296654806609,0.003959680705712876,-0.003263162413344704,-0.01042864769918276,-0.029077807399001218,-0.026922218636750563,-0.007977461951210626,-0.003195104939110206,3.547611252333683E-4,0.009594132750327831,0.012968474918699444,0.0131953695813162,0.00667441162388405,0.017716785788618124,0.01800573005260918,0.013225535208994072,0.009679920509646094,0.014319284363037546,0.007553030086462671,0.012969285745279337,0.01092362468427724,0.007527892204784943,0.020656929080333473,0.017520716617079938,0.026534929239664877,0.014221236417883802,0.022517520031625497,0.025678615196479942,0.0258636417953049,0.021202379214685513,0.01454638140890356,0.012931574655756013,0.010139410327159582,0.011193370439138433,0.020800451304206883,0.018810823213389977,0.02500285773731258,0.032699036891772254,0.039804809824782975,0.03997195105909091,0.036717376669426885,0.040511727776418115,0.03977745801361166,0.03680341231801372,0.0321848644626488,0.029034210164817522,0.02564818190324432,0.02332822746711931,0.026816490807593515,0.022169176519592826,0.03017620733908399,0.027421861593803127,0.03029504019810926,0.03416572167038825,0.03545530854716764,0.03620053214112794,0.032253027998871406,0.031227796226512873,0.039828542527081345,0.02757775792504984,0.009523813120215534,0.01004529892747322,0.0030091610986301364,-6.02945171171662E-4,0.005859398347226768,-0.0014735428576968473,0.0048988845033491645,0.002345835379263578,-0.002309982509062441,0.005803479267410195,0.022197673161474484,0.020016936057057982
516,-0.0034301699421424065,0.18442176875855992,0.27134987874832617,0.27688403945307366,0.2916088130992909,0.29142198703940586,0.30817096944591105,0.3071048759860519,0.301490243481693,0.2982112515610807,0.3079877196715235,0.32078812186503414,0.3266584111730218,0.31894231580187143,0.31174549958379727,0.30410464795723907,0.30198354212684136,0.3054905356462848,0.2962165475914993,0.3039438120674912,0.2912823794278383,0.28689310360695575,0.2986769767267455,0.3044708789327255,0.29421842123740105,0.3019053408591873,0.30873954217965144,0.30796004198762605,0.3179860072524587,0.3211105063018842,0.3084110735376451,0.3177324734310834,0.3165661737976101,0.32917493353041166,0.3421897485841449,0.34924479645193623,0.34718856734156356,0.36367956288703707,0.35472056279886394,0.3575495234661909,0.3623987507682602,0.3606243937992899,0.37146224811003764,0.3752944749453902,0.3826239588915153,0.37914988107203745,0.37479395505085,0.3734792316710605,0.37414379196524533,0.361908775209566,0.3648322060260199,0.36566613958319316,0.3615136309783466,0.3668322955060276,0.36465653420848293,0.3502520426383382,0.344205948975993,0.3434115027530206,0.3449168195796392,0.3398799879643317,0.3395743807341685,0.34781758637840066,0.35284394446548567,0.36114038925549635,0.36272981640499025,0.36492930995399475,0.364020289561539,0.35981851056696823,0.3594525388701847,0.36346750996561616,0.37026805596433293,0.37780041075288023,0.37856980033912413,0.38886384606911867,0.38907428174791653,0.38733204711527336,0.3909359177693549,0.37746443007699854,0.3780380470900813,0.3719424574306343,0.36589950440676894,0.368025461628713,0.3673306074251746,0.37914724858702575,0.3912105538493579,0.3886347728851294,0.3753967148077766,0.36398745887305267,0.36917205193053143,0.3671186336577382,0.3725023352474839,0.37371515893695645,0.3751186330586443,0.3755284685653882,0.3741883030056703,0.37553245292855136,0.3737417098485885,0.3722859875796155,0.3595538356305098,0.3536776244236989
517,0.018212289198210493,0.17874213771411326,0.23933401721598124,0.2879695364910746,0.2934732152712733,0.29446091212357994,0.3074045998903293,0.30289612103850766,0.3280398848421913,0.3395065964562132,0.3519281239380016,0.36807073345963337,0.3701278229452285,0.3752107236441997,0.3714963619525624,0.3616626964806934,0.36351778682512026,0.3818771512140835,0.3843681060092624,0.3822183940909406,0.3762841110420515,0.36865853678249033,0.3611805509855622,0.3623267906317737,0.34988785128599725,0.3608890368652309,0.35816594691405756,0.3568794001456488,0.3583947446022042,0.3714852978421421,0.37940199462189483,0.3749973938841888,0.3786499746609773,0.3868032062012892,0.3955934450019886,0.3925675201252396,0.38553487805870873,0.3944137733402855,0.4007973981455624,0.3901830570885199,0.3985493310223774,0.38543591504253416,0.38678723864026054,0.39345176177657293,0.3899030896772369,0.39131280266753676,0.38440219039788937,0.387644151419871,0.36663942511197484,0.3621947963550165,0.3517006935096601,0.35769717952737196,0.35972256610969544,0.36448848351560625,0.3721537207355768,0.3761756524615937,0.3687796878986866,0.36725203837676396,0.3793809199115398,0.3746086522396318,0.3706795546043448,0.3641987417194495,0.36254094486059707,0.3719530512812732,0.37378765550401766,0.37463174015520423,0.3709102919118228,0.37631184962124015,0.37718022089012265,0.3779490672684455,0.3766191405619281,0.37209295807902243,0.36997413379720734,0.384127146741476,0.37748639831156466,0.37077558590284454,0.37606940838957725,0.3736711947957143,0.377394040825305,0.37920350105498146,0.3832051609498916,0.3824471216971174,0.38189850151005933,0.38059484229185314,0.38290756029012846,0.3858707336539257,0.3788058225773374,0.3813882573260453,0.38185621264219244,0.37771064959061973,0.36600644299631335,0.3610078799158119,0.36107846370305036,0.36708459041609487,0.37478711100705936,0.36707816138133487,0.3596190261978589,0.3585046917207524,0.35674579408217666,0.3568204780494389
518,0.014075058521420563,0.19779487560532671,0.2970144508435352,0.2604848201272345,0.28121461717806906,0.23752887981737505,0.22558446984224503,0.22631347411544894,0.2463662225097571,0.2589783792036774,0.2673386503065213,0.27366368248165673,0.28431303556206966,0.289618360945939,0.28609195851257124,0.2807434281914212,0.26929088119282424,0.271013308301813,0.2764635730575255,0.27821624671654904,0.28303497081110307,0.2875406520370896,0.2784784520343957,0.27474920623160654,0.28467773791342516,0.2872112984956483,0.2953921523297941,0.3009774573173181,0.29768764556089383,0.3011006885973306,0.2955395272088862,0.28895687211200743,0.28882373463357736,0.2785294973170128,0.2885252447722442,0.2855689828093659,0.2830376779829627,0.2916224810464481,0.2951816095102167,0.2927441510815606,0.2964574394903443,0.29858773516589393,0.2934259113751026,0.29064208505347205,0.2972365628029202,0.28975751451395293,0.2898631336737188,0.2868868510627561,0.291616369264911,0.2823098688837205,0.2889722697207088,0.2859942220760116,0.28059316406526114,0.27643661845825634,0.2852979449798498,0.27958261746212815,0.28167125533237347,0.28565516368942445,0.2707709104255373,0.27781157091255887,0.26713046777445487,0.26436793577570866,0.272116912229972,0.2758718151685662,0.2729190978627763,0.2731379095705164,0.27800741053087674,0.27974440992487554,0.2754707777472062,0.27929693338456085,0.276779744451751,0.2794842538899073,0.2817583258772819,0.2806554054128016,0.27445875381931206,0.26777108517156967,0.26618437548821317,0.25779439914059465,0.26320863452094045,0.2573257806603473,0.26528122218252215,0.2638157068192201,0.26210394919140295,0.2604403545067802,0.2661201937584385,0.2683240955070724,0.2710224520189032,0.2735020262320632,0.27250911657389765,0.2715231858135766,0.2728793093147527,0.26494262691664305,0.264450107076181,0.2638719316829162,0.2700295471124861,0.2679168954881522,0.2697648156303601,0.2706449026857569,0.2644051550104887,0.26608997156316166
519,0.003434306830390811,0.2510247982064888,0.354815792108377,0.34595579131704013,0.2940716614930993,0.3066473847606032,0.3062775629782711,0.3153682195488411,0.3161439421556749,0.30887013203040964,0.3152590496616308,0.31603085089095206,0.2981926619142808,0.3136285654406349,0.31323971321184685,0.30530276439298426,0.2939531847928583,0.3059576347155082,0.30360524433349245,0.2970179154480147,0.3070795186830085,0.30816878545216864,0.3085956421768517,0.3137500868024049,0.31068897817408025,0.3013369018055593,0.30383716548309797,0.30671344945696477,0.309356283567717,0.31362113737895225,0.3180854581014473,0.3119874686622398,0.31557604014342444,0.3209738381639831,0.31986126107969093,0.3291881550648462,0.32834392541691143,0.32634688600101486,0.32521587023056225,0.32421999546932206,0.3294803123154476,0.3257338404961402,0.32084767052330493,0.3221357529940333,0.3162715983461638,0.3175827182384945,0.31837004139015096,0.3227956572495767,0.3171906512244576,0.3169428971173994,0.3208463974859802,0.3161616842259553,0.314492133314671,0.315787679489783,0.3209648924509999,0.317107090535366,0.3179131284788881,0.31890241806730135,0.3183861585320253,0.31967428109141127,0.3216792965650228,0.3203136154552768,0.3253311321244308,0.32140508380893545,0.32193828548122627,0.32485746031209395,0.3241799648803254,0.32405015347811195,0.3211236003186962,0.3200630001418216,0.3193334241988868,0.32091794153915154,0.31943655102147805,0.30859179098710504,0.308609438401765,0.3133100286938975,0.31335040785255414,0.31175021003091924,0.32149540306073526,0.32063667507079463,0.3153288334439485,0.31030092071055215,0.3068769098454144,0.3003173667438832,0.30191920393172156,0.30347719862474565,0.30513579198639734,0.30495956378381767,0.3030351883206244,0.3079108360892065,0.3052067809803448,0.3039409209977404,0.31662024414020323,0.31314759842198964,0.3118354040946249,0.3159680656815416,0.31880473696139056,0.3163267962459239,0.3203318764307726,0.3188215935103513
520,0.0035183812646709593,0.11192049410927624,0.23222160454854537,0.23252554057363523,0.1957760691486141,0.17135479081739757,0.14467958214491633,0.14191947061350396,0.1334204326594376,0.12962061242785033,0.12746549225110326,0.12520999443813718,0.1045639497018303,0.09431256878824694,0.08984860568345698,0.10177970650570548,0.09169331187036811,0.08179188534772198,0.08299540997320802,0.08096566600018988,0.09511716162367642,0.0782213402231304,0.08493484826966072,0.07965282032468127,0.07252400777848672,0.07982971791622523,0.08397496006537758,0.08380362338545222,0.08173164084644506,0.08392426918945799,0.08452619918217125,0.08628577897747537,0.09316053801508703,0.08705854490338202,0.0916063848086713,0.09421859632593317,0.09760477947656884,0.10660948059797395,0.10791527882561454,0.10763161275856462,0.10695129475155539,0.1029940194263332,0.10489647708362519,0.10290409427694494,0.11386144600883272,0.11652005965846486,0.11413620364032116,0.11895117132836187,0.12776231744314534,0.12084199828027867,0.11925644258286006,0.13043775141499359,0.12399608171489104,0.12332613602365462,0.11059672439609881,0.10550668632187862,0.10364568817456034,0.10545956029621709,0.10307115461666569,0.09750192892427256,0.09277799945458387,0.09837394358063627,0.09645231097863313,0.0925671008903651,0.10155264738050303,0.09523865532255803,0.09217707963124805,0.10162574328291867,0.10784394471548514,0.10643629856289459,0.09838719038637828,0.09193867250142955,0.0939093423011003,0.08815862624976374,0.08620602306092083,0.08816795288350615,0.0835589868676938,0.0845277668005201,0.08489527846690187,0.07962138855065275,0.0853417358050251,0.08372019021299343,0.08079013746460488,0.07719687744584318,0.07405210496763216,0.06170677112945445,0.0597735320213682,0.07566249305671062,0.07767973896637292,0.07426270813989957,0.08328971645836292,0.0712135735970187,0.07438367100222515,0.07677918307067387,0.08202016036931925,0.08250524086094499,0.08578666131731058,0.07868397844928815,0.07413868043793258,0.07531256842410469
521,-0.029018774110301945,0.047939755762323594,0.16411547541414215,0.12495364794297864,0.08244326490879099,0.0873698505903176,0.10425018700973306,0.06897288362952855,0.09506164403131921,0.11519044684907909,0.11380019305485732,0.12417475871599634,0.12451560168676953,0.13293864451732634,0.1410232835067192,0.1494374320022901,0.15294462162907763,0.16026127831080475,0.1583170327765562,0.1826378042959404,0.19229282377309254,0.2048969079886991,0.21103090263719446,0.20163522845136406,0.22490248958767595,0.22328041552381098,0.22013071329821676,0.2170876389796881,0.22821962122792797,0.23870830862298478,0.2517447478971145,0.2500833344038582,0.2650009632744884,0.24904346000186817,0.25606215713183,0.2665582989429009,0.2737123877483656,0.2810102412966048,0.2753995063211996,0.2778963307780783,0.3013419987611759,0.2981888648627309,0.2856515744430692,0.30841543420912443,0.30567554941162506,0.3071938351134358,0.28330263186772836,0.28464689371626156,0.29015502276081373,0.297372460537442,0.28136240150244435,0.2820008272273026,0.28673367582508125,0.28316666189878315,0.2874088499609933,0.2902112572808526,0.29332208856861636,0.29543565679486716,0.29578837289210436,0.2963420244308929,0.3003079966147921,0.3106993883611522,0.3139823626591105,0.3158263746876478,0.3176951835849722,0.32613814672327707,0.3223234571609308,0.3496944791339153,0.34356543151506413,0.3491220829616367,0.34849166403787973,0.34387024377542746,0.35218065311914415,0.3373597625429548,0.33864920423816924,0.3537696629142319,0.3527238154912132,0.3567782676717737,0.3487246175330225,0.3373637293139234,0.33605723574715485,0.33558436110083323,0.33946930648118934,0.3479059292266207,0.3479731170366746,0.33876123519165785,0.34147038780610756,0.3471654266708708,0.33753207278450714,0.32967455883832864,0.3322312031809547,0.33077935574660666,0.3372121051812442,0.3363267828359945,0.33408310469914804,0.3416216368392554,0.3440547949528569,0.3412584082219075,0.33211758071794295,0.32995194395453786
522,0.00348746531989613,0.1872012651011079,0.33427253076414515,0.3817634676026344,0.4250944429248036,0.4632689457938995,0.4862586263817878,0.48972527278334865,0.5120796891392684,0.5073623756024742,0.5111430400712466,0.5178028845457306,0.5175551941700686,0.5192728336480918,0.5158292480884682,0.5239982382338437,0.520937615740079,0.5317667439359479,0.526503844738356,0.5296998559845876,0.5311627949065612,0.5258589884734713,0.5323545829041103,0.5309664900391805,0.539381615326782,0.5375108084824916,0.5373962707269968,0.529252541461527,0.5172460493818324,0.5181316472416903,0.5156636311397463,0.5219036628364838,0.5228312584860383,0.5208509935603203,0.514998525123982,0.5155088340395819,0.5103377246715112,0.5133337164449597,0.510600706884716,0.5061332845141892,0.5116296603656991,0.5036470450562364,0.5174002774516814,0.5146839639009602,0.5174865892027073,0.5213205134070755,0.5194250275706914,0.5113614553526807,0.5114601645227598,0.5111695930187959,0.5118316493816809,0.5060106383269566,0.5096571458245335,0.5063332540403322,0.4972460860919341,0.5006253856303108,0.5017806277888073,0.5002083736111779,0.5035028268676562,0.5057575787834598,0.5088600922967109,0.5086823727698349,0.5110783518706549,0.5077007857068061,0.5005042663361702,0.5019186832802887,0.5025600933769805,0.5087571847633241,0.5082237565183916,0.5099475047740012,0.5020030220286208,0.502325023299859,0.5007930661060218,0.5006082660058975,0.5000251455959261,0.495633247231172,0.4966860521984674,0.4989702001616574,0.5006641284276278,0.5038924488559079,0.5059300864862525,0.5062663144931315,0.4954542116617218,0.4976773093358408,0.4945137009237641,0.4932431776266457,0.4957594547308796,0.49430077330871974,0.49528918258139293,0.4963699323890755,0.4982045910202506,0.49750461227676257,0.4969787634703231,0.4987999054166837,0.5011468886673647,0.5002852765497287,0.4995342985969245,0.4964559612649074,0.4942054041504847,0.4960966653929582
523,4.650567754049748E-6,0.10337204755780306,0.12537659076520832,0.025025986323392705,-0.04503047141249728,-0.10212820957215304,-0.11124720917609951,-0.12604666226077382,-0.15372107200513355,-0.1453718848561061,-0.14524966751274165,-0.15979979877260267,-0.14121432216164387,-0.13648707593207812,-0.15220846902655968,-0.13601366454098304,-0.1207520587080225,-0.12006685075959092,-0.1254155064498649,-0.1230904689834754,-0.12752392329688603,-0.1290936676937371,-0.1340085725030174,-0.11004772811498112,-0.10112329322607046,-0.09873753057718121,-0.08632145697499644,-0.08458092654364656,-0.09187875800783572,-0.09870330187181167,-0.0954027644795825,-0.0855498171216864,-0.0938986134529819,-0.09928450593733289,-0.08161651410796827,-0.07666375954117101,-0.08271490773507928,-0.0886632357430584,-0.08720060550055704,-0.09744282380987995,-0.1037929476896354,-0.10393365388748606,-0.09053331517413717,-0.0895570239332298,-0.07320085747454276,-0.06690424494653537,-0.07472978314237846,-0.06603773964197368,-0.057359594272808734,-0.059688845328684126,-0.046641462715007666,-0.0400091986165347,-0.03412836361442891,-0.04397031378895894,-0.052619031759768016,-0.06727252352430241,-0.06399795755018498,-0.05389748765377393,-0.050251532910673226,-0.057808450235753615,-0.05175422724510331,-0.054252977823059566,-0.045465102164308935,-0.039097735574081846,-0.044136607067134556,-0.03548846428781604,-0.03924364594830368,-0.03204255218163937,-0.024086565409100064,-0.035301057636628566,-0.03713042712962989,-0.025964633933934077,-0.03186595469359193,-0.025707013615450094,-0.021436273115008907,-0.00994133418495568,-0.008859608048277994,-0.007132698881991687,0.00791417406536667,0.00742336262558007,0.001604723890948032,-0.004217966285307456,0.003451371203209139,-9.141528163751056E-4,-0.01054202545200247,-0.0063663290720119715,-0.0028036402472360043,5.026417306475995E-4,0.006737984102238276,0.00570705612495722,-0.0011609769461399621,-0.013683999335904638,-0.021620858868236878,-0.02863729044108833,-0.019283813540484397,-0.024878892565603737,-0.03043842719360795,-0.029652182200906194,-0.03089071309346703,-0.03014021734252281
524,-0.008715001657550972,0.19064286385648127,0.2707825161052716,0.2033907225510738,0.18822985625336802,0.1900117040400972,0.198058293653281,0.1663573602879223,0.1828976911811128,0.1872570646168613,0.21882243706538254,0.22413309521818278,0.21908271174368857,0.22683468817328234,0.23232009103559206,0.24610199832267166,0.24728787464131105,0.2540317465467324,0.26081866375783297,0.2549947099048887,0.25196013202610046,0.23530086903321323,0.238848851830783,0.2532806546620361,0.2470917356956821,0.25241909632821635,0.2528691115445672,0.2704513861496622,0.259814582377878,0.26593189833900466,0.26377175571625316,0.2719991402117733,0.2746598120181952,0.26813160317407403,0.281849167110641,0.2666206042327229,0.2611024703681948,0.26979445558291043,0.2670481573828074,0.2776432171442129,0.27502849182541533,0.274155597356184,0.27144393610935486,0.2694956289746451,0.25900709989221177,0.26003824486629656,0.25994332420355454,0.26208685855045105,0.26334883689856864,0.26709877022108186,0.26374409205056104,0.26267318231993053,0.2528379007660071,0.25621372869377673,0.2588222407050172,0.25770063045312974,0.24933301198926316,0.2372300943928974,0.2375860136862508,0.23776112860262838,0.23701999348257163,0.23301527691719895,0.22907038106919042,0.22911526147560898,0.22743735544655533,0.22245279928656372,0.2250706999192873,0.232214393190338,0.2240797063781713,0.22556098568466762,0.2340077828007017,0.22803146044868272,0.21679420351705103,0.22179165593072844,0.2111285558818456,0.22024972404593066,0.23251693498318715,0.22784585648830252,0.22557451284555213,0.22610234065402832,0.2268551416930552,0.2304601595292344,0.23033873752916698,0.23305033388892782,0.23238208646590064,0.2382053228479889,0.23542564564361687,0.2366872772267157,0.2376826893406646,0.23340034844969174,0.237798600520049,0.23671793247882225,0.24035423212989987,0.23161585701102821,0.24094554339350452,0.2420415272814386,0.22983197596659635,0.23275248463767778,0.2316909833206741,0.2308813822658629
525,0.018070642145566793,0.21582050683885443,0.17572701395311796,0.1672027166113728,0.11471601362338828,0.047646992840826824,0.07077783139288801,0.07449342293090853,0.05274935522731807,0.0646151409627543,0.07421034698960643,0.07203760504259986,0.08133631612289915,0.0743349748297177,0.07742003226970867,0.06546727149943035,0.07429684501989955,0.061001762701060384,0.06669592257011628,0.05005122370884316,0.05337049743133232,0.05805549810097126,0.061298317468569,0.062181055770616736,0.08015521135799278,0.07000532629308898,0.06169247061514253,0.0656570314369845,0.06757770554520287,0.06633660316545656,0.0691103608126372,0.05486023528491742,0.06346255954226798,0.061949411549469834,0.06146915130815636,0.06449491890875193,0.06284350357052185,0.059084144599330736,0.05325805006765677,0.04995367411925126,0.05837244197461204,0.07062207967847402,0.07950091357264802,0.08712519000778345,0.083983312115109,0.08388358667966912,0.08889497277262016,0.09976014029822951,0.09135508091040205,0.09007674900094904,0.08599998638434833,0.09337675021617871,0.08224449114507706,0.08699995774756505,0.0832446080452229,0.08151243398835581,0.08142990872532067,0.0867243314469853,0.08571671912728285,0.08038668761411108,0.08645515757779627,0.08303673542063668,0.08942031168258628,0.084752861406423,0.08545622785540787,0.08959567930581501,0.08812080684784884,0.08959822576354912,0.09466986234753523,0.0976171054276223,0.09636473226224776,0.10213397972663862,0.10144349449590509,0.10592344991107515,0.10174987077339534,0.10306903763133603,0.10277449619773708,0.1061635552796315,0.1083552375620439,0.10786357772503705,0.10901610760286007,0.1042805847820336,0.10748437533223484,0.10925186592770383,0.11169548473541216,0.11427953085904503,0.11694974926936536,0.10938086365647677,0.1079705206429392,0.1160736504293561,0.11770417710699974,0.11462972570253843,0.12432962643725007,0.12416619872683135,0.13088751580276445,0.13111403239358144,0.13137299382294107,0.12889045742005845,0.12680965864286292,0.1287596551761834
526,-8.992434188242723E-4,0.15691939622207662,0.23024581709276812,0.18469466821261993,0.16374554261499438,0.13552275610614026,0.13361871932891847,0.1358428584636409,0.12140407094649806,0.14105229916840945,0.1376653990050023,0.13360392792967843,0.11664837764103143,0.11614122951185538,0.11632917573051675,0.1124977449766944,0.12410337032485831,0.11073663358660195,0.10804260980351721,0.11231436867425851,0.12184670690661857,0.12044774032749944,0.12061902698906828,0.11975499689592825,0.1374427926832234,0.13785118919858852,0.14055916869872254,0.1256770040891353,0.10891388617101755,0.11410265134967583,0.12257402206383157,0.12200743330413683,0.1273324969729038,0.1172041935067178,0.12652260285075773,0.11178370813878359,0.1254264231359634,0.13096119926731772,0.12789232400860207,0.14118947621995917,0.14349209972968674,0.1452736429284121,0.14305482496484484,0.14382988000821442,0.1465219190458218,0.15062579584792357,0.14957343227700132,0.15768027290192133,0.16735237754784194,0.1682925728221531,0.16166552368280937,0.17627911982341435,0.17932655014465546,0.1803521817699557,0.17084773577613874,0.1712197787774827,0.1743902092144692,0.185578532978355,0.18246311292942255,0.17776246145544142,0.1753872767936377,0.18782353296904586,0.1773999050841026,0.1721064208529548,0.17927050309891385,0.16580380836441275,0.16693637848343837,0.16400017423357013,0.16382371340201154,0.16346332620843465,0.1637148836884436,0.15522013590020217,0.15675908404002212,0.15770110941412208,0.1573716672963664,0.15689849260208868,0.1598405712070038,0.16224484628893093,0.16261111735037356,0.1578959211814413,0.15672335635811996,0.16766262434381907,0.16840324782411936,0.17584618723369808,0.17613236085751116,0.17987759048458815,0.17808186189448807,0.17521328162639294,0.17538106250135385,0.16881792112444638,0.16068778634390088,0.15976526503925614,0.15803894994390832,0.15854262683156284,0.16155773451883756,0.1547171224058077,0.152112894202126,0.1580411298318045,0.1611728999077886,0.16242837484516065
527,-0.01758093333575034,0.06087586000592754,0.14397527131271337,0.10512257815692023,0.01790898142453861,-0.022051085136124204,-0.0492489409521567,-0.08831742844109075,-0.07828788024554373,-0.06384359042148559,-0.06950309948213362,-0.05711947351990461,-0.0605172955108889,-0.0656934091574958,-0.0576152666895617,-0.06790293995406081,-0.07235562204442203,-0.0665730350705763,-0.0554850444163938,-0.056149491706063516,-0.05282883071573756,-0.04393440756340494,-0.05484394075997015,-0.035664847363225616,-0.02580222505191387,-0.0324171526426766,-0.030153558751281076,-0.04161269122115421,-0.03569162926442329,-0.029230108049274093,-0.026723699981176074,-0.03519568534660218,-0.03766306298165257,-0.03612123091314964,-0.04140983636679476,-0.03659128422954582,-0.020910536381490142,-0.017859409911512043,-0.004274970762222626,0.003934564336214525,0.012132370759767813,0.004012963208369902,0.001163351313915556,0.011859157764187923,0.01972556783440252,0.002696758778847288,0.006808115527439362,-0.005808045836431058,-0.01235086330448384,-0.017970867002163996,-0.022590232951757664,-0.02263304527970943,-0.008955317686228557,8.541239630352437E-4,-0.0013165005632751264,-0.009140028236495124,-0.01579736299834162,-0.021315640962511973,-0.0164189541531875,-0.010298237495100311,-0.016557258017556493,-0.012623127460527486,-0.004809633282153611,0.012145625556127472,0.008790351031872366,0.01020398825669294,0.032992595861173625,0.03244093764914986,0.031138853464984323,0.035521682529393236,0.03597160866039762,0.033019240142478284,0.02400856420377295,0.009547397032605608,0.025556252260665758,0.014464926168981611,0.013506043932650877,0.0165405287555929,0.007844588079740627,0.00804333975347527,0.0022638603424414206,0.018932748273156674,0.008752264848112515,0.012420197555231485,0.012036398670241071,0.012252654026745248,0.005461170497063283,0.0037209094965947732,2.225880128762095E-4,-0.0013294047675954006,0.011747261153194934,0.024060110848307836,0.02454313434383536,0.0219510677419407,0.025159588593549095,0.034041846500422974,0.02312532866800859,0.0207637702808008,0.019305913910140658,0.0404478926454793
528,-0.031922527596400664,0.13020018246892476,0.24344862431490305,0.2768840616290997,0.2528867922457485,0.2689165858321986,0.28427243209253095,0.29482213417268655,0.29800601202807864,0.29578955645553084,0.27541471095500525,0.2890553170693353,0.27674533667014467,0.2788192310805569,0.28495270525364647,0.26574305101383866,0.27479325418608175,0.2755086230928835,0.2750614759614998,0.2717104882469144,0.26972294978840017,0.28533506864896585,0.28673547281886147,0.29867974793165986,0.2956074479400243,0.3037414871556392,0.296157129008297,0.29436719699137365,0.3029168850761593,0.2949553808861047,0.31358105793922825,0.3159617449760208,0.31269637726649246,0.32735445779046046,0.3095393751852854,0.2934388507120327,0.30375773753014346,0.3008161689857374,0.29506487685684424,0.28590615479206555,0.2859620623213268,0.28596477621030414,0.282284694658666,0.28686906410799534,0.28387646720070453,0.28337989175189215,0.2798373172310642,0.2805015229679454,0.2888264340567209,0.2932923137360269,0.3094500861179873,0.30148342589256955,0.3053209812880314,0.29766422041925056,0.29164989670349956,0.28943058896295,0.2815030211573071,0.285774101516121,0.293650544915014,0.2828097577563224,0.29548208148016,0.2894109219742097,0.28880962911503955,0.3070606409652495,0.2949294776222872,0.29941622793904277,0.29333694976942065,0.2780239785936285,0.28792146557306675,0.2776061353508417,0.2897942592791646,0.2806423805001058,0.2791028369106091,0.28459249326873015,0.28057123416975144,0.28322167315177077,0.29110414900413917,0.28827221157096716,0.27946581947517524,0.2749100774726581,0.26901783923268774,0.2644068819773668,0.2637710044129565,0.2626942208770762,0.26287183159850075,0.26646376395522986,0.26453554231299353,0.26672534628529415,0.2747876028617008,0.2751001813138251,0.2780517328809554,0.282733188875154,0.2824974576847401,0.2872171774329147,0.28504877219740854,0.28209241768218624,0.2837290020221525,0.2782019655962099,0.27147698306026974,0.29010345051522074
529,-0.0034734261761418033,0.14923153167575223,0.1928511717587857,0.1287184152280518,0.09661973857799794,0.08403885247717263,0.10850340733706529,0.07891161585610046,0.0782679237179769,0.08217702523344965,0.09027578527997956,0.09486143505640916,0.10167180188381825,0.10142989698795021,0.08123908708285878,0.07733295311206927,0.0816230484064555,0.07279182286671576,0.08365223399515079,0.0879834814570501,0.0642934999911243,0.08132979838628607,0.10065427662945009,0.11125007283677103,0.11047864039410879,0.10232321080300508,0.10070364635632224,0.09614349210826591,0.09584288475508851,0.09547077862406034,0.08739860595485331,0.08843478977570944,0.0958642875762046,0.08861510414483266,0.09422073944426984,0.09971571365781505,0.10613336119584056,0.1107073409872231,0.10693928386555834,0.1096025486728209,0.111576212706828,0.12065239841575158,0.13141298059424938,0.1326787822767742,0.1355284361904858,0.13792872141470391,0.1362683971435803,0.16247350964111384,0.15577077297394007,0.1560391249737952,0.13459441461215252,0.11906621017368961,0.1206183404645006,0.11734666122349541,0.12886420061793444,0.13793024870756576,0.13542485495575646,0.13026566670286713,0.13971531764743086,0.14516655117585708,0.15091179588455214,0.14692056664136316,0.1406020758855376,0.12671023496931397,0.1336003995146118,0.1337542234284521,0.1390798758372927,0.1427462914279018,0.14634951002169275,0.14695991060553934,0.14658129191569347,0.1501618506170747,0.14577822193124912,0.147448953326191,0.1521615974924521,0.15213878605049808,0.14706671118288253,0.1529455959037112,0.1499906092487677,0.16104854261814391,0.1657398086038825,0.1732564557847696,0.17269988480082893,0.16902497223468135,0.1636884044444237,0.1589034155896279,0.160884669439077,0.1627029382383212,0.15058289550195328,0.1539593217968973,0.16008097358004603,0.15169701904130722,0.1533217442554107,0.15360272700893451,0.15061305808224904,0.1586608796357715,0.1545196883665824,0.15477608424928035,0.15817223265387287,0.15422634596628643
530,0.008173554751040537,0.27499397957480415,0.4553359724038815,0.5341035729840174,0.5774730472585801,0.6207764607355607,0.6483245682159591,0.6589572457386492,0.6420648469349534,0.6510126100999303,0.6548691022213263,0.6494134967821228,0.6597255898660207,0.6575095637206254,0.6598985700600549,0.6571739945429391,0.6641531510186139,0.6700400377664417,0.6759196416178821,0.6776868013949046,0.6871770024538404,0.6757283129572632,0.6813206035184457,0.682594242529,0.668465517429588,0.6713347388606965,0.6725472581924369,0.6665996148611519,0.6648612564368014,0.6554943610379612,0.6615758413645516,0.6571110034118958,0.6585371015064213,0.654860650224102,0.6533917352248992,0.6519282413656969,0.6583304395528928,0.6616768621978484,0.6556794610056658,0.6537787472523098,0.6563294672756923,0.6621562996026042,0.6602458729241786,0.6608532489003922,0.6573877959561139,0.656487623705555,0.6545066894427518,0.6501781201997677,0.6462983245942001,0.6464015959870251,0.6431231801177555,0.64563895873385,0.6545764708564011,0.6538334163528903,0.6574914292142018,0.6528835817562074,0.6526258677756159,0.6586627985489163,0.6608377359964807,0.6651059528445503,0.6596366314991,0.6608544731124106,0.6581794724157473,0.6636449342852963,0.6650997934828724,0.6620693506020254,0.6627030550350105,0.6597931274093917,0.6610527098540457,0.6594635036404078,0.6551045519998253,0.6536982228016532,0.6531117200171316,0.6547304041349222,0.6561502378465827,0.6567643872557359,0.6653966830522933,0.6655230173441883,0.6627600714795697,0.6622064504958607,0.6608122949012625,0.6647242203041496,0.6690441859190858,0.6678166711011029,0.6681371606962956,0.6650612618906253,0.65780579836033,0.6570592629317872,0.6590475953809589,0.6632336667510093,0.6686650183738324,0.6685055155220552,0.6663617662140284,0.6659646914975907,0.6775688328360892,0.6752916254661544,0.6752494515263766,0.6738780448685628,0.6771554409365639,0.6752022330662436
531,0.004472360611682874,0.19611303437770822,0.24304056744857017,0.21893984842027955,0.21136371742378743,0.1569810970467965,0.11817108976924309,0.08551118245482105,0.05896241052555349,0.06143122256372094,0.06542672375120394,0.07849722712617628,0.06854885636063211,0.07182386512266721,0.07127674723789987,0.07120823794731726,0.0823583792824932,0.10065736211092575,0.10032584134170666,0.10253408037820852,0.10307452722099793,0.09544420770294915,0.11132392682352847,0.11356613404435123,0.11718065913527934,0.12924766937841037,0.11886534308582382,0.11651085889165191,0.11852335383438917,0.11623294447150725,0.1212953221799804,0.12601065883261522,0.11294760773721689,0.11423486253612586,0.11679065247459067,0.1100502019605576,0.12028323523083512,0.11994373416193457,0.12439825508561547,0.11730051663899818,0.12726833833400097,0.12634223466710837,0.14520091976494914,0.14460347795267545,0.143553646675977,0.1458793528819774,0.147670599022647,0.14853918001044422,0.14682094381632976,0.14279479973184084,0.14365337534677108,0.13273619867906994,0.13390319705406745,0.1332680651872167,0.12881142522121483,0.11854374025544438,0.12074267097095898,0.12479180643514894,0.12446556108285818,0.13376750738725868,0.12610669412847503,0.12525677395936696,0.12833971215101483,0.12694855007309763,0.12073019263888943,0.12577709799117745,0.12836435183649386,0.11462942814261191,0.13003273647032468,0.13015292013789928,0.14115712215007062,0.13982380629261631,0.13346014152317318,0.13436590849724636,0.1320387601942204,0.12245342551931439,0.12872224183274095,0.13685910874127313,0.12845319770784167,0.13010776623354028,0.1284767363243035,0.12589457747370614,0.12819913615431075,0.13363517936681676,0.13311034298102986,0.13477906213526428,0.12353924074400126,0.12411814674754716,0.1261394330809756,0.12696691880629757,0.12582373156899543,0.12826890907705044,0.13009640004447084,0.1293351954785157,0.12922215836988285,0.13819293259289325,0.13398260536870113,0.1368432008491323,0.13114406430290457,0.12665673282583043
532,0.01054650762285566,0.2429021161989969,0.17933147853543602,0.12934275939275808,0.09748980683508174,0.06457088187079506,0.05436837474767661,-0.018707272891598063,-0.011233651058425437,-0.01818945738560898,-0.022740616312195774,-0.018694482238625708,-0.009365300591506082,-2.3329645734883607E-4,-0.011859779282564684,-0.012248650484190665,-0.010522494694778735,-0.011450358392286262,-0.019971452461328188,-0.025798175965607642,-0.035929894342810895,-0.04030120973880431,-0.028532155072223887,-0.01572705881186801,-0.018047672265338866,-0.003921057184167662,-7.00723442555562E-6,-0.015189959039416922,-0.0289907718145719,-0.011299819485054027,0.001843012887066795,-0.002590165865910643,0.004293487866327826,-0.010424560105339986,0.0094965505555412,0.015597908136783373,0.03046983178718145,0.029189604333323765,0.027840002632791558,0.026434668112745103,0.03468493032238221,0.02308363445988179,0.03636036329640549,0.026933350182936487,0.03740603503292547,0.0358422074024868,0.021773277926428976,0.03549694435199825,0.03440417288937705,0.01552550755197993,0.01771415466392313,0.011821043577188377,0.019024723739904367,0.02960584650373369,0.03412975797594715,0.02399827602124996,0.023566543231012677,0.026054427997495803,0.033172948324971425,0.012243710435134123,0.011548588096756534,0.01654075624312697,0.01249557546372845,0.017758514833206573,0.030506690033349416,0.04664304263330882,0.053066993162890534,0.039017898772586816,0.0383560228512998,0.03906055744725192,0.04448453479561928,0.04548517707598328,0.05152587474753419,0.04865697186782994,0.054851575143646414,0.056055568235729866,0.05798714989452889,0.061977013294694204,0.055940513055621525,0.05676876341159792,0.05332153993261263,0.051829936323781495,0.050901745622839646,0.04573604986496113,0.04744539460514693,0.048249755517590885,0.052150836151693546,0.04701206290477201,0.04251460989835087,0.04101319371145137,0.03223585030632438,0.050004125086366036,0.05429461031911135,0.05213963358544647,0.03981343023682938,0.03566843919967635,0.03775914781246456,0.032261409014545085,0.02601007942191818,0.028138317495840646
533,0.008461230161814205,0.2634022144580236,0.3657716783195832,0.33391584134842733,0.3481805357219459,0.34445101236385134,0.32760439915499523,0.335487144221694,0.3412237579383095,0.3350568979523866,0.3324165036816647,0.334900813722674,0.3462331057390229,0.3332680122986734,0.3308510724826631,0.3368631877264315,0.3354123633320059,0.33289798153808275,0.3295042625124794,0.32755207484843624,0.3360648872830902,0.3342973728190852,0.33168475809949854,0.3261018407983456,0.3236572635172779,0.3243390793027317,0.3295486860332446,0.3450991374520766,0.3410178365392611,0.332628005328968,0.3329629010633803,0.3502179505043747,0.34339331281392915,0.3396093701158315,0.33643174521978125,0.3424304786086597,0.3481197481937496,0.3464664825727213,0.3375832203354806,0.33659077084271255,0.3392691870639387,0.34017111311899006,0.33931273748758783,0.33653884292550307,0.3469641754552841,0.33912368084284933,0.3271296702943149,0.325752273848558,0.3240850061191268,0.32362031501125693,0.32462114300537953,0.32466832222523756,0.3331379075452888,0.3316451276417736,0.33469393723075924,0.3357242593994916,0.33411299698858854,0.3326338367598062,0.33359294551623087,0.33192830506844934,0.33274062513465275,0.3325964483696584,0.3317821230879868,0.3315637040392905,0.33260518012858953,0.3315930965129422,0.33514681722993883,0.3326553609743917,0.34050748715377954,0.3514941502748263,0.35964750912810756,0.3580867367554799,0.36050868201731306,0.3543043525464287,0.3540312422840677,0.35207065741660853,0.35304398531912534,0.34760926597485514,0.3476758861569104,0.3491581883176845,0.34474785220528986,0.3411547245496399,0.3434952755876026,0.3490848400917093,0.35419991024944525,0.3520009894202601,0.347393455547606,0.34775335022855175,0.3603970706969888,0.3587084982642086,0.3547907645976692,0.35525490117975755,0.35636847851570685,0.35331407089898553,0.3551373813061811,0.35344900822199354,0.35561121737577117,0.35342677611095624,0.3501174586009222,0.35015298988448984
534,0.008232238331025925,0.17959080314609266,0.3206667334033918,0.45885940705730477,0.5247586894700684,0.5232447781256111,0.5504917483344985,0.5532659632459195,0.5387347090053504,0.534491822296861,0.5360103721037052,0.5374964494871703,0.5317797821909666,0.5376287136834619,0.5374697016446315,0.5412939579216788,0.5401918319177947,0.5460221698625527,0.5456290009873467,0.5393731457524036,0.5371783513180676,0.5420406959342349,0.5371727768709779,0.5305563735262266,0.534309110564839,0.5301421794711557,0.537259023138458,0.537918056392821,0.5411678797196482,0.5383661287130128,0.5325689425324722,0.5309546511203638,0.5469792147599503,0.5428953476929881,0.5385184295890647,0.5355583241950076,0.53776023279194,0.5307001950883704,0.5324764769893077,0.532847510045221,0.5280609976237887,0.5251503973428399,0.5300014398077919,0.5307811479034944,0.5262461540145099,0.5210081648725974,0.5222432415290602,0.5230419119621104,0.514474609096077,0.5269687976310616,0.532077191343136,0.529144394394081,0.5382462213008179,0.5265927788244817,0.5334654972799467,0.5360799540313248,0.5280122339331905,0.5229866218351722,0.523808466841481,0.5257187383847204,0.5233209552711564,0.5225657880510365,0.5198867232864572,0.5222493376384956,0.5296155731240836,0.5311016180046102,0.5360189641121689,0.53566831089,0.5338951816129969,0.5344137776275335,0.5361227865339467,0.5373139344710653,0.5379147553005579,0.5366038638033198,0.5408617061857168,0.5374362274402106,0.5374452770412289,0.5457388301630695,0.5463792637413,0.5399149985049494,0.5451109152199486,0.5370603259176566,0.5384162675003732,0.5419103756825363,0.5375778682347668,0.5399461659568755,0.538182426074475,0.5407058211251439,0.5404570370362266,0.5343577009058395,0.528665434100121,0.5272491240549576,0.5288092540838606,0.5281072652736342,0.5260643227486174,0.5232561304874432,0.5281512029682175,0.5233716955814476,0.5248713424258846,0.5296823886640861
535,0.005323057182855029,0.13874155465530716,0.295980066497337,0.3718506238126214,0.4175648005571506,0.4405049898841816,0.4864793845852591,0.5000226108438452,0.4934178385775089,0.49180730521290883,0.5108804761630961,0.5021185209638067,0.5100328085055023,0.5061575799967036,0.5146076129379213,0.5224124290366015,0.5162689587612003,0.5171244415163193,0.5132006048084747,0.5177289095905981,0.5317507055066959,0.5427515331543864,0.5438321722966682,0.5474654619996732,0.5400570902217475,0.5561033596070468,0.5708620109817845,0.576177862405882,0.5857896962441455,0.5868716399489173,0.5950359043338973,0.6014258519057026,0.5996433925688556,0.6058150895973364,0.6028323498502394,0.5981241254517701,0.5973579074412158,0.5926636636887416,0.5924118339522154,0.5927186627307501,0.58175016216928,0.5829984230786597,0.5845363849730769,0.5773334489607407,0.5732209500288745,0.5721350832691333,0.5751949179284028,0.5721472159586185,0.568736436375907,0.5584885911002234,0.5583365941994417,0.5583370144518234,0.5521253136593346,0.5525691930111696,0.5524421919483914,0.5521176975151433,0.5543787944645991,0.5516515268307489,0.5397444201928768,0.5439149296688174,0.5440994281962709,0.5470827453611379,0.5415264040761011,0.5432403409067283,0.5410492697063587,0.5415348326259426,0.5385257769958904,0.5361834833976394,0.5397221558359631,0.5401754589475136,0.5448988103780245,0.549374997624386,0.5528047628541035,0.5538698902112374,0.554647365892016,0.5600975042448959,0.5607108404354589,0.5565783426854345,0.5532040564596292,0.5535509813985675,0.5513272737898527,0.551296339464439,0.5563735943614193,0.5533893205219921,0.5499192027841724,0.5498873288947344,0.54965497579859,0.5475723269180659,0.5524397232766547,0.5522827833583656,0.547123415006974,0.5514646333697051,0.5538293389193866,0.5537951579503038,0.5515719496833668,0.5481077148061924,0.5431757725524714,0.54499315900586,0.5440034602671511,0.5433071117982593
536,-0.00763995739928317,0.1696227828088096,0.2702539047868684,0.30045777596178014,0.3303920615346847,0.3280200121572191,0.3313461099852708,0.3474777038699928,0.3433380270642485,0.36918398371863737,0.3620903774822118,0.3506048051645196,0.36434537581493975,0.3781562616887503,0.37357776727141745,0.3756234096978162,0.37545680063506887,0.37126690156550374,0.3712247405257986,0.3716819306824464,0.370487905483918,0.36245403007522403,0.3476434276219546,0.34073545909294956,0.35175656605415306,0.35481021089383297,0.36223197802060075,0.3599733813429438,0.3628701860375333,0.367431690276213,0.37065838658676725,0.3624042000380146,0.3657725974020255,0.365812380775594,0.3685423660055247,0.36318472125110596,0.3600640516320482,0.3588709687886024,0.3583490450660354,0.36751641863960316,0.3687155762011454,0.36075451486296395,0.3572764025693919,0.3548771020189273,0.3519414184940167,0.35167922729556034,0.3528949985018793,0.3517896091477643,0.3600172795826549,0.3594155314881866,0.35682939214234927,0.35572356306181485,0.36209240427408956,0.3668312630866503,0.36560935549248796,0.36947615306553244,0.35631208155948957,0.361146825645505,0.35782362159543957,0.35484104691472296,0.3538792969762119,0.3523328382237835,0.35331656247748033,0.35264973643874387,0.3523486294951051,0.35658797987262325,0.3598880439306489,0.3609341630274342,0.36197088692900514,0.36259090319401543,0.3631743925484464,0.36634812340898265,0.37066174850250005,0.3749217096288123,0.37826037899945014,0.3811756371407477,0.38419646941163926,0.3870122133659084,0.38716656884675793,0.3885753860863987,0.38880063092911543,0.3873209243419163,0.38755622039571747,0.39947360825245604,0.4003840887879616,0.38707851663455217,0.39382927143210833,0.39571363505439305,0.3978719549353237,0.39890642501844764,0.3932329842187295,0.3969526908994746,0.39722509505561765,0.3963245799434983,0.3895734716703092,0.39643435998091403,0.40285287770834494,0.40125880551246806,0.3949827763880533,0.39533918359935255
537,-4.6760256774401154E-4,0.24303945268899632,0.22359617280609365,0.22741524088389323,0.208669419008386,0.19916377593947396,0.20836161289746102,0.23312437673314063,0.24760446716058596,0.24677017115953162,0.2562942626408725,0.24776150097133093,0.24833917993981303,0.24728914285786438,0.2676747184082485,0.26662157440488504,0.26179835070358753,0.26628242720537254,0.2764376869882511,0.2736983954872381,0.28080711454856805,0.2795628136309083,0.2543505159123509,0.2601187632507601,0.2626835240977607,0.25882172780642615,0.2633005099356047,0.2594701274578841,0.2548474565759328,0.2552588757831499,0.2535303935528764,0.25645854948772795,0.2664303331762553,0.2747167727805269,0.2697996270290144,0.2710914976155433,0.2688700999514573,0.26754054534294835,0.27024359591470454,0.27496615297639376,0.26791522864617456,0.2660232736064179,0.2629287066140434,0.2673016280867847,0.2660746821083141,0.2658271759649617,0.2722257157295021,0.27352975921002903,0.28362751148466964,0.2850670676295593,0.2887493281397535,0.2879233067174387,0.2816866371279794,0.2944270251496129,0.3007615006149629,0.2904164703179895,0.29066850464995736,0.2807382488959831,0.2798279951272525,0.28029802707607415,0.2835697065941503,0.28183059357975593,0.28804900624148594,0.2857173785252516,0.2814790307698453,0.2810812767675881,0.28331006070279513,0.28115799360654536,0.2759048485278651,0.2756516353193073,0.27464110106925976,0.27715962141530004,0.28072648311458775,0.27753906669751327,0.27848551845626807,0.2809996471042654,0.2899181694459634,0.28105193191151545,0.2859365369012005,0.28042491319096113,0.2753018753180886,0.2755067061501857,0.2746893719768397,0.2726717460969436,0.27535809131429473,0.2739736590516134,0.2657158550819954,0.26451804470713425,0.2734770967647502,0.2736237428059884,0.26802946784155685,0.276402876222565,0.2784595378926085,0.2802279740239359,0.28050631151972844,0.2841786802551906,0.287318346165802,0.28594712156290386,0.27699983781243964,0.2791641553093773
538,0.009954682873623544,0.20538560240298945,0.2869182336786872,0.2438059914877516,0.19590633877274796,0.17895958587730035,0.16114557530936588,0.1710138392175453,0.18340266430901547,0.18380455827530348,0.2109315341432204,0.20502230445729233,0.19372331300410317,0.18514746002669427,0.1856062445468901,0.20250674650830697,0.22273655194313094,0.23385646815895783,0.22090893192866937,0.22484603154437852,0.22958370664389602,0.2227301939732382,0.21026345346322756,0.21171376109440132,0.20005135478927932,0.2141455275315933,0.22214095771714487,0.2279871868133698,0.22133209165246384,0.23089730499427089,0.2234835555757339,0.22243107471951276,0.22857566814797425,0.22808780523305444,0.22623246586763837,0.23077601785243584,0.23115527821335607,0.23103058040407287,0.23034194776737293,0.22833323202373024,0.22494024296194795,0.22014057916881438,0.2179721859498178,0.22776566857437675,0.21708053310698489,0.22006406751132968,0.2127280872580504,0.21511841330332404,0.22115111959153963,0.22010317101147314,0.21492864028419487,0.2073436632579326,0.21020862457466766,0.21930525937782208,0.21915066199090025,0.2160904611700263,0.22053841403035576,0.22870109215040327,0.22783118895225324,0.2288075496374221,0.23948090831985486,0.23961248706033575,0.23920920508856253,0.2381234112944825,0.2382307872346314,0.24180903513744018,0.23981142609048534,0.23773412690060997,0.24091264947619348,0.2337631311618991,0.22611969467662035,0.22469632794698083,0.22695095589648756,0.2234451273476,0.22391343644122264,0.23120483341689035,0.23499603158377805,0.23920966492218507,0.2453279944523285,0.2461976682350309,0.23942222024341167,0.2327126765831864,0.2231483592261965,0.2311789504000889,0.22485349832988888,0.22940441668315428,0.2230772382590245,0.22901386795423345,0.22544432009226653,0.22631538618760996,0.22143865206845587,0.21621808462110192,0.22032321167248,0.21711038154242432,0.22268743469252023,0.22450033791638066,0.22955746712639377,0.23638645262668714,0.23806653238291847,0.23052404925085412
539,-4.909588077979674E-4,0.11924444990180255,0.16931874313672313,0.1724248185193771,0.17251634578320402,0.16705650305328923,0.1722858834647126,0.1695181000466964,0.17846315585303618,0.19367108231506552,0.17321751771781813,0.16341709585560601,0.16390655151022707,0.15861592975561573,0.16522589075186608,0.1604951576544662,0.15851522007500646,0.1628195211298888,0.17043599156749106,0.16820183407816716,0.16398670827497736,0.16324109958034352,0.18473926157703674,0.18045399849351162,0.1905767815441785,0.20113956781243847,0.19357656175453253,0.18238283231910365,0.18801357623759146,0.18432074621697223,0.18831077910654842,0.1883299360555385,0.19622491963068187,0.19140250057719788,0.19294418238551544,0.19244224608794205,0.20189411970833165,0.20719721385138118,0.19887830764059022,0.19403399828249224,0.20156397244803795,0.20586669089671353,0.22299623131143234,0.2263708863396754,0.24195597250916837,0.22947684297295962,0.2316683877374558,0.2291060033105766,0.2356558481552509,0.2433524978706577,0.2420923710739976,0.252291034879746,0.25082757099754516,0.2482024821426064,0.248946249377865,0.2418779148969185,0.24883377733597087,0.24082037811900456,0.2525089585075283,0.24936035937018836,0.248345802247529,0.2554211871418825,0.2478120931546186,0.2455694867908478,0.24889758511455257,0.2508842253314083,0.24296706272768376,0.24590107995219054,0.24782917026110562,0.24989571358909782,0.25714166272185607,0.25913267220863667,0.2556233308696949,0.25762472811299075,0.25995620276655,0.259104940288729,0.2582989911884827,0.26171872435263527,0.2462295130424614,0.24924815514480086,0.2610740344299894,0.26362274028584315,0.2624069160862089,0.2729331286073814,0.27690837971169646,0.27533969306357603,0.2729185262908153,0.2675662327338463,0.26514334769829806,0.2585332859970965,0.2549610469488341,0.25391329627137416,0.24433545651119232,0.24344675657421863,0.24548631221879824,0.25435580766236443,0.25337038490316305,0.24947755079477144,0.24237677014884196,0.24816068100257507
540,-0.014847190169089877,0.1405674690801424,0.18691725135220408,0.157659379697222,0.1098720815354709,0.16584171073596546,0.13895462976668763,0.10542090013468364,0.1033429057956632,0.12482139461063044,0.12303271231884773,0.10291327581406444,0.12821876779344787,0.12776427814082986,0.10610566467667651,0.11534771411219052,0.11176906156585927,0.12458190782181479,0.1303110278119882,0.1376132428239681,0.14016846550338233,0.14179580376414525,0.13571849069022418,0.12641272004211643,0.12656020117792474,0.12269967162679939,0.13004382727760816,0.12473980334834439,0.11757070159712453,0.11565555930435888,0.11209220745886492,0.11480668630179242,0.12401444101422704,0.1375615105635804,0.14275397207126495,0.1323968208611217,0.12392488453312003,0.11938517389071299,0.11489487648945254,0.11845690803416177,0.11973216064004094,0.12107015344569769,0.12326852297893658,0.12615290857967967,0.1283361125699846,0.12690359589570574,0.14831605666169403,0.1419629415942145,0.14220745611302732,0.14173838156351581,0.13673995486055318,0.1392120321006611,0.13636729341351017,0.13608649281042176,0.1283132120113071,0.12707314084662394,0.13492344431650427,0.13721960658311683,0.1270279771449977,0.1335330075471813,0.12979286011093386,0.1283402115367445,0.130429699868153,0.13296134640388174,0.1355490236115626,0.13749193182974456,0.1351156540158089,0.13864229301531172,0.1411211494071393,0.13426320283020446,0.1328883983223075,0.13412702982451125,0.13776739421627698,0.13567672427406652,0.13246892325563395,0.13159986175803554,0.12890586873801288,0.11672536394084145,0.11963624373077775,0.12122489345478421,0.12326836249580296,0.12446486675891535,0.12659093469794336,0.1258627250560113,0.12539019327776335,0.12352725592696552,0.12128817382826346,0.12640521379997016,0.1265805767546434,0.12556968325846954,0.12657682268643844,0.1246217529783893,0.11693409177805959,0.11851786462659147,0.11783047684391162,0.11467913717423014,0.10981673486709598,0.113695795272077,0.10987148942511991,0.10793719868693924
541,-0.003833890603845185,0.19972685872442536,0.2711942536506301,0.29635978108644856,0.310384667752657,0.28685035260372693,0.30005374039461274,0.28653892041555756,0.27744403014161867,0.2750576289007931,0.2760353615349343,0.27801575910862086,0.2796578392251047,0.2830345151527587,0.28875822763914516,0.2809457563997262,0.2923151983985116,0.28994109737250734,0.2917462801817036,0.3011622195914438,0.2916607562921589,0.28961162888457326,0.30275617887462014,0.2973770146414604,0.2987570677753869,0.29199534743664246,0.29459573270188016,0.31689020566610665,0.30907884635106314,0.31292588573575114,0.3284092507557847,0.32618734182891823,0.3222650219828024,0.3266417010685492,0.3233673787357165,0.3162523108189572,0.3324208340963169,0.3152727013746479,0.31071998620506475,0.31751160117721844,0.3242527216596156,0.33084826908533604,0.3348531399072543,0.3309923128353768,0.33198448614283516,0.323166137908556,0.336260960339366,0.329522821087121,0.330432354155619,0.333987186654061,0.3124453445218078,0.31785313324218245,0.3121570394132822,0.3176140736421186,0.32496282315205965,0.33038016923186914,0.3366836614970737,0.3281776844346481,0.3202477810274092,0.31908453133870046,0.3247389008889968,0.33335443636000794,0.31374175765026246,0.31459564320062894,0.3217990260208526,0.34064610917590454,0.3465859592568161,0.3298430981728155,0.33344604412376344,0.3291586077050683,0.3313697002360182,0.33284809066447224,0.3436623177977818,0.33688690357723106,0.3489754646657886,0.3378200804908857,0.3321265873369821,0.32973840467177695,0.32598922742961406,0.3262922992851582,0.3327818045397479,0.33767351323195405,0.3430151983408765,0.3351261388689103,0.338623003910231,0.34016067088081203,0.3359498145329237,0.3381890682704059,0.3376013325068019,0.3391134325972498,0.33351259767645536,0.34671787571542145,0.3494753922928564,0.35411394204219554,0.34868041139332256,0.35197904823548654,0.3518376273126502,0.3441390118943133,0.3455968774681192,0.34047270689562475
542,-0.00423833606852915,0.11924567460334581,0.20705642338621483,0.17458455099859305,0.14559478757355448,0.17403260484198874,0.18611357535040013,0.1797715243745503,0.19543974461089175,0.20202565267570535,0.20074598505956473,0.19904304885405055,0.2006111356399038,0.2040519081210762,0.2237360557306236,0.21046473887792264,0.21574388570587563,0.22776715667698394,0.2337212203970244,0.22784037312532557,0.22812295583204,0.22962362262850725,0.2475092589438587,0.26542367116536986,0.26192208000680994,0.24060328617350543,0.2613678004135161,0.27059952910089524,0.2690926377503135,0.2703933883140008,0.243753854062564,0.24207734744843465,0.23487817361893554,0.23732932415261704,0.24607243409773194,0.23988588421901316,0.24871850225482767,0.24226952382276276,0.24147916732722485,0.2506573978840335,0.2394976174316089,0.24607386041628068,0.2588080889056542,0.25489729467516814,0.2616203788533495,0.26406167079936455,0.2602451154284151,0.277169186711698,0.28378519876648944,0.27917381162002025,0.2751853709881832,0.2697173210461098,0.26789297469695095,0.26739780574472066,0.2687600088328408,0.268230399666174,0.2633739010018812,0.26469011927585767,0.2646488828030043,0.2718729770128474,0.27670246195595927,0.2749366072041743,0.27474772289331356,0.27699802908486176,0.27043644677924766,0.2720320588764118,0.2775485267609445,0.2805990051245132,0.27539631349825183,0.2783701337661295,0.27294480324019504,0.285508823569684,0.27851039393292093,0.2791628019476889,0.2773459068911548,0.2787410421954157,0.27529719602629715,0.27526135258812956,0.27618208171878195,0.2773175985411771,0.28003705154576797,0.28537321925832737,0.2833037778725122,0.27389752667790634,0.2767975879888115,0.2847408597341202,0.28774264002258976,0.28347365641782646,0.28726390870916746,0.2929177954127665,0.2986096169832488,0.30459563066008066,0.30572131886840165,0.2878289662466311,0.29761408120308863,0.3003503977122818,0.3045017977167354,0.32240720536841366,0.3196386984642465,0.3184817511522978
543,-0.001540002473633161,0.18422014636808265,0.168855884228945,0.02675267510999548,-0.03902697722558531,-0.06716144747494784,-0.09443757626383657,-0.10177344072290859,-0.10932006263271342,-0.09677126137745304,-0.10498132451544082,-0.09324695171652744,-0.06740047062400545,-0.08523525444417715,-0.10337837754440471,-0.10061519683559572,-0.1062089863361828,-0.12665832162548452,-0.12712603283578783,-0.12799782636693105,-0.1337186178510849,-0.13414344355534222,-0.10764422424651808,-0.12528822776343046,-0.1254805101420679,-0.12890723989488365,-0.12822440312640823,-0.12595865924226604,-0.1350418390241523,-0.12868671418362734,-0.1379754949809947,-0.14601448681623705,-0.14750754915021927,-0.1562133834896598,-0.15057433286399596,-0.1442868261678036,-0.14074131696981904,-0.14155401087388886,-0.132068297002352,-0.13133351978893704,-0.1251236544389992,-0.1206679103765503,-0.11933342488814973,-0.11594792443038505,-0.1197378215867899,-0.12397427404488909,-0.1371077738360137,-0.14671709391354962,-0.14326928902945857,-0.14429155977876446,-0.14172284822917672,-0.14262619724855274,-0.1458102935161615,-0.14770475926737664,-0.1495004010256424,-0.15120474462383307,-0.1472194381140089,-0.14388911414923272,-0.14019754376859989,-0.15667259569777203,-0.1508162426986768,-0.14386831529291738,-0.15208916645240014,-0.152805068466422,-0.1562431005151963,-0.1299429920604659,-0.12636774447465757,-0.12702235359107594,-0.1345115566454747,-0.1415751172730003,-0.13812834131738233,-0.1400463535272956,-0.14023602022241927,-0.1354175479747898,-0.12868193053892624,-0.13227146332192824,-0.13607797623706538,-0.13770419676377668,-0.14293002031680607,-0.1443049155561792,-0.14428719953647146,-0.14589108243608162,-0.15610688887460417,-0.152180081398,-0.15442207478634914,-0.15273524283249634,-0.145523173650598,-0.15023117753182258,-0.13640414987207422,-0.1350010412233057,-0.13073481100703216,-0.12557527647475422,-0.11706730178243943,-0.13055208088165413,-0.13123914349276572,-0.13392806358072526,-0.1353151304600987,-0.13465691588425593,-0.13546386864587087,-0.13062106881947946
544,0.01129772203995854,0.15320346818907257,0.2582274369526593,0.3443922687619173,0.36097286488616787,0.35503588752673965,0.37715098590481744,0.3725335037973884,0.3767466623903884,0.38000819136232894,0.3891071933256072,0.3887439984304644,0.38360020003896284,0.3811588982766267,0.38791727351234107,0.402423862000413,0.3895125410080382,0.39959684255556455,0.3978723798540394,0.40356598451152675,0.3996877319104083,0.3986717115053646,0.3935523111454515,0.38704659702470984,0.3835936880322964,0.3825839307609547,0.39083794952263207,0.39916146529751423,0.40097853430991104,0.39417515637623346,0.3916184258578264,0.3909149368773837,0.37963396275114625,0.3869422180630906,0.3730149585708262,0.37070376354298223,0.36674787061981545,0.360300723008003,0.36985609127817604,0.3791763676410358,0.39081784855544527,0.3988867229907681,0.4035919685997688,0.40074937304387087,0.3970033965567494,0.3969709556975245,0.4022520154811145,0.4043946532864682,0.4046400970034339,0.39259804781077806,0.39172020426940163,0.38914187020660784,0.3987671559241877,0.39183228550068583,0.3979132237700437,0.38988405225551015,0.39209097957437417,0.3979270799965672,0.406512504778978,0.4070952815193648,0.4030510235837648,0.39860025848183667,0.3929567602185149,0.3918687727475458,0.3950216094725658,0.39733336035697114,0.39441859566405063,0.3907015252327848,0.392203926165005,0.3970485841051755,0.39158094825674,0.38723628213738304,0.39635989108748837,0.3977636575404819,0.39168991845661233,0.3922812117226976,0.38793339740118776,0.38559209314050535,0.38716630282968423,0.3945701624540653,0.39516761435764325,0.3953808649128942,0.4042317995610427,0.39818305152784966,0.4136265074278171,0.4136417020641243,0.4236865475075923,0.4273284839704893,0.4130700487480057,0.41993035614791524,0.41412119911049705,0.41328252843208546,0.41564569705092,0.4257781329479558,0.4195126953126484,0.4254607706913061,0.42775984057458544,0.42067317687582184,0.42460993879414566,0.42370759519720996
545,0.014380748574903507,0.21497104329091635,0.3378119072940578,0.2870786688469743,0.25721936811764307,0.27965083447495287,0.28814553992059116,0.29208160390482213,0.2903284737689041,0.2910501340283704,0.2751143161214856,0.274264468763362,0.273434476464341,0.2735662356127539,0.290894378496862,0.29777572847259814,0.30774966255026065,0.31427876967291296,0.3120859958551596,0.31130153518553,0.30900522695361315,0.29813442636255294,0.31273026910232304,0.3290800162989027,0.31620146708886293,0.31573680488716616,0.31893059419093905,0.30360330594543095,0.31139550138631283,0.30381843403879266,0.3031806716691646,0.2865555133875396,0.278150810431836,0.28322727444275564,0.2719829158260426,0.2759894647147502,0.26908932738934327,0.267527557022648,0.2790522472667591,0.27132579845982646,0.2818126228123001,0.2590356391165144,0.26695427454132703,0.2783522942116796,0.2806532209899491,0.28126029024956695,0.2873677343048022,0.2858413460390764,0.27947271003495616,0.27888873921537316,0.2777609113072063,0.2818923539443844,0.28725169884863444,0.2836581743550296,0.297603746621725,0.2898320908502982,0.2966209310067106,0.2974898041336026,0.29543741162083975,0.3020370988772937,0.30539523962481097,0.30350605818913223,0.3021179119423083,0.29712023836712265,0.29815437064780353,0.2942366153194085,0.2931650111837748,0.30766105424024953,0.3061851108653972,0.31181739445184464,0.30966634977603663,0.31194743668371355,0.3200540808134879,0.3303535955172251,0.3303069627268258,0.33570903723913337,0.32798539204036076,0.3290867570389812,0.32708856118278584,0.3279501872496886,0.32675424124357916,0.3183824632656099,0.3193295216626834,0.323916464317245,0.3217909614618131,0.3232434096496899,0.31909392150992555,0.32141063287210103,0.3215198822864217,0.3291157146195826,0.3427454704754265,0.33236282611258716,0.33529911561223585,0.33120081287558306,0.3190333231465072,0.326685165691539,0.32506554332224513,0.3210523856742394,0.3183527543426003,0.31924567507470203
546,0.0071841121002077755,0.25148215045360145,0.28941993962562207,0.23354664404612366,0.24502002804862255,0.2609440728137618,0.2649826107018777,0.2828493469938176,0.2897104842126602,0.29096407123701984,0.2937050527938035,0.29482962653859757,0.29663431688539516,0.2915878203593335,0.31348884753601547,0.31434918012793805,0.31092056230082415,0.30656505600843875,0.30652073226787135,0.3164452085306997,0.3037948545511823,0.2928218340067524,0.29837097258285905,0.3130882953479514,0.2990262869701098,0.29634804503277545,0.30270447139845263,0.3183939143074151,0.33080084781173935,0.3135811166896861,0.3175154362410058,0.3320744266585702,0.345031338064815,0.3473172947176358,0.35035562119036073,0.3497170596823411,0.3474107495709813,0.35543911763639174,0.3577820832719714,0.35242084876082663,0.34705293804948345,0.3463402383627174,0.35299406436414393,0.3556358968372367,0.35541602358276836,0.34227464684243936,0.3396286112304652,0.34429915951565104,0.3332266716427496,0.33624513397551825,0.3339144641918848,0.3311411634305712,0.32347693391844323,0.3231575232675231,0.32404427642758443,0.3361387661288698,0.33678129419854025,0.3329833971521217,0.3302192920879207,0.3381259566306729,0.35084256131309105,0.3487801518134983,0.3541374935787124,0.3575693526905061,0.36100373365291133,0.37404072424497975,0.3695814271074224,0.36846209945513464,0.36422213471577153,0.36109890336891326,0.362536538796054,0.36177435454411516,0.3667659425284262,0.36837888243200356,0.36168586709856504,0.35369517876032824,0.3649593980739559,0.3669235286238133,0.360037971456399,0.3620921311012544,0.36200487477136467,0.36326022707519834,0.36295326874810707,0.34956337943720583,0.3512121834858781,0.35939439241689214,0.36374838542082855,0.36527166716659637,0.37191789342003934,0.36985181029533337,0.37164316328597613,0.37156929369782055,0.3710233898267796,0.35906801427243357,0.36200810191460825,0.36188673582464526,0.3611392726676709,0.35972477880480086,0.36054674150861,0.36192780686943515
547,-0.007372928321167753,0.11434449236305881,0.1983042521839576,0.29987320940310164,0.2852910505832387,0.27494373377532677,0.2539438424674487,0.27819164939505897,0.26817948194775376,0.2735301793375921,0.2792805516139633,0.28125343891414223,0.2976963243773314,0.2957844700769364,0.30177567432424546,0.2988400893765232,0.2856931667885324,0.28597099743477594,0.26657519273691677,0.277764280991235,0.2741914367894989,0.286350701896499,0.27659725696901366,0.2812921622957554,0.2827308797896636,0.2975729064014041,0.2897987215295997,0.2851870910042984,0.275549842670887,0.2741195489136027,0.2571270102872849,0.25872839377657025,0.2538862334070286,0.2555018343377503,0.25505624596200016,0.2538926099951333,0.24631411703986342,0.2458472869656209,0.257199264882903,0.26286789134211686,0.2735808023359636,0.28453489364559625,0.28224961132517623,0.28147220323393884,0.2906126271309287,0.29102395526987895,0.2875544209573964,0.31126751518448287,0.31715203186321506,0.3104069490331581,0.30676695976434265,0.3007732191181391,0.3023362781445129,0.3021126150707532,0.3051498922513298,0.3192416629930978,0.3150183166435363,0.3126565244053896,0.31477407399636975,0.31713653830356703,0.32132856576744245,0.3213631411147052,0.3162117469358244,0.3173073340840527,0.31294538665418953,0.30464965570574076,0.30894492761057996,0.31100005844334644,0.30178802938675153,0.30869020101487404,0.30668497736770667,0.30567259577706457,0.3047813837843741,0.3014551333764983,0.3078406097198762,0.31596373788669224,0.3219813273736974,0.3285449523285978,0.32784200599289237,0.3336229147909255,0.33819011508051966,0.3343809936654305,0.3324085633119453,0.33939163661975086,0.33030712027576414,0.33137292920805683,0.3271993149767433,0.32650164726570124,0.3235113452331154,0.32797389453460907,0.32294942629670453,0.31490459151162,0.30894933228085225,0.3125752829654437,0.312609189080351,0.31392443819330773,0.318202510771885,0.3063829459869517,0.30452610858871326,0.2976908760132291
548,0.0033852392953071684,0.1491699453583356,0.23741914830200056,0.33959818315849577,0.3994146136807538,0.40703442575935045,0.4039333135937173,0.4015895121247554,0.42368196241755873,0.4327583956351138,0.44394334977962,0.4507813004744662,0.4556186412010269,0.4489819876342277,0.44586044683414755,0.44642770465012155,0.4509673486211227,0.4494417790245617,0.44814264327976505,0.4571047114837857,0.4532518817387359,0.4565276486737211,0.4563474358991729,0.4532419434644034,0.45624209760269396,0.44809437809399943,0.444504099804051,0.44261150112195574,0.44219739168521294,0.4340910220653813,0.4175627489031598,0.41535892772690824,0.4084744125038606,0.4137135267264375,0.41684647180957995,0.4280463381158986,0.4272089781103368,0.42996009723744505,0.4423915582804151,0.44324730481481966,0.4423221984603037,0.4456815321057356,0.4395097763323769,0.4598212575720767,0.457903927886414,0.46173099271302187,0.4579465479847812,0.4531599830447018,0.4574425057823236,0.45830559935634474,0.4626343083632493,0.45758595145524067,0.4614106591610301,0.458907699695324,0.4533858771725935,0.4582971924638775,0.462312196897975,0.45118164279158257,0.44420741513575945,0.4474795491365737,0.4521823105461795,0.4516502352819651,0.4503668608931381,0.457790104187821,0.4559951337614871,0.4500711333706539,0.4429704438418745,0.45099240545700175,0.450544553044614,0.4470373120107673,0.4545711843300744,0.4629870022703818,0.46488922173355485,0.47184622194695996,0.4730350082955418,0.4711039892091691,0.4704418083764319,0.47333741481184743,0.4685378037533959,0.46410008846494427,0.4627336578443323,0.4583553363122259,0.4598055232361788,0.46460567651418444,0.47082443248288525,0.4649202058951319,0.4633737202398396,0.4591787347511139,0.4667392854761313,0.46880098575881063,0.4672798051775461,0.4720907030315489,0.4712451906399457,0.46884219580183467,0.47374316917253595,0.4757933300562868,0.476527837610867,0.4767787390962641,0.4761575169288955,0.47555995174652677
549,0.009556885810574699,0.20393225343495636,0.3195905969067134,0.33585924673020046,0.35108525098581234,0.3586213424250289,0.37835826897121366,0.3620837312178687,0.3772506352475666,0.40269892417113995,0.4062787924790724,0.4072873252699907,0.41354181443082866,0.4048056873398513,0.40719863491744523,0.41310669135352507,0.41588707231800986,0.41491021864885347,0.4073626636715673,0.41631209499312627,0.40936564790249674,0.4096087993039669,0.40048510565588025,0.4134933568371329,0.4169288039707835,0.4207131033975944,0.41604176325000936,0.42955240565133723,0.42984247282414734,0.41121802602150337,0.4155889576280991,0.4198616228081084,0.4229616441713805,0.4281138779873745,0.4124788494931552,0.41147843069562035,0.4210703345925018,0.41495010219328804,0.4150559126967166,0.41826579487852006,0.4250409613050115,0.43163693017732174,0.4243603378633287,0.4146760275076417,0.4252531389693381,0.4226463471129957,0.41846441874001733,0.4204758971112666,0.4268809213114405,0.42281936097467343,0.4276640750235281,0.41115171468880946,0.41721476526982604,0.41485326625831914,0.42317252733110355,0.426649212192387,0.42744780199406257,0.4249010912874079,0.42614041001426517,0.42705379113143926,0.43040048424439165,0.4327355922800116,0.43524167244835743,0.43353698760778064,0.44003044137019925,0.44273313205855963,0.4383687868499694,0.4299082879284915,0.4409053802968104,0.4405963612495287,0.43265716119286884,0.4318861878070432,0.4350864035065193,0.4340710653774459,0.4345016200337534,0.432750724581866,0.4280060544895838,0.41233469573773496,0.41190074580257224,0.40756246684824377,0.4101664278998399,0.4103345391480161,0.4104309694784569,0.4129931148348716,0.4098625379917623,0.4093900110328343,0.4054006172944902,0.40686774888326105,0.41113266122794845,0.4081192877313278,0.4103727861655601,0.40750675476222176,0.4069677273829582,0.40847122711315514,0.41617123952506097,0.41673796886251646,0.4151177819658825,0.42685217444247053,0.4275136325557146,0.42244202172749423
